-0.010509793,0.010147063,0.03180632,0.0526551,-0.0590134,-0.075292215,-0.06076337,0.05047377,-0.038343422
0.11047041,-0.76372766,0.035724103,-0.7553443,0.1102542,0.6761251,0.10768607,0.38762355,0.42734006
0.42292455,0.55596244,0.6537855,-0.3670015,0.21924525,0.12487202,-0.99141467,-0.9719645,-0.60202473
-0.24547502,-0.15720129,-0.061924223,0.13644592,0.0021589065,0.1868626,0.051505055,-0.029902909,-0.25737658
0.27703756,0.2942998,0.34834874,0.37474892,0.54854983,-0.12251684,-0.29321387,-0.8167153,-0.79396516
-0.05154016,-0.06485993,-0.014393309,-0.093204506,0.009420914,-0.009072984,-0.044462606,-0.023330947,-0.0814579
0.18239497,-1.3488475,-2.273972,1.1801678,0.36701196,-1.2818674,1.1913737,1.6499419,0.46480978
-0.07067263,-1.3325863,-0.9988655,0.0542522,-0.0811505,-0.06360669,0.1925,0.89986145,0.6006855
0.084516235,0.25896108,-0.081862435,-0.22496085,0.6286756,0.49875876,-0.95350176,-0.14772405,0.5046678
0.20450412,0.92789316,1.1187786,-0.58351815,-0.053245902,0.49551427,-1.2581512,-0.7273511,-0.043799125
0.06345608,-0.15732609,-0.35955364,0.087669976,0.24919912,-0.20785877,-0.25611344,0.09629727,0.078851216
0.2695549,0.23663345,-1.0445534,-0.04141627,0.70512444,0.073878504,-0.6853444,0.39666107,0.14452595
-0.48051172,-1.0562208,0.05203519,0.25298735,0.75259167,1.0978006,-0.25693637,0.272241,-0.890336
-0.31097415,-0.84870064,-0.22516812,-0.8328594,0.2786677,0.59415287,0.6096455,0.8728496,0.15902011
-0.7372808,-0.89377195,-0.3493415,-0.17419678,-0.4266318,-0.4472139,0.5884865,0.23357654,0.3751149
-0.13925616,-0.00633184,-0.04777691,0.07136512,-0.028970826,0.056095447,0.00045160786,-0.041262884,-0.22965354
-0.33121565,-0.11881489,0.067647584,0.00765933,0.2647784,-0.07667125,0.14625242,-0.30475524,-0.59506166
-0.044994205,0.020357046,0.076419435,-0.6427612,-0.27261522,0.09294347,-0.44058457,-0.42987666,-0.29704908
-0.4042934,0.07441847,0.38455042,-0.2678738,0.06142548,0.0014425494,0.47679082,-0.32003698,-0.64058614
0.23921579,-0.44017264,-0.98587954,0.6256522,0.701499,0.0028371685,-0.78603405,-0.13403085,0.1957674
0.042146,0.06836531,-0.07542817,-0.0062852777,0.051868893,-0.09489559,-0.18443802,0.06730404,0.028185267
-0.61074966,0.03005745,-0.13195916,0.19451463,0.53585005,0.23485193,0.0005200708,-0.22556098,-0.4317052
-0.35031295,0.118053176,-0.3885006,0.021866236,0.13127819,-0.14738342,-0.18792236,-0.3445311,-0.14238393
-0.047429916,0.06553319,0.04252782,0.103973545,-0.1204699,-0.11330473,0.023986034,0.014955261,-0.17402305
-0.22519915,0.07604241,-0.17623788,-0.16607872,0.15620668,-0.2565213,-0.10184031,-0.12562191,-0.14357786
-0.7910363,0.20494872,0.8369025,-1.6381398,0.2873178,1.1600035,-1.4122919,-0.05895577,0.8294274
0.005043859,-0.019698335,0.08764943,-0.016921828,0.027771857,-0.061495263,-0.0094647985,-0.012025425,-0.032874305
-0.5799268,-0.8932283,-0.3355545,-1.1800036,0.41203254,0.5718958,-0.21691339,0.48664087,0.40057173
0.34496713,0.31060404,0.59808147,-0.6223563,-0.3680779,0.117949836,-0.25919792,-0.24061733,0.47575578
0.07321284,0.010510507,0.026681567,-0.0467906,-0.059485063,-0.085580565,-0.025565594,0.07123312,-0.019719176
-0.031650715,0.1626661,-0.8502035,0.4809365,0.4035196,-1.1720221,0.13332775,0.71040225,0.27385786
-1.1766552,-0.18036345,0.65297365,-0.6515174,-0.31877807,0.6549093,-0.7851637,-0.6738673,0.37697747
-0.2450266,-1.1874166,-0.7199998,0.7271645,-0.07002956,-0.0054192035,0.46809468,0.3190518,-0.08819038
-0.1567579,0.051313378,-0.38696745,-0.2991227,-0.02173742,-0.051133014,-0.3439145,-0.37855294,0.053364694
-0.87939245,-0.35121208,0.082221225,0.7509772,0.54501885,0.5836561,-0.18640397,-0.21294586,-1.0469898
0.4931251,-0.49827754,-0.6573091,0.60694164,-0.39285544,-0.56977665,0.20738105,-0.48114178,0.003109365
0.84443,0.52568996,-0.41160995,1.3224337,-0.0992125,-1.580052,0.58669597,-0.9954666,-0.4681243
-0.19137654,0.27654156,-0.26481876,-0.23942107,0.4648941,-0.3393947,-0.5569173,0.20207648,-0.12667109
0.259574,0.8148569,0.87891173,-0.9044376,0.14606234,-0.5041311,-1.4061748,-1.2598343,-1.2713755
-0.25136834,-0.08358536,-0.110018246,-0.54638773,-0.45244864,-0.40505677,-0.10546651,0.17401782,0.10199975
0.051548738,0.02745057,-0.078497976,-0.09858884,0.09573646,0.07758941,0.021642532,-0.07540106,0.026154513
-0.8869522,-0.013769314,0.014799432,-0.5408911,0.25590008,0.7840833,-0.40714893,-1.445677,-0.42046547
-1.1557124,0.6473867,0.28860155,0.565666,1.4153565,-0.13987602,0.5255447,0.14062613,-1.5053558
0.09696992,-0.10990763,-0.36649328,0.1046225,0.1322858,0.0762628,-0.15435888,0.0428688,0.087549664
-0.060389794,0.02651844,-0.08508178,0.051840417,0.07797524,-0.10321604,-0.17275935,-0.01889821,0.06993924
1.0393069,0.8422823,-0.07051107,0.6484619,-0.42549932,-1.5005933,-1.1150649,-1.6935579,-0.06014227
-0.6265175,-0.3426784,0.28449067,0.33314005,0.5602479,0.5136101,0.0848569,0.062402263,-0.7565298
0.43517378,-0.10226611,-0.7816378,0.93548423,-0.1924613,-0.939679,0.9633652,-0.22869945,-0.8708698
0.2082041,0.13239639,-0.8162403,0.14768915,0.46770662,0.20770483,-0.43156192,0.24553064,0.23485596
-0.2908056,0.2886231,-0.53583354,0.05070823,0.64462656,-0.07906838,-0.5184825,-0.008501697,-0.1181352
0.43338227,0.7710594,1.2892088,-0.9670959,-0.7131385,0.48282382,-0.29701096,-1.2361732,-1.0277983
0.029159723,0.40119755,-0.13810915,-0.3700468,0.836516,0.03674505,-0.8894022,0.33154786,0.24924983
-0.008340879,0.023249868,-0.0087300725,-0.040611215,-0.075518146,0.04877613,0.028991211,0.013927339,-0.13947152
-0.15749325,-0.04224118,0.044393864,0.025720943,0.09233429,-0.21891217,-0.17207877,-0.04385365,-0.044293687
0.6083639,0.42106894,0.31444973,-0.24724954,0.3563912,0.4797522,-0.75379795,-0.7401786,-0.5052413
-1.040513,0.20420812,-0.18760777,-0.19196208,0.53331053,-0.62260014,-0.36361852,0.24953057,-0.2875795
0.5091067,0.49699053,0.47794732,-0.3103956,0.36772186,0.26469064,-0.70500845,-1.0114194,-0.92382944
-0.24028775,-0.706067,-0.3557033,-0.01678981,0.10848715,-0.5643574,-0.5335555,0.43949234,0.20371595
0.1611047,0.21223053,0.42707363,0.12149303,0.3233984,-0.2918498,-0.00553346,-0.36693156,-0.78618497
0.007971296,0.15256526,-0.40085936,-0.13813193,0.093785346,0.1925185,-0.40883043,-0.17620572,0.16061659
-0.00995901,-0.61611414,-1.1940558,-0.18960631,-0.8714473,-0.58639145,0.60917944,1.3038015,1.1052049
0.5918953,-0.9909119,0.1307876,-1.6669385,-0.5269061,0.76123154,-0.5250592,0.8441499,0.964016
0.051847745,0.021059886,-0.13249034,-0.07923633,0.09477815,-0.011410864,-0.008260868,0.020578023,0.049959797
-0.23099169,0.58322024,0.41056374,0.567117,0.4601277,-0.4505198,-0.16504605,-0.8466627,-0.48384526
0.113751926,0.009167827,-0.028081411,0.027583621,-0.11467286,-0.02603263,0.021493234,0.024591314,0.10087784
0.27219692,0.015705803,-0.39426875,0.010417751,0.60467833,-0.8609223,-0.42608765,0.56869155,0.19285178
0.041915566,-0.007727998,0.04293549,-0.099310234,-0.06624795,-0.060234882,0.01037646,0.023169952,-0.01825907
-0.3037972,-1.1004184,-1.0367942,0.72939515,-0.2074268,-0.9366432,0.7002844,1.025815,0.51433164
-1.5355266,0.21201463,0.8255233,-1.4407222,0.42708212,1.1215457,-1.4863484,-0.20210406,0.5557453
-1.061799,-0.301637,0.6487789,-0.63588846,-0.1040047,0.804786,-1.2665457,-0.45051083,0.43566358
-0.48598814,-0.22330463,-0.6243568,0.4370095,0.11343901,-0.6735096,0.06708195,0.58487386,-0.052221548
-0.026211964,-0.082705125,-0.005108148,0.0076280646,-0.016802717,-0.056632306,-0.05345352,-0.043967955,-0.07157063
-0.29810303,-0.5428258,-0.19231439,-0.41762596,-0.08102593,-0.27379778,0.47906044,0.35980627,0.46135396
-0.09954144,-0.6228199,-0.38020477,0.30557796,0.23722829,0.19461372,-0.3453576,-0.17114536,0.12592813
0.62087864,-0.2503816,-0.2407147,0.44103825,-1.0847875,-0.34334904,0.07014133,-0.4615172,0.33722764
0.0017074008,0.0031719143,-0.4837886,0.0045920326,0.42422485,-0.14135689,-0.34576577,0.05467544,0.3862886
-0.089233205,-0.03692517,-0.79340994,0.10326425,0.5401726,0.42993733,-0.50429595,-0.3281432,0.2660022
0.2569154,-0.16429622,-0.3753241,0.44949862,-0.2944384,-0.09066811,0.107332684,0.07987086,0.23136209
0.9073277,-0.6691445,-0.9897618,0.58281213,-0.380792,-0.80167425,0.41627985,-0.3410427,-0.6644234
-0.1851626,-0.14107116,-0.07049667,0.080832675,0.018415524,8.8680106e-05,-0.09929322,-0.08794488,-0.0689987
-0.15116479,-0.09147582,-0.09459462,-0.0010466474,-0.038909674,0.02612518,0.05129143,-0.19224681,-0.32512677
0.05610112,-0.11826277,0.06403412,-0.097560495,-0.046668172,-0.04005843,-0.010060997,0.09363326,-0.13762188
-0.04407847,-0.04991233,0.015502843,-0.3200191,0.13468431,-0.031010702,-0.6895495,0.07232195,-0.007390014
-0.16790366,0.7770804,1.4785712,-1.3027198,-1.33725,-0.049930494,0.34927362,-0.6785302,-1.2461041
-1.032106,0.046049967,0.024663895,0.40454954,0.73788905,0.15444358,-0.08513463,-0.59736824,-0.70800596
-0.008386304,0.100141495,-0.066251524,-0.011471402,-0.08636483,-0.03645833,-0.053361166,0.09346114,0.019444091
-0.04874269,0.52626175,0.9959906,-0.21191965,0.036749702,0.1983158,-0.615859,-1.1055771,-0.97806805
-0.14976794,-0.34508464,-0.511529,0.07540636,0.0014418901,-0.2823794,0.004171461,0.08893371,0.03467848
-0.404797,-0.5838996,-0.2599285,0.64647263,0.2857719,0.31979114,-0.15628769,-0.24418142,-0.7619015
0.16841277,-0.5440283,-0.22495796,0.1217926,-0.60386235,0.3413148,0.58107173,-0.1862502,0.15884694
-0.4700719,-0.651133,0.0032808564,-0.4798134,0.23909886,0.5117683,-0.1613454,0.26654038,0.3859959
-0.012009822,-0.055807218,-0.05043828,-0.011362381,-0.049698133,0.0013466493,-0.00068730116,-0.026779488,-0.06154573
0.19750144,0.64662236,0.33276635,0.33579677,0.24998799,-0.91379005,-0.33124512,-0.9191502,-0.8689976
0.5098465,-0.6576306,-0.6411762,-1.0048555,-0.7259131,0.17698087,0.69397193,1.0718347,0.7884654
0.034425974,-0.52029574,0.12575093,-0.2724175,-0.47790512,0.36437112,-0.6712265,-1.4968096,0.2466079
-0.12663324,-0.21089868,0.0713102,0.24180965,-0.07855381,0.04651711,-0.16756909,-0.3028612,-0.4246879
0.046286494,0.023959985,-0.18662316,-0.022688983,-0.1747933,-0.26907533,-0.118223816,0.09680843,0.072593376
1.1317028,0.46294558,-0.8930633,-0.10366578,-1.9672711,-0.024324521,-1.4711416,0.33063844,0.8350866
-0.040889103,-1.0222244,-0.74105185,0.093772136,0.2158405,0.14945778,0.3865294,0.6691911,0.65412116
0.36257315,0.66272515,-0.24063784,-0.52700853,0.7339437,0.3419157,-0.6580549,-0.52719176,0.46032807
-0.8532571,-0.027964601,0.21185344,-0.0759141,0.69102865,0.54987407,0.34736815,-0.049524244,-0.96867406
-0.08320157,-0.013635916,-0.05845188,-0.1190586,0.063233174,-0.023975218,-0.07866223,0.07796868,-0.08898832
-0.08884273,-0.08167376,-0.07905524,-0.0372763,0.012191389,-0.04607233,-0.07906738,-0.0308049,-0.058907274
0.0018655313,0.091855764,-0.2556372,-0.38402304,0.14405572,-0.25937167,-0.45182052,0.2436073,-0.32799762
0.19646145,-0.570536,-0.6825884,0.40402275,0.5099426,-0.056294285,0.11041043,0.22065198,0.19892183
-0.13760504,-0.006628161,0.022559173,0.006738709,0.06731978,0.015638644,-0.029386286,-0.014484809,-0.0060363086
1.2983868,0.74116814,-0.68210435,0.7040771,-0.5853432,-1.6887783,-0.29848498,-1.4435825,0.72004104
-0.3806876,-0.19906786,-0.11055805,0.3336128,0.4727773,0.44747964,-0.22775927,-0.34913558,-0.5807882
-0.1646872,0.31259415,-0.24880664,-0.0679004,0.29538065,-0.49530753,-0.01596049,0.5838828,-0.33367565
0.087464355,0.01564719,-0.02702248,-0.19195993,-0.0037919069,-0.16521604,-0.14896041,0.062180724,-0.005570647
0.37370998,0.44637725,0.43903625,0.32321322,0.28397915,-0.22990888,-0.7622748,-0.70493704,-0.7035581
0.15161674,-0.7075179,-0.8076703,0.87280244,-0.112512074,-1.8388472,1.151993,1.2956722,-0.04511586
0.88678735,0.9030269,-0.14063805,1.0108176,0.6432925,-1.1797546,1.2508426,-0.12099349,-1.5367271
-0.573475,-0.20616168,0.25889996,0.6328911,0.6573087,0.12752332,-0.3545143,-0.24845555,-0.80280083
-0.8831166,0.33010626,-0.059882265,0.21721603,0.8272833,0.22700737,0.15219088,-0.41906175,-1.0862607
-0.03698728,-0.19279917,0.3210151,-1.3490015,-0.1354793,0.6565763,-0.6794148,0.68808275,0.8358166
0.12182909,0.4397868,-0.69562465,-0.30930308,0.6607241,-0.5178076,-0.58001405,0.34739032,0.063096955
-0.05474196,-0.016535861,-0.028713234,-0.118822016,0.06380201,-0.168289,0.04286623,0.05441819,-0.014055182
0.2409364,0.16430536,-1.3210208,-0.011074077,1.1828645,0.2611571,-0.4841968,0.15794195,0.10171946
0.018671967,-0.19748023,0.021082735,-0.07765162,0.04624681,0.0066706147,-0.038944717,0.07299765,-0.16979644
-0.22826123,0.16050814,-0.2125808,0.23896682,0.054157462,-0.15943766,-0.35402772,0.06882756,0.19858404
-0.44870958,-0.7914998,-0.12359572,-0.52089286,-0.08961063,0.15714566,-0.6230464,0.032343246,0.07807313
0.63023114,0.8448303,0.9227212,-0.1766038,0.14052023,0.4824167,-0.9823564,-1.3730356,-0.6290861
0.36342615,0.40257376,0.42802852,0.1397557,0.45673257,0.51706314,-0.7636048,-0.9785531,-0.58038074
-0.55241936,-0.24667686,-0.33305413,-0.43713155,0.6732296,0.12926635,-0.2880814,0.5291784,-0.8019518
-1.1382028,-0.65407765,0.07504663,-0.50887793,0.9140849,0.5684905,0.4236526,0.79861665,-0.11313513
0.45916924,0.13919863,-0.94785947,0.6124695,-0.27349654,-0.9099986,0.46844965,-0.22414988,-0.12559319
-0.04891447,0.08318371,-0.051793553,-0.016018258,-0.044483624,0.0687172,0.047918893,-0.015777871,-0.027681526
0.10737397,-0.59885395,0.6208725,0.64857304,-1.6013812,0.5614307,0.7281521,-0.41082352,-0.014444851
0.18230547,0.22208996,-0.8822758,-0.013735256,0.7375535,0.075076714,-0.5211995,-0.07980346,0.30745533
-0.0051676407,0.31507146,-0.7959945,-0.4472909,0.7816408,0.37810972,-0.7842522,-0.29231232,0.17447546
-0.13324648,0.03193858,0.0802128,0.012817281,0.021143636,-0.1606334,0.11074341,0.064675085,-0.27631393
-0.4461748,-0.5717584,0.024492769,0.18882677,-0.4578166,0.00056914054,0.58459073,0.28480446,-0.481259
-0.08888822,0.6273378,0.14252906,-0.86546814,0.41689196,0.36953017,-0.86976427,-0.299498,0.44785053
0.12148496,0.11030499,-0.23153342,0.1065525,0.5503232,-0.56951725,-1.0577645,0.43337208,-0.41174883
0.028676607,-0.57401407,-0.86945236,0.47543594,0.8979747,0.1629018,-0.32091972,0.070036836,0.20220006
-0.84411526,-0.22235663,-0.04049777,0.4453966,0.06022669,0.68961966,0.112608805,-1.1710039,-0.04336106
0.01788403,-0.42630675,-0.5136508,0.39477062,-0.27485454,-0.75861657,0.35167298,0.60650456,-0.19395903
0.29241934,0.7359548,0.5635195,0.69506127,0.4181946,-0.4613261,-0.525588,-1.1163378,-0.7399989
0.103809334,0.3704137,0.4236669,0.2681606,0.16227093,-0.4996621,-0.7854267,-0.7546516,-0.3849293
-0.49797666,-0.54036844,-0.09105379,-0.5406812,0.5231065,0.49182567,0.50073725,0.4309128,-0.19597231
0.010669517,0.034487568,0.1834882,0.0225502,0.32578507,-0.41586617,-0.6588311,0.43035388,-0.36118522
-0.099262014,-0.016015148,0.015417124,0.035134975,0.019517291,0.06570125,-0.06558427,0.06707175,-0.0021976838
0.6431292,0.8769759,0.47266126,0.23411763,-0.0864966,-0.29181597,-0.98310524,-0.9618516,-0.117976606
-0.026904281,0.016375443,-0.02861943,-0.012463857,0.082151495,0.015792955,-0.05968295,0.017212274,0.03201314
0.22459312,0.20776388,-0.22497073,0.45349875,0.17759174,-0.6260595,0.3459706,0.07241311,-0.5638058
0.2510679,1.0000027,1.2489431,-1.2473103,-0.69890666,0.023310792,-0.9442261,-1.2542582,-1.3699696
-0.27060342,0.31524056,-0.011510965,0.23870921,0.053461354,-0.9179584,0.28905913,0.613717,-0.655316
-1.4338596,-1.5464319,-1.0378681,-0.39907375,0.13032842,-0.00972543,0.4278816,1.0151315,0.93113863
0.09129162,0.069022894,0.07057632,0.0930818,-0.045581006,-0.042909965,0.005017681,0.054304622,-0.1262762
0.17170855,0.74547726,1.0085665,-0.80792165,0.096121706,0.42171538,-1.0818555,-1.2991946,-1.103754
0.1262936,0.22713676,0.33874318,0.12823878,0.20356716,-0.4917112,0.17580296,0.11168775,-0.5938206
-0.059030022,-0.99311465,-1.0197018,-0.007336986,-0.29067317,-0.32326016,0.44098404,0.894909,1.073017
0.106116354,0.25465608,0.25233817,0.2878231,0.5516175,0.24221869,-0.48456034,-0.78713596,-0.39372602
-0.54175884,0.17127617,0.07629442,-0.02907538,0.14581028,-0.25925264,0.023860477,-0.24791779,-0.5494716
-0.026678646,0.6233198,-0.56558764,-0.70627284,0.72908336,-0.42982808,-0.7997042,0.38401437,-0.32625216
-0.38547745,-0.18218015,-0.20518225,-0.37151453,0.50407875,0.3742588,-0.59777385,0.67765987,-0.5604104
0.024125658,-0.072880976,-0.013969208,-0.012035949,-0.045477953,-0.045231864,-0.032333087,0.018873118,0.092621095
-0.04522702,0.009811506,-0.07298518,-0.014745909,0.045874458,-0.11892622,-0.03435999,0.02089923,-0.0038130078
-0.56581074,0.3323483,0.042702913,0.25968117,0.6923121,-0.25901428,0.46363172,-0.0025448815,-1.0619663
0.03690709,0.042054895,-0.01840594,-0.05788562,-0.0005499122,-0.0013626852,0.08350955,0.008675465,-0.063689336
0.30745354,-0.22298715,-0.16473842,-0.18074726,-0.052198075,-0.6884847,-0.37273896,0.3398347,0.22674148
0.09458149,0.11767421,-0.16225542,-0.25079945,-0.06660726,-0.3408978,-0.32092342,-0.43972495,0.0166416
0.7485,0.079348676,-0.5974615,0.3979816,0.12509021,-0.6993149,0.17398626,-0.71101326,-1.1233284
0.1496438,-0.9934373,-2.0699065,1.5811044,0.46552435,-1.3986018,1.3587903,1.240227,0.007008839
0.17435622,-0.58408225,-0.031675622,-0.39024755,0.09997169,0.61951095,0.41742373,0.1576474,-0.12581745
-0.3634451,-0.8807812,-0.4053512,-0.35044935,-0.24380858,0.17436373,0.76322657,0.62028885,0.24193354
0.27659154,0.45497397,-0.16804588,-0.36055335,0.347514,-0.091705516,-0.6290839,0.4344451,0.056682583
-0.11536796,-1.1814848,0.14420988,-0.62202394,-0.20324366,1.0452906,-0.5169701,0.284987,0.33598173
0.34413457,-0.7134248,-0.053027723,0.03232713,-0.24003519,0.41066143,0.26971,0.070492275,0.09094495
1.4635524,0.2037268,-0.9034084,1.2354729,-0.45002303,-1.7813634,0.19544871,-1.1067061,-1.0464259
-1.5173544,0.44450465,0.8983174,-1.3038732,0.12964678,0.82292783,-1.2732166,-0.3054885,0.42361075
0.5915076,-0.09024043,-0.4906523,0.43662545,-1.275122,-0.0399717,-0.9481605,0.1483702,0.7709188
1.3669981,0.5939823,-0.51297414,0.45639688,-0.9940912,-1.6546729,-0.9288544,-1.2766267,0.52075857
-0.30356008,0.056472644,-0.03683154,-0.11053113,0.21873863,-0.34354648,0.050108787,-0.049298905,-0.61137205
-0.23743851,-0.35867822,-0.7982525,0.098269336,0.10547752,-0.81692225,0.34826052,0.72568595,-0.13181373
0.19277173,-0.60376257,-0.47717378,0.37950364,0.28119275,-0.22491494,-0.38879043,0.18989469,0.37702715
-1.3041714,0.30718532,0.19186169,-0.66787463,0.3485997,0.27150518,-0.44730234,-0.62694067,0.21154368
-0.39659104,-1.8327624,-0.082505345,-0.8032282,-0.033127397,0.85900384,-0.95281804,0.39277577,0.8485212
-0.9237878,-0.51343477,0.31183904,0.7848164,0.81685513,0.31471318,-0.20673761,-0.2870334,-0.79777217
0.27901986,-0.29181373,-0.37061307,-0.044378065,-0.27904138,0.0799096,-0.058089342,0.08017393,0.06104363
-0.13699739,-0.03621167,0.009877852,0.021544788,-0.045425795,0.039685592,-0.054709997,-0.018549541,-0.055088397
-0.117917165,-0.0134398015,0.058141567,0.07930236,-0.12307905,-0.0018205309,-0.1437964,-0.19495074,-0.42391202
0.38641343,0.34115085,-0.12801373,-0.69286925,-0.020863777,0.09839736,-0.045081135,0.2756306,0.41251725
0.071666345,0.116081014,-0.048872653,-0.6645371,-0.14390872,0.054066468,0.3069562,0.2215555,0.36048386
-0.34724855,0.6831793,-0.5790624,-0.25859174,0.39367363,-0.36963907,-0.15389228,0.04478465,-0.11003495
-0.023066217,0.5329743,0.5282981,0.5132949,0.49718288,-0.14857647,-0.5066677,-0.9146727,-0.7528936
0.27829722,-0.17198241,-0.2223598,-0.10403418,-0.30589253,0.10838165,0.10652154,0.029735608,0.012305139
0.17093869,0.30252028,0.46600607,-0.13662533,0.122102074,0.29093388,-1.1430919,-0.6139027,-0.23807245
0.1467426,-0.6886748,-0.5538568,0.29409665,0.58656126,0.32776153,-0.32470912,0.119001254,-0.12660402
-0.5395717,0.212897,-0.3618106,-0.096240185,0.63731056,-0.5295158,-0.033728845,0.09381411,-0.42585534
0.0791898,-1.1527444,-0.351408,0.20178698,-0.7114437,0.69931567,0.25143805,-0.6226463,0.30005872
-1.15435,-0.5664354,0.19880895,-1.1724874,0.31191623,0.92106444,-0.1826211,0.72958803,0.5081181
-0.25835043,0.03264777,-0.015347204,0.10417655,0.1513506,-0.37197444,0.08380306,-0.33470267,-0.9576059
-0.1457891,-0.05698938,-0.0017539599,0.032804884,-0.00604788,0.03884757,0.08556207,-0.12276408,-0.015048242
0.319359,0.50850374,-0.6032015,-0.5246892,0.85970885,0.3508695,-0.6424119,0.11171764,0.39324635
-0.11853542,-0.2591029,-0.6165504,0.23196104,0.6763997,0.37508968,-0.54596466,-0.6460835,-0.0947213
-0.821317,-0.1742845,0.15502535,0.21763577,0.8352478,0.25076512,0.14387104,-0.25707623,-0.8510342
0.46884102,0.6866861,0.10620936,0.4282472,-0.10352623,-0.6853749,-0.54854524,-0.973987,-0.6636052
-0.75965726,-0.14677238,-0.14228389,-0.5809181,0.5099935,0.256573,-0.2791649,0.50491804,-0.6200622
-0.9219418,-0.2562861,0.52003485,-1.7037824,0.10902535,0.70441496,-0.71942556,0.034902863,0.44709092
0.08498841,0.15561903,0.44243085,-0.14372584,-0.13303453,-0.61755604,-0.8428101,-0.5744394,-0.51557726
0.20271304,0.4074076,0.1422361,-0.34873316,0.012847789,0.010733457,-0.8254741,-0.25902942,0.13913581
0.25086918,-0.80300087,-0.15842715,-0.9482732,-0.5415396,0.27019617,0.4389863,0.77387524,0.62223476
-0.10035657,-0.10427631,-0.045613263,-0.044312943,-0.14832968,-0.15875569,0.10067665,-0.088457175,-0.02698809
-0.065916836,0.8563457,1.3603239,-1.2178508,-1.4494473,-0.08125451,0.52655876,-1.205507,-1.2064716
-0.0883065,-0.026814071,0.0063887197,0.058572244,0.0015924212,-0.049292993,-0.024159458,0.049168024,0.01768933
-0.7514595,-0.2917565,0.16177547,-0.08957942,0.68369466,0.028325334,-0.13803788,0.24426578,-0.6311399
-0.00050017715,-0.34623173,-0.2114416,0.10075639,0.02693724,0.08847865,-0.13613077,-0.14483379,0.00081052084
0.026086794,-0.024380028,-0.15623629,-0.043566596,-0.003376456,0.07383325,-0.14899348,0.08994712,-0.09234672
1.1515834,0.8841198,-0.96971357,1.6241058,0.016364286,-1.7762357,1.0418097,-0.5302123,-1.8590469
0.26848632,1.0915272,1.1837085,-0.73587435,0.3314547,0.6307859,-1.928126,-0.76088005,0.12696907
-0.18624291,0.0870449,0.7745651,0.4585436,0.5486645,0.08709787,-0.29426438,-1.190877,-0.807618
0.024708873,0.036370106,-0.20935556,0.09570632,-0.15200186,-0.2920352,-0.16543922,-0.35338274,-0.2055365
0.020858368,-0.054662634,0.065074295,0.036719095,-0.030696929,-0.1457646,-0.028894082,0.046304278,-0.035763957
-0.077803634,-0.54417604,-0.0068632443,-0.4651176,-0.33771402,0.52730256,-0.14247848,0.19284847,0.27223
-0.025422053,-0.011118465,-0.055101085,0.002102041,-0.07580037,-0.027869487,-0.03094612,-0.079415776,-0.003915111
1.1837147,-0.08915452,-1.1860791,0.1370199,-2.6300008,0.39713895,-1.2385142,-0.021615198,1.093394
-0.56320316,-0.25604245,0.090432175,-0.31156957,0.27689916,0.012886414,0.008416489,-0.055855587,-0.5019806
-0.07463839,-0.15406957,-0.27822396,-0.38585603,0.040289197,0.06899744,-0.8932685,-0.2245614,0.13872766
0.028474206,-0.011501942,-0.0075545106,-0.07750822,-0.07176055,0.06311955,0.017568137,0.05470572,-0.05759226
0.007301521,-0.05259702,0.023326498,0.052059315,-0.046745434,-0.0062505286,-0.02206385,-0.009986851,0.042286057
-0.09024851,0.12117581,0.09645265,-0.02762766,-0.11927237,0.040766712,-0.4282053,-0.36035475,-0.11073979
-0.06214801,0.057064533,-0.07715524,-0.044117443,-0.019392982,-0.024870511,-0.06203164,0.0821574,-0.017144322
0.03608388,-0.13469122,0.099809326,0.092695,0.024237625,0.026025943,0.077313244,0.006350162,0.025581188
0.25390184,0.1903096,-0.042650644,-0.62263876,-0.2640326,0.18733492,-0.5198668,-0.13023165,0.48066205
-0.20562896,-0.03660051,0.27538872,-0.6827081,0.13252245,0.34513837,-0.056688912,0.2166016,0.088935174
-0.20684057,-0.5136993,-1.3668253,0.70697796,0.23731995,-1.1606768,0.79216534,0.8833352,-0.15270518
0.06566142,-0.097181536,-0.69971,0.12950644,0.7852297,-0.44253966,-0.25201324,0.6361591,0.26343104
0.025667446,-0.98229825,-1.1162404,1.1281558,-0.08963256,-1.5630943,0.9903718,1.0384712,-0.109069794
0.6054915,0.8113051,0.70826775,0.38275698,0.3168509,-0.42486778,-0.62665343,-1.2054999,-0.80136406
0.18189336,0.35318494,0.67247736,-0.0012971055,0.27035287,-0.06960839,-0.6237806,-1.1886153,-0.7761018
-0.5214305,-0.047116034,0.19404449,-1.4570681,-0.0008427725,0.677375,-0.07475209,-1.1541166,-0.61188537
-0.015183741,-0.0060219322,-0.017212853,0.018496776,-0.0374033,0.0483223,-0.06830988,0.09503471,-0.07035024
-0.023860484,0.056988694,0.053597037,0.023301708,-0.10357762,-0.05255438,-0.08195138,-0.036455754,-0.0049774554
-0.64130074,-0.69007057,-0.32365903,-0.25124565,-0.70999783,-0.7840088,0.9801293,0.7225232,0.555695
0.015452514,-0.38762522,-0.69024223,0.13843234,0.813663,0.56456596,-0.58275974,-0.5395739,0.16348137
-0.24807136,-0.13014796,0.09303222,-0.57059085,0.10389135,0.16854367,-0.6658506,-0.30898347,-0.12220804
0.23867594,0.20668197,-0.1327995,-0.42995924,0.3980927,0.037642144,-0.542865,0.35779867,-0.063860714
-0.19799876,0.19623125,0.24983454,-0.5325847,0.16000871,0.59133685,-1.0518104,-0.96735054,-0.66837984
-0.20171748,0.07205989,-0.111753374,-0.07300847,0.03921914,0.05159156,0.009111815,0.020343497,-0.06267695
0.027563816,-0.13902983,-0.4351309,-0.15287773,0.057226356,0.103946604,-0.24352182,-0.17987019,-0.010014604
-1.2080896,-0.08601961,0.5476843,0.04451114,0.9217278,0.4407221,0.5360761,-0.09210676,-1.1653824
0.038116854,0.06324662,-0.06585352,-0.042075045,0.08847915,-0.029957768,-0.18781789,-0.0073672784,-0.007975145
-0.4281748,-1.4960818,-2.0209394,0.06140566,0.2613328,-0.185166,0.8049123,1.51818,1.6867176
0.013550354,-0.28588817,-0.36083108,0.048009373,0.05353576,-0.0032980863,-0.026348501,-0.037549008,0.08971917
0.06421278,-0.23329192,-0.038234744,-0.03787117,-0.05474361,0.04688709,-0.1866488,0.15107508,-0.10961418
0.012945395,0.0648768,-0.024546675,-0.081803545,-0.011551484,-0.05146592,0.05913295,0.026850687,0.008311339
-0.15892957,0.14645292,-0.4117551,-0.26052466,0.27931204,-0.85277444,-0.14453991,0.5182518,0.01986614
-1.1132358,0.22613153,0.12586144,-1.0806327,0.29532528,0.5106479,-0.5875395,-0.6220916,0.08095302
-0.15679416,-0.94102514,-0.70806265,0.4875599,0.5466325,-0.014944182,-0.43638122,0.7007677,0.011214634
-0.25614,-0.40725785,0.11556337,0.3327278,0.7528317,0.43159482,0.064087845,-0.24905163,-0.9100631
0.050868414,-0.04811031,-0.0462258,-0.15918319,-0.052237015,-0.05528564,-0.14435047,0.14107274,-0.13322441
-0.65620226,0.12687245,-0.54336894,0.059149,0.6849597,-0.4245277,-0.2587409,0.37872896,-0.08251235
0.0007575574,0.032954298,-0.005755135,0.010881864,0.027903527,-0.05158762,-0.003057504,0.015648985,0.052693
-0.042350475,0.09083659,-0.024788763,0.008465782,-0.053009048,-0.0023759385,-0.045547795,0.09009827,-0.03622492
-0.07072775,0.1950481,-0.25188133,-0.005442842,-0.15491895,-0.36338294,-0.11969358,0.08701312,0.18410648
0.22408408,0.40426832,-0.48890826,0.036927145,0.5151173,-0.26100764,-0.32860187,0.5346687,0.21889783
0.14198892,0.7398151,0.7364341,-1.3163769,-1.9251372,-1.0773292,0.5849491,0.77686185,0.18817727
-0.025146743,-0.044469986,0.03727435,-0.028236156,-0.07274692,-0.26201886,0.03594797,0.10678946,-0.57510483
0.145775,0.54930234,0.6739474,0.25804973,0.6035809,-0.23908421,-0.30142495,-1.2626122,-1.1305656
-0.004961144,-0.017309655,0.05779078,0.069692284,-0.03490963,-0.013062184,-0.06607964,-0.092141554,0.048544887
0.015926732,-0.26997295,-0.05579296,-0.042729482,0.06260841,-0.0050001144,-0.360198,0.14376827,-0.18868203
0.006335347,-0.027645843,0.025838159,-0.03937177,-0.037945643,-0.12678806,-0.12741567,0.10261997,0.0048799366
-0.12002699,-0.24396569,-0.17307544,0.11528798,0.111011155,-0.19340643,-0.80705094,-0.69129854,-0.31612423
-0.55262727,0.23255834,0.15727389,0.3333732,0.35179794,-0.41512063,0.21277608,-0.494894,-0.18883678
-0.32378387,-0.03367869,0.18092093,-0.6476151,0.3725419,-0.22625837,-0.12381675,0.3663445,-0.48180026
0.1470829,0.3632933,0.4205058,-0.55564976,-0.28199276,-0.08085682,-0.42611223,-0.78261065,-0.32551277
0.06594404,-0.24882534,-0.44927728,0.010927869,-0.31675723,-0.353554,0.04582617,-0.044400357,0.17053251
0.28128377,0.26068878,0.24170536,-0.0824664,0.28454226,0.59191716,-1.0071267,-0.45739707,0.42620805
-0.7062557,-0.030611988,0.39206636,-0.07713857,0.8118597,0.19948137,0.4742914,0.07794036,-0.771477
0.1877774,0.34806168,-1.2297951,-0.3232813,0.78394055,0.29111767,-0.74974775,-0.109454185,-0.012080587
0.33094144,0.3431697,0.09579686,-0.12947851,0.05575141,0.28266427,-0.60135835,-0.121126704,0.18193232
-0.6959269,-0.9399793,0.02828509,-1.2307762,0.14098237,0.79750013,-0.02725824,0.7357693,0.50686395
-0.07234761,0.021366771,-0.18297689,0.04107402,-0.14372134,-0.0015514997,-0.015288466,0.064284034,0.07445369
-0.31897208,-0.80530655,-0.22646368,-0.5328017,0.002884649,0.44231886,0.37635848,0.70428216,0.016356817
0.2696652,0.6973252,0.8632535,-0.32675108,-0.07739357,0.2625328,-1.3729378,-0.7023839,-0.345084
-0.7384793,-0.6163737,-0.040009275,-0.98053783,-0.07688267,0.6572921,-0.21672359,0.3604909,0.6410932
-0.8402061,-0.25001296,0.33578652,-0.58189267,0.6291647,0.44375062,0.20549348,0.48225123,-0.25188598
0.465391,0.49267396,0.7327055,0.041649424,0.10565259,0.013837386,-0.85822433,-1.0694182,-0.6731137
-0.33584428,0.19205613,0.056165323,0.05057337,0.16749391,-0.6077277,-0.025649026,-0.15473358,-0.46953171
-0.48912227,-0.520716,-0.047234617,-0.6737677,-0.615516,0.17252791,-0.17565274,0.12236225,0.23849928
-0.20735985,0.6046701,0.96367025,-1.4996122,-0.63007957,0.45151332,0.5688661,-1.2488774,-0.7704614
0.09252046,0.06634719,-0.075378686,-0.16813096,-0.11305499,-0.04238258,-0.013355781,0.026103653,0.048404858
-0.6352148,-0.39509404,0.08870078,-0.20256369,0.8620056,0.5714555,0.19192095,0.3439666,-0.71596295
0.010334855,0.06979149,0.15759458,-0.2677107,-0.4225786,-0.4363181,0.06137382,-0.30041617,-0.18348375
0.67842627,0.4670387,-0.449179,0.79408514,-0.3001825,-1.3752439,-0.20117824,-1.3580157,-0.33230913
-0.0047184736,0.24807538,-0.7777767,-0.21136157,0.77627444,0.019197328,-0.82627314,0.28808177,0.07097349
-0.25687724,-0.32304722,0.35453308,-0.85853136,-0.12999912,0.6430714,-0.23180218,-0.66373485,0.14616157
-0.02531345,-0.73762685,-1.1657183,0.712258,-0.2417503,-0.95067,1.0643178,1.0378749,0.22661223
-0.71331805,-0.19519676,-0.015010054,0.2345553,0.29465717,0.3090705,0.07311098,-0.038234357,-0.5571654
-0.36234924,-0.72224647,-0.5090025,0.33576852,-0.23956162,-0.81146616,0.4120647,0.21393822,-0.115878806
-0.17705436,-1.1891904,-0.66656405,0.49762854,-0.06544734,-0.2636227,0.67728454,0.68432266,0.747631
0.107660495,-0.030461948,-0.41720667,-0.009558241,-0.7050903,-0.58832437,0.43880224,0.21369159,0.48194906
0.44966805,0.32828495,-0.23385018,0.4050419,0.22571813,-0.62039024,-0.6312425,-1.412273,-0.5544587
-0.4226848,-0.6520702,-0.43078196,0.5307283,0.3331802,0.66953874,-0.27094102,-0.14454246,-0.48871306
-0.8851619,-0.11645727,-0.026978066,0.2065978,0.88423985,0.25148872,0.043416243,-0.17163517,-0.9244165
0.5837987,0.37010613,0.3247221,-0.19881672,0.17755936,-0.43032718,-0.89232296,-1.0414177,-0.88751537
-0.08482941,0.28906223,-0.74781966,-0.49099684,0.20663254,-0.15208274,-0.75130826,-0.09099663,0.15551238
-0.24789213,-0.68657744,-0.45762655,-0.685544,-0.36437157,-0.25573394,0.5913525,0.39191663,0.5081751
-0.5312268,-0.38475898,-0.28832057,0.056349702,0.06970111,0.47500733,0.04920925,-0.18029845,-0.4821313
0.009594623,0.034017563,0.013611853,-0.049890824,0.019919135,-0.035448216,-0.013410054,-0.08008131,0.07373993
0.2714667,-0.25889412,-0.39096478,0.25317016,-0.047733944,-0.06679149,-0.0005805271,0.15182313,0.5042482
-0.0064615393,0.0110664,0.006193857,0.008562349,-0.19362372,0.046502206,-0.009356379,-0.194482,0.044203997
-0.0944509,-0.36262858,-1.4144264,0.36274028,-0.21474245,-0.5043275,0.3440496,-0.11851454,-0.11594234
0.069821976,0.034456983,0.0007345532,-0.0932951,0.017848905,-0.03207555,-0.037914116,0.07048405,-0.04183408
0.13958485,0.5863288,-1.0303887,0.4289673,0.09626555,-1.0465878,0.27010602,-0.26834077,-0.68424135
-0.67198986,0.33178538,0.85428953,-1.397587,0.22795452,1.0265075,-1.220809,-0.4770247,0.46299285
-0.05695434,0.07410296,-0.056407027,0.033589423,-0.077669896,-0.05669552,-0.015183702,-0.050670743,0.033929296
-0.02095853,-0.018534478,0.053903922,0.041202806,-0.15899491,-0.07450325,-0.0003872766,-0.04321195,-0.12680972
0.01668893,0.28074616,-0.04210909,-0.39523536,0.02207126,0.023341235,-0.38035187,-0.24184047,0.18006648
-0.5230589,-0.020011151,0.06977623,-0.109606475,0.4906997,-0.017291127,0.15458283,0.30701393,-0.9229477
-0.18013458,-0.41143182,-0.20539078,0.50390136,0.4200907,0.86699474,-0.2033009,-1.1940559,0.032983623
-0.23864664,0.29154858,-0.20686197,-0.480581,0.6858848,0.06883273,-0.29489267,0.2762346,-0.8845984
0.69835645,0.45815742,-0.03888183,1.0602533,-0.2799083,-0.8402858,0.4380249,-1.2850549,-0.2826874
0.41037482,-0.4288084,-1.2890515,0.8972675,-0.03477557,-0.99393445,0.9317464,0.51547384,-0.09444558
-0.010736136,0.11371616,-0.047394946,-0.09815247,0.034596376,0.012119768,-0.020831084,0.116888724,0.0547582
-0.1247456,-0.0772786,0.013446956,-0.24178304,0.031093542,-0.11230314,0.1191963,-0.049788337,-0.5877229
0.05171075,-0.09835202,-0.007998853,0.016586382,-0.059128318,-0.026024258,-0.016182883,0.062492523,0.023964087
-0.16426857,-0.1551321,0.021353649,0.11314657,-0.11753108,0.07234355,-0.020206735,0.059951834,-0.047375806
-0.43414047,0.61786544,0.56952953,-1.4241982,-0.17196539,0.21039423,-0.9727939,-0.56987816,-0.13630351
-0.35820422,-0.3594265,-0.5950794,0.5769953,0.73983294,0.383673,-0.7563077,-0.45676357,0.26948735
-0.21851224,0.32759896,-0.2651385,-0.20673671,0.43598196,-0.47331357,-0.015161635,0.19423306,-1.1189754
0.06400236,0.15607888,-0.19539335,-0.059659645,0.047686547,-0.047998287,-0.018623779,0.016565027,0.096491374
0.12180752,0.086947024,-0.050947417,-0.16065215,0.06327138,-0.22490108,-0.15988792,0.18131469,0.09762943
-0.8882831,-0.34393817,0.3217833,0.19745237,0.688455,0.48001868,0.26911816,-0.2437517,-0.74783075
0.20960179,-0.44856465,-0.111557804,0.3264868,-0.27578494,0.3721088,0.2831788,-0.513354,0.1821989
-0.31245488,-0.44634932,0.34611425,-0.49538034,-0.4350781,0.57586455,-0.41549855,-0.45761734,0.24529228
-0.01646602,0.62949383,1.1436853,-0.7249063,-0.4363053,0.8413498,-1.0733556,-0.7445657,0.008119248
0.8661867,0.79697716,0.33708388,-0.0746136,-0.38484323,-0.81431866,-1.0379727,-0.67183614,-0.35627776
-0.31525588,-0.7840775,0.1847182,0.4303924,-0.76553017,-1.9286382,0.94458455,1.4231497,0.072261676
0.34087303,0.22158173,0.08703309,-0.2955648,0.32281727,0.16341594,-0.67803043,0.0023634585,0.30621728
-0.37855324,-1.0365775,-0.6676054,-0.63326144,-0.22427192,0.06741476,0.5187575,0.5912506,0.4047815
0.037587877,0.016030218,0.060640458,-0.1135836,-0.112351455,0.020267416,0.008451331,-0.005268817,0.05102422
-0.19021837,0.025869245,-0.023376781,0.040173724,-0.03047001,-0.043677017,0.018232036,-0.14756633,-0.25231513
0.1611222,0.11596375,0.100388266,0.2433775,0.5033607,0.4851103,-0.6427489,-0.7009442,-0.3232281
-1.1106195,-0.9028243,0.24042189,-1.4176178,0.18994807,1.079744,-0.028580796,0.7588846,0.6766845
-0.9119373,-0.03579778,0.40916649,0.078253664,0.876434,0.025729721,0.35277575,-0.24583916,-1.0281445
-0.0030052348,-0.3939908,-0.93654186,-0.05504188,-0.16768132,-0.18209553,0.22428292,0.48825118,0.73803985
-0.007966253,0.0142633505,0.00796068,0.018352035,0.062788874,0.059283324,-0.01567545,-0.054204997,-0.058217753
0.25607538,0.5520664,1.0814809,-0.49490795,-0.2048794,0.18450947,-0.47890025,-1.3217874,-0.34329262
0.24579504,0.9222261,0.81252235,-0.5379406,0.031703826,0.6453228,-1.1789706,-1.1612719,-0.42664054
-0.07207289,-1.0920602,-1.3150082,-0.087206855,-0.26026165,-0.1549103,0.65606004,1.1857808,1.0996487
-0.07742709,-0.08753002,-0.29455778,-0.08161141,0.08573928,-0.36199507,-0.16044044,0.12197948,-0.06762514
-0.08975066,0.49299026,-0.49267334,-0.5097488,0.6534587,-0.27103326,-0.14596814,0.24125619,-0.14500663
-0.31812808,0.13568246,-0.44687122,-0.22815542,0.20215946,-0.3391871,-0.27124748,0.35313338,-0.16697429
-1.0125247,-0.62067467,0.2586439,-1.1000841,0.24936809,0.58787876,-0.8874901,0.3433579,0.73723936
0.44080803,0.0037271376,0.109009005,-0.812073,-0.3353444,0.21855983,0.24934405,0.30560678,0.21865228
0.01297163,0.034008555,-0.087434135,-0.14490622,0.07255705,-0.05608416,-0.01537464,0.03404339,-0.03282732
0.30537957,-0.720145,-1.4614385,1.0494579,0.8665679,-0.93349004,0.42989686,0.90062666,0.34993872
0.41236994,0.62256056,0.97335494,0.22893293,0.18063442,-0.09211037,-0.6845327,-1.3184075,-0.8484283
-0.27765694,-0.10670289,-0.28315324,0.03233218,0.010171356,0.12238143,-0.37307212,-0.3195009,-0.13003893
0.12541315,0.074994855,-0.111738294,-0.2314409,0.12091246,-0.11042547,-0.52582264,0.04571404,-0.040657375
-0.5060581,-0.24838594,0.1640296,-0.4291616,0.36647302,0.17263581,-0.14513642,0.2418295,-0.5535419
-0.013750057,-0.33063188,-0.40704983,-0.122327164,0.16889702,0.17108394,-0.38572484,-0.29525268,0.13558355
0.111298166,0.33754978,-0.44891286,-0.35308176,0.63543135,0.1852318,-0.7476521,-0.048885044,0.061342943
-0.013081954,-0.056912903,-0.028317595,-0.038537703,0.08572191,0.030093266,-0.046067607,0.015291279,-0.06091802
0.3250558,0.42325255,0.39472666,-0.28447443,0.027037429,-0.12588266,-0.71225953,-0.99823755,-0.5102832
-0.14417356,-0.16811937,0.057063434,0.14023866,-0.23926722,-0.13109279,-0.96197397,-0.34479713,-0.33612627
-0.010088577,0.12176505,-0.11856393,-0.0446018,-0.002788056,0.042198554,-0.070794225,0.11542765,-0.06732901
-0.36395854,-0.73754936,-0.102305554,0.57980597,0.4323284,0.10287988,-0.037104778,-0.54687744,-0.1541479
-0.33872935,0.37710896,0.45044017,0.37714142,0.85968184,-0.29188207,-0.009369673,-0.60113835,-0.7272081
-0.15708737,-0.985258,-0.07501641,-1.0277839,-0.05197419,0.35259807,-0.13854712,0.30703694,0.70706874
0.011749739,0.06467438,-0.26595193,-0.584126,0.28589952,-0.07731092,-0.36550006,0.18661503,-0.20449288
-0.45841253,-1.06801,-0.3396949,0.10476398,0.15309645,-0.18419847,0.56947464,0.7575462,0.067670375
-1.0234357,0.032870855,0.74365747,-0.82332826,0.2753062,0.5003389,-1.265654,-0.28396925,0.4070956
0.3407328,-0.2485559,-0.578182,0.4024781,-0.061352033,-0.09260714,0.04129003,0.0041574016,0.29865626
-0.39676526,-0.59714407,-0.50514746,0.24226269,0.2068283,-0.5550682,-0.37118444,0.4174901,0.06299569
-0.3288465,-0.48679325,0.39690676,-0.7031345,-0.4746269,0.6692849,-0.53150004,-0.5160109,0.25692856
-0.519395,0.036078695,0.042650115,-0.6665025,0.40758717,-0.11455203,-0.2871357,0.6690046,-0.6270626
-0.70694274,0.27325782,-0.05547673,-0.22600836,0.5682256,0.21530573,-0.33548656,-0.43020368,-0.06834797
-0.7227283,-0.19554661,0.12818655,-0.16742127,0.79474384,0.19230273,0.089696616,0.34594923,-1.1788101
0.5057524,0.20367318,-0.8197334,0.45100516,0.02009658,-1.0260282,0.64971244,0.022763439,-1.0855705
-0.28941992,-0.1405827,-0.1629994,-0.2249292,0.18760704,0.058453545,-0.3217773,0.03216768,-0.45354956
0.94875246,0.87130696,-0.2075928,1.2174175,-0.21855758,-1.3582027,0.2557047,-1.3659585,-0.5273929
-0.027937964,0.14573091,-0.67679155,-0.07831091,0.7957868,-0.33914664,-0.717596,0.51305306,0.13078368
0.25624228,0.32454354,0.44909117,-0.24163322,0.26018143,-0.16866718,-0.8621503,-0.59960973,-0.49839956
-0.10805733,-0.27785417,-0.2622257,-0.053421125,0.094537415,-0.013254262,-0.012378195,0.060412113,0.0652475
0.026190396,-0.020283423,0.026431112,0.030019265,-0.034826715,0.0131834615,-0.076249875,0.042856023,0.0248679
0.043323953,0.00035848055,-0.050524715,-0.1478348,0.081358135,-0.03963151,-0.034828145,-0.03901164,0.014141805
-0.043495722,-0.17542952,-0.25018632,0.38651717,-0.27565905,-0.71867186,0.29826093,0.36683032,0.13100451
0.017271964,-0.109202325,0.020882916,-0.19702506,-0.22814807,0.010490008,0.059350096,0.061242387,0.0064303144
-0.2544032,-0.21363862,-0.48069763,0.1439327,0.031978555,-0.26209766,0.007727168,0.008031099,-0.026810924
-0.98065275,0.2235904,0.47692353,-0.123289324,1.2226522,0.029804287,0.65254545,0.79780275,-1.2676283
-0.026399089,-0.06993975,-0.16477598,0.035875145,0.09408599,0.106401436,-0.03328465,-0.068206616,-0.0043285084
0.19414541,-0.4808065,0.033136792,0.11926332,-0.29432628,0.13100898,-0.023975695,0.06823147,-0.13828377
0.0059559564,0.7796348,1.0279322,0.16064352,0.25015804,-0.28582045,-0.2390802,-0.8812067,-1.1028669
0.5213405,1.0044678,1.0157746,-0.60016245,0.08415872,-0.1227698,-1.2961346,-1.2438395,-1.3953981
0.24265926,-0.13489416,-0.52827907,0.03223825,-0.45123926,-0.051411666,-0.023652986,0.074141085,0.18165728
-0.053961083,0.26369572,0.08203925,0.19758786,0.42694485,-0.12887813,-0.23847654,-0.34221315,-0.80934066
-0.015503195,0.012152907,0.043845247,-0.018383361,-0.092131406,-0.023841748,0.018339815,0.048845783,0.019952234
-0.085367545,-0.035039786,0.08582985,-0.009439744,0.045212537,-0.1436081,0.10600581,-0.102641724,-0.29273397
0.43735152,0.9016039,1.2876713,-0.69898534,0.09448226,0.23846622,-1.1872602,-1.384976,-1.3339758
-0.16105577,-0.44856885,-0.11008522,-0.7787013,-0.34044403,0.30911684,-0.09319959,0.23042105,0.34414393
1.2996962,1.0064192,-0.6403399,1.0110571,0.09727165,-1.719114,-0.048337482,-1.1772472,-1.3928071
0.51452726,-0.541847,-0.8610002,0.48657158,0.6684978,-0.5539182,-0.5036717,0.6730802,0.18958054
0.19109903,0.4067741,0.18608554,0.1518782,0.49463186,-0.19784787,-0.56377196,-0.9277128,-0.8684539
-0.14357962,-0.11506125,0.053519327,0.041249882,-0.010230123,-0.03573919,0.010118073,-0.14340213,-0.111739695
0.012343311,0.046387922,0.0978974,0.015140389,-0.026974246,-0.09193706,-0.06647621,0.039035667,-0.05677933
-0.26316234,-0.047181573,0.4499321,-0.6836206,0.523857,0.24316071,0.07258114,0.53498566,-0.29042283
0.052088294,0.055643544,-0.1642076,-0.24196996,0.06580756,0.021384886,-0.28664207,-0.07284516,0.10879545
-0.1614111,0.09195247,0.106829986,0.020988297,-0.019932568,-0.42911616,-0.057514362,-0.18291676,-0.19909744
0.08509379,0.24598281,-0.9978594,-0.33137247,0.8414389,-0.03818959,-0.8707092,0.3781895,0.058617357
0.114443734,-0.203656,-0.063760124,0.061257567,0.036411095,0.06869741,-0.078768015,0.13573222,0.02174734
-1.5427146,-0.30428463,0.61230075,-1.3296282,-0.12293497,0.9871179,-0.966826,-0.12012081,0.6758002
0.047836237,0.12957403,0.03431745,-0.26575223,0.013963879,0.046206634,-0.45601028,-0.46146008,-0.48244482
0.33539307,0.16552213,-0.034833856,-0.035732947,-0.46358338,-0.78674066,0.091830894,0.36097205,0.5586128
-0.6178984,-0.67249835,-0.7755181,-0.15884322,0.16497886,-0.2992426,0.29266113,0.2552967,0.19998544
-0.05047018,0.17191622,-0.18148789,-0.22464299,0.026147673,-0.026620533,0.025924664,0.102204174,0.074659266
-0.39298746,-0.6325172,-0.058434002,-1.019908,0.48619297,0.80086154,0.25228542,1.0539557,-0.11084611
-0.10861608,0.0044130394,-0.6731878,-0.121215776,0.85695124,0.46720073,-0.55246073,-0.4201012,-0.09109787
0.071685135,0.018353118,-0.01905455,-0.07644594,-0.020014359,-0.044756945,-0.0462821,0.01236646,0.053508036
-0.32699347,-0.88884765,-0.7231521,0.17456327,-0.06664038,-0.1487031,0.558185,0.51878965,0.7766899
-0.21242888,-0.11007379,-0.63257295,0.07470211,0.4887879,-1.0758569,-0.31482413,0.7727262,-0.6076816
0.32557982,0.36096904,-0.5601945,-0.29435608,-0.6421043,-0.5584545,-0.5082884,0.46177566,0.44865078
0.24444218,-0.7918372,-1.3544706,1.2486881,0.079693384,-0.6901374,0.6653944,0.7009347,-0.030373206
-0.6905,-0.091708906,0.24063803,0.02357578,0.30625367,-0.09716699,0.069401935,-0.19271904,-0.7394408
-1.2311108,0.14017642,0.47147632,0.4368899,1.1767108,0.11601308,0.49528196,-0.2633671,-1.1676717
-0.17865773,0.014496001,-0.0034062439,-0.117090315,-0.07070765,0.054703426,-0.0504756,0.09438294,-0.11520952
0.573516,0.70091003,-0.083737746,-1.1267701,-1.5071051,-0.8372838,0.46116143,0.70893127,0.84986275
-0.6003785,-0.36077985,0.18444514,-0.41020107,0.029263912,-0.11172091,0.82814825,0.4128676,-0.51046026
0.01725025,0.038518805,0.17482275,0.39585885,0.04211989,0.25261545,-0.31672278,-0.30552515,-0.56604826
0.0009221273,0.05920691,0.09865948,0.060882322,-0.018025659,-0.039266005,0.02884213,0.025281854,-0.09062629
-0.6700655,-0.27892956,0.07616042,-0.37527922,0.52087986,-0.08537279,-0.23431692,0.0053136772,-0.6901372
-1.1036189,-1.5027952,-0.4260459,-1.3975174,0.13756034,0.9506931,-0.116868325,0.96541923,0.921999
0.50859064,0.4227361,-0.26013678,-0.3348766,-0.05271105,0.20069835,-0.5895102,-0.043554764,0.46911278
0.09108903,-0.03811146,-0.16254322,-0.108476,0.13030808,0.003948454,-0.4575211,-0.30491388,0.10871071
0.90380096,0.3260166,-0.5903558,0.863027,0.21235655,-1.4438277,0.6502669,-0.27441666,-1.275102
-0.23117048,0.25059792,-0.25106546,-0.34393907,0.21655802,-0.15760617,-0.23869489,0.27946827,-0.104091644
0.33467528,-0.4978402,-0.044911195,-0.23526289,-0.45052233,0.40355626,0.036799617,0.18228446,-0.12204567
-0.347587,0.51629764,-0.17033637,-0.10264611,0.9260101,-0.7298385,0.23882373,0.522003,-0.95489025
0.07382813,0.12753008,-0.015868656,-0.27617902,-0.2662789,-0.26831207,-0.5337147,0.00010988261,0.109233946
-0.046736266,0.76105297,1.3185043,-1.4665859,-0.99206513,0.82340384,-0.09121566,-1.0001185,-0.048745055
-0.42605802,-0.36451414,-0.08667483,-0.065658405,0.16978775,0.089758575,0.0022575774,-0.30046374,-0.45727664
0.24369495,0.30496475,-0.28594342,-0.27776775,0.58419657,0.61591506,-0.872037,-0.74026626,0.44586372
0.32096356,0.26889774,-0.051794536,0.715959,-0.30691412,-0.45614412,-0.025394753,-0.70171934,-0.035267916
-0.6531868,-0.37550882,-0.21633711,0.5003949,0.9436673,0.3529847,-0.30946842,-0.22582453,-0.80435467
-0.40575182,0.12182098,-0.6257649,0.024228457,0.7307724,-1.1438992,-0.094958,0.69005144,-0.27019742
-0.87081635,-0.16373388,0.1033801,-1.002668,0.9989028,0.30664703,0.10110309,0.54030263,-0.7274737
0.9297463,-0.5595255,-0.76943016,0.70877284,-1.7075709,0.5368639,-0.6283355,-0.84710366,0.5317784
0.009451978,-1.0117371,-0.95086884,1.0239558,0.017909717,-1.2077034,0.63587916,1.0195364,-0.07298119
0.117073886,-0.015942128,0.077087454,-0.2765223,-0.19528708,-0.062088646,-0.19562024,-0.03119818,-0.06683639
-0.28319007,-0.17251144,-0.6661866,0.17600897,0.5064072,0.62052727,-0.4471565,-0.49549904,-0.041710936
-0.24329017,-0.21427761,-0.34384254,-0.22873838,0.02999493,-1.2074882,0.33420733,0.89918226,-1.3207161
-0.089924455,-1.2568998,-1.6738715,-0.4193712,-0.61968476,0.2368051,0.7719679,1.613271,1.3674217
0.067877896,0.11826163,-0.12242441,-0.068504974,0.02636063,0.05723938,-0.048201885,0.10632766,0.08236336
-0.11540363,-0.3055627,-0.4329601,-0.20414495,-0.506113,-0.43737343,0.20836616,0.14317244,0.35731122
-1.1881509,-0.6079262,0.7803987,-1.5210165,-0.4189576,1.1345497,-1.2090023,-0.13605884,0.8924012
-0.11830265,0.07714206,0.067714706,-0.1598573,0.120299906,-0.19020048,0.0472849,0.0590112,-0.21814404
-0.1889272,-0.6695976,-0.76636285,-0.02298708,0.032562304,-0.023329943,0.43613794,0.41995078,0.6626426
0.13830459,-0.039707635,0.0037005455,-0.0013466754,0.012271112,-0.05525862,-0.09297427,0.11427766,0.041318133
-0.21056807,0.55234057,-0.120557025,-0.5066883,0.51560605,-0.55714107,-0.5253773,0.33061352,-0.7040187
-0.036920257,0.06443236,0.019566512,0.07002971,-0.032908704,-0.004198791,-0.078243926,0.041528802,-0.06786872
-0.24692675,-0.46690735,-0.3240256,-0.06291098,0.68005365,0.45001802,-0.024432862,-0.3441815,-0.6002921
-0.10332281,-0.99508464,-0.51741135,0.5561776,0.007917071,0.8079564,0.23352258,-0.38789946,0.045866113
-0.3542848,-0.11539979,-0.09019185,0.105977505,0.38594246,0.40978518,-0.020043507,-0.37409207,-0.45708448
-0.93854576,-0.274119,0.1125246,0.29664728,0.8570711,0.26924706,0.20387898,-0.27773303,-0.73708576
0.008411866,-0.065155745,0.04762775,-0.015908578,0.00572438,-0.11295967,0.02846071,-0.078284726,-0.09622755
-0.04760011,-0.02888245,0.051306393,-0.011670431,-0.09941975,-0.27611572,0.06727804,-0.0026538926,-0.27897692
0.26340356,0.40653288,0.112832196,0.029281937,-0.6420039,-0.92898697,0.12315048,0.3189173,0.611023
-0.15677743,-0.7284831,-0.37049124,0.5091382,-0.48221952,-0.780669,0.5601909,0.8353938,0.14720683
0.102375366,-0.20917423,-0.94383574,-0.04509763,1.0210354,-0.24528056,-1.0569019,0.531202,0.042588215
-0.021378132,-0.26131845,-0.6351139,-0.052818038,0.08728397,-0.42024383,-0.27498484,0.1566503,0.11803646
-0.0006878852,0.028589131,-0.12642762,-0.07901373,-0.11918795,0.06155715,0.067641966,-0.0657417,-0.0052430956
-0.11638454,-0.059743844,-0.6735329,0.40852726,0.5621702,-0.3144451,-0.77992326,-0.073102206,-0.105194315
0.4073462,0.35539925,0.12544978,0.16051878,0.2797826,0.1768794,-0.5101853,-1.0082334,-0.28683245
-0.44025666,-1.2948835,-0.42797187,-1.331593,-0.18687774,0.7108879,-0.7159653,0.6493237,0.88430464
-0.2523225,-0.12232895,-0.119919345,-0.5749597,-0.73410547,-0.8322485,0.6022974,0.49221662,0.6430308
-0.0204408,0.112844184,-0.036877904,-0.057248775,0.019768836,-0.004685079,-0.050887275,0.00075413886,0.058875136
0.1589763,-0.038757596,-0.064969815,-0.04370449,-0.3258785,-0.1598529,0.0063556284,0.040684644,0.14880587
-0.72175753,0.055173084,-0.044069245,-0.19856896,0.5472857,-0.44473556,0.1044842,0.59783083,-1.0021678
0.043517653,-0.379056,-0.7125993,0.15573911,-0.4822434,-0.47291744,0.56767136,0.7298006,0.5939249
-1.0172375,-0.19931106,0.9245412,-1.2461252,-0.030777631,0.79185075,-0.9126599,-0.24061643,0.76595825
-0.9491528,-0.17442772,1.210859,-1.2750269,-0.31138027,1.0756272,-0.95027673,-0.94261473,0.27626616
-0.028065376,-0.11383753,-0.05831119,-0.89410245,0.34713393,-0.25280923,-0.12936987,0.069508195,-0.41226602
-0.18566936,-0.022960184,0.034379914,-0.11744013,0.091255724,-0.06831049,-0.06307215,0.079412974,-0.13136867
0.30917436,0.46840224,-0.25986594,-0.17906353,0.56732976,-0.16894604,-0.8249165,0.34561145,0.23662807
0.061478402,-0.06533723,0.014500371,0.0059158704,-0.027742587,0.030782308,0.022598086,0.07361242,-0.12985644
0.01804874,-0.2621246,-0.034788817,-0.014161762,0.015091295,0.029544506,-0.07752999,-0.160014,0.04442052
-0.9736914,0.07808779,0.28624985,0.19467099,0.9869595,0.09155106,0.5025642,-0.17884286,-1.0037963
-0.0239465,0.00060302083,-0.037940037,0.008592924,0.048106983,-0.024958234,-0.13770011,-0.0068919333,0.03487418
-0.033770293,0.22518435,-0.5376703,0.107924014,-0.30794472,-0.5315585,0.042723555,0.06776167,-0.06222769
-0.20491351,0.080987535,-0.43236592,-0.08900308,0.21133803,-0.27608326,-0.1470017,-0.09867929,0.033372175
-0.5008982,-0.5109149,0.18691112,-0.9999541,0.5924878,0.21194051,0.11685103,0.5442506,-0.19236827
-1.3122536,0.050591964,-0.12163704,-0.2233284,0.67180336,-0.09226711,-0.61941105,0.24220958,-0.6133326
0.03667214,0.54571456,0.8458319,0.51151896,0.64847195,-0.18445754,-0.37066466,-1.248383,-0.99578196
0.27589414,0.28744894,-0.03919576,-0.41335627,0.004496601,0.23889583,-0.7564946,0.14249328,0.47562528
0.32891572,0.65725267,0.6629553,-0.20181254,0.09630313,0.22787203,-1.0033844,-0.7779108,-0.236846
-0.16875662,-0.01939373,0.050086256,-0.08671647,0.004762465,-0.026912544,0.05982575,-0.07272105,0.038835164
0.07706856,-0.07191294,-0.11949591,0.044909973,-0.0061661475,0.050960258,0.0028426626,-0.021132799,0.015388527
-0.23999728,0.51675963,-0.22635455,-0.47750497,-1.5795904,-0.50221276,-0.78229064,0.28774422,0.44960043
0.37438786,0.8010813,0.7594892,-0.77673584,-0.2047152,0.26618978,-0.75872207,-0.8691348,-0.42649284
-0.09236769,-0.01608215,-0.03906313,0.0014036554,-0.025836393,-0.07953163,-0.052355547,-0.0317751,-0.057285395
0.27741382,0.8363335,1.1197542,-1.0899774,-0.3131024,0.15493476,-0.8147605,-1.0046772,-0.9422521
0.15614766,-0.16060385,-0.49942052,-0.037369315,-0.11506367,-0.11298052,-0.21832287,0.06786952,0.082438834
-0.44814232,-0.29269975,-0.14146039,0.42317116,0.39586684,-0.013098349,-0.23766656,-0.25383374,-0.24409011
-0.09755554,0.39536887,0.24825464,0.32874122,0.24283603,-1.1121196,0.194174,-0.6032292,0.17844903
0.09735254,0.032159086,0.14902076,-0.004525753,0.008174137,-0.015577065,0.09160298,0.11041918,-0.017159954
-1.2160659,-1.3206239,-0.69802237,0.67512846,0.09335435,-0.9685039,0.65327036,0.4072512,-0.14066781
-0.7256245,-0.93543434,0.10748168,-1.5761875,0.28213397,1.0911368,0.2273033,1.196756,0.7966572
-0.11960937,-0.05046486,0.029646603,-0.023065533,-0.027219422,0.065138936,0.042657483,-0.091222554,0.024176266
0.015218929,-0.3110857,-0.97967947,0.79781795,-0.0799588,-0.8651324,0.6115004,0.8842707,0.118853055
-0.3160504,-0.7202284,-0.30279624,0.0659935,0.14516383,-0.11007644,-0.11126269,0.04958024,-0.081430994
-0.774971,-0.6161741,0.03609028,0.2280296,0.81938577,0.6517167,0.33091277,0.18290147,-0.48120803
0.079055466,-0.03027818,-0.10241898,-0.14126308,0.025543537,-0.20235205,-0.20866098,0.03431731,0.037893366
1.0102558,0.40373904,-1.108938,1.0124776,-0.13868931,-1.1478944,0.6125313,-0.63806784,-1.2389808
0.14372167,0.06477012,-0.98205495,0.16513546,0.7066705,0.043452557,-0.941186,-0.08219516,0.050234195
0.111976646,-0.45592967,-0.40593418,0.27779245,-0.095596746,-0.08890638,-0.3598644,0.0430101,0.016381752
0.21079905,-0.37158868,0.3451557,0.7349327,-1.7015853,0.540328,0.8603589,-0.7761293,0.20472799
0.33770454,-0.7569451,-1.0280757,0.8677978,0.39123228,-0.7281472,0.38160485,0.7765325,0.29794842
0.7679988,0.5851765,-0.40449467,0.5913193,0.18010558,-1.2034953,-0.71972543,-1.0780911,-0.71722746
-0.04889418,0.07879577,-1.0337565,0.2262576,0.85391456,-0.052158784,-0.52524394,0.12712492,0.26099616
-0.73584384,-1.1272286,-0.35743478,-1.0798855,0.46573892,0.47970888,-0.14840332,0.86573684,0.1718164
-0.017565774,0.24068739,0.4695436,0.26262385,0.56892264,-0.4605274,-0.1022085,-0.6992337,-0.2391886
-0.9717281,-1.2428174,0.35753304,-1.9743491,-0.36303234,1.7292584,-0.22256371,1.1577203,1.5675744
0.48206714,-0.1669264,0.102851875,-0.94892573,-0.17368385,0.16027085,0.3127306,0.3621745,-0.025732279
0.673412,-0.016964152,-0.9719386,0.47587296,0.17290227,-0.8347652,0.36753967,-0.30440992,-1.3205934
0.01559653,-0.07219328,0.027582293,0.018878378,-0.032530926,-0.10676869,-0.123050444,0.071263224,-0.16975936
0.013310272,0.12430756,0.1884415,-0.93949217,-0.23473585,0.030135537,-0.22137661,-0.23166704,-0.14762448
-1.2687154,-0.2652941,0.4540804,0.64070153,1.295339,0.7251123,0.39947507,-0.6626843,-1.5678445
-0.54952484,-0.84879607,-0.6962078,-0.3067414,-0.37426203,-0.0074441577,0.7475653,1.0126942,0.69809765
0.6868534,0.37858006,-0.11286475,-0.21111472,-0.37985852,-0.85464334,-0.7602159,-1.3221345,-0.28134313
0.26273757,-0.9187084,-0.97242635,0.62977886,1.1688517,0.3798857,-0.6900304,0.11397745,0.33800912
-0.17940445,0.044315986,0.22039317,-0.35144678,0.07650846,-0.37028655,0.081286706,0.15511537,-0.5909662
-0.02922585,0.060209256,0.08266295,0.004626093,-0.093398295,-0.16647242,0.035893332,0.041280497,-0.18114018
0.82633036,-0.36597428,-0.99233603,0.71296984,-0.5494298,-0.33826515,0.1985841,0.030863717,0.0034224608
-0.6519244,0.69440645,-0.3098475,-0.20919447,0.5084309,-0.62039816,-0.021359691,0.5103722,-0.30215526
-0.16724667,-0.014624506,0.0014540784,-0.04808264,-0.092218116,0.080869906,-0.12416288,-0.1326765,-0.106321394
-0.64624745,-1.0499673,-0.9506703,0.21335812,-0.26236627,-0.14741522,0.72656566,0.75466764,0.76284397
-0.89270616,-0.49970177,0.6448194,-1.1765625,-0.11323448,1.0031044,-1.0154145,-0.39958018,0.36925822
0.9657983,0.5855046,0.18383075,0.19527994,-0.1523975,-0.6096015,-1.1567742,-0.8419942,-0.25703797
-0.3832431,-0.9826569,-0.69807625,-0.4293624,-0.045324136,0.047080427,0.060822926,0.2027122,0.30070662
-0.76630193,0.6021388,-0.24321805,-0.33830106,0.79223484,-0.29201245,-0.80897874,0.5764403,0.10100839
-0.15061682,0.14155135,0.30843064,0.49925378,0.49391395,-0.38706404,-0.20433328,-0.51675296,-0.55692774
0.6839369,0.28731132,-0.97575575,0.83529186,-0.054069005,-1.102862,0.83208865,-0.4408354,-1.4199219
0.013362813,-0.048552204,0.059906244,-0.10527765,0.060424484,0.040139753,-0.17979741,-0.14422724,-0.07244611
-0.48308355,-0.32134053,-0.09354155,-0.45584187,0.10419644,0.29572392,0.052511197,-0.28072566,-0.5321215
0.23850961,-0.61965716,-0.40796736,0.5362986,0.7596148,-0.21534026,-0.92820853,0.27913332,0.2655946
-0.73359287,-1.3083256,0.64585125,0.15693492,-0.52994996,-1.4133936,0.8109483,0.6564384,-0.045270894
-0.1282285,-0.0093946485,-0.07515097,0.11927384,-0.14274614,-0.3296883,-0.05087175,0.0189942,-0.10436867
-1.0334864,-0.5067246,0.019022973,0.5845619,0.77837,0.051190708,-0.08174118,-0.30258635,-0.776304
-0.08008067,0.22897366,-0.4648881,-0.27402627,0.08298271,-0.6553777,-0.28881896,-0.03478364,0.02101791
0.1228929,-0.46510547,-0.603922,0.26771042,-0.050769944,0.1600832,-0.10417743,-0.2662058,0.27499512
0.08596416,0.666259,0.96367073,-0.04551663,0.15429987,-0.30915582,-0.1662747,-1.1610712,-0.7949333
-0.09019192,0.008133848,0.03258728,-0.06962746,-0.050883863,-0.06634026,0.05700419,0.060041253,-0.24683858
-0.12384229,-0.07785022,0.015248689,0.012663864,0.027691469,-0.020593423,-0.10814474,-0.01863001,-0.20756853
-0.6653947,-0.39193308,0.7080383,-0.84578335,-0.1804344,0.80785364,-1.5010774,-0.8032502,0.18497916
0.74986804,0.8590493,-0.007112407,0.5921017,0.020304302,-1.1161453,-1.09295,-1.437569,-0.55916697
0.41448906,0.10469352,0.10249832,0.17429937,0.53368807,-0.25176328,-0.6790038,-0.7891784,-0.8767055
-0.37308317,0.09516381,-0.16679126,-0.2571416,0.1394175,-0.3676262,-0.03542009,-0.065474264,-0.356879
-0.61370355,0.12855807,-0.061859377,-0.5671364,0.6424143,-0.6891948,-0.39973193,0.55582887,-0.39176562
0.6670675,1.1026977,1.2135228,-0.15649442,0.17812064,0.35758343,-1.711851,-1.6120374,-0.6574109
0.17094979,0.95104665,1.3447611,-1.1992552,-0.46845928,0.35125893,-0.9994225,-1.4091502,-1.5126092
0.009816962,-0.037771724,0.09233654,-0.17323722,0.010568622,0.008442589,-0.03833489,-0.27495,-0.08744495
0.11099906,0.16893737,-0.1481936,-0.3707339,-0.3585915,-0.19382942,-0.33019778,-0.14222701,0.25592622
-0.89388615,-0.4517615,0.32639587,-0.48975673,0.81522787,0.47575217,0.5511641,0.40329176,-0.43074232
0.0044839745,-0.013344226,0.064186364,-0.07090905,0.028415803,-0.031812947,0.023837667,0.08268126,-0.19628003
-0.41806242,-1.3121458,-0.8125767,-0.7463151,-0.109721564,0.5332064,-0.24320938,0.41632077,0.7575786
-0.4182232,0.080460936,0.22594436,0.4620988,0.15775248,-0.8458442,-0.09609817,-0.5739006,-0.015927818
0.15086587,7.5402572e-06,-0.7734118,0.21162978,0.5255764,-0.253677,-0.30683312,0.46909732,0.33415785
0.22870412,0.011477996,-0.57103705,0.30821344,0.07943536,-0.8274055,0.50620574,0.42039478,-1.0475409
0.98404557,1.5022297,1.437587,-0.9889404,-0.06430908,0.47556457,-1.8756175,-1.3865731,-0.19476636
0.26465145,-0.45715943,-0.93992573,0.7908171,0.23826833,-0.7484218,0.07206682,0.85341525,0.57315105
0.16454372,0.62096286,0.28440496,-0.8278803,0.25136304,0.7348894,-1.0458881,-0.7056079,0.6439131
-0.34977597,0.06484036,-0.10305805,-0.5684201,0.26055393,-0.11460054,-0.34637395,0.14757046,-0.100251146
-0.27710918,-1.4309648,-1.2368269,0.41856328,-0.17089786,0.024132406,0.7973422,1.0262675,0.7327811
-1.3198256,-0.067921385,0.4044559,0.44228256,1.2457429,0.49372262,0.43279636,-0.22404435,-1.4734977
0.50222915,-0.85280466,-1.314342,1.1483592,-0.010732542,-1.1696988,0.93349606,1.0882683,0.0354959
0.028421488,0.12222464,-0.036596704,-0.20129706,-0.0082286075,-0.05089645,-0.13126777,0.090234704,0.0022063958
-0.6108609,0.31876996,0.7873845,-1.5609958,-0.15839326,0.50938666,-0.92978984,-0.58943665,0.17240478
-0.22558263,0.106749386,0.22218308,-0.82378894,0.12856242,0.4638248,-1.1664127,-1.0096221,-0.8098072
-0.086498775,-0.060638245,-0.019314403,0.05092466,0.014246376,-0.17762436,-0.15588683,0.044592552,0.01894555
-0.7116871,0.13849786,0.510838,-1.2380905,0.22344385,0.48266873,-1.0108659,-1.2907186,-0.6190746
0.003505458,0.14885141,-0.33423394,0.45411357,-0.42113462,-0.38062975,0.14288832,-0.22212109,0.47746766
0.38167912,0.35526776,0.25819272,0.1276686,-0.28965336,-0.5793379,-0.23238623,-0.27169833,0.5968365
-0.10270929,0.065170236,0.05515933,0.09002801,3.111629e-05,-0.35991618,0.07576978,-0.18100168,-0.25180817
-0.13786227,-0.0690447,-0.0033746392,-0.0092705935,0.03943602,-6.6668596e-05,0.026131013,0.01043975,-0.12138629
-0.14525011,-0.36286744,-0.62709016,0.18548144,-0.2966608,-0.5503995,-0.064003676,-0.00013638669,-0.5797074
-0.42297798,-0.2222996,-0.057841245,0.03384227,0.24968061,-0.12133381,-0.10560882,-0.15259086,-0.22765104
-0.6914797,-0.62958807,-0.17414984,0.30641463,-0.033088572,-0.27654034,0.38629574,0.15490495,-0.47396433
-0.5549744,-1.0594045,-0.8889788,-0.9998302,-0.03578167,0.15904252,0.3549598,0.80620617,0.78957903
0.45073605,-0.010486432,-0.49258262,0.20843959,-0.645682,0.15773232,-0.037672803,0.40437022,0.39368796
-0.14296606,-0.025404653,-0.033372067,-0.09681172,0.045035306,-0.20792611,-0.15321122,0.08203124,-0.16553798
-1.3349165,-0.07782529,0.5844347,-0.8900922,0.23387714,0.4853622,-0.9003705,-0.27924505,0.50069886
0.40671408,-0.58659285,-0.65247047,0.3997182,0.46819246,0.03376526,-0.100136906,0.23484035,0.45927557
0.36767,0.88027984,1.3274848,-0.54057825,-0.0659763,0.2939764,-1.2605573,-1.6408551,-1.2641438
-0.08464021,-0.060249634,0.13294725,0.10983508,-0.3576351,-0.15987854,-0.06469707,-0.05739692,-0.33896786
0.08249128,-1.1116208,-0.34162676,0.8195887,0.17350855,0.7398282,-0.5145216,-0.19436595,0.060490288
0.817887,0.22107403,-0.8314958,0.88665175,0.09111839,-1.1810604,0.68561614,0.124827065,-1.1424865
-0.16710062,-1.1523427,-1.1783984,1.1090673,-0.13051583,-1.3316946,1.4784992,1.1406363,0.07248172
-0.029215991,0.037119985,-0.15062244,0.047482077,-0.035187297,0.059923228,-0.06688895,0.011827849,-0.04947076
-0.022432571,0.18064609,0.10724894,-0.47261858,-0.14554515,-0.035942145,-1.068215,-0.43434337,0.014780287
-0.37634453,-0.12283902,0.097914316,-0.404735,-0.0060487464,0.026281813,-0.23286787,-0.36055127,-0.014838594
-0.016284017,-0.019873878,-0.06212148,-0.0020882979,0.0076856553,0.038067408,-0.059004165,0.09214481,-0.075972766
0.02212219,-0.08809433,0.016316842,0.18154308,-0.093192704,-0.14822575,-0.03213223,0.0141891595,-0.26196462
-0.057192832,-0.61622125,-0.2273148,0.15448152,0.9418174,-0.04432376,-0.53429484,-0.00089516985,-0.2627914
-0.041209668,0.02728547,-0.023332981,-0.082839966,-0.052325018,-0.005946022,0.008911546,0.058734104,-0.023361972
0.14590624,0.19153395,-0.31861356,0.8500371,-0.93658227,0.0492707,0.6033984,-1.2908449,0.42069075
-0.5593833,-0.451608,-0.32600048,0.21669383,0.21783537,0.07018265,-0.7819093,-0.73777145,-0.27269933
0.022436015,0.15507755,-0.27411965,-0.23518592,0.13299468,-0.07631052,-0.40578088,0.18051586,-0.16048813
0.011940787,-0.107027724,0.009970718,0.045539092,0.042782184,0.03554385,-0.02794482,-0.036048226,0.04911429
-0.6379475,-1.6460176,-0.6633514,-0.7794514,0.3153662,0.53760046,-0.32211834,0.25228366,0.2910808
-0.067771465,-0.19529738,-0.56621575,-0.024439327,-0.22623539,-0.51724994,0.18227395,0.6348635,0.5852724
0.2683584,0.07873865,0.58582926,-0.12571226,-0.24352974,-0.059206985,-0.3665464,-0.9166408,-0.85006064
-0.25071326,0.06157787,-0.26087183,0.08905649,-0.08002146,-0.5976082,-0.025415843,0.18164755,-0.72155094
0.24516053,-1.1179583,-0.45259136,0.073856495,-1.0711694,0.54816854,-1.356105,-0.053395443,0.5622453
0.062932715,-0.058297615,0.049667373,-0.0073735155,-0.08169053,0.005551427,-0.08178828,-0.0073614926,0.05560416
0.014745415,-0.47360042,-0.838965,-0.1556855,0.008040195,-0.3398708,-0.027105419,0.10486321,0.24121673
0.02146964,-0.1649212,-0.086944595,-0.053550325,-0.010586862,0.02254027,0.018118354,-0.073706724,-0.064764306
-0.75296986,0.113872685,0.16606191,0.4486187,0.63498616,-0.32028428,0.061303932,-0.557356,-0.6264201
-0.0068279156,-0.26215628,-0.39577252,0.04954128,0.2566302,-0.10908675,-0.36721885,-0.040857762,0.03261896
-0.061303724,0.26427528,-0.43300882,-0.4884194,0.059876986,-0.31371972,-0.65759534,0.18132995,0.13946383
-0.35325488,0.106470264,-0.69206095,0.101302095,0.58398235,0.42566353,-0.61037266,-0.2640096,0.19611365
-0.25113657,-0.55670273,-0.12918231,-0.505554,-0.091000244,0.4910377,-0.6482596,0.3146791,0.32269037
-0.40009817,-0.054241892,0.29049733,0.13723995,-0.3364461,0.26490998,-0.41628817,-1.1859967,-0.33130738
-0.04180587,0.027917756,-0.07383247,0.05279316,-0.046054147,0.0031664914,-0.079873525,-0.040372293,0.020111706
-0.08490958,0.16609198,-0.26043195,-0.12680328,0.06824815,-0.19269134,-0.12537068,0.05590159,0.05672372
-1.1579813,-1.4413569,-0.6075141,0.6848952,0.09098831,-1.0946236,0.6768255,0.37924275,-0.25701258
-0.002222359,-0.08922878,-0.09796927,0.22564012,0.2747009,0.10696314,-0.47160196,-0.6904658,-0.7720471
-0.87734514,-0.38197833,0.274769,-0.22799706,0.74819905,0.44226313,0.13934655,0.35421002,-1.0700443
0.048512682,0.07928246,0.4388653,0.22820275,0.25770482,0.16649354,-0.72993284,-0.82388866,-0.6665969
-0.10544964,-0.081829876,0.059972722,0.025328692,0.106362365,-0.15060066,-0.19547448,0.021508055,-0.027809473
0.45704073,0.3392984,0.59917563,0.6014339,0.38985726,-0.20978612,-0.869164,-1.0707803,-0.8451763
-0.20450917,-0.48906195,-0.49444428,-0.21012394,-0.33479887,-0.09757292,0.13932493,0.1308959,0.0502256
-0.18893346,0.33488002,0.37709615,0.2658318,0.6317376,-0.36974245,0.3310959,0.15647621,-1.0605041
-0.0019599523,0.07201314,-0.30230552,0.067852065,0.01876052,-0.06892869,-0.07226289,-0.0069626947,-0.033868767
0.86887085,0.6966289,-0.3999497,0.10812008,-2.0756912,-1.0475521,-0.7451456,0.20623377,0.99398893
0.40323582,0.7145307,-0.18659838,0.28296158,-0.314724,-1.2473096,-0.04111446,-0.8098984,0.14030856
-0.19371393,0.17714244,-0.5678416,-0.042547457,0.18140288,-0.41419587,-0.28766596,0.07275675,0.02119815
-0.6254916,0.5175669,0.723882,-1.1326573,0.11854445,0.5349004,-0.90825886,-0.8869316,0.30601454
0.39697278,0.91234684,0.82882553,-0.34001106,0.08096093,0.39456198,-1.3790575,-0.65964437,0.24806093
-0.5008732,0.4119708,0.036495503,-0.44567454,0.3944343,-0.11351259,-0.4417962,0.49862322,-0.28791583
0.017657893,-0.14562915,-0.7303656,0.18072803,0.77026504,-0.8408199,-0.44697663,0.67715913,0.5051839
-0.54193723,-1.1473727,-0.30749965,-0.3824671,0.15954891,0.5595559,0.70266736,1.0702863,0.07354716
-0.68067855,-0.17962883,-0.20731644,0.4612479,0.5013017,0.22918436,-0.35359353,-0.4909558,0.083997995
-0.19201924,-0.018318038,-0.01859139,-0.011260666,0.0024015491,-0.022555096,-0.17820784,0.028920818,0.0037919632
-1.3798882,-0.041329984,0.3210802,-0.3799268,0.70256615,0.8644874,-0.10428732,0.675735,-0.43724883
0.13318294,-0.4416363,-0.35839227,-0.19281846,-0.3863639,-0.33926034,-0.17858216,0.22126041,0.35414898
0.025599705,0.70374084,0.75198126,-1.2323434,-1.6470835,-0.71394795,0.6208273,0.28968868,-0.29701042
0.046918463,-0.058416728,0.0059972666,-0.14053182,-0.12064018,0.0018651602,-0.26602176,-0.3164274,0.04581859
