0.048607033,0.16538028,-0.034502957,0.18651824,0.28745106,0.18938296,-0.4950002,-0.24076673,-0.0069107017
0.4259073,-0.049065642,-0.45820963,0.29194656,-0.12416428,-0.566289,0.15222335,0.11450005,-0.2497415
0.22949474,-0.15711352,-0.43532574,0.3586778,0.20479545,-0.550582,0.05262387,0.45958754,-0.032132268
-0.102251865,0.29620448,0.15148993,0.2767374,0.37898982,-0.21350585,0.27074108,-0.022690032,-0.6982638
0.07348511,0.2661787,0.24536195,0.10677118,0.20057565,0.31656596,-0.31454372,-0.65074515,-0.3654761
-0.3492705,-0.23956873,-0.27736327,0.16058125,0.2578422,0.24268967,-0.4544611,-0.3634249,0.17316741
0.07696156,0.4379962,0.38891348,-0.4469704,0.02443343,0.34958398,-0.56493604,-0.3487339,-0.014631699
-0.01964082,0.090725936,-0.038300205,-0.08657714,0.046135947,-0.11868489,-0.12013123,0.034482386,0.0021356018
-0.089595385,-0.05500277,0.010865583,-0.0465945,0.09076987,0.03123822,-0.009187118,0.038922198,-0.09447041
-0.08455316,-0.012824595,-0.18986376,-0.15770656,-0.043392055,-0.062767446,-0.26658422,0.016742032,0.22236416
-0.18377587,-4.2763524e-05,0.019933706,0.028646745,0.06520726,-0.097146675,-0.08406176,-0.0146696055,-0.21971613
-0.15009749,-0.027585896,-0.08490051,0.005455006,-0.023677906,0.08546349,-0.07882431,-0.09876571,-0.18886964
0.21556768,0.22018355,-0.19388926,0.4584333,-0.04900327,-0.34233254,0.39324102,-0.3284105,-0.48135513
-0.6668881,-0.035387475,0.33636218,0.23717311,0.5516053,0.23733574,0.27885854,0.08647223,-0.71661127
0.04877645,0.048982248,0.20253985,0.1580849,-0.12083828,0.070381306,0.17621715,-0.37659183,0.1531052
-0.57769614,-0.13630098,0.17475441,-0.5324353,0.067545824,0.5711644,0.018937647,0.17846261,0.3774555
-0.6699612,0.02417285,0.45715213,-0.5346323,-0.012556774,0.5191096,-0.44331977,-0.30395216,0.23653293
-0.06500808,0.07439834,-0.10914213,-0.4056695,0.25954372,0.09178318,-0.266788,0.31417495,0.08924096
0.11424992,0.3050142,-0.15073171,-0.18406129,0.38421667,-0.020742478,-0.4278259,0.2522955,0.11295128
0.06639129,0.3215511,0.56520617,-0.39218053,-0.02177858,0.15076698,-0.65557903,-0.9074484,-0.5554597
0.1012195,0.092296824,-0.3775943,-0.05654344,0.3870583,-0.40412349,-0.04998487,0.26090664,-0.057297606
-0.1550451,-0.3252228,-0.033994474,0.18963405,0.28973597,0.27069977,-0.19399942,0.11904221,-0.05179344
0.37608153,0.37849212,-0.03864168,0.21676989,0.25830898,-0.49947107,-0.5615236,-1.0822363,-0.5570863
0.16248767,0.19588551,-0.25070876,0.25779268,0.09872068,-0.38112053,0.1879968,0.036372982,-0.26967174
0.21791518,0.15016964,0.289221,-0.026897784,0.14236777,0.3368842,-0.5109938,-0.4748511,-0.18364379
-0.45018795,0.031534165,0.13310711,-0.28499082,-0.038930368,0.32028654,-0.5780884,-0.1473829,0.27537745
0.040921774,0.016006889,0.20167543,-0.2028231,-0.11860713,0.098349944,-0.30723175,-0.27536198,-0.31971502
0.12769234,0.21339498,-0.58403724,0.09534803,0.37502062,0.06771602,-0.3735125,-0.0037423999,0.10807562
0.12379828,0.12661028,0.16740027,-0.39281058,0.12474877,0.30837262,-0.51680404,-0.19412367,0.39002848
0.06358202,0.051440537,0.12031367,0.121752515,0.028369911,0.12922116,0.051682316,0.050026376,0.18400443
-0.24559626,0.1464046,0.38970375,0.2728547,0.17945579,0.0337324,0.006110925,-0.061461393,-0.6623148
-0.05544983,-0.5936679,-0.49233353,0.32071793,0.036479197,-0.35337183,0.39265224,0.48907086,0.105583906
0.023593023,0.06911114,-0.051681146,-0.093759075,-0.049125686,-0.024838433,-0.0050681247,0.040120177,-0.019161727
0.023185873,-0.22023949,-0.6316526,0.13422842,0.42455804,0.053099632,-0.03926562,0.42934206,0.2328257
0.028916724,0.057250068,-0.18140785,0.13313115,0.3437821,0.24524319,-0.4356643,-0.19564499,-0.07320431
-0.0025045988,0.032640085,-0.04635416,-0.03418282,0.054477755,-0.0036824096,-0.12523934,0.080469646,-0.11051871
0.1500776,-0.24987951,-0.6793748,0.49717376,0.17455798,-0.5375935,0.33606297,0.38491362,0.2561762
-0.27925754,-0.14774202,0.16304144,0.079147756,0.46070182,0.20358822,0.14271562,0.038064472,-0.44588098
0.56674844,0.18981917,-0.008634956,0.08593716,-0.38954452,-0.4310651,-0.2824844,-0.528222,0.054967236
0.06528931,0.22933337,-0.14251962,-0.0011268232,0.5230001,0.19793047,-0.4414478,-0.16830514,0.18086624
0.078408666,0.0049472544,0.03344529,0.0072221085,0.023431493,0.012948589,0.0042862506,-0.0010810392,0.051339246
-0.031753156,0.014557171,-0.08039251,0.03521337,-0.010325351,0.05592935,-0.15116611,0.061128933,-0.03942448
0.38820592,0.2893606,0.18839258,0.13476823,0.25942394,-0.46903113,-0.7167419,-0.8138677,-0.42970517
-0.36557567,0.118363656,0.15602031,0.02291517,0.29173553,-0.003998407,0.1718717,-0.015618537,-0.50428176
0.33449242,0.30663365,0.33920556,0.04083103,0.06573189,0.05078889,-0.5028846,-0.5052233,-0.15593113
-0.17071076,0.06686631,-0.025188785,0.19402674,0.32864344,0.1854628,-0.39529026,-0.19217865,0.21258317
-0.3790702,-0.3493632,0.06919023,-0.7836144,-0.146694,0.5054762,0.013258982,0.5448823,0.5580237
-0.08369024,-0.02497438,0.072108656,0.029753145,0.024511853,-0.02141223,-0.014682434,-0.08518545,0.017334223
0.108921096,0.33582607,0.31077647,-0.23037435,-0.0023128684,0.36362243,-0.102371015,-0.5774433,-0.39296666
-0.39985242,-0.10600194,0.11067334,0.0066983323,0.11129189,0.06306728,0.11442927,-0.080688596,-0.0067938264
0.07979854,-0.11102571,-0.35982242,0.1698285,-0.22792426,-0.12810488,0.19331586,0.3607778,0.04457404
-0.017613536,0.01269512,-0.048182454,0.07108126,0.041099828,0.0030589662,-0.07221578,0.05575536,0.011647535
-0.4764967,0.070338175,0.1311288,0.27848384,0.5596286,0.010114771,0.08337235,-0.13887855,-0.33593786
0.27850634,0.11345981,-0.27881512,0.1645896,0.03958927,-0.51915133,0.079959124,-0.08849308,-0.3494552
0.1643678,0.4208162,0.58105415,-0.4254796,-0.20897606,-0.19789918,-0.62483877,-0.49162906,-0.3429589
0.14424664,0.20360325,0.30545375,-0.08930295,0.12195971,0.12469653,-0.4971011,-0.39886063,-0.30977312
-0.11381189,-0.0058305375,-0.008731155,0.05828662,-0.023245497,0.017609783,-0.0069092754,-0.102226354,0.009040373
0.06143445,-0.031079838,0.10050786,-0.012087143,-0.027677584,-0.01655561,0.017615011,-0.010845829,0.0050529023
0.5564577,-0.13911761,-0.17562814,-0.039975237,-0.9455256,0.056116123,-0.17449415,0.25412357,0.52318895
-9.1566166e-05,0.057681892,-0.42702228,0.028795352,0.32658818,0.16496362,-0.4057581,-0.12194753,0.080412604
-0.07526507,-0.48509645,0.41663873,-0.55652004,-0.46739957,0.49777567,-0.6072328,-0.121048056,0.15509719
-0.13235033,-0.14238662,-0.06154743,-0.23184873,-0.66409916,-0.47682756,0.6154607,0.45803052,0.48413008
-0.040078156,-0.47598755,-0.28474942,-0.069403164,-0.12380599,0.4071425,0.42524064,0.255851,0.23897243
-0.4832394,-0.03611834,0.38037568,-0.3988147,0.097207844,0.33851293,-0.6213003,-0.33427966,0.3154325
-0.57134694,-0.05387933,0.14092809,0.02598587,0.47981817,-0.060943287,-0.14774282,0.24835804,-0.17425078
0.12460729,0.4351692,0.5128822,-0.45750058,-0.09652837,0.3929231,-0.5858761,-0.42834735,-0.0019150799
-0.03879329,0.043105297,-0.02477281,-0.18745266,-0.0014646344,-0.009426079,0.07582931,0.033628218,-0.0543205
-0.3397768,-0.302842,-0.22393748,-0.41147524,-0.2617012,-0.11249457,0.5548134,0.46530914,0.43804833
0.12569036,0.14107096,-0.05230818,-0.26410207,-0.03297617,0.04474103,-0.13527824,-0.044123594,0.18704933
0.06410147,-0.29012346,-0.46534202,0.26621062,-0.12803267,-0.37500235,0.0908605,0.45743284,0.22049753
0.30604273,0.33179995,-0.06276606,-0.39268723,0.34343243,0.23782563,-0.63288605,-0.41539654,0.09856286
0.121880695,0.4929409,0.6635806,-0.30866563,-0.08357569,0.1236926,-0.6011454,-0.7243718,-0.6973802
-0.009341823,0.20147869,0.09426518,0.11784577,0.13471904,-0.3441597,-0.055025324,-0.13606687,-0.31556714
0.041612454,0.077700146,-0.18633993,-0.16179897,0.059957117,-0.02263245,-0.082888976,-0.0038307207,0.006220638
0.15361874,0.10344889,0.24918203,-0.32271346,0.2359451,0.3472734,-0.7543429,-0.2736774,0.31601387
0.048217084,0.050434936,0.04683708,-0.015963105,0.074332,-0.13612784,0.036982294,0.04101174,-0.25172028
0.55150265,0.14303325,-0.61542326,0.49418083,0.13983138,-0.8411425,0.45287064,0.060050126,-0.66135985
-0.03205269,0.008126706,0.091105245,-0.034116622,0.09191695,-0.046437062,0.05174185,-0.050816875,-0.33011705
-0.5482466,-0.15798217,0.41438282,-0.8001726,0.12371998,0.47375327,-0.3500765,0.21644628,0.46007952
-0.14407066,0.34279948,-0.27732894,-0.30117336,0.3708085,-0.00074216607,-0.28524,-0.030693196,0.07753626
-0.18553129,-0.10985751,-0.045094226,-0.1348986,0.09326014,-0.08712475,-0.0013309964,-0.060672015,-0.27760443
0.23364505,-0.44985735,-0.5443433,0.4464001,0.15400599,-0.48826808,0.19720022,0.3905491,0.122815
-0.020573435,0.1358555,-0.30706096,0.031993166,0.25232726,0.06894019,-0.40231153,-0.0036935767,0.1282456
-0.0044951285,-0.66299796,-0.46967614,-0.12829113,-0.21596076,0.098291405,0.36667693,0.61049104,0.37310067
-0.3252834,-0.10883196,-0.03928403,0.27808088,0.3124334,-0.00033254802,0.07057931,-0.20168868,-0.5096126
-0.27243534,0.2500252,-0.012791177,-0.20232624,0.0373111,0.18548754,-0.39784738,-0.1594564,0.21009447
-0.0031790938,-0.016871488,0.04869801,-0.067640014,-0.011216415,-0.057171714,0.042327248,0.036502577,0.01633618
-0.44099507,0.16576926,0.060827464,0.054369178,0.48095313,0.04975704,0.11356159,-0.055598054,-0.4127095
0.41026193,0.3880263,0.14037937,0.105928205,0.06944485,-0.052472625,-0.5798162,-0.6116946,-0.3381964
0.103230625,-0.3157564,-0.28692833,0.013929276,0.21932572,0.418778,0.003416607,-0.016308969,-0.08627617
-0.42606825,0.028440123,-0.22375102,0.013811852,0.37464482,-0.18080083,0.05065938,-0.10062492,-0.07883069
0.0950735,-0.23584847,-0.015303841,0.1297141,0.059569903,0.22852626,0.07784855,0.010487804,-0.1206718
0.1664487,0.32216668,0.292207,0.31215182,0.30246726,-0.07134478,-0.33005947,-0.62542135,-0.5356381
0.0010894013,-0.35285163,-0.7234227,0.09018558,0.011628236,-0.010513697,0.05130762,0.42844954,0.51026297
0.09176288,0.36048096,0.6990194,-0.6655696,-0.62404066,0.13999476,0.15128207,-0.5525483,-0.60732
-0.30270323,0.25892338,0.046489775,0.01614451,0.45752132,-0.11742534,0.25274086,0.07335803,-0.5109362
-0.039202478,-0.03597423,-0.12999399,-0.09017791,0.0080398,0.08222018,0.09089366,-0.07528448,-0.1179018
-0.46286616,-0.15547769,0.10709167,-0.22563562,0.35377622,0.10187688,0.04843613,0.19964465,-0.21241735
0.11555567,-0.17134158,-0.8064219,0.43743357,0.10140658,-0.64167386,0.35693404,0.6272439,0.057237737
0.40000275,0.17470968,-0.85090405,-0.1814888,-1.4619462,-0.08872984,-0.92018557,0.052576542,0.61515605
0.32268134,0.3982772,0.09816669,0.46536508,-0.14496663,-0.4872535,-0.32544193,-0.533312,-0.2485218
0.113910794,-0.21115912,-0.42277718,0.40428516,-0.27230647,-0.7418822,0.6872862,0.2997165,-0.09134098
-0.19328046,0.32033336,-0.19519022,0.039196014,0.2677723,-0.31004792,0.018489424,0.12290546,-0.30839425
0.18884881,0.26871386,0.23508428,-0.12252152,0.058217656,0.24419865,-0.5563724,-0.47721863,-0.05554454
-0.54740465,-0.1690312,0.039368816,-0.31921813,-0.05540928,0.18993579,0.26694992,0.21855944,0.17220357
-0.10182608,0.17607789,-0.15698338,-0.25039256,0.18698877,-0.18494357,-0.24559367,0.3330737,-0.13481018
-0.19921069,-0.15688331,0.010987134,0.035146475,0.0579165,0.2608611,-0.36631796,-0.3821366,-0.10478087
-0.019068062,0.010744927,-0.027732868,-0.32527128,0.33871585,-0.24881765,-0.3005889,0.45805568,-0.3694853
-0.28748134,0.048781965,0.10392719,-0.09285133,0.35056123,0.16178362,0.2315897,0.20258878,-0.29293764
-0.17820078,-0.46831697,-0.1477906,-0.010574339,-0.22074787,-0.08234425,0.38710237,0.43564174,0.37993115
-0.14308728,0.066299565,0.25361592,0.24617645,0.38573852,-0.003850477,-0.008154208,-0.3179074,-0.52555513
0.014096925,0.22458276,-0.04472385,-0.36759615,0.2010178,-0.22862978,-0.18601729,0.3480849,-0.20144925
0.3415269,0.11449247,0.2978523,0.08855083,0.15632856,0.16173863,-0.4556747,-0.59266007,-0.39419004
0.3246135,0.3322523,-0.1984111,0.2269199,-0.06656951,-0.750562,-0.46515372,-1.096323,-0.03653897
-0.040886514,0.37877655,0.42683873,0.39398614,0.34162378,-0.3060489,-0.20930675,-0.6220875,-0.38847166
0.22741446,-0.24460551,-0.5889234,0.30312157,0.42057493,-0.025182774,-0.32366756,0.2880414,0.3110888
0.22092146,0.49633554,0.1440701,0.22843829,0.17257003,-0.58513916,0.19024454,-0.15534598,-0.6451179
0.032666806,0.014889746,-0.0061118216,-0.06642528,0.07246166,-0.124603614,0.0983763,-0.059173577,-0.26536784
-0.22532387,0.45811576,0.032735415,-0.43841743,-0.36334375,-0.5559116,-0.15525584,-0.0885889,0.1833833
0.046359424,0.026359761,-0.15619612,-0.05928618,-0.037929982,-0.12305749,-0.03279049,0.101091154,-0.010301064
-0.026093354,0.31544325,0.50835097,-0.571663,-0.07468174,0.2913485,-0.67917806,-0.6317192,-0.4085764
-0.6227774,-0.21051326,0.17911187,-0.5372406,0.19285482,0.323953,-0.09164748,0.367392,0.09443741
-0.66791743,-0.059857752,0.28326657,0.17030922,0.66234535,0.2576732,0.35681555,0.061808486,-0.57558495
-0.13044286,-0.5486299,-0.28361943,0.07264482,0.0035031247,0.33252653,0.19374566,0.28398925,0.15128824
0.42582113,0.3560199,0.32334408,0.015755873,-0.004538272,-0.184053,-0.45723996,-0.5495027,-0.14855583
-0.079403296,-0.0024343992,-0.010737307,-0.07478226,-0.10219346,-0.06367516,-0.00075874716,-0.010603833,-0.0016985254
-0.073479936,0.06985968,-0.09010117,-0.26488647,-0.08293811,0.0065475954,-0.026565125,-0.16447933,0.005255789
0.16786459,-0.024783831,0.12281247,-0.4108254,-0.016936349,0.1950862,-0.42105862,0.24476388,0.35475782
-0.47605333,-0.01511451,0.044159096,-0.20904426,0.23723154,0.1551131,0.03241191,0.14875068,0.14542533
-0.32568383,0.15474778,0.28638795,-0.2235009,0.09767571,0.15518281,-0.12652203,0.08668563,0.16792043
0.2766068,-0.04011179,-0.30789164,0.25873548,0.41475946,0.21785074,-0.13359307,0.10751608,0.18400493
-0.051146213,0.04085023,-0.03650056,0.01299836,0.021944756,0.017321257,-0.036802325,0.024890333,-0.040958993
-0.6749819,0.1783,0.3629524,-0.28401685,0.81825393,0.14902252,0.273687,0.4391767,-0.5322571
-0.054864082,0.04331719,0.0650285,-0.021501806,0.03207086,-0.019990986,0.059999593,-0.0125688175,-0.084309086
0.020333191,0.34243435,0.58919483,0.015812032,-0.033818174,0.27619871,-0.54378194,-0.6623007,-0.26653993
0.22044247,-0.26883662,-0.8209053,0.7080083,0.035772227,-0.7627206,0.67420715,0.46804032,-0.06743757
0.07650267,-0.09557256,-0.041091647,0.07680279,0.2271477,0.08727293,-0.14439873,-0.18491836,0.1893153
-0.71705294,-0.5897911,-0.0029516357,-0.5449819,0.23447861,0.43010727,0.37811208,0.4691903,0.39243552
0.051913083,0.10125972,-0.017573085,-0.01810583,-0.05124175,-0.016353192,-0.02998706,0.053226106,0.023016876
-0.17610979,-0.34273273,0.6858701,0.23434518,-1.1531008,-0.13366272,0.64978236,-0.094480954,-0.28419462
0.059763957,0.53748214,0.558777,-0.42757234,0.027901601,0.32929996,-0.5158219,-0.74645054,-0.5657908
0.05065946,0.035098385,-0.19765028,-0.016634712,0.28374115,-0.2927172,-0.16258398,0.3238968,0.015311239
0.4351498,0.4267887,0.018223539,-0.0948472,0.08186943,-0.006941082,-0.64014643,-0.43345803,-0.0515083
0.056583498,0.10763828,0.15874404,0.05176694,0.05356874,-0.041214094,0.1661444,0.086496264,-0.0983222
-0.26696327,-0.036266785,0.25087348,0.35558513,0.4338637,0.32913008,0.24210875,-0.010717809,0.0665014
0.009424049,0.054879684,0.12445429,-0.22556117,0.14430316,0.114946686,-0.23078647,0.16502954,0.030289192
0.17642915,0.10293661,-0.099125214,-0.47040802,-0.21451849,0.078360975,0.1518321,0.35220957,0.15636763
-0.23043564,-0.4688813,-0.56235296,-0.14805816,-0.15496348,0.03282294,0.42424983,0.47784728,0.49022642
-0.19263472,-0.1265018,0.05645709,0.07205488,0.121251106,0.0011159115,-0.032320283,-0.077158965,-0.000943733
0.13026711,0.22872278,-0.003335507,-0.20596866,0.38141456,0.3992175,-0.5403291,-0.17673588,0.3428316
0.050388224,0.049145304,-0.5357286,0.1706171,0.38905874,-0.14039461,-0.34661913,0.39572185,0.18108276
0.28830454,0.4356172,0.513824,-0.32230857,-0.49280152,-0.5668478,-0.05576394,-0.0668301,-0.1551916
0.20464098,0.42547223,0.03570182,-0.24019133,0.41121292,0.3493355,-0.7203089,-0.4590217,0.05867507
-0.19276753,-0.64182794,-0.7188298,0.34121135,-0.08557094,-0.07667079,0.53973806,0.5059029,0.29861212
0.43780306,0.46957174,0.29485056,0.052744836,0.01442111,-0.20463532,-0.5237639,-0.59050906,-0.39582908
-0.07178378,0.0104470095,-0.02493944,-0.023395667,-0.084907755,-0.06100503,-0.0020461536,-0.019609995,-0.10170178
-0.0036417942,-0.009862296,-0.004186802,-0.015246565,0.090351306,0.03693247,0.010437021,-0.07405929,0.02040631
-0.26537395,0.045179337,0.56814414,-0.7096022,0.03043958,0.45372927,-0.56068915,-0.30945304,0.27768078
-0.07924123,0.206232,-0.002712188,-0.34482673,0.0972391,-0.07324377,-0.34326312,0.04272976,0.1526585
0.010262587,-0.08340759,-0.029430417,-0.012840111,0.029720224,0.11196053,-0.04374946,-0.10660305,-0.20014296
-0.013527396,-0.19744906,0.054354057,0.085235864,0.113122016,0.004822964,-0.11754273,-0.08583958,-0.11616739
-0.09795415,-0.46644917,-0.6868622,-0.056417096,-0.34676027,-0.067391805,0.3359548,0.5856892,0.5562413
-0.6829652,-0.108302146,0.5613178,-0.8054945,0.11767945,0.51344347,-0.46066085,-0.017923482,0.26015735
-0.32566008,0.44833767,0.050548438,0.119512126,0.59645814,-0.3953749,0.33478546,0.2960753,-0.74588287
-0.11514318,-0.03047253,0.055492662,0.017047822,0.124549784,-0.009678222,-0.0022812926,-0.3285354,-0.39970425
-0.50341,-0.103929125,0.22124547,0.1587847,0.57222915,0.26515412,0.22721043,-0.110743895,-0.43718415
0.04181338,-0.04312699,-0.09123224,0.008928616,-0.18058963,-0.050289273,-0.14760557,0.1974531,-0.28114805
-0.0484431,-0.14277993,0.019960029,0.2579038,0.3172943,0.267173,-0.070377216,-0.28125387,-0.3685683
0.007512554,0.20102711,0.54166543,-0.13222373,0.03491443,0.45360625,-0.7096752,-0.47743654,0.1849984
-0.0060571446,-0.063654624,0.066082135,0.08140634,-0.020112041,-0.1462662,0.027563887,-0.1190543,-0.17271094
0.00010090069,-0.14448954,-0.3655614,0.20009533,0.10541652,-0.21304978,-0.06745495,0.20871836,0.1343898
-0.11389709,0.26856485,0.5836757,0.37501144,0.44492885,0.055788424,-0.17498145,-0.5588196,-0.82630277
0.15483165,0.26188904,-0.12243794,-0.023957105,0.12287873,0.14216895,0.048375327,0.053015612,0.19981436
-0.024317136,0.08423104,0.017074399,0.14172271,0.13457283,-0.14106897,-0.27663398,0.13559888,0.07911521
0.15883897,0.26759914,-0.11108664,0.30885085,0.38327858,-0.5282461,0.56701654,-0.09334628,-0.81133467
-0.228863,0.1259106,0.043438163,-0.1915222,0.39700443,-0.12627518,-0.024487011,0.32113892,-0.3917872
-0.4543881,-0.3776077,-0.2046948,-0.20883751,0.12064881,0.21374759,0.055483367,0.3543905,0.28565997
0.15314275,0.1592357,0.4485726,0.23237845,0.32456124,-0.0026819946,-0.38448438,-0.63516915,-0.48750228
0.4994491,0.2957613,-0.20135733,0.38291678,0.083839044,-0.6159554,0.19765897,-0.11343323,-0.6528182
-0.5333028,-0.18436995,0.0903114,-0.113736756,0.18803878,0.26226655,0.05867235,0.10644681,0.04866371
0.1038747,0.2575753,0.053521413,-0.20815443,0.28643703,0.12394506,-0.37609074,0.26320285,0.22826728
-0.0032724089,0.07136786,-0.053842034,-0.06494569,-0.012536471,-0.056965075,0.04064811,0.054292012,-0.06018536
0.5807563,0.2843125,-0.58625215,0.45165738,-1.0342971,-0.35291246,-0.506545,-0.7566852,0.71095896
-0.15903068,-0.70370084,-0.5411873,0.2933989,0.01754518,-0.0040215617,0.47328243,0.44482222,0.17562371
-0.4713942,-0.42570186,-0.060482156,0.10077063,0.4426606,0.36750686,-0.03212453,0.15378758,0.05877777
0.2388058,-0.036370356,-0.6560684,0.25846067,0.4185491,0.01354017,-0.0058151563,0.31847134,0.27706936
0.015420175,0.066272534,0.20774782,0.24300106,0.22206132,-0.06537579,0.2654696,-0.16215983,-0.5573839
-0.076117665,0.09764494,-0.34788707,0.10904828,0.13195252,-0.45477903,-0.024411933,0.21989734,0.10505255
0.02802093,0.016712323,0.029488578,0.06324155,-0.043002486,-0.10749566,0.0015516327,0.08997207,0.0028743583
0.23190306,0.22469585,0.3756137,0.08268906,0.22061451,-0.28042737,-0.3198436,-0.6014122,-0.51866066
-0.11850936,0.11229704,-0.025932303,-0.044776622,0.19906783,0.02023401,-0.18877336,0.17929292,-0.22062746
0.4685383,0.046026304,-0.64730763,0.5393948,-0.047492005,-0.43062076,0.34229684,-0.013568994,-0.18098064
0.17250729,0.1757359,-0.28971657,0.47211388,-0.06582739,-0.52048963,0.34924865,-0.050419092,-0.2188488
0.6197746,0.3697684,-0.536022,0.3422941,-0.47908694,-1.0736912,-0.38359872,-1.1726402,0.010622176
0.43426847,-0.03668357,-0.47225434,0.2513734,0.012081481,-0.29801655,0.111847416,-0.11861918,-0.37169814
0.018135685,0.0054168366,0.04083324,0.06134517,-0.07905076,-0.048883688,-0.015090966,0.048906047,-0.015825043
-0.018647349,-0.0021026833,0.26175046,0.3858581,0.30822417,-0.041703258,-0.10752833,-0.10313996,-0.44984916
0.30206814,-0.10275771,-0.43126005,0.27497274,0.046173025,-0.47567898,0.40518552,0.052177288,-0.41744843
0.16351317,-0.24939188,-0.41948158,0.2643475,0.31729183,-0.28612205,0.07318076,0.3258707,0.2028386
-0.25605834,-0.49089533,-0.43647617,0.2153005,-0.03451332,-0.09472592,0.42279756,0.25064722,0.24212573
-0.1849836,-0.5305736,-0.24629326,-0.020115461,-0.05840763,0.08202038,0.38549766,0.41929743,0.15303926
0.43453446,0.4731698,0.4981612,-0.030521909,0.110359915,0.0067756176,-0.66192454,-0.71521896,-0.50199896
0.16716844,0.19010724,-0.042157885,-0.10154077,0.021008348,0.10646425,0.1187893,0.18111832,0.10810455
0.057810646,0.014347375,-0.21685034,0.17818159,-0.19563693,-0.41691634,0.032720126,0.34357566,0.33146656
-0.027649136,0.028492615,-0.4246411,0.37026724,0.039851345,-0.73353744,0.46568558,0.35926083,-0.082387775
-0.1872217,0.1422629,0.035018004,0.06431757,0.46897647,-0.42610636,0.4209485,0.2842637,-0.68256515
-0.06417814,0.21731414,-0.21203631,-0.044126112,0.3465879,-0.2118333,-0.3380828,0.2867444,-0.06486346
0.037201874,0.27139744,-0.2565143,-0.021661954,0.30062556,-0.34033546,-0.05909036,0.3433728,-0.1546017
-0.15341513,-0.45574257,-0.29971322,0.15751478,0.0648743,-0.57436043,0.30316904,0.56638914,0.2590399
0.092845745,0.38861218,0.48413378,0.28882286,0.3700753,-0.1503435,-0.15079561,-0.7028296,-0.55999374
-0.20862244,-0.56486356,-0.4250042,0.050141197,0.049198054,-0.028388279,0.26639932,0.39182633,0.41429466
0.048418023,0.03753955,0.064254336,-0.04754444,0.03609569,-0.050124455,-0.05094694,0.11030116,0.0021221624
-0.112396866,-0.57985425,-0.39089063,0.1044994,3.2349122e-05,0.100131206,0.1054537,0.45939264,0.31384844
-0.0077144015,-0.30078533,-0.41349953,-0.19398788,-0.027576324,0.09830854,0.2883384,0.07370653,0.3364908
0.3692059,-0.3664349,0.016341427,-0.33424056,-0.4496605,0.22463036,0.08518875,0.30668125,0.23625606
0.24165629,0.44987643,-0.5881516,0.03427019,0.12138851,-0.16270216,-0.28016272,0.100431174,0.12591769
-0.57879746,0.21934424,0.20725302,0.14862755,0.59545577,0.08998658,0.31300446,0.029039435,-0.6060242
0.039938625,0.0051347413,-0.20904285,-0.12593709,0.19513091,0.074663594,-0.38611352,-0.09813513,0.12108583
0.018897833,-0.077000506,0.014930511,-0.24941525,-0.15757467,0.056347247,-0.09699061,0.03863838,0.013011013
-0.06821124,-0.17565311,0.1788429,-0.5676693,0.09784882,0.28944132,-0.16127619,0.32513717,0.2828012
-0.38693452,0.10373388,0.04909871,-0.20586132,0.24045175,0.06262302,-0.27745023,0.15595356,0.011737057
0.015409034,-0.12194746,-0.0038474991,-0.017602276,-0.1276266,0.08544882,0.034464687,0.034972414,-0.034656465
0.43593758,-0.07141074,-0.36481306,0.3074161,0.044809915,-0.4831736,0.21726374,-0.075141095,-0.44347185
-0.04961449,-0.26042235,-0.16975053,0.1459589,0.16284037,0.24517593,-0.08503051,-0.033794813,-0.1497901
0.079636104,0.13670549,-0.036256153,-0.023241092,0.37433726,0.03544108,-0.31688815,0.15619436,-0.019725014
-0.3003129,0.106571935,-0.040535707,-0.48771054,0.24767476,-0.04040682,-0.15016067,0.13044421,0.0756099
0.004870194,0.56505436,0.65542924,-0.8041422,0.23703566,0.4534146,-0.84642184,-0.27184477,0.25485978
0.1719616,0.254186,0.4391328,0.03452377,-0.17327474,0.17779927,-0.5054569,-0.33791184,0.042292673
0.32032764,0.42955843,0.3954222,0.4427965,0.35886943,-0.17888843,-0.3466335,-0.9256331,-0.5700336
-0.6988247,-0.36214513,0.40544462,-0.54086554,0.06506303,0.57900524,-0.56696445,0.034411922,0.4098779
0.012217363,0.25364316,-0.06374165,-0.18490598,0.23905167,-0.012245585,-0.1432483,0.19269738,0.08905546
0.4341224,0.49521506,0.35902897,-0.2046106,0.25961372,0.32972568,-0.90918714,-0.56520265,-0.086843
-0.53061855,-0.51787186,-0.54238766,-0.10269772,0.089973524,-0.016558342,0.11304606,0.18840104,0.4209329
0.2497233,-0.027969528,-0.36725512,0.27476823,0.13475922,-0.44327936,0.38557997,0.04584132,-0.37402558
0.2647463,0.2238078,0.22927226,-0.13020533,0.23478013,0.05882658,-0.1575698,0.21311845,0.21182518
0.027320331,0.027308911,-0.006054898,0.04147986,-0.038280685,0.09404303,-0.034621637,-0.00026962426,-0.1852207
-0.36257917,0.11327982,0.28442425,0.34878314,0.6880571,0.06463631,0.3705775,-0.15391164,-0.74177825
-0.29518837,-0.024237422,0.23386183,-0.44053724,0.29862237,0.25254118,0.0012765183,0.2628289,0.010384388
0.0680906,-0.06212005,0.021323135,0.039609995,-0.07264176,-0.033107374,-0.0020828058,0.04306415,-0.044623546
0.14732005,0.4253611,0.5734997,-0.029244015,0.18959272,0.29696125,-0.9679401,-0.6934922,-0.5403423
-0.4631347,0.05120296,0.23933922,-0.37255767,0.07964924,0.34259847,-0.41960868,-0.05535896,0.37973553
-0.26454496,-0.06598264,0.057164673,0.062360648,0.17339838,0.23671608,0.01887296,0.27513263,-0.28574818
0.121341616,-0.43976244,-0.6619035,0.5986105,0.04013728,-0.566176,0.5698853,0.40780497,0.06926093
-0.60987943,-0.49237078,-0.03846685,-0.34886396,0.22301853,0.54276794,0.04148381,0.1080445,0.38127768
-0.45681414,-0.3340917,-0.06481486,-0.3273887,0.18072602,0.41322032,0.34748793,0.44195193,-0.098150685
0.12029957,0.36628368,-0.08584559,0.11600399,0.61762935,0.17308481,-0.385127,0.04169725,0.1748775
0.22068347,-0.32312524,0.08023371,0.22402301,-0.3673902,0.054572675,0.05587995,0.09860781,0.14171275
0.12645379,0.14572793,0.03919622,-0.04763036,0.06537815,0.05688765,0.029801682,0.19039138,0.016967464
-0.02374481,-0.25808665,0.056135394,-0.46989465,0.0040887464,0.22620612,0.05340149,0.18918903,0.2499135
0.34661573,0.17074835,-0.099562146,0.29816097,-0.020114617,-0.42630482,0.026955135,-0.10972363,-0.52754223
-0.25251555,-0.49599364,-0.1460144,-0.14476325,-0.016544564,0.012771669,0.32285768,0.42968673,0.15981095
-0.18690008,0.09420319,0.20734741,0.3059084,0.4634118,0.3849909,0.1698528,0.24181761,0.10748037
0.00097042567,-0.06150118,0.067937806,0.01002959,-0.07328386,-0.08043769,0.003761699,0.008288271,-0.101295464
0.18096834,-0.352932,0.16587968,0.417581,-0.44463828,-0.41841772,0.362688,0.14209618,0.022234604
-0.50638837,-0.075591065,0.19522263,0.117387086,0.44007075,0.12020027,0.13397309,0.10514018,-0.15782091
-0.20441416,-0.33558843,-0.10885106,-0.107065134,-0.13219318,0.11322745,0.044312403,-0.038110293,-0.16223444
-0.16075088,0.0024684286,-0.13070528,0.09985037,0.29840472,0.13520391,-0.3132482,-0.36375785,0.11703926
0.17918465,0.15652858,0.04781805,-0.3531878,0.011266612,0.17063636,-0.4097556,-0.20289187,0.018966984
-0.51247543,-0.3054253,0.34127092,0.12134513,-0.8510395,-0.7093915,0.61701125,0.4330152,-0.044148125
-0.005556711,0.047287963,-0.12469912,-0.0043796217,-0.04076049,0.045442708,-0.064281836,0.022317491,-0.062188324
0.009634596,-0.023219826,0.029086683,-0.16203876,-0.047350712,-0.086871706,-0.018733118,0.0353413,0.0092756795
-0.02679353,0.080454074,0.19046782,-0.6029605,0.13926369,0.35149536,-0.59213257,0.060285974,0.24265143
0.10762739,0.26718664,0.14448497,-0.40857628,0.0627738,0.22279973,-0.45138356,0.057281896,0.20305412
0.098151326,-0.16235553,-0.43957055,-0.033521365,-0.11676618,0.07765706,0.13003466,0.22440574,0.36794263
0.0048206807,0.014531381,-0.051905043,-0.027280267,-0.0292541,0.03911157,0.011667868,-0.0010053924,-0.046403877
0.12946841,-0.0918321,0.03146163,-0.06313319,0.029739298,-0.02928045,-0.15453544,0.032979563,-0.017344361
0.36030573,0.38500232,0.56832314,0.037954476,0.23413323,0.013462037,-0.49454302,-0.6618989,-0.3238453
0.17721507,-0.035225134,0.114907764,0.007433247,0.09614417,0.063896224,-0.008013281,0.27939638,-0.38144574
-0.10405579,-0.028701786,-0.011356699,0.029887037,0.020882564,0.0074525154,-0.024456138,-0.008736525,-0.06590539
0.60478896,0.53889745,0.08861236,0.34966564,0.016537724,-0.67458093,-0.82453245,-0.86001825,-0.43856078
0.16984937,0.13961722,-0.84374446,0.16276595,0.5210133,-0.2775176,-0.045869086,0.18467659,0.110930614
-0.64643836,0.1840277,0.3614502,-0.64427286,0.25900215,0.1620403,-0.62139356,0.12626429,0.08940681
-0.12861083,-0.5747096,-0.33557642,-0.22028352,-0.10752813,-0.033937596,0.03412289,0.17589186,0.18193641
-0.4243024,-0.34107712,0.30601543,-0.45722088,-0.11964494,0.34608927,-0.5211466,0.024975708,0.43380687
-0.4065317,-0.04717998,0.08799793,0.16849472,0.46275413,0.034746945,0.21195163,-0.19404508,-0.4610034
-0.34194192,-0.471121,0.1451598,-0.5295984,0.031166935,0.45785937,-0.073613174,0.44392306,0.22032423
0.13400722,0.43751973,0.31450692,-0.45949817,-0.8000124,-0.5417878,0.29267266,0.28162256,0.1932905
0.07333287,-0.31976116,-0.52557904,-0.3231498,-0.21264689,-0.04147065,0.3556686,0.49664092,0.5084431
0.14612387,0.23065466,0.24986991,0.20812128,0.089504234,-0.18604515,-0.10512105,-0.48986164,-0.26152107
-0.40797654,0.16086142,-0.13583165,0.19833098,0.5665056,-0.35557598,-0.059910998,0.019374035,-0.37656114
0.1724295,0.27039447,-0.47766528,0.35434538,-0.028588083,-0.50769,0.41013584,0.17210604,-0.5653811
0.09297093,0.04226101,-0.3845595,-0.025281802,0.16951829,-0.4726598,-0.0042652483,0.20492071,-0.23757315
-0.05737407,-0.82170486,-0.32433328,0.4884448,-0.40532288,-0.43243566,0.6616825,0.33641043,0.09910339
0.23109795,-0.29522488,-0.6828113,0.26538092,0.23188078,0.3021504,-0.4105152,-0.034064412,0.13818526
-0.15073614,-0.69155985,-0.25178018,-0.28968683,-0.13104975,0.30025935,0.34866315,0.4744887,-0.105139494
0.058091294,-0.039637186,-0.14231256,-0.086084865,0.15414126,-0.077313796,-0.23186664,0.13667926,-0.022325713
0.5304147,0.1930905,-0.9823652,0.14819813,-0.3621412,-0.508457,-0.45556596,-1.2083136,-0.04499065
0.1006604,0.14661242,0.75307494,-0.07954017,-0.15977556,0.522457,-0.81489986,-0.48383087,0.1711228
0.3604475,0.44632107,0.27240217,-0.25385243,0.22495873,0.31369752,-0.80228066,-0.534318,-0.034806583
0.24712104,0.32657534,0.46827012,-0.24576725,0.040073607,0.15271366,-0.68160844,-0.6037212,-0.38623014
0.17139567,0.30910265,0.16166952,-0.12072588,-0.3154242,-0.13279624,-0.31454858,-0.020163136,0.16644073
0.03066855,-0.14367644,-0.241248,-0.05653098,-0.1226,0.06616846,0.08360894,0.042265676,-0.03942477
0.1579768,-0.028626736,-0.7512286,0.49560362,0.11637432,-0.6545519,0.24164152,0.35788003,-0.060222447
-0.11732231,-0.399811,-0.7311498,0.408526,-0.06231941,-0.36408344,0.40005788,0.6407955,0.14630553
-0.14590998,0.1709419,-0.17480557,-0.005400857,0.27946898,0.0736304,-0.036836162,0.1069988,-0.068716265
0.14647351,-0.253449,0.035172414,0.004996696,-0.16285725,-0.022370316,-0.08127824,0.02417199,0.005596422
0.60689354,0.14354335,-0.6626431,0.518957,-0.098246895,-0.6926274,0.41312218,-0.31284946,-0.7582584
-0.33771265,-0.062323444,0.05594085,0.45078656,0.32782355,0.09030522,-0.030316243,0.03216259,-0.81522876
0.030593388,0.070004724,0.22315414,0.2411028,-0.0045562787,-0.34511876,0.26860473,-0.17229994,-0.41711342
0.05263624,0.015205201,-0.02839321,-0.07714686,-0.07488183,0.07658575,-0.06871901,-0.034635227,-0.042408515
-0.006544589,-0.28707787,-0.003925255,-0.15075131,-0.087585285,-0.05253756,-0.14720099,-0.045361407,0.028725782
-0.18281262,0.08873588,0.1305255,-0.41532347,-0.19759957,0.22401106,-0.4672228,-0.19801499,0.1354168
-0.06550241,-0.099087425,-0.13789596,-0.077093065,0.03405323,0.09939005,0.0088835545,-0.21402605,-0.047989644
0.05993717,0.0017815179,-0.07892287,-0.04189131,0.016581882,-0.0012987023,-0.07964261,-0.112296544,0.04030097
-0.06574627,-0.05408405,0.05953664,0.020719655,-0.06143819,-0.11120649,0.01468225,-0.028097095,-0.13632905
0.66967237,0.48801216,-0.280541,0.07333442,-0.79249734,-0.9860324,-0.9640823,-0.4880981,0.49751055
-0.653608,-0.56030315,-0.10850356,-0.2570268,0.19902472,0.18479174,0.19761775,0.536391,0.15080509
-0.6027733,0.2220582,0.14882436,0.33948487,0.49427956,-0.022556942,0.23448195,-0.18681535,-0.663231
-0.54164803,-0.3615024,-0.058051027,0.1810746,0.44213983,0.43753713,0.034719292,-0.032610312,-0.20696703
0.090813644,-0.27428436,-0.28473577,-0.0143732885,-0.27749965,0.04618855,0.24014807,0.2094901,0.18299794
0.019141098,-0.054412525,-0.10024058,0.05940511,-0.1978288,-0.07159405,-0.06721068,0.058717612,-0.16229424
0.052917328,-0.10500765,0.059074745,-0.07324369,0.08766324,-0.09720256,0.014811963,-0.025792949,-0.26832387
0.19250208,0.34491792,0.28964078,0.3794973,0.08352559,0.078927316,-0.5435164,-0.6028513,-0.3902859
-0.39239123,-0.2081153,0.27250776,-0.44747105,0.24677318,0.21791385,0.015740758,0.38626385,-0.07075222
0.09232825,-0.040989634,-0.114132844,-0.12014304,-0.034432843,0.12620063,0.034590382,0.011205169,-0.2121484
-0.41999003,-0.32657945,-0.07152167,-0.06652111,-0.1867715,0.07848805,0.08092406,0.23170444,-0.10353176
0.07879296,0.012310797,-0.0576037,-0.017385948,0.00096199586,-0.042691924,-0.0533294,0.05426677,-0.0024526196
0.012408901,0.24905847,-0.23302796,0.02230039,-0.34249392,-0.3166084,0.31258422,-0.10065311,0.30323365
-0.38225034,0.12868394,-0.11740031,-0.19903679,0.45495093,-0.24933067,-0.089678004,0.40389568,-0.4099378
-0.15508868,0.03472466,0.24820511,-0.03878162,-0.057760958,0.38100386,-0.27072924,-0.9061889,-0.11494788
0.026583808,0.087134056,-0.125211,-0.14174047,-0.006696033,0.026412316,-0.0706499,0.1534802,0.13934785
0.13636167,-0.38585615,-0.48901126,-0.19757375,-0.26541886,-0.031338543,0.3326899,0.5003579,0.38477734
-0.03135831,0.21290633,0.24539277,-0.6060702,-0.0036755942,0.40796572,-0.5517573,-0.1793325,0.40486488
-0.10814877,-0.1091395,0.121352896,-0.6635612,-0.07416994,0.34070417,-0.41569033,-0.09262848,0.30837664
-0.07413215,0.0057316064,-0.079882555,-0.096087284,-0.031929653,0.010692881,-0.082878485,-0.0019120373,-0.015105385
-0.69351643,0.27127695,0.2213863,0.15327062,0.6669748,-0.040043112,0.23039488,-0.07123767,-0.5309298
0.15634136,0.16920272,0.22767478,-0.099434026,0.029758286,0.0095220795,-0.4626391,-0.6226574,-0.38248152
-0.0716622,-0.043885686,0.07320568,-0.08428673,0.08603968,-0.119395,-0.02316086,0.13511063,-0.3131465
-0.35807863,-0.18354522,0.15045974,-0.4057431,-0.012926049,0.32164055,-0.058451325,0.26198038,0.15340988
-0.102074094,-0.07204618,0.040855855,-0.040599123,-0.09415983,0.008719731,-0.02538973,0.099398665,-0.056278203
0.4989055,0.19610156,-0.43070227,0.37212095,-0.0789532,-0.89018565,0.17912179,-0.3432741,-0.34188858
0.32169503,0.39686376,0.18555194,0.16029826,0.06180203,-0.33896738,-0.5017496,-0.73196834,-0.34887025
-0.54754555,-0.44118455,-0.14700897,0.0037782649,0.24060121,0.33220702,0.113747984,0.026115386,-0.14336133
0.13571942,-0.13424686,-0.45293388,0.13023679,-0.021533195,-0.0938058,-0.0024657655,0.3251796,0.31332433
-0.3105791,0.21652806,-0.36610872,-0.07305693,0.36584362,0.12489793,-0.16090874,-0.13808458,-0.20491739
0.08399718,0.20833404,-0.12070339,-0.17323104,0.16315354,-0.10209035,-0.11340666,0.24971434,0.17244625
-0.1545785,-0.7121991,-0.37340823,0.17548347,-0.08413025,-0.13222434,0.27457777,0.34081656,0.2714014
0.16441412,0.26196373,-0.057003018,-0.052876577,0.116114594,0.15425467,-0.060970273,0.23539561,0.15028007
0.29978523,0.34064156,0.27249652,0.07993448,0.20068294,-0.23076192,-0.22732241,-0.47816604,-0.34227085
-0.28751162,-0.5246264,-0.13872282,0.40931085,0.27878243,0.4317463,-0.2298113,-0.1725357,-0.0572492
0.060172215,-0.059389126,0.028076125,0.004318121,-0.11646475,0.053890407,-0.06435171,-0.012314757,0.008524295
0.1299654,0.14906721,-0.28853115,-0.07255308,0.153594,-0.22698869,-0.10618861,0.23023897,0.13299097
0.08500542,-0.04937424,0.041650422,-0.0069055413,-0.07773859,-0.017159203,-0.02762391,-0.0066735405,0.027935542
0.14129917,-0.024977641,-0.37184998,-0.16221768,-0.042024314,-0.12945522,0.042120546,0.1826317,0.21703069
-0.061234567,-0.45768958,-0.37547338,0.2808322,0.3138461,-0.19824037,-0.019864133,0.2721814,0.20140438
0.06635993,0.004704323,-0.14263569,0.0011838817,0.0003766406,0.028412236,-0.0038937926,0.009803993,-0.0064887647
0.033813674,0.04048097,0.028722351,-0.051681653,0.03760179,-0.13491455,-0.16409962,0.0753994,-0.03340824
-0.5206558,0.24835373,0.34949675,-0.66430724,0.2210174,0.24269904,-0.69395685,-0.13478802,0.25609237
-0.5185694,-0.07726088,-0.0018512362,0.006423246,0.5146639,0.08059301,-0.1260105,0.14047003,-0.6803869
-0.17437242,0.21396655,0.606512,-0.53545463,-1.0193086,-0.47439602,0.6591692,0.19030549,-0.20177309
-0.13817994,0.07139268,-0.115400694,-0.18527414,0.32695848,-0.093554474,-0.16614978,0.42995882,-0.25136945
-0.26719582,-0.019697096,0.05953372,-0.05235333,0.13540885,-0.16294242,-0.016215838,-0.051037505,-0.37059855
0.17203265,-0.48430482,-0.4703479,-0.33767822,-0.2214785,0.27688903,0.3443758,0.54900926,0.18947151
-0.17766361,-0.700014,-0.35704008,0.34722507,-0.022479942,-0.2527824,0.23301244,0.36782572,0.20864826
-0.1488741,-0.5133552,0.0025709511,0.3226854,0.24824889,0.26503465,-0.26694432,0.024142774,-0.10800511
0.13733038,0.41826665,0.5319718,-0.237036,0.014133934,0.44018042,-0.7059711,-0.7038569,-0.2683464
-0.17441761,0.15431593,-0.20955102,-0.03341512,0.15408662,-0.10980021,-0.2567061,0.16268837,-0.17087914
-0.11977985,0.15718798,-0.50818753,-0.15011932,0.08734007,-0.10979389,-0.107477896,0.14434177,-0.1004132
0.1649494,-0.101453595,-0.75697196,0.6177487,0.030217707,-0.8407588,0.34946635,0.48727491,-0.13268615
0.13932297,-0.24006458,-0.191911,-0.0036176494,-0.10903333,0.048489656,0.0816339,-0.06641604,0.057040952
-0.001956191,0.03297088,-0.047778446,-0.18434398,-0.15167446,0.07060549,0.063667655,0.03170118,-0.061221167
-0.010497909,0.0037411111,-0.028919457,-0.023138583,-0.016156191,0.09643998,-0.06711572,-0.23888297,-0.28801802
-0.041539006,0.08067894,-0.080642805,0.007791176,-0.026868619,-0.024140475,-0.1911007,0.048505336,0.021861428
0.029561577,0.0661984,0.045890067,0.0065237074,-0.022341453,-0.08342563,0.031370386,-0.0019548095,0.026775848
0.5013706,0.3072467,-0.2091255,0.58999026,0.06052712,-0.8267472,0.3262973,-0.40153247,-0.41618478
-0.34190783,-0.24561484,0.30278978,-0.53355134,-0.3367084,0.5180032,-0.6291069,-0.35752985,0.41777197
0.011404997,-0.072568856,-0.06466106,0.009529828,-0.010508275,-0.055291276,-0.12097281,0.15305844,-0.11174971
-0.051588304,0.22694951,0.42772618,0.41605282,0.42536375,-0.13319485,-0.32318443,-0.7129113,-0.71290016
0.031076519,-0.07911066,0.033589162,-0.065107085,-0.052630126,-0.21885562,0.0061770678,0.10044932,-0.03736158
-0.051937316,0.09119145,0.009451667,0.035759162,-0.023944704,0.0038263705,-0.15325134,-0.05678677,0.035905592
0.32124373,0.2311246,0.21087228,-0.10578169,0.16282302,0.20409231,-0.4516067,-0.4773221,-0.33398852
-0.28894788,-0.027655426,-0.10462932,0.28033632,0.115532026,0.21659324,-0.2902232,-0.1536749,-0.08571175
0.2527919,0.4522919,0.40238738,-0.54639745,-0.16519961,0.21890958,-0.48238125,-0.6342119,-0.63554186
-0.050534405,-0.01975488,-0.015690899,0.052761137,0.08019781,0.04339801,-0.110795915,-0.018772082,-0.004017577
0.05372515,-0.027940737,0.036374155,-0.07329329,-0.069152825,-0.10594678,-0.12007556,0.08106117,-0.09171486
0.052173626,0.1678738,-0.26156926,0.14184247,0.023078369,-0.38256526,-0.028643228,0.2142767,-0.04520962
0.128702,0.4284117,0.2100568,0.27858722,0.17197956,-0.54027605,-0.2965511,-0.3819063,-0.50295573
0.1865197,-0.8281708,0.61500067,0.5811616,-1.1063278,-0.066679254,0.49642807,-0.09388248,-0.07231149
0.062193677,0.4392269,-0.061240036,-0.52620894,0.30617598,0.121190175,-0.49007654,-0.20910221,0.2425161
0.14458193,0.034680694,0.17969023,0.06599463,0.081479445,0.15267135,-0.30877835,-0.37155825,-0.24507204
0.0055131647,0.004503713,3.1964923e-05,0.032604467,-0.08488136,0.038051378,-0.020509724,0.031446617,-0.036411706
-0.6105319,0.11076511,0.14927714,0.036553215,0.6000091,0.034214012,0.11478544,0.16992478,-0.56444144
-0.07304511,-0.13576695,0.044942,-0.12652376,0.16019219,0.0675991,-0.054641448,0.25539532,-0.29530272
-0.34222418,-0.51504576,-0.40923062,-0.80291283,-0.049859956,0.38412637,-0.061483845,0.453023,0.4478843
-0.56243306,-0.53664285,-0.0060990485,-0.70199895,0.19578555,0.5899151,-0.1720333,0.5137979,0.24521144
0.2974583,0.18563214,-0.36040825,0.49161378,0.27250904,-0.6231481,0.50539243,-0.12580426,-0.68396825
0.05950236,0.037544936,0.0016675007,-0.07075745,0.016496725,-0.029622093,0.0055059725,-0.035369396,0.072638996
-0.043422114,-0.012518479,-0.1384335,0.023958176,0.11750283,-0.06270911,-0.17700669,-0.15455663,0.013518119
0.15005937,-0.18800767,-0.41864833,-0.003929722,0.39437237,0.16483502,-0.16626912,0.18146804,-0.016286978
-0.20432995,-0.0778601,-0.16877457,0.13059233,-0.017396783,-0.0072841975,-0.21494487,-0.054370347,-0.1191789
-0.07465241,0.28567886,-0.37779102,-0.15301694,0.2633159,-0.0018766321,-0.12382255,0.15073721,0.12873487
-0.051511843,0.1553854,-0.49685252,0.12923649,0.4561085,-0.123722434,-0.3811264,0.18111847,0.026205746
-0.13587104,0.2709519,0.051650662,-0.5407456,0.35958916,0.31290248,-0.6572194,0.040023945,0.039474066
-0.24724233,-0.15726961,0.002783995,-0.4100263,-0.19970244,0.3425978,-0.14695576,0.20796786,0.2766941
-0.041872893,0.25285736,0.3980821,0.33337706,0.35760555,-0.17331967,-0.037282273,-0.4722778,-0.49432123
0.06467029,-0.020317446,-0.17327936,-0.14568402,0.15615131,-0.06842383,-0.21732245,-0.04166745,0.028082183
0.53768164,0.23514307,-0.7017642,0.25562465,-0.036912996,-0.6382159,0.25292802,-0.30344746,-0.3405365
0.30669618,0.22198491,0.4401265,-0.039380375,0.09389348,0.06913081,-0.49687368,-0.5446578,-0.46852434
-0.2283445,-0.20086773,0.34264857,-0.5640299,-0.023159062,0.33286917,-0.11339239,0.2783502,0.3566162
0.18224716,0.22174682,-0.20858733,0.052076586,0.06544336,-0.5199012,-0.28638455,-0.28881815,-0.36219385
0.3622444,0.19688307,-0.3767445,0.4424221,-0.45231006,-0.43022364,0.06624746,-0.3694209,0.23255484
0.019152414,0.09740054,-0.018079827,-0.124278404,0.2952311,0.003617121,-0.46381032,0.17763188,0.15038359
-0.099568024,0.04139067,-0.24232909,0.058672354,0.032437958,-0.121227995,-0.1031611,-0.014901895,-0.035863195
-0.31763327,-0.45867732,-0.16461523,0.08853812,-0.17109452,-0.17579001,0.2770636,0.42246142,0.20608293
0.14019044,-0.10777797,-0.064242736,-0.041183382,-0.2513728,-0.058886893,-0.005005676,-0.027604096,0.09662689
-0.140777,-0.4394481,-0.29807368,0.22953841,-0.16401784,-0.40342817,0.33784923,0.4498043,0.4265876
0.024987789,0.045177765,-0.16359541,0.36086988,0.124151595,-0.7799391,0.27508008,-0.07379639,-0.2787989
0.32400534,-0.6337541,-0.3028818,-0.32593778,-0.15885265,0.33017266,0.31483573,0.2717031,0.27567866
-0.30198726,0.21200494,0.21254078,0.007280371,0.39156425,-0.15429688,0.14703,0.0247098,-0.4204196
0.097231284,0.4832828,-0.6231332,-0.13641107,0.6648677,-0.23208752,-0.22228922,0.35747007,0.1962703
0.5463963,0.51699245,-0.016392339,0.23549981,-0.100019224,-0.8177457,-0.6239323,-0.9781637,-0.016758783
0.0072687985,-0.060330585,0.062078215,-0.07193081,0.002897445,-0.15217005,0.013340982,-0.06826888,0.08557441
-0.17860803,-0.16781874,0.06348526,0.028825827,0.00881131,0.050660513,-0.05541154,-0.060036264,-0.03784147
-0.16847397,-0.2668364,0.0075898366,-0.44309032,-0.05807456,0.045661706,-0.5449464,0.031524457,0.11413453
-0.21393621,-0.31397095,0.13296683,-0.39210016,0.15857147,0.13506484,-0.6414582,-0.054040458,0.21121436
-0.028075932,0.06889778,-0.07486299,-0.06054241,0.018101694,-0.014651836,-0.17193787,-0.12418286,0.065899156
-0.14429992,-0.04887465,-0.20372592,-0.38643178,-0.08066976,0.1544037,-0.42708442,-0.41531575,0.09134093
0.20639405,-0.32708448,-0.038036432,0.10592569,-0.09798252,0.024841148,0.112438045,0.18014751,0.14955208
0.38463607,0.3478071,0.36882263,0.16264535,0.07201594,0.026131978,-0.6644884,-0.4818437,-0.33046716
-0.22854002,0.1387996,0.75567734,-1.099969,-0.6614006,0.409727,0.10449771,-0.69645023,-0.16017865
-0.014325258,0.03229051,0.028822556,-0.06434136,0.05353465,0.071755745,-0.010416971,0.14260091,-0.12694797
-0.4655764,-0.15762265,-0.021280902,-0.097049505,0.10652929,0.14368175,0.34709933,0.20183739,-0.18819503
-0.5100746,-0.11495837,0.10835258,0.30914712,0.52172756,0.063859165,-0.18481486,-0.3075446,-0.13990234
0.29741967,0.100019015,-0.02144654,-0.32000482,-0.08141188,-0.42637762,-0.21253467,-0.3916858,-0.6044652
0.018916296,0.04802901,0.0021777474,-0.012890061,-0.074699536,0.035478085,-0.19974087,0.020162234,0.0654912
-0.74361145,-0.24981247,0.48716733,-0.92037153,-0.11842764,0.51774377,-0.60825795,-0.22691898,0.33181405
0.028065296,-0.011558264,0.056172352,-0.019057427,0.07057546,-0.08499051,0.010102673,-0.040666737,-0.04655358
-0.18975495,-0.012255629,-0.24540228,-0.13992012,0.14345008,-0.16274561,-0.07797376,0.15301502,-0.16431922
-0.13947095,-0.24304539,-0.037841097,0.25737366,-0.062750295,-0.30930984,0.27429384,0.07725642,-0.19219506
-0.23666063,-0.21178098,0.015872156,0.15269299,0.11515919,0.13785237,-0.3796664,-0.08231315,-0.15698111
-0.34930372,0.0020870334,0.051544085,0.028477369,0.19131161,-0.05827304,0.14406218,-0.15878177,-0.35118905
-0.60728204,-0.08311085,0.10152262,0.3531919,0.40737584,0.3051122,0.04401019,-0.31638882,-0.67885673
0.03435812,0.077832535,-0.101557076,-0.009987686,0.28552055,0.45409444,-0.34468013,-0.36624515,0.11616624
-0.18682534,0.08261093,-0.39504358,0.29851475,0.12969802,-0.98353446,0.46437392,0.6398014,-0.14865318
0.23734869,0.36615315,-0.008025813,-0.37343037,0.09473244,0.19755292,-0.53348017,-0.15977624,0.15703371
0.20832163,-0.17718905,-0.20584644,0.25137362,0.052050557,-0.16133039,-0.02321175,0.19584468,0.2579036
0.050021444,0.13971256,0.54946727,-0.33556682,-0.8598208,-0.50389946,0.549769,0.29529598,-0.07148319
-0.63215363,0.043882184,0.026403893,0.04150417,0.6996922,-0.093823984,0.043497324,0.03503295,-0.45170027
0.07739746,0.14158458,-0.39526963,0.021724723,0.42995414,0.21862917,-0.39928108,-0.16080472,0.10363577
-0.0092176935,0.26067328,0.16664572,0.108967766,0.36002913,-0.1867871,0.20249155,0.14027137,-0.626701
-0.5847267,-0.5807651,-0.35799322,0.1106477,0.0049945894,0.14335348,0.44642928,0.48952344,0.16332741
0.3201213,-0.46081105,0.2006855,0.2538232,-0.70769966,0.18781048,-0.010193137,-0.35604402,0.26167637
0.054078043,-0.03370294,-0.0012658373,0.01845921,-0.0020496144,0.065396726,-0.047795437,0.024904553,0.11344587
-0.072014354,-0.42837203,-0.22019447,0.2168188,0.26633534,0.25905898,-0.09106642,-0.24311535,0.14114653
0.053234514,-0.28614306,-0.007109793,-0.5481989,-0.08313854,0.15125127,0.30165273,0.40561193,-0.013590495
0.05307455,0.31826606,0.4885921,0.07996156,0.12837528,0.26549292,-0.6966315,-0.5964543,-0.3827591
-0.1709887,0.28024858,-0.040828936,-0.064785935,0.24128467,-0.18152073,-0.10409308,0.23614325,-0.031382695
-0.3386109,0.1785833,0.023384802,-0.019365389,0.30203587,-0.18194294,-0.09699609,-0.10716707,-0.18167898
0.44495046,0.46668765,0.40358776,-0.08207298,0.14411238,0.044120904,-0.5884833,-0.7558424,-0.5179722
0.3457759,0.5953809,0.10445182,0.5297526,-0.10962413,-0.8887205,-0.014978348,-0.70594543,0.13405286
-0.042102218,0.13014685,-0.051589336,-0.1948885,0.22050029,-0.100401744,-0.20791696,0.21668375,-0.171389
-0.56867176,-0.008503025,0.22513042,0.048381116,0.6099966,0.26775423,0.35735258,0.14415789,-0.4733094
-0.029186951,0.2573429,-0.20446856,0.2580982,0.07191746,-0.30899164,0.42576906,-0.012947693,-0.4621241
-0.3779487,0.11188977,0.23048703,-0.16033836,0.4921637,0.037839722,0.25354663,0.32755336,-0.044949472
-0.119499646,0.4524268,0.75310814,-0.92999357,-0.14306602,0.56750643,-0.6659398,-0.7054399,-0.09887506
-0.06432594,-0.21256153,-0.13013686,0.026069283,-0.122462,-0.059819337,0.020573853,0.09279661,-0.006590193
-0.633304,-0.05081933,0.0654262,0.39989996,0.70818686,0.2615278,0.24150339,0.024130281,-0.5776056
-0.016260508,-0.16549397,-0.039322786,0.056226768,-0.078271575,0.07570606,-0.08387037,0.0016438428,-0.08832089
0.029527385,0.11436612,-0.006231819,-0.10590988,0.043610953,-0.026536157,-0.17062564,0.0006432019,0.12883979
0.12329829,-0.33436,-0.48387432,0.26994094,0.11931345,-0.577523,0.16948731,0.5507183,0.25614938
-0.021905815,-0.018712502,0.07589978,0.019098537,0.011172587,0.03625217,0.045857117,0.102313675,-0.123999126
0.23843741,-0.14220662,-0.3984375,0.3478441,-0.0063875406,-0.23276766,0.1987711,0.11426081,0.008021772
0.1605226,0.40694106,0.20541835,0.178566,-0.02264986,-0.43300268,-0.08164288,-0.48886806,-0.088254385
0.48322612,0.008285171,-0.46007136,0.480521,-0.10382319,-0.45126495,0.27174684,-0.3774118,-0.4483637
0.21942511,0.11067879,-0.29908767,0.056620367,-0.18838763,-0.37278494,0.046512682,0.043880034,0.17810376
-0.46084398,-0.57139635,-0.2728426,0.2516086,-0.053255685,-0.44244322,0.39812276,0.3833078,0.11056473
0.04555754,0.06757226,-0.11583115,-0.119739115,0.011488901,0.05520451,-0.117974594,-0.012128924,0.018011723
0.21009636,0.4612193,-0.33493328,-0.17677599,0.27392215,0.12114521,-0.3834868,0.19338961,0.2989506
0.012882715,-0.041371178,-0.7896676,0.015642306,0.44159764,0.061763052,-0.1503069,0.15714596,0.30977347
-0.17793651,0.14720424,-0.049238443,-0.10898342,0.31371012,-0.1054686,0.037193805,0.3041713,-0.1125297
-0.13193502,-0.0031793024,-0.115398824,0.0032809365,0.051533293,0.026557945,-0.07870035,0.024602057,-0.16736516
-0.4215879,-0.42799735,-0.05444128,-0.43634474,0.09187432,0.22558579,0.28908896,0.38616154,0.24683729
-0.24458745,-0.22737269,0.062279418,0.06915157,0.31377122,0.18220507,0.14749041,0.06890495,-0.1800184
0.001266759,0.018440831,-0.3597722,0.25165632,-0.07707809,-0.4299297,0.32049432,0.18148863,-0.037759557
0.18278794,-0.33111396,-0.058823645,0.28904912,-0.5670404,0.3246413,0.27229294,-0.23866315,0.19589172
-0.018876694,-0.018152015,-0.04033706,-0.0064115506,0.04736759,-0.027540445,-0.08981182,0.08162846,-0.0030164404
0.088485345,-0.3518356,-0.5410173,0.17851901,0.20325983,-0.09005797,0.086965375,0.338782,0.30477569
0.326745,0.36787692,-0.17057595,-0.2953867,0.3465592,0.3195999,-0.52684784,-0.053484563,0.08367097
-0.70478576,-0.078691326,0.38408977,-0.5381985,0.19675165,0.4530241,-0.27425206,0.29608977,0.28933394
0.36581647,0.26173422,-0.33155423,0.439452,0.08438137,-0.4245137,0.29697746,-0.10177477,-0.71893865
-0.051219553,0.26099098,0.3923542,0.30102175,0.45544404,0.11395147,-0.106406264,-0.6485781,-0.69982624
0.4448184,0.44313347,0.20443588,0.08783677,-0.103910975,-0.39140794,-0.21365152,-0.54475987,-0.42483392
-0.3934313,0.011024985,0.025068322,-0.17526321,0.17007843,-0.10406357,-0.020933455,-0.039649706,-0.037580468
-0.17507014,-0.055829287,-0.031963706,0.015340672,0.10972178,0.04709236,0.052901696,-0.08515833,-0.1524885
-0.10478277,-0.47338697,-0.17586589,-0.61304694,-0.23295271,0.28122276,0.2638476,0.59083766,0.3877152
0.12313258,0.29092586,0.061194,-0.19766964,0.44313657,0.5329823,-0.7084167,-0.43039525,0.042196378
0.06202811,-0.25587228,-0.2793887,0.2911426,0.13418986,-0.40085912,0.10414653,0.40228206,-0.0816182
-0.009468215,0.02322563,0.0713515,0.04554938,-0.056678135,0.022622656,0.07797449,-0.061358638,0.10941897
0.036315203,0.15311539,-0.63975674,0.34227973,0.11308762,-0.32362995,0.21036427,0.23654693,0.02582356
-0.013672293,-0.005322379,0.14148267,0.3793277,0.06677775,-0.08518702,-0.09322447,-0.4069932,-0.012669677
-0.05619814,0.13194934,0.31647596,0.25438115,0.21930055,0.024574725,-0.1405502,-0.33370864,-0.41736588
0.19171606,-0.47491977,-0.4063112,0.37309515,0.15365385,0.2190134,-0.2151556,-0.036013853,0.20971918
0.26739174,0.50812864,0.45640743,-0.33347276,0.011178945,0.26043126,-0.59147096,-0.50588495,-0.07942122
0.16571207,0.48793164,0.567739,-0.13834016,-0.027056152,0.2496484,-0.58249545,-0.57251555,-0.30556813
-0.18304351,-0.11487602,0.1377102,0.39743003,0.44513264,0.070058085,-0.0317896,-0.3826769,-0.26219556
0.053214014,-0.5260209,-0.33054724,0.39204141,0.1485885,-0.45119572,0.16517435,0.4180294,0.2582196
-0.12058382,-0.09703848,-0.42477268,0.14783426,0.07148429,-0.44211033,-0.024721697,0.3323083,-0.115265645
0.2940137,0.24002218,0.49690023,0.059422866,0.16818114,-0.035279192,-0.26034686,-0.6054183,-0.45478252
0.43228295,0.029725507,-0.3963805,0.45378274,-0.056818802,-0.3841834,0.2875266,-0.0907391,-0.41887254
-0.74743134,-0.10054405,0.21032336,-0.19439052,0.57314944,0.43696177,0.1271148,0.36322692,-0.032910872
0.0048778374,-0.04130907,0.034380917,-0.043288182,-0.012392754,-0.042583987,-0.14545763,0.0032479542,0.11732229
0.4519297,0.4150569,-0.022346154,0.27642104,-0.05077692,-0.8050912,-0.6357363,-1.1011368,-0.07691465
0.085287035,0.008103759,-0.45107773,-0.06518609,0.31799465,0.28002396,-0.23316546,-0.108634785,0.02053837
0.109647155,-0.19317631,-0.5666623,0.36475247,0.25054613,-0.453213,0.15100364,0.44359112,0.000739059
0.1803523,0.056067355,-0.16069737,-0.17026973,-0.39678642,-0.3177515,0.27261224,0.3045772,0.38394967
0.03247381,0.0437925,0.070389345,-0.034296203,-0.07621145,-0.0046746754,-0.06268945,0.0014835402,0.0071232733
-0.6159027,0.04751736,0.46345273,-0.5738228,0.079879545,0.34977397,-0.55900455,-0.028988017,0.48046485
-0.37435877,-0.6500253,-0.3833006,0.13547006,0.098625235,-0.006533913,0.35151768,0.40114075,0.23527773
-0.21663244,0.09024412,0.12382994,-0.034138583,0.30377102,-0.096327275,0.016543124,0.1968643,-0.36088395
-0.42854264,-0.45409015,-0.4176832,-0.43339184,-0.06509225,-0.012080097,0.15928167,0.3557065,0.4236508
-0.44913945,-0.33611587,0.27223793,-0.48612088,0.00749059,0.46252146,-0.5223571,-0.11060196,0.49851435
-0.21146081,0.012034563,0.018248046,0.03853647,0.06741314,-0.024039878,-0.05029702,-0.04129711,0.023605455
-0.29946336,-0.5034709,-0.27807546,-0.36149046,0.01426567,0.116757564,0.093406975,0.18834448,-0.3457321
-0.12703481,0.14601083,-0.3615665,-0.09079754,0.32759762,0.061289206,-0.48313832,-0.27546713,0.01320913
-0.38671347,-0.43705654,-0.060864206,-0.47928068,0.11247031,0.36189693,0.1041797,0.37908792,0.2672994
0.044875517,-0.4675371,-0.532334,0.32452232,-0.05334358,-0.4140814,0.0146512175,0.21448205,-0.03651427
-0.05452691,-0.1984327,-0.37032866,0.10153901,0.21104877,0.28421637,0.14510264,-0.32417282,-0.25822562
-0.13507096,0.011082039,-0.43600506,-0.31688344,0.10758578,0.25475925,-0.2823458,-0.3723736,0.02231601
-0.079968944,-0.5643788,-0.67282546,0.42875546,-0.2441021,-0.5290261,0.70558697,0.57980114,0.20062754
-0.114675894,-0.1085857,-0.10309758,-0.23591551,0.17885494,-0.10009246,-0.1749183,0.3735885,-0.1779842
0.036361683,0.057520144,0.0012915535,-0.055621278,0.040798508,-0.036699027,-0.16453502,-0.027711395,0.112787314
0.3226053,0.3094966,0.28094482,-0.15367135,0.027064638,0.18856946,-0.28003162,-0.6453777,-0.27330998
-0.4199476,-0.35508415,0.02105595,0.14809301,0.206903,0.38240325,-0.23132044,-0.01777807,-0.4325417
0.20675382,-0.14597288,-0.4266023,0.11866911,0.31938085,0.04338791,-0.66694015,0.04904286,0.15627228
-0.12333501,0.20561242,-0.34441867,-0.040818263,0.35948718,-0.60403395,-0.14537811,0.43173426,-0.0437321
-0.081008986,-0.056686804,0.035143215,0.08343079,-0.052184645,0.039093737,-0.16934298,-0.18785484,-0.21413282
0.036255732,0.14104806,-0.025101362,-0.37529725,-0.14214283,0.06483943,-0.274784,0.013779896,0.1547218
-0.10609338,0.00075950654,0.08395803,0.02227681,0.038615696,-0.008238419,0.018332006,0.023688832,-0.09805454
-0.35082078,0.12283455,0.21370806,-0.52468187,0.15488893,0.04137388,-0.22440057,0.24473579,0.15778251
0.12205998,0.022714056,-0.082071856,-0.14663935,0.054639906,0.055384092,-0.083229765,0.014646392,0.022499213
-0.3000989,-0.107212394,-0.12606563,0.0737515,0.19146268,0.16368212,0.06729996,0.17178777,-0.63714296
-0.21398202,0.19509088,-0.4079285,-0.09976655,0.24030246,-0.4172716,-0.10656992,0.042996384,0.13620305
-0.015037299,-0.6602277,-0.5469258,0.1105254,-0.12246042,-0.086433806,0.34824818,0.49396163,0.3787036
0.047203228,0.025660316,-0.056254912,-0.30800223,-0.14141873,-4.8098173e-05,-0.053091995,0.067071915,-0.02202596
0.06561791,0.23749383,0.36054462,0.40607154,0.13006793,-0.06778196,-0.54114014,-0.56367475,-0.46548814
0.09238861,-0.17273045,0.00011998687,0.021256272,0.013131792,-0.073730156,-0.06062849,0.04894827,-0.060771007
0.039943226,-0.051947184,-0.045192566,0.058655594,-0.15301523,-0.09851704,-0.045020886,0.06584781,-0.10853507
-0.323075,-0.820978,-0.0070509873,-0.83607054,-0.15816696,0.5075906,-0.6856747,0.08676286,0.36718023
0.23929289,0.7200616,0.1325981,0.5526603,0.20270748,-0.6803313,-0.069933444,-0.55655706,-0.584813
0.10184642,-0.48464337,-0.14268056,0.46938163,-0.470317,-0.70012325,0.5286815,-0.13254446,-0.10745601
-0.69134665,-0.23130229,0.1930043,-0.53655267,0.1338369,0.4011909,-0.4807303,-0.080459125,0.39007062
-0.09490405,0.06991468,0.030901214,0.30779392,0.009491604,-0.5642993,0.506334,-0.0032900316,-0.44167212
-0.5081152,0.18904693,0.17091586,0.07987438,0.57643914,-0.12180022,0.1690254,0.057336897,-0.5350273
0.050815985,0.057961594,0.066088736,-0.012267283,-0.010477023,-0.058087494,0.013479145,0.063499175,-0.042566083
-0.12312917,-0.005819237,0.20051378,-0.13151942,0.11402642,-0.08345041,-0.15017885,-0.18174775,-0.7300369
0.07646975,0.18043894,0.238637,-0.12384268,-0.57734436,-0.69350165,0.26298445,0.30835935,0.31769508
-0.57371366,0.14084172,0.070506796,0.14833497,0.44137195,0.08146165,0.13398762,-0.1003232,-0.5959101
-0.39102083,-0.11076109,-0.011970179,-0.48986435,0.06563567,0.024064587,-0.052767366,0.314161,0.09822612
0.16519092,0.39841035,0.4652007,-0.35420933,-0.017216818,0.26190028,-0.5344704,-0.6067754,-0.4625077
-0.113800265,0.04476766,0.014369797,0.0806914,-0.011854346,-0.053661875,0.0075335507,-0.054606892,-0.13157341
-0.27005193,-0.26046765,0.26919523,-0.5506153,-0.22815247,0.50675595,-0.6612715,-0.4729433,0.26865464
-0.54636776,-0.97311807,-0.7548821,-0.075846605,0.10972902,0.089303896,0.08125104,0.22149691,0.44675225
0.09847031,0.41453823,0.5471681,-0.19232367,-0.014616832,0.34839517,-0.7181235,-0.55537194,0.10630637
-0.42155987,-0.43929535,-0.12259749,-0.23803033,-0.1319915,0.11220588,0.3217175,0.20874248,-0.17802303
-0.051968083,0.0043436973,0.054676946,0.023949586,0.04202842,-0.17744848,0.08680583,-0.06255353,-0.18584992
0.10894928,-0.14843345,-0.18766926,-0.116560444,0.08539139,0.048611123,-0.107358456,0.036863364,-0.07794184
-0.5061567,-0.32141718,0.18164895,-0.12802778,0.4692976,0.34651548,0.19735436,0.07072857,-0.3694208
0.09165416,-0.0018383614,0.03380931,-0.0051969117,-0.017457731,0.026299395,-0.040590513,0.015449235,-0.041813005
-0.5014248,-0.098563425,0.13087678,0.07765584,0.48998562,0.105455175,0.0073527726,-0.017002488,-0.4501718
-0.24472728,-0.00937309,-0.15963355,0.13041224,0.3833646,0.07727906,-0.40687394,-0.12964289,0.13228415
-0.09398932,0.16175048,-0.20752466,-0.03493501,0.23204257,-0.4615802,-0.51997465,0.21782467,0.17780048
-0.013326578,0.11384839,-0.32793558,0.23390199,-0.04652751,-0.5417636,-0.0030510018,0.35642558,-0.20256361
-0.2993963,-0.6233532,-0.35061017,0.1164414,-0.062143963,-0.13205418,0.26522633,0.3470182,0.32885727
-0.044542324,0.23263714,0.4254768,-0.46325445,-0.17678146,0.36309785,-0.65645254,-0.8287623,-0.220753
0.1901464,0.0034117028,-0.027904587,-0.0031402395,0.15264241,0.41103315,-0.36659974,-0.35278222,0.087134115
0.08151686,-0.24517319,-0.5460266,0.36478615,0.16459347,-0.4272268,0.2619311,0.22310366,0.1145882
-0.049719665,-0.17573474,0.02700436,-0.43639416,-0.01431068,0.107826576,0.113855824,0.12597686,-0.12653415
0.50803125,0.21479835,-0.36804777,0.5311106,-0.010355962,-0.65622365,0.09856974,-0.4789397,-0.83380127
-0.007245773,0.18891594,0.3788271,-0.7331584,-0.008594524,0.33179393,-0.40653434,-0.41591293,0.3212704
0.57953084,0.1285102,-0.120603986,0.5570968,-0.7373264,-0.50563735,-0.027383123,-0.7572827,0.16804087
0.053558577,0.0055325767,0.2006979,0.086403646,-0.42851537,0.06493212,0.18850376,-0.30959147,0.2523374
0.21685849,0.44329742,0.45663527,-0.4055359,-0.2657601,-0.34350795,-0.8042305,-0.69159627,-0.717604
-0.55572546,-0.2125806,-0.06458517,0.10479538,0.425477,0.20531262,-0.026256759,0.32667172,-0.2726282
-0.2987339,-0.05022065,-0.28972796,0.3344286,0.22127356,0.28109747,-0.37287527,-0.115515575,-0.22923645
0.23842739,0.18648171,0.3706982,0.11717181,0.09165433,-0.23244767,-0.4569424,-0.612529,-0.37685412
0.33773243,0.25837862,0.28663552,-0.30081514,-0.0040681656,0.112536475,-0.15758328,-0.61361986,-0.48841125
-0.09175946,0.38692215,0.5614243,-0.30667675,-0.045723464,0.591207,-0.74274343,-0.58829427,0.09627168
-0.56505233,0.06701815,0.3437123,-0.3281164,0.15620895,0.2706061,-0.29914168,0.2239633,0.1732264
-0.40366846,0.0967819,0.310566,0.21925762,0.53259236,0.10638897,0.31045768,-0.21624096,-0.75162905
-0.18680605,-0.061833724,-0.19986793,0.108411886,0.24778418,0.12842314,-0.15256988,-0.010745086,-0.2290783
-0.17007646,-0.265614,-0.22351351,-0.16962363,-0.28228176,-0.110489525,0.4732083,0.36722216,0.26301545
0.24273887,-0.8523757,-0.028878255,-0.45735225,-0.6528461,0.5140901,-0.7521207,0.03869258,0.6461436
-0.2807704,0.21045306,-0.33153164,-0.04699957,0.28074932,-0.39206725,-0.26656443,0.379177,0.14507328
0.1891063,0.25156456,0.5468869,-0.25902334,0.13807385,0.2137107,-0.6749046,-0.8113604,-0.6607005
0.10032183,0.2400782,-0.22164215,-0.25246376,0.24150854,0.0659418,-0.25375974,0.0058152466,0.23940071
-0.026982801,0.060049273,0.022852767,0.069152154,-0.09225941,-0.12206766,-0.09977373,0.0077349544,-0.08512857
0.070307516,-0.41018134,-0.6748275,0.59141153,0.08439961,-0.7851531,0.5360618,0.6455933,-0.10142923
-0.021656662,-0.0483562,-0.0024810284,-0.00595285,-0.0072837844,-0.07521636,-0.087430984,-0.062156107,-0.01912862
0.10881361,0.3801135,-0.1739989,0.42029977,-0.1392899,-0.6418139,0.21293022,-0.45985034,0.11684452
-0.07857496,-0.14288756,0.056219682,-0.14737122,-0.15697648,0.35904974,-0.038959228,-0.4313764,-0.03491352
-0.440592,-0.19005282,0.17119534,-0.44211397,0.0018771084,0.36038274,-0.37801343,0.20381843,0.33842263
0.2267077,-0.44558477,-0.70217335,0.40024987,0.4705001,-0.05579897,-0.06680934,0.15886445,-0.000845023
0.042711258,0.03149162,0.31252748,0.16784668,0.31237286,0.092141345,-0.27014455,-0.46575636,-0.43129504
0.3627308,0.32309315,0.49372435,0.077719934,0.101304136,-0.0071945223,-0.48650482,-0.5801589,-0.47971934
-0.53949666,-0.08230023,0.107555375,0.039474566,0.2717907,0.35864127,0.11365821,0.1161322,0.027482392
0.027638728,0.21264507,-0.34764615,-0.04831492,0.43994582,-0.27860168,-0.29288292,0.24242559,0.113437474
0.12566769,0.20598762,0.47812703,-0.2867946,-0.16755871,0.43358767,-0.60394645,-0.47106794,0.13790195
-0.3729814,-0.57567877,-0.20013943,0.10867966,-0.039745253,0.032779362,0.2859259,0.5173883,0.054522242
-0.71591043,-0.23001914,-0.016242886,-0.103021964,0.3383298,0.10003333,0.34929523,0.41574958,-0.20077921
0.1364012,0.37267575,-0.14782102,-0.23963413,0.17344281,0.07135032,-0.3872192,0.20915657,0.12039645
0.05162385,-0.6123282,-0.24558516,0.16031142,-0.12084446,0.041825026,0.3008708,0.45882493,0.16686735
-0.22469462,0.13307391,0.02905677,0.10259602,0.041392956,-0.78144807,0.26473498,0.4541327,-0.13886683
0.040648583,0.056668922,-0.18483794,0.12075679,-0.13315573,-0.019455139,0.06887577,0.10663067,0.20974886
0.11830661,-0.36862502,-0.29800954,0.2618181,-0.16850987,-0.10777682,0.42660317,0.17729858,0.16676414
0.5307342,-0.18908931,-0.64449424,0.48271468,-0.28230277,-0.68838173,0.34539884,-0.30536488,-0.5622384
-0.49936473,-0.24992645,0.28743342,-0.5414799,0.031647258,0.5229013,-0.19185424,0.008254136,0.39008388
0.041818243,-0.038362604,0.056076765,0.024456028,-0.037857097,-0.043566518,-0.05728898,0.14664422,-0.1434388
0.08686596,0.22012529,0.6094857,-0.3712055,-0.111883864,0.29568633,-0.38401484,-0.82249284,-0.622225
0.01891941,0.23036195,-0.019063074,-0.07279632,0.16123584,-0.27175915,-0.3809358,0.23547031,-0.15073784
0.23050663,0.40228242,0.018029619,0.398404,-0.54088676,-0.6440467,0.0018742379,-0.5155835,0.6095987
0.028538577,0.13012332,0.032215543,0.07634945,0.16078891,-0.05501723,-0.1610041,0.22219291,0.109984316
0.612203,0.018733982,-1.0385842,-0.09089966,-1.460509,0.04898506,-0.80155116,-0.006077918,0.80286217
0.040577054,0.2500462,0.03397513,0.03813146,-0.042813856,-0.58504915,-0.07548556,-0.20412569,-0.11797619
-0.03394015,-0.2215699,-0.2632079,-0.09663642,-0.3984573,-0.3042136,0.4078552,0.36039218,0.3957459
0.08180014,0.1179028,0.03203301,0.041951418,-0.0077192513,-0.0432694,0.09058558,0.124456815,0.0034737512
-0.26590744,-0.16023205,0.13177632,0.23070538,0.17274924,0.1832526,-0.088292465,0.021423362,-0.04657695
-0.55117005,-0.14502342,0.119089976,0.2726912,0.38808146,0.26263437,0.06847961,-0.2547897,-0.31490836
0.2232626,-0.20919341,-0.5804046,0.17859858,0.35038662,-0.30658028,0.06850798,0.49741063,0.20231275
0.03170665,-0.2655753,-0.44563764,0.11677826,0.3774122,0.2339671,-0.2767642,0.14242361,0.04237091
-0.21357657,-0.08051493,0.043027624,0.053893417,0.050664216,0.058090422,-0.055581372,0.078797296,-0.14732093
-0.033844195,0.29491675,0.020786678,0.40107054,0.29657292,-0.58330613,0.33292705,-0.2465735,-0.74273664
-0.120896325,0.21090963,-0.17668419,0.13958128,0.17175563,-0.79440516,0.41338524,0.2558396,-0.21990837
0.10110181,0.05125707,-0.06634287,-0.10928,-0.0056588827,-0.05189078,-0.13194005,0.13608152,-0.14558564
0.009566752,0.10134565,-0.3504644,-0.09271213,0.25687015,0.06341276,-0.28986827,-0.062014226,0.114940815
0.09422672,0.36733344,-0.175494,-0.17373918,0.33701095,0.31258163,-0.39163962,-0.22724181,0.1765654
-0.12838064,0.06337089,0.010006573,-0.06610469,0.2014314,-0.052455448,0.03643123,0.066058755,-0.2158415
-0.05574857,-0.40279707,-0.11863836,-0.14883582,-0.10413715,0.19920905,0.10250599,0.11616356,-0.10423398
0.06319063,-0.43933436,-0.40003124,0.035052795,-0.1665751,0.11466435,0.27693313,0.37393823,0.19165386
0.4772138,0.14476761,-0.37185735,0.40946642,0.014158086,-0.5797033,0.09319774,-0.3732724,-0.74388534
0.2841634,0.6180214,0.17752577,0.5223638,0.24875483,-0.70165056,-0.18485174,-0.76475626,-0.64303577
-0.09373933,-0.025384694,-0.033255212,-0.016984537,-0.06617291,-0.08257714,-0.03650236,-0.075815,-0.09650072
-0.06779566,-0.4872315,-0.18696636,-0.12789114,0.09919875,0.26881957,0.19242969,0.18130182,-0.14389224
0.4086368,0.28587368,0.44171208,-0.1904775,-0.11565104,-0.15044652,-0.27035037,-0.27200973,-0.36540443
0.18432677,0.42296886,0.47403657,-0.26195115,-0.010286627,0.023761282,-0.5514784,-0.56752205,-0.58912134
-0.78744364,-0.6753881,-0.73757493,-0.04104416,0.030558692,0.06275182,0.033727508,0.41190583,0.48829603
-0.15881194,-0.17826743,0.43850407,0.34861663,-0.4951109,-0.46537608,0.38820764,-0.020149712,-0.04051873
-0.21361329,-0.10965809,-0.0022594326,0.067227244,-0.005516768,0.034522746,-0.22225939,0.018401848,0.012082227
0.0343312,0.0018752025,0.018113008,-0.032603104,0.068650976,0.022137892,0.0068554403,-0.030083388,0.011645263
-0.39629233,-0.34208626,-0.09257791,-0.3485236,-0.005774388,0.23123533,0.29113555,0.32752052,0.2652274
0.010657321,-0.14471307,-0.26317766,-0.0024147811,0.13465543,-0.21945116,-0.29583377,0.22820139,0.25450265
