0.002789424,0.065653786,0.08026354,0.03764769,0.16422167,0.15232527,-0.04702027,-0.06643591,-0.056781564
0.08063582,0.010040324,-0.1334758,0.10962636,-0.007604416,-0.1422771,-0.020545015,-0.03352199,-0.20753765
-0.10243009,0.0050152997,0.065618046,-0.059070304,-0.056422647,0.07941374,-0.14392106,0.0720394,0.11496846
-0.23397718,-0.12641953,0.043716844,-0.05072311,0.06571887,0.08448603,0.08119137,0.09723774,0.14757326
-0.029721769,0.1299441,0.12948202,0.051085223,-0.11753973,-0.04564412,-0.12192826,-0.036145937,-0.09842373
0.1445346,0.09757733,-0.03857666,0.12717235,0.1046982,0.011041198,-0.021010306,0.010919767,-0.08005493
-0.025061466,-0.17918181,-0.11300044,0.11652759,0.01951806,-0.010609479,0.14055043,0.16541635,0.08890667
0.064181164,0.0911328,0.095307186,0.08187156,0.14057581,0.02504029,-0.0068612304,-0.04983404,0.039603595
0.197608,0.057713825,0.030850893,-0.022253463,-0.027556472,-0.114425585,-0.08987367,-0.07988978,-0.15493849
0.039662354,0.11644389,0.14108595,-0.112784125,0.076398164,0.018232336,-0.20269747,0.038470827,0.13444018
-0.013838017,0.11983879,0.03799348,0.15481716,0.057339422,0.06759087,-0.031669065,0.16249347,0.097431324
0.060844105,0.13736787,-0.08224311,0.042256195,0.12784073,-0.12832367,0.14700712,-0.0014369712,0.006892438
0.0149978,0.21075651,0.14257362,-0.08253139,-0.027885495,0.15950319,-0.25262973,-0.07183958,-0.09736233
-0.027701447,-0.14953725,-0.04388418,-0.0032505924,-0.03680971,0.04147688,0.18226357,0.14936236,-0.016707983
0.18888347,0.10644196,0.07380623,-0.0014698617,-0.038545217,0.0149420425,-0.13411051,-0.09006352,-0.15800652
0.12337293,0.090859964,0.14952485,0.14790012,0.030604808,0.13626485,0.1398372,0.09434322,0.030430583
0.009031504,0.14329095,0.122749545,0.10942546,0.040905513,0.14425808,0.013450604,0.04657209,-0.035594594
-0.0711577,0.03890622,-0.020754622,0.13185433,0.03760997,0.15616484,0.0009579101,0.004562275,0.034392163
-0.20571612,0.10864942,0.06595961,-0.12644963,0.032217655,0.07819429,-0.10817093,-0.0542204,0.12481666
-0.15743527,-0.16325097,0.017306117,0.08908687,0.04639747,0.013329603,0.17962348,-0.0046225768,-0.026387703
0.06505868,-0.017702742,0.06819647,0.10394184,-0.008761441,0.07948423,0.030447053,0.05497707,0.09387513
-0.12335804,-0.08374362,0.10393941,-0.09370947,-0.053945538,0.100627586,-0.17293854,0.045243975,0.12438084
0.08779366,0.043805588,0.09738863,0.07334646,-0.042273443,0.10291846,0.089161314,0.14151414,0.010049941
0.0687956,-0.083014116,-0.09039167,-0.036429837,-0.039372113,0.08204787,0.13046935,0.08421543,0.063822865
-0.0035365892,-0.030398156,0.11468016,-0.0041803024,0.14934966,0.03798412,0.10212318,0.1574298,-0.018997557
0.037596285,0.14733714,0.052986212,0.020617962,0.121516034,0.08924437,0.13189189,-0.016995588,0.10263785
0.077337526,0.15972525,0.11709249,0.020367326,-0.014874587,0.012420279,-0.25200865,-0.116578415,-0.1593481
0.05584526,-0.036425766,0.06586595,0.12051187,0.06229412,-0.028124416,0.068547264,0.13061845,-0.018343428
-0.006935039,-0.19505906,-0.22092815,-0.17860536,-0.08845869,-0.021453392,-0.153618,0.03207375,0.22218841
0.08357603,-0.029885383,-0.19424851,0.114693984,-0.04801695,-0.14608139,0.11564694,0.124611035,0.03391397
-0.13296634,0.012165722,0.033186615,-0.06584027,-0.094334915,-0.1718073,0.12602215,0.037704494,0.069888964
0.12948507,-0.103900746,-0.16172518,0.1226341,0.066951744,-0.07496364,-0.047808006,0.15688981,0.14697962
0.19798292,0.1211435,0.09851835,0.15225348,0.047513667,-0.13815433,0.057898976,-0.1502892,-0.23524125
0.058995206,0.09079928,-0.15272394,0.10639799,0.07009973,-0.0779403,0.09545085,0.15220071,-0.07076568
0.043360975,-0.096629575,-0.19130562,0.09703516,-0.03533366,-0.08311383,0.17261681,0.09678611,0.029228464
-0.22746412,-0.22215438,-0.08679272,-0.06038979,0.095676064,0.14642096,0.06440304,0.20602763,0.06123977
0.025704425,0.020781953,-0.23599239,0.08440292,0.05481452,0.016086081,0.12398471,0.023429161,-0.06710885
-0.14500561,0.007574537,0.11434634,-0.11886652,-0.040533125,0.11288832,-0.114877224,0.0065671355,-0.0056591937
0.13334918,0.11698536,0.095334165,-0.0049972036,0.024199452,0.10784692,0.090422355,-0.013241874,0.003976621
-0.037179016,0.075620905,0.13674186,-0.12662315,0.027664013,0.15362598,-0.032404874,-0.06302871,0.072791934
-0.06240265,0.09020716,0.017621515,0.1239747,-0.0070500704,-0.004417377,0.12608758,-0.0016213018,0.08021054
0.025272803,-0.079457544,-0.0076320916,0.07681422,0.053536393,-0.00024892087,0.019969484,0.15584448,0.115462266
-0.14253272,-0.013953668,0.10010811,-0.18630679,0.1100654,0.1036228,-0.14183725,0.047814544,0.021919621
0.13840218,0.037257105,-0.1025728,0.14737679,-0.006405914,-0.11757816,0.06117095,0.118534684,0.081012875
0.113758504,0.15670928,0.08299103,0.11856492,0.017700631,0.036782175,-0.049510896,0.04580072,0.025995068
-0.026044605,0.115545996,-0.031229906,0.09255393,-0.0030965745,0.13124116,0.08023859,0.004027434,0.0777093
0.082208864,0.065228455,0.08645376,-0.0013959191,0.08294314,0.08657937,-0.15844107,-0.062054653,0.0021103066
0.05512157,0.023224352,0.061665665,0.088265285,0.03654881,0.15457076,-0.17106019,-0.048339088,-0.06387139
0.088944554,0.1711346,0.045762412,-0.070608124,0.092769526,0.10851793,-0.16158499,-0.121390074,0.06449488
-0.13353886,-0.05273126,0.11080317,-0.08005535,-0.0806544,0.14161348,-0.09040637,0.03090942,0.075303294
0.051358335,0.097023524,-0.07086093,0.08913886,-0.09864058,-0.05857409,0.06944756,-0.13742399,0.055962943
0.13391916,0.00083746016,0.16009066,-0.029376848,0.05280343,-0.067498356,-0.14956729,-0.090456076,-0.04475413
0.08449431,-0.12393654,-0.05963525,0.007904708,0.022043083,-0.08944814,0.09897087,0.16822758,0.040683802
0.035878625,0.13432258,0.13870008,0.007873919,-0.044129416,0.02605343,-0.14879198,-0.11703436,-0.14472589
0.010086797,0.124514334,-0.0064000483,0.12314303,0.13061497,0.09388317,-0.038719866,0.020929333,0.08080114
0.09031976,-0.010269501,-0.007614047,0.09870799,0.12262534,0.101301484,0.032665264,0.100468196,0.16144909
-0.06798166,0.029460026,0.0031932371,0.024559667,-0.022534374,0.06574031,0.030453654,0.12886685,0.15253054
0.10579188,0.16234691,0.04533505,-0.04051149,0.12666762,0.11487355,0.041098922,0.042302813,-0.07255714
0.0345375,0.12371394,0.08807191,0.0010917352,-0.016673544,0.008981204,-0.09584808,-0.072696194,0.124736674
0.006644159,0.051322382,0.045924056,-0.09806356,-0.17669462,-0.102576256,0.094301976,0.1157525,0.0485829
-0.11334681,-0.10468576,0.06319488,-0.114784315,0.010802529,0.14903052,0.14781436,0.12206438,0.05253681
0.0049020867,0.108224146,-0.07303394,-0.040030874,0.14730664,0.15648867,0.055117156,0.15379825,0.022991749
-0.08156923,0.06490207,0.1435876,-0.053110406,-0.1880227,-0.1163263,0.1781041,0.006156902,-0.012584126
0.050084967,0.020715911,0.14408362,0.084049225,0.007888099,0.14349815,0.116238534,0.091632344,-0.051193632
0.037533633,0.111224204,-0.03591437,0.13448292,-0.0020997038,0.061190967,0.10743451,0.14669725,0.11472727
-0.072897054,-0.14773464,-0.20517929,0.006982133,0.07882066,-0.05043001,0.17518996,0.16935588,0.025022615
0.039806657,-0.059293225,-0.023224134,0.08717283,-0.17398743,0.07489636,-0.04358862,-0.08819971,0.076572545
0.12784277,0.061306152,-0.1363227,0.17727736,0.0061845286,-0.19255166,0.03224205,-0.10053709,-0.22699319
0.037658975,0.010931688,-0.07395369,0.0007025207,0.0932192,-0.017300403,0.14700024,0.073930524,0.1425125
0.028430097,-0.0067462674,-0.104149766,-0.15672417,-0.1389896,-0.037265863,0.110792354,0.14445356,0.102793895
-0.06847151,0.058017332,-0.03835731,0.09877,0.042183585,0.14562386,-0.07917492,-0.12929037,0.057027142
0.097185336,-0.041557685,-0.04673333,0.01333766,0.07815505,-0.023741623,-0.009066723,0.066946514,-0.10763926
-0.06873814,-0.0473133,-0.17155285,0.12732767,0.08288432,-0.0071524843,0.13951766,0.15587312,0.045498233
0.021055613,0.062116288,0.058258016,-0.0736588,0.15406969,0.045046255,-0.16054289,-0.16051316,-0.19063075
0.076002896,0.10592872,0.09536419,-0.042927034,-0.10298585,-0.091335885,-0.099627,0.010165858,-0.026112536
0.11761077,-0.027862566,-0.13210979,-0.06647201,-0.15582332,-0.01438124,-0.050293658,-0.02050894,0.09940855
-0.030867558,-0.18144986,-0.15565754,0.05995207,0.10429252,-0.063167535,0.03099119,0.096020326,0.19046143
0.13196008,0.14263976,0.15335804,-0.09196002,-0.035072725,0.07490007,-0.20692238,-0.1680715,-0.0041193967
0.0116941985,0.064087264,0.041244145,-0.011059563,0.11149583,0.00094932184,0.053374883,0.08812627,0.07505643
0.05413817,0.00094202114,0.03148021,-0.034777693,-0.050229736,0.09036002,0.021315433,0.02720189,0.13770345
-0.047772814,0.09205035,-0.01582751,0.0074311113,-0.02405101,0.034490176,0.15294752,0.15241599,0.1221959
0.09725634,0.010231981,0.10971236,0.091297574,0.06246471,0.091564864,0.048398435,0.08037389,-0.0302128
0.14799505,0.12152233,0.1265651,0.08722778,-0.02195378,0.11810505,-0.04686298,-0.034144197,0.056692574
0.0933171,-0.11826043,-0.23527212,0.100671336,0.105117336,-0.06461647,0.025412843,-0.0004076193,0.053578712
0.11993949,0.08271217,0.107674524,0.08534495,0.08995714,0.13369712,0.020784972,0.057617422,-0.07507938
0.11060533,0.0797112,0.12987496,-0.0001907585,0.055982076,0.06774239,-0.18672045,-0.13820627,-0.15982845
0.04326637,0.017608581,0.103320844,-0.020464025,0.09670509,0.15046708,0.08293337,0.11856729,0.13039023
0.031230582,0.13833885,0.026472656,0.099273376,0.015691195,-0.022275245,0.012654295,0.11348319,0.11356451
-0.1033788,0.0849679,-0.073063135,-0.0766882,0.14671515,0.029247742,0.042806413,0.12668088,0.13460208
-0.050960466,0.13104865,0.07804925,0.1137456,0.12635767,0.047828738,0.14341974,-0.047213465,0.1230072
-0.15682219,-0.05793945,0.084606856,-0.16416213,0.06695239,0.13024652,-0.06521879,0.15553667,0.023312088
-0.053101584,-0.008863248,0.033253167,0.075730965,-0.00033279404,0.15426165,-0.051811818,-0.047481198,0.1453689
-0.03989295,0.08695149,0.007848665,0.107394196,0.12397845,0.14693736,0.019303065,0.011685272,0.09697992
0.09008998,0.030949662,-0.025488473,-0.0512852,0.053720236,0.14196137,0.017541049,0.13238226,0.13591138
0.057323955,0.041337553,0.103780836,0.15151894,0.043454263,0.03659105,0.12315202,0.16788219,0.14423592
0.06986418,0.082874455,0.041763347,0.14019482,0.07878287,0.10044741,0.13374391,-0.054821204,0.00928936
0.02296887,0.054075427,0.18605328,0.12127917,0.09784947,-0.009245553,-0.16170494,-0.18536994,-0.18287428
0.12737527,0.03200082,-0.021241141,-0.049404126,0.0122340005,0.11187192,0.11780843,0.06691449,0.040475033
0.16624838,0.17557698,0.10854878,0.005424726,0.03416745,-0.038614843,-0.20962477,-0.19472452,-0.0038258706
0.1539292,0.16887258,0.1701896,0.05601873,0.14645517,0.16535689,0.057753388,0.054528832,0.105221614
0.054056834,0.01909201,0.099586,-0.024790563,0.16315688,0.07945487,0.08586889,0.12719226,0.15310135
0.036222585,0.1161724,0.14536835,-0.07728606,-0.011982469,0.061281983,-0.096403584,-0.06396237,0.092965506
0.09371357,0.146237,-0.02300203,-0.0445724,0.092946835,0.0594286,-0.22521254,-0.050065372,-0.028297806
0.08240628,0.035896804,-0.02425379,-0.007764572,0.133786,0.12181285,0.054465696,0.12640111,0.12869935
0.10941547,-0.020148313,0.016335908,0.02721259,0.14104144,0.13442852,0.05153496,0.05943571,0.01965449
0.073697925,-0.024970183,0.14342302,0.0006611665,0.06113594,0.120955795,-0.09883145,0.05320462,0.015973577
0.020966368,0.15575555,0.03778175,0.08342784,0.056441035,-0.04031388,0.043209683,0.11531777,-0.04029372
0.086370625,0.04932407,0.10365895,0.03492525,0.07739368,0.0007034197,0.15856825,0.12882908,0.14119561
-0.030147616,0.1184722,0.09699345,-0.07323745,0.06788847,0.14766039,-0.13099687,0.05450009,0.06757134
0.16688809,0.08695045,0.015341214,-0.008384269,0.15596414,-0.053439334,0.12950297,-0.019696997,-0.15622224
0.1486563,-0.020486444,-0.18029936,-0.013155573,0.05993703,0.020819703,-0.034404386,0.01214432,0.017011002
0.014653111,0.095117554,-0.023492191,0.13320737,0.11328734,-0.042794973,0.10267643,-0.009901123,-0.0059702573
0.09940975,0.1412337,0.16041423,-0.059500646,0.14569613,-0.004626247,-0.06518221,0.03833253,0.04107753
0.122229144,0.025056664,0.07779955,0.061748717,0.056914672,0.12205822,-0.21749681,-0.17365886,-0.113694586
0.08214698,0.09598255,0.13729155,0.12364878,0.07541397,0.0845989,0.07151396,0.12977448,0.15596016
0.008899483,0.08422944,0.12231929,-0.10995425,0.0068604504,0.040262293,-0.14693025,-0.027655467,-0.06595528
-0.12419189,-0.015775178,0.12118025,-0.17182785,-0.01087892,0.069462486,-0.1059841,0.058180623,0.17885381
0.08460681,-0.0073863594,0.14921838,-0.01750978,0.013309136,0.13521034,0.09221802,0.121578924,-0.0044804667
0.06516284,0.14508964,0.014836891,0.09619897,0.054670975,0.06914341,-0.122824624,-0.14078729,-0.15034468
-0.05040055,0.08850967,0.14544965,0.06241838,-0.031638857,0.11096827,-0.07320736,-0.18798178,-0.08378822
0.06469151,-0.003800002,-0.12164366,0.120410025,0.0064120875,-0.1702199,0.1477688,0.0279371,-0.039920572
0.13957985,0.11174358,0.14130163,0.10745763,0.12816782,0.14360556,-0.017801415,0.09724617,0.10002453
-0.041654993,-0.16278464,-0.15768056,0.10832389,0.08292703,-0.12172082,0.07262124,0.13569984,0.09878934
0.1488196,0.12683201,-0.049237303,0.041751638,0.120896704,-0.129949,0.1453127,-0.072428256,-0.051866513
0.14200561,0.070076555,0.12434603,-0.0839873,0.015631322,0.05656386,0.018361934,-0.1940299,-0.17989914
0.06589168,0.0016040251,0.08905433,0.051674787,-0.06948793,0.05980123,0.035143863,0.069266185,0.120616384
0.008913651,-0.07505945,0.13883647,-0.044404082,-0.069433264,0.020783177,-0.05655272,0.048932634,0.04925579
-0.10819032,0.1399988,0.14410841,-0.040313743,0.08939113,0.10973377,-0.037070643,0.07003068,-0.0027844643
-0.06875044,0.015973743,0.082534,-0.026613303,0.13617392,-0.003760595,0.16253035,0.12775426,0.0689043
0.054458465,0.018473942,0.04710989,0.115225926,0.1309032,-0.03312503,-0.101483986,-0.07295901,0.09050297
0.064688064,0.12826845,0.04952164,-0.036793362,0.13316128,0.00725843,0.093085654,0.06880299,0.08586359
0.06800903,0.1431527,0.06952023,0.003806133,0.020292161,0.12178033,0.06643589,0.09892524,0.056479014
0.103159875,-0.023061775,0.13788025,0.07515065,0.10596094,0.064519696,0.12514357,0.008224545,-0.11376748
-0.058220103,-0.0609122,-0.062861376,-0.03215832,-0.016006337,0.15027891,0.07134033,0.16649383,0.044609312
0.059735086,0.14361441,0.072264336,0.07905571,0.053855613,-0.034173183,-0.13020885,-0.19007063,-0.1381839
0.06594009,0.05089558,0.028322773,0.11591766,0.010174317,0.011678063,-0.039614793,0.034155264,0.027149264
0.13954023,-0.040850796,-0.104619406,0.115508534,0.040208995,-0.18903977,0.0435518,0.14865041,0.0008519892
-0.004636167,-0.013688326,0.14154662,0.12549943,0.020738276,0.1609102,0.12634833,0.10127087,-0.03817319
-0.17815658,-0.18868393,0.059637856,0.049565446,-0.03126636,0.13468787,0.08009125,0.13902128,-0.0287396
-0.010414453,0.03676034,0.08666524,-0.007395677,0.042015057,0.07043846,0.11970854,0.09590446,0.110218674
0.003564622,0.10341309,0.21841946,-0.07004356,-0.006767996,0.12616485,-0.22035958,-0.17420456,-0.018223073
0.03639354,0.030666107,0.054498304,-0.10712853,0.0065240823,0.1364218,0.016921785,0.11468034,0.020743603
-0.14318824,0.002108407,0.103619166,-0.15146601,0.11827808,0.16141696,0.012367994,0.022272632,0.14757106
0.06445619,0.15034023,-0.0040636584,0.14735931,0.09815467,0.07391525,0.03009549,0.017230086,-0.02238412
-0.0031640802,-0.08081184,-0.039976448,0.12789987,-0.03902259,0.06718933,0.13062884,0.11610996,-0.054776084
0.01014766,0.07834066,-0.0803724,0.11430268,0.072438665,0.05161728,0.06178968,0.035111975,0.086510904
0.03892221,0.036162607,-0.036480296,0.027582988,0.082712784,0.1077452,-0.02917057,0.090342544,0.042299118
0.13830194,0.0874256,-0.05475949,-0.0425007,-0.030607775,-0.16853292,-0.1368307,-0.12196026,-0.018540127
0.103664495,0.08474697,-0.13530563,0.11256617,0.09377131,-0.16634992,0.062596165,0.097788036,-0.00093301234
0.08331849,0.03395546,0.09065281,0.11385572,0.032961994,0.0852706,0.028893813,0.07198077,0.1177187
0.09948145,0.0025214036,-0.06698809,-0.054964215,0.102288865,0.15619168,-0.008822545,0.13402593,0.025932012
0.09624094,0.041548207,0.011313776,0.1204231,-0.0015899374,-0.075255014,0.120838486,0.012651432,0.11070199
-0.038237773,-0.03404652,0.01432573,0.03332924,-0.10893407,-0.07845236,-0.017482214,0.08184705,-0.10101328
0.00973505,0.10618578,0.11806352,-0.08565266,0.111034065,0.013333041,-0.20595083,-0.19202639,-0.18146457
0.12643798,-0.05517478,0.08055789,0.11330761,0.15332553,-0.011472934,0.047969114,0.12602088,0.14161147
0.013125786,0.10991694,0.17828806,-0.090227745,-0.10824578,0.08142881,-0.070261575,-0.1516989,0.014448561
0.1639138,0.02369922,0.123268895,0.044855557,0.09383081,-0.058668334,-0.18189134,-0.18596083,-0.02089989
-0.043423835,0.0612772,0.0026397125,-0.0501183,0.075494066,0.11773786,0.059643127,0.13782918,-0.015489583
0.07978144,0.03838906,0.08736722,0.11495131,0.11364529,-0.017780175,0.086547256,0.15454948,0.11072138
0.13666978,-0.009675716,0.08140091,0.1309651,0.13459882,0.05172538,0.11619123,0.020235952,0.097498566
0.051114406,-0.03265123,0.030040286,-0.16095985,0.08410657,0.08143673,-0.122547284,0.035774723,0.12120848
-0.13329016,-0.20298761,-0.10487934,-0.039642997,0.064268924,0.1021577,0.07720262,0.19618662,0.026840959
-0.041060522,-0.036150943,0.13666373,0.11131427,0.082211,0.070825085,0.053442676,-0.030025827,0.010927982
-0.016196854,0.00470234,-0.046359114,-0.028276931,0.010515016,-0.029932285,-0.088316016,-0.0495893,-0.076080784
0.18702258,0.11423383,0.045716114,0.059418555,0.030082317,-0.03110902,-0.196337,-0.18680838,-0.23488179
0.09111467,-0.09621574,0.025004229,-0.08953179,-0.20018975,0.103732914,0.07802166,-0.04895714,-0.098071635
-0.054125138,-0.14116177,-0.17779332,0.05325916,0.13486876,0.08179009,0.008952378,0.100761876,0.056135118
0.122871116,0.12383012,-0.02110076,0.1116944,0.08417348,0.13444276,0.031900786,0.08656334,0.030655848
0.038761567,-0.0059812944,-0.0019151086,-0.1082568,0.115984246,-0.0114948,-0.14719719,0.14029825,0.08687432
0.005936043,-0.037074983,-0.13649184,0.004095943,0.014177494,-0.04063103,0.084674306,0.15037927,0.15205567
0.08260094,0.11812104,0.060446233,0.10628818,0.03267574,0.055389244,-0.04123221,-0.15301429,-0.19417733
0.1614016,-0.19424725,-0.13183811,-0.08000538,-0.211875,0.06611549,-0.13869222,0.0007318149,0.15376095
0.14651394,0.0061314907,-0.13481782,0.0959073,0.02663943,-0.18014185,0.2039443,-0.061851356,-0.1320816
0.1180334,0.0806384,0.076878175,0.09730336,-0.0062959963,0.0026351379,0.034741655,0.013329311,0.06571773
0.10635959,-0.0065239244,-0.0003431305,0.033951048,0.10677194,-0.019944988,0.14841391,0.14432076,-0.06232375
0.0756198,0.116312586,-0.02288744,0.09485647,0.044303715,0.07774255,0.06191692,-0.0236295,0.091399275
-0.014794907,0.014261255,-0.17613618,-0.14866666,-0.15250456,0.08789704,0.14779843,0.14095439,0.062034003
-0.07488449,-0.077980205,0.07050612,-0.15860628,-0.013791902,0.14018662,-0.1217034,0.057881337,0.09862165
0.0754872,0.15074624,0.16294958,0.035390027,0.068914585,-0.020556686,-0.19261536,-0.18845685,-0.16475154
0.077582546,0.10645692,-0.014720848,0.07823335,0.13120292,0.11881931,-0.13961473,0.025924942,-0.04337042
0.117901295,0.10885251,0.12581475,0.06230637,0.1258021,0.06863434,0.04678004,0.0054887156,0.001505876
0.101587705,-0.009156612,0.14064345,-0.012703464,0.065281376,0.08023966,0.14778353,0.15990373,0.043809135
0.0557429,-0.000607013,0.13880019,0.11550164,0.04211248,-0.046241187,-0.002419564,0.007860387,-0.07843445
0.110837795,-0.007897579,0.13472174,0.10783851,0.1399829,0.14737272,0.01099082,0.13936494,0.11412199
-0.074045695,0.14808916,0.033046216,0.15200855,0.05323667,0.04931566,0.12085616,0.14426824,-0.023216441
-0.07977183,-0.08679593,0.09118106,-0.13205254,0.020732565,0.11421089,0.07107563,0.0563333,0.07470041
0.0353836,0.17854665,0.08361217,-0.11775779,-0.08775982,-0.04003448,0.07966004,-0.11823449,-0.02505953
0.11646412,0.06550708,-0.15623999,0.13289051,-0.024691688,-0.1423308,0.14485589,-0.055821292,-0.05538348
0.048767608,0.05828764,0.1446929,0.017937995,0.09973559,0.12283242,-0.19568223,-0.1773153,-0.12773623
-0.0011842796,-0.013687323,0.11848431,-0.09413103,-0.05173011,0.13807556,0.10482458,-0.04062596,0.1384191
-0.10936005,0.042902365,0.01681483,-0.07412134,0.059300143,0.11056221,0.08957153,0.15473801,0.11547367
-0.028467385,-0.20000316,-0.12775126,-0.040211473,0.0037890805,0.0354926,0.16790004,0.117928535,0.07187385
0.16000164,0.04055818,0.19864833,-0.07360962,-0.046303548,-0.048885766,-0.12047369,-0.07828446,-0.060706716
-0.17722948,-0.022297956,0.09246247,-0.12806612,0.0049813106,0.12558551,-0.06433252,0.03740573,0.07414229
-0.09425043,-0.12643822,-0.11829928,-0.012798866,-0.00792606,0.009545987,0.16813642,0.111961946,0.12877077
-0.052416462,0.1402027,0.003860199,-0.009711504,-0.0090477755,0.16884042,-0.112664916,-0.10532657,-0.090154216
0.13408516,0.07548196,0.10497536,0.118507706,0.14713919,-0.034821313,0.08293022,-0.028813312,-0.0011542526
-0.1391044,0.050767753,0.14601727,-0.10050191,-0.039686825,0.06609259,-0.033638407,0.1307293,0.1317853
0.08508107,0.064246215,0.012877781,0.008368239,0.053200807,0.15967977,-0.02350325,0.14158826,0.09117094
0.087790765,0.016542913,0.10142885,-0.05092384,0.14490993,0.15935741,0.0024235358,0.1598151,0.05904225
-0.07889233,0.09348103,0.019504664,-0.05128837,0.0744667,-0.006565653,0.07214644,0.17534934,0.06987549
-0.03781435,0.030701641,0.07453526,0.047920622,-0.030557018,0.05426434,0.02050192,0.10111457,0.15384059
0.09509624,0.13442975,0.08970592,-0.03196534,0.028296947,0.13981578,0.0029158876,0.025679799,-0.051592078
-0.015701782,-0.0051283557,0.15348335,0.10042467,0.12132469,0.09653968,-0.10467271,-0.15072739,-0.22142021
0.034339704,0.07397675,0.11115152,0.12732181,0.07799315,0.085113496,0.13987361,0.022456858,0.115865014
0.0756445,0.023230532,0.06682999,0.13323253,0.10809086,0.0113301575,0.020190237,0.04943556,0.106364235
0.08515616,0.12043649,-0.1264457,0.07556378,-0.016844792,-0.12212221,0.09838521,0.057974093,0.0680592
0.13138051,0.0022773114,0.088971764,0.1422932,0.12897128,0.044994432,0.055857264,-0.058991164,-0.12901583
0.06555074,0.036683258,0.033243045,0.0834669,0.15518686,0.13053863,0.10473725,-0.034126207,0.05666069
0.0012249127,-0.1816947,-0.1801959,-0.23059344,-0.10439904,0.029875219,-0.058139175,0.13276671,0.21813698
-0.02829804,-0.034306858,0.044485625,0.13640203,0.16362849,0.100298904,0.14118205,-0.044488233,-0.008262962
0.014180025,0.14761987,0.12229248,0.05200381,0.15313564,0.1131891,-0.109178476,0.064265855,-0.012320643
0.023391858,0.027606573,0.113350466,-0.09102412,0.037052564,0.06673152,0.012682047,0.17265339,0.13147807
0.13063297,0.14480917,0.098182544,-0.06567092,0.02875926,0.046531007,-0.05313198,0.119568,0.07684046
0.0049513867,-0.047947578,-0.03815352,-0.11744919,0.093385376,-0.05706027,-0.010359,-0.037514616,-0.10482779
-0.088777214,-0.17632894,-0.041045714,0.10836453,-0.03821689,0.007724758,0.20137435,0.027665524,-0.0067604897
-0.12939775,-0.039320525,0.034041923,-0.12193083,-0.05723293,0.14826402,0.044650827,-0.015085553,0.1608841
-0.0680425,-0.1024587,-0.17783043,-0.07538509,0.06542933,0.10730994,0.15259868,0.0468888,0.0918913
-0.14623344,-0.06810608,0.0068247924,0.1378273,-0.027826203,0.13233757,0.095269516,-0.015486609,0.10608032
0.0653522,0.093262136,0.17636748,0.0053706947,0.07345115,0.089383006,-0.17779513,-0.19666882,-0.16278464
0.08526599,0.059662994,0.033681903,0.16301005,0.05327242,0.06945849,-0.002823259,0.016812561,0.035925902
0.14895853,-0.2195556,-0.09007294,-0.14741752,-0.1757391,0.16673571,-0.17113663,0.10390868,0.07272166
0.08219876,-0.06419917,-0.09859379,0.054215115,0.046887193,0.06797454,0.15209125,0.11794691,0.04152592
-0.10535971,-0.18242605,-0.18424492,-0.14166878,-0.021297421,-0.025746115,0.030498872,0.162061,0.17860666
-0.047078412,0.1439286,-0.10064141,0.14823513,0.12187615,0.04427128,0.076240875,0.10060218,0.0051711556
0.014753143,-0.13831133,-0.2025278,-0.11966079,-0.13073711,-0.003868741,-0.14058752,0.08355923,0.19696786
0.12465716,0.14929059,0.1289717,-0.0030149305,0.09359342,0.101720266,-0.02149583,-0.09019554,-0.055509683
-0.14429887,-0.14877702,-0.013102499,-0.008167863,0.07134762,-0.014706378,0.16777873,0.020536527,0.06925804
0.004494599,0.11242631,-0.1708093,0.008726426,0.052961294,-0.19967991,0.12660395,0.13692118,0.030587679
-0.0104756225,0.035057083,0.032190666,0.0013098947,0.15644708,0.018336425,0.12662837,0.15412028,-0.046210468
-0.049908414,-0.17948507,-0.13804714,0.027148383,0.14276014,-0.019482346,0.0642073,0.035826955,0.14398433
0.1003176,0.1477827,-0.19167498,0.12916173,-0.063183405,-0.0880968,0.08338341,-0.008434173,-0.11309725
0.08212061,0.10322083,0.106687695,0.014138047,0.08491466,0.1512839,-0.012485767,0.051521637,0.14822434
0.06296565,0.13251875,0.06820804,0.083903894,0.023546368,0.13962364,0.13634752,0.0064214566,-0.08838425
-0.12577122,-0.089043505,-0.16783771,-0.011009171,-0.014235941,0.0062680556,0.13764074,0.09278889,0.15205233
0.14097819,0.06584443,-0.09781828,0.04494718,0.13035047,0.022821857,0.09765759,0.07354391,-0.067510314
0.09401259,0.052841373,0.0091593405,0.067261994,0.0965661,0.024059894,0.11937147,0.030691577,0.13156046
-0.10195776,-0.0096929455,0.092534445,-0.04689173,0.13203335,0.1475562,0.06581783,0.040270142,0.022484092
0.025266143,0.05223744,0.07448254,-0.15395336,-0.18753442,-0.15172084,0.08333768,0.13508113,0.03846482
0.09758002,0.04680407,-0.1519145,0.10572277,0.0023270184,-0.19179848,0.17431262,0.09484158,-0.04994148
0.074987404,-0.05489468,-0.07258615,0.1440879,-0.10954532,-0.09419358,0.14172211,0.028310759,-0.021120967
-0.11116748,-0.068209246,-0.13500194,0.08738323,-0.026755938,-0.024755612,0.047206964,0.07618888,0.1305923
-0.012599129,0.056088515,0.11353823,0.04131453,0.068491355,-0.068139575,0.13729072,0.09776827,0.12571184
0.051384553,0.015674215,0.1085693,0.0905206,-0.011668196,0.13574302,0.072410256,0.16596505,0.11299747
0.12983401,0.18044989,0.0003205862,-0.021569613,-0.12945226,0.021769492,-0.19611256,-0.045516573,-0.08311877
0.03255648,0.0643772,-0.0025722517,0.112549976,0.041463125,0.09365036,0.11398879,0.10913289,0.07648151
0.049350034,0.13980319,0.054502632,0.097542346,0.13822532,-0.07428054,0.13562264,0.080995575,-0.041772176
-0.12044156,0.046599504,0.10791416,-0.07444013,0.16107418,0.1334601,0.08152834,0.13677403,-0.059955936
0.07947823,-0.06626487,-0.06719473,0.0034516994,0.11185848,-0.10633357,0.12772334,0.1424478,0.12247032
0.1401481,0.08043966,0.08364276,0.08458014,-0.031980038,-0.049786616,-0.025232423,-0.02237464,-0.14227246
0.04686411,0.12632285,-0.034318212,0.094577044,0.021109726,0.12344912,-0.05562293,0.027672451,0.1048773
0.14149491,0.11730826,0.1413534,-0.04888031,0.104694,0.1379512,-0.06137917,0.048655517,-0.04712156
0.10711223,0.11086376,0.09269158,0.13810648,0.059074227,0.0071628788,-0.08536284,0.052513815,0.09877222
0.03402255,0.040073518,-0.06868811,0.01983063,-0.05410094,0.048612915,0.14246364,0.07679531,0.09076464
-0.01992716,-0.06021806,-0.19924657,-0.08503841,-0.12576859,0.102800354,-0.14677477,0.0075793797,0.07530312
0.056499425,-0.12667449,-0.19182418,-0.10805512,-0.16175756,0.043633383,-0.049143784,0.1734334,0.13824783
0.0092003485,0.09512045,0.056073077,0.07946709,-0.053793788,-0.040946495,-0.09296198,0.099273734,0.07558521
0.118678465,0.0139677,-0.061765995,0.11708082,0.07333293,-0.18796313,0.12687099,-0.06674011,-0.13195072
-0.01310373,0.05574537,-0.06898323,-0.04522339,-0.17885305,-0.111494526,0.057090186,0.15823491,0.13356255
0.061482385,0.050649922,-0.0786255,0.05669235,-0.0022620407,0.1361227,0.097862944,-0.04063281,0.10158559
0.17519273,-0.039592568,-0.08424821,-0.06330107,-0.04413675,-0.049314562,-0.005776722,-0.032787457,-0.10330296
-0.15886202,-0.03445543,0.073853604,-0.12261503,0.04059401,0.15985838,0.11786046,0.024458924,0.10889455
-0.1021386,-0.022030486,-0.19008845,0.012998066,0.046477064,0.04443223,0.060407475,0.16324884,0.118330896
0.07402789,-0.0074524395,-0.07601016,0.14734441,0.041819055,-0.16171294,0.15152003,-0.017823901,-0.16466144
-0.010260576,0.13186081,0.14731777,0.10705176,0.085503235,0.06282237,-0.1389458,-0.18824066,-0.19522956
-0.008831347,-0.029222164,0.05197693,0.072653696,-0.0030940005,0.050629653,0.15216586,0.15109219,-0.0394944
0.010374661,0.10790512,-0.116631165,0.12065579,-0.009599258,-0.15050353,0.13488694,0.031155247,0.0025601252
0.10833499,-0.067615844,-0.079873756,0.12283041,0.0066359346,-0.00064843724,0.14686698,0.123962946,0.024768252
-0.014353609,0.03581206,0.012575574,0.028469386,0.032577537,-5.3113123e-05,0.093286134,0.148586,0.07047698
-0.06308043,0.109683275,0.020848468,0.13714756,0.13116865,0.022526372,0.11666938,0.10887085,0.1389632
0.108577564,0.14807177,0.11061765,-0.12096146,-0.017339684,-0.014861152,-0.0759358,-0.14179985,-0.14582403
-0.0039185574,0.07847852,0.026094818,0.09625121,0.046827916,0.07844175,0.05110767,0.09908542,0.12574299
0.014722092,0.06501668,0.11880356,0.051273495,0.13640063,0.098692335,0.15876076,0.109414235,-0.020955248
0.1467174,0.13750367,-0.031420477,0.04710356,0.006191227,-0.03872302,0.048415307,0.06685548,0.104579456
0.024030812,0.10284886,0.026851622,0.0692311,0.11348225,0.07113872,-0.03139513,0.11916184,0.023325074
-0.014683087,0.059516493,0.17935596,-0.025348969,-0.033600856,0.04415776,-0.025532156,-0.1370643,-0.13396572
-0.0031577013,-0.09348173,0.026062474,-0.06800518,-0.090730935,-0.04467256,-0.14987265,0.02738059,0.10911493
0.0811606,0.027627666,-0.14598107,0.15944874,-0.30603758,-0.0013606169,-0.14783682,-0.13758327,0.17586094
-0.17030713,-0.2008251,-0.109276496,-0.03222086,0.10406542,0.12875855,0.07071052,0.15049253,0.049280256
0.04577618,0.15574735,0.12836792,0.027046502,0.07491681,-0.028201861,0.12788978,0.08177589,0.06590542
-0.09306163,0.12033054,0.119911715,0.056565423,0.028292762,0.0024833595,0.027654909,0.13541526,0.053458113
0.11044311,-0.017943714,0.13520667,-0.039464846,-0.048251744,0.09057326,0.0763397,-0.045111265,0.015752673
-0.033492245,0.18776697,0.107637525,-0.16140904,0.107256055,0.18291259,-0.25513905,-0.13058053,0.015768655
0.013051757,0.028107313,0.10106051,-0.023464026,0.16516745,0.13712426,-0.07053531,-0.18203577,-0.1765909
0.042012107,0.04658385,0.045903184,0.074162476,0.01538724,0.057924274,0.06461403,0.051076792,0.045397483
0.06318059,0.09641456,0.022738645,0.0048469417,-0.010168724,0.14535402,-0.015236076,0.11621175,0.14614283
0.1260237,0.15047462,0.019337231,0.021207213,0.06924329,0.12557018,-0.0021992074,-0.045191478,0.10130057
-0.14587933,-0.06588286,0.09856183,-0.076109,0.036876194,0.08907425,0.033983346,0.17624596,0.083312646
0.09028048,0.14733493,0.030598395,0.109685056,0.047492683,-0.10221579,-0.106875084,-0.20095733,-0.1513824
0.11945479,0.029952316,0.006235186,-0.028447168,0.031676665,-0.06158917,0.08354047,0.119653,0.018274888
0.0878184,0.14100355,0.10536844,-0.010948353,0.09005212,0.084217854,-0.13109472,-0.122382544,0.0013438475
-0.02987437,0.08445153,0.11026565,-0.09589813,-0.05324022,0.15339395,0.0535545,-0.20728259,-0.0865762
0.065657064,0.007929884,0.15453984,-0.10961858,0.023101322,0.07274283,-0.117007665,-0.114323966,0.022496596
0.14073627,0.13037999,0.11187217,-0.07025289,0.07359356,0.09275986,-0.18734539,-0.11245838,0.016064225
0.023911389,0.057446107,-0.06679603,0.027405858,0.15515149,0.07154841,0.11551329,0.14273283,0.03504425
-0.021654604,0.14131413,-0.04080558,0.047145985,0.101894565,-0.12104047,0.07000581,0.085109085,-0.16335103
-0.009686288,0.032395817,0.14949214,-0.10456471,-0.030141726,0.07643815,-0.091089845,0.02342307,0.025876405
-0.013095528,0.1478558,-0.082589895,0.11915499,0.08375745,-0.036192358,0.061613735,0.07880081,0.025420766
-0.13295025,0.015502713,0.1005693,-0.16482267,-0.01255685,0.017272057,-0.04640343,0.056348067,0.14936328
0.14079937,0.027689753,0.18331166,0.04256218,-0.016326537,0.008238358,-0.17640023,-0.06784354,-0.18732218
-0.029013705,0.03731618,-0.10365641,-0.052179214,-0.037689496,0.022181015,0.041320555,0.17122671,0.1678487
0.09289977,0.024326472,-0.061663672,0.116032936,0.06862022,0.06339212,0.080031276,0.13710356,0.07175424
0.10141277,0.15495585,-0.003517044,0.06870963,0.14255545,-0.031923532,-0.02704335,0.05863223,-0.03492742
0.074125715,0.13210587,0.006533854,-0.07054683,0.03369598,0.11823801,-0.11240656,0.0048670243,0.127533
0.10054882,0.17989345,0.13545163,-0.14196199,-0.096972115,-0.052414097,-0.10204736,-0.04424009,-0.119090386
0.08904399,0.0438557,0.09965148,0.102819175,0.14730084,-0.006208218,0.03038381,0.015967079,-0.10919789
0.10897118,0.034128264,0.09305719,0.085236765,0.11331188,-0.048306633,0.10211757,-0.0087677725,0.03374902
0.01782528,0.13731018,0.034821406,0.08986474,0.11064629,-0.06231134,0.122156,-0.0004673684,-0.060231958
-0.0039220243,-0.11063428,-0.16456503,0.0107670585,-0.09601117,0.07281347,0.06560178,0.08839226,0.16481972
0.03385065,-0.013214381,-0.099658504,0.059560664,0.07877982,-0.21621041,0.021538945,-0.063843325,-0.14507842
-0.086654924,-0.1445697,-0.109726295,-0.016838174,0.041991,0.003903249,0.1878283,0.022711571,0.12292949
0.002567676,0.17226525,0.12490928,0.15397577,-0.020517055,0.05771875,0.035369422,0.1232232,-0.0036437032
0.17818332,0.13443536,-0.03583763,0.048841313,0.009875425,-0.20950168,0.03837996,-0.058039103,-0.16147679
0.120682225,-0.031569455,0.12964925,-0.01886548,0.11011,0.06949224,-0.082807526,0.13204195,0.031043757
0.06664031,0.09942617,-0.03393737,0.047566324,0.16427736,0.10904283,0.058263972,0.06606126,-0.021121396
0.11882723,0.08243215,0.12410672,-0.06928499,0.05461428,0.006541943,-0.11392907,0.02210526,0.008676075
0.03024189,0.10190937,0.017198386,0.08173451,0.1370321,0.12874922,-0.001531019,0.08685763,-0.016241973
-0.08480729,0.121195935,0.042145893,0.14305784,0.02435074,0.05327243,0.047747303,0.12164763,0.053241614
0.12559852,-0.060122427,0.09552183,0.10470509,0.109051,0.013800192,0.019891467,-0.04970955,0.09452513
-0.07574918,-0.0761137,0.026414432,0.00023197316,0.108878665,0.060962744,0.1384273,0.03202034,0.055469345
0.100192845,0.029803447,-0.19599366,0.1512535,0.0071586603,-0.12735257,0.027847184,0.09876031,-0.034584057
0.07207593,-0.1829557,-0.028664386,-0.059575062,-0.13892505,0.10185816,-0.16953237,-0.026210653,0.11305099
0.012458735,0.19126178,0.11688458,-0.22242859,-0.22463025,-0.22337067,0.1053193,0.022993144,0.075883895
0.11639167,0.16280761,0.030084785,0.13738239,-0.0021119495,-0.11662275,0.03330482,-0.079210654,-0.23724084
0.1726917,0.08342782,-0.041875947,0.031057859,-0.0937518,-0.18099383,-0.06868494,-0.19622248,0.04617958
0.039831642,0.0631795,0.08106398,0.07112818,0.1503258,-0.12740608,0.1367948,-0.09766809,-0.1903777
-0.0060949167,0.0031697666,0.06554126,0.014143148,0.06706432,-0.02385892,0.10349749,0.14302728,0.0921168
-0.035788354,0.118339784,-0.024752889,0.09779336,0.04685268,0.13004176,0.12056522,0.058992844,-0.04957209
0.0023450088,-0.030499922,-0.106179275,0.008744142,0.048465766,-0.07705778,0.13303104,0.04345324,0.10543965
-0.050082207,-0.15484564,-0.068515964,0.15428852,-0.16332524,-0.07889842,-0.0192483,-0.18071339,0.07129788
0.1176141,0.08078655,-0.15107267,0.006856094,0.028248787,-0.07362502,0.05146301,-0.12810537,0.030305583
0.1561479,-0.004011437,-0.19395502,0.063993216,-0.037864186,-0.19453579,0.13779646,0.07985821,0.05879842
0.039885823,-0.2369137,-0.10198515,-0.18480498,-0.060519718,0.052188512,-0.1657924,-0.030618303,0.20116656
0.062829025,-0.0045134574,0.07201346,0.07364795,0.14365126,0.012337639,-0.042341948,0.08720713,0.04201278
0.084872246,0.12990533,-0.018545268,0.13229214,0.08286448,-0.02443631,0.085899845,0.14342366,0.08597841
-0.10272809,-0.14870514,-0.18500696,0.1499026,0.1550465,0.057777476,-0.0014585762,0.017777078,0.063926354
0.22764228,-0.037315942,-0.17153454,0.010798094,-0.268204,-0.0020576925,-0.055278912,-0.08859494,0.1223123
0.13054076,0.037697103,-0.12461781,0.07046662,0.093894176,-0.0024160712,0.08886255,0.13005506,0.13337038
0.061393846,0.0981236,0.1944932,0.05804037,0.09314701,-0.0009387026,-0.22101364,-0.22578153,-0.07830483
-0.2224165,-0.059598975,0.018035185,-0.10153661,0.047110114,0.10367803,-0.11833928,0.13607857,0.1120044
0.055595838,0.11861498,0.08846719,0.030956913,0.10605064,0.021025717,0.12070279,0.03515925,0.0032385401
0.0400843,0.10332467,0.052597277,0.108361125,0.017750962,0.13267997,-0.09825604,0.014646291,0.0019053142
0.116803944,0.101758055,0.060763516,0.028204758,0.1068203,0.06432686,-0.10020972,-0.08382257,-0.020649169
0.14049087,0.1459115,0.0637925,0.08447144,0.10120787,0.14185816,-0.086891346,-0.041260485,0.13441846
0.0007956934,0.08436161,0.09846069,0.07877916,0.14482348,0.022464419,0.13361832,-0.019750927,0.10055169
0.12251536,-0.029785573,-0.029364973,0.05015951,0.038240816,-0.06690094,-0.059481975,0.097103804,0.124068305
-0.10540945,-0.06306178,-0.10243888,0.105355926,-0.004083325,0.08394664,0.106121354,0.090150476,0.102923155
0.1530704,0.060547028,-0.05123574,0.015729379,-0.055973228,-0.14664865,-0.1363374,-0.20638706,-0.015046235
0.16990484,-0.0069839046,0.06861389,0.14623882,0.06630917,0.18155873,0.0466916,0.08145551,0.056436934
-0.09233361,-0.13513891,-0.21532324,0.12782474,0.087660424,0.005553927,0.02558232,0.06444962,0.11645133
0.09227995,0.10050988,-0.060718607,0.10115547,0.042343594,0.13215306,0.10895098,-0.0040458585,0.0034620103
0.17565472,0.1118748,0.13492683,-0.017823555,0.103274025,-0.00025209598,-0.18885852,-0.2190623,-0.17439719
-0.032134905,-0.08383243,0.10449523,-0.002413591,-0.013289036,0.053770594,0.016140904,0.14935695,0.09605265
0.101771265,0.07781947,-0.033804726,0.0042019817,0.11890506,0.10279859,-0.1496706,-0.12120964,0.052635025
-0.081950426,0.069839776,0.06689238,-0.064307325,0.027166855,0.054109383,0.12838979,0.075689785,0.029785566
0.06349891,0.034741245,0.1634603,0.05032735,0.007743375,0.028423794,-0.016145675,0.054614954,-0.13055997
0.10825334,0.046563663,-0.020365022,0.115714125,0.13060516,0.10156667,-0.05326927,-0.060998537,-0.085807525
-0.15532042,-0.13247134,-0.21207385,-0.0026192511,0.04063156,-0.015285787,0.121301465,0.091635175,0.120133094
-0.035917267,-0.11065851,0.13111123,-0.038665984,-0.072845414,0.1175752,-0.11463184,-0.09583083,0.102571875
0.11504259,0.14943637,0.147489,0.121333785,0.024587212,-0.02931109,-0.043983657,0.0010090512,0.0734135
0.0847628,0.15223704,0.051104918,0.05248482,0.0692688,0.13918628,0.038132697,0.031710636,-0.07857084
-0.0140532,0.13320585,0.11003556,-0.05992963,0.08937421,0.051559057,-0.1632741,-0.015220114,0.12761566
-0.0027123906,0.09846933,-0.039946545,0.0040713674,0.138106,0.07402706,0.05460901,-0.022794345,0.036230333
0.058689024,0.18423639,0.11482659,-0.044687584,0.10760061,0.09603288,-0.20991215,-0.22589186,-0.084538125
0.050853673,0.14862326,0.11389722,0.017233564,0.07357387,0.0958495,-0.058857497,0.13612908,0.038574472
-0.037469983,0.13954818,-0.031576227,-0.05562449,0.16917104,0.10823021,0.05540967,0.08589836,0.09716109
0.12992299,0.024980962,-0.1567425,0.067242876,0.071472205,-0.17089863,0.10035226,-0.046013992,-0.2399521
0.075206,0.07309102,0.1524865,0.13279054,-0.028645676,0.12996556,-0.07934066,-0.085408136,0.09470524
0.039408572,0.11626336,-0.16910756,0.1311583,-0.034916896,-0.12922737,0.116305396,0.012043535,-0.047981344
0.08087284,-0.033379182,0.0057457406,0.13129072,-0.0028424228,0.044960808,0.044142846,-0.041563816,0.11551592
0.0042506345,-0.10960094,0.07581956,0.15118752,0.0917885,-0.035301745,0.09140757,-0.025757669,0.1530202
-0.1516547,-0.19710553,-0.13322331,0.11517105,0.11432274,0.0363585,0.09067211,0.057805344,0.054573525
0.12609456,0.12570113,-0.0722297,0.075585924,0.1502041,0.09791933,0.025772799,0.096121505,0.07386616
0.14071976,-0.002453115,0.044466313,-0.0058222483,0.14200434,0.040552285,-0.053164925,0.14770316,-0.033515535
0.11065952,0.14270096,-0.01728711,0.1384896,-0.04957258,0.09020008,0.037279446,-0.0035135965,-0.024011003
-0.13043346,-0.06901409,-0.010271274,-0.044998426,-0.020688597,0.08009598,0.16438767,0.06858986,-0.06378128
-0.09779956,0.06126028,0.14743139,0.03809125,0.0071656466,0.13909534,-0.032926705,-0.073354624,0.07399468
-0.014478699,0.16358037,0.055957064,0.062331647,0.10454528,-0.05145174,0.099581,0.13179068,-0.049559664
-0.02525972,-0.018886121,-0.13619055,0.034840133,0.029055387,-0.07546678,-0.010237207,0.15276225,0.09454494
0.057837386,-0.048292413,-0.09924474,0.12172923,0.09940308,0.06534068,0.097185284,0.13337381,0.06524827
0.092631206,-0.15119326,0.01203502,0.0910062,-0.14411274,-0.061870456,0.09363105,0.124535196,-0.10678958
-0.068707205,0.032227725,0.07340007,0.14506786,0.093654834,-0.064970054,-0.07651792,-0.047735244,-0.057578575
0.092650555,0.10011389,-0.0636148,0.1381216,0.01909944,-0.061955158,-0.055691894,0.055168137,0.06817448
-0.10787051,-0.033560902,0.07002518,0.045926377,-0.054808345,0.015819017,-0.017061794,0.060593057,0.12677433
0.01487433,0.110647075,0.014505677,0.1345428,-0.037927534,0.11564622,0.050774563,-0.0040163295,0.15886356
-0.009022507,0.15127982,0.18536474,-0.14907062,-0.043024868,0.15514997,-0.0851072,-0.22755827,-0.08191686
0.042206958,0.1254888,0.11126955,0.112343445,0.022636728,-0.04991101,-0.13511543,-0.14936128,-0.010243125
-0.16830507,-0.08109462,-0.026598277,0.13509381,-0.059235,-0.1202029,0.11393122,0.062841386,0.15017322
0.03606521,-0.018318731,-0.03714861,0.14348209,0.09347761,0.12497364,0.004058751,0.012494976,-0.026671078
-0.09685415,-0.14818472,-0.11763345,-0.06364914,0.1269233,0.018791161,0.032819767,0.1345232,0.11980795
0.113335595,0.13592348,0.072081044,0.12180834,0.053688012,-0.04332489,0.060646467,-0.0043706396,0.03050568
0.00038719934,0.107570276,0.13776726,-0.07511532,0.009201725,0.0016082865,-0.1526295,0.06741458,0.040907387
0.07725559,0.0146268215,0.13729504,-0.096433796,-0.047351073,0.1248239,0.0025351555,0.03788075,0.1265413
-0.012600115,-0.019153763,-0.22251299,-0.20154203,-0.18528928,0.026170833,-0.049104072,0.11065937,0.14773974
0.11416838,-0.04189376,0.01753844,0.06921333,0.06685032,-0.07472875,0.15503813,0.08993029,0.08181758
-0.11691259,-0.11814633,0.08276103,-0.051824685,0.0019974832,0.13785352,0.095133014,0.108400054,0.061623577
-0.04597696,0.14220053,0.081587575,-0.032318335,0.10470188,0.03311675,0.025052372,-0.07580883,0.116611056
0.12911558,0.006546149,0.14096254,0.0010356307,-0.043115437,0.11129394,0.08043091,0.060909275,-0.015562897
-0.033726346,-0.12526561,-0.16241008,-0.054613132,0.011781961,-0.06303408,0.1602221,0.1533752,0.100927256
-0.07919415,0.11212241,0.047128465,-0.030674465,0.0824731,0.07074852,0.09429312,0.076566,-0.023633748
-0.042549163,0.1408072,0.09806024,0.021144161,0.1418694,-0.013844585,-0.057155073,0.10607313,0.023870407
0.122727536,0.05962656,-0.0046273354,0.07605633,0.020446416,-0.08188205,0.099534504,-0.053857483,-0.05110069
0.08497898,0.06858454,0.038854297,-0.05189093,0.14018561,0.12241699,-0.21145096,-0.1403076,-0.16324021
0.10876685,-0.01086709,0.048712302,0.059844937,0.06668452,0.0391724,0.10422531,0.04447154,0.06739266
-0.07909893,0.0839683,-0.01662045,-0.10651572,0.12501414,0.14361744,0.02622303,0.11141671,0.118484154
-0.06377848,0.06958223,0.146541,-0.14811128,-0.03381992,0.13269037,-0.13335815,0.08816246,0.0043808073
0.09511547,0.10778137,0.05597302,0.06570706,0.15645567,0.07124369,-0.15571259,-0.03314036,0.11224375
0.04104859,0.07028273,0.15087481,0.03325142,0.036136374,0.05700114,-0.18405251,-0.16154242,-0.22659747
0.0042978493,-0.022553153,0.09073163,0.0781386,0.09071139,0.13491382,-0.0009493252,0.11727717,0.062291298
0.036781717,0.1473074,0.086897336,0.071445525,-0.026849676,-0.07848086,0.08363971,-0.062054258,-0.11671968
0.11679709,0.067368135,0.04703552,0.06474643,0.010277302,0.08864449,0.10309266,0.05945633,0.15001251
0.0509142,0.0004035489,0.10654768,0.12796493,-0.004744885,0.12571049,0.005679,0.13410535,0.056364816
0.022319606,0.046236366,0.12408787,0.09100241,0.13196933,-0.040010903,0.10013714,0.11525398,-0.028508784
0.17224456,-0.024798397,-0.12854089,0.13538712,0.098160364,-0.12399403,0.07052645,0.088931076,-0.10350632
-0.09214555,0.09347213,-0.028456744,-0.1697152,0.03906525,0.14154862,-0.027912794,0.13290812,0.05519647
0.074391685,0.11914438,0.009425595,0.09630897,0.04401973,0.033330496,0.13510801,0.08301704,-0.02006347
0.11705367,-0.0666438,0.0065086936,0.13370158,0.07149076,-0.06973264,-0.03005287,0.086715095,0.050831966
-0.18922964,-0.10886001,-0.18678059,-0.02347891,0.058657836,0.07581688,0.15861969,0.053305827,0.06439292
0.054467514,0.039611436,0.11575078,-0.05237774,0.10422593,-0.036196508,-0.02681514,0.01649465,0.031847127
0.05138354,-0.018815804,-0.18786094,0.07768623,0.16885385,0.0394376,0.13054617,0.061355226,0.038600933
0.021916008,0.06797702,-0.022585565,0.13187245,0.07410362,0.04139741,0.13666464,0.12729113,0.1344912
-0.073043995,0.08144308,0.10216377,-0.02541622,0.12071544,0.037447747,-0.048861936,0.08247712,0.030054517
0.111527495,0.13372384,0.07095345,-0.018631203,-0.03621146,0.06933058,-0.0530269,0.0012749246,0.02460182
-0.06506863,-0.14962257,-0.035050098,0.067909844,0.061518785,0.036012422,0.09758715,0.07536927,0.1291331
0.09381262,0.020808522,0.055810045,0.11613186,-0.02273627,0.10546516,-0.11510152,0.07357499,0.10355155
-0.01744608,-0.10228648,-0.027366588,-0.0020069552,-0.046198238,0.026974553,0.040399365,0.17291127,0.14109643
-0.08716262,-0.05187188,0.15711555,-0.12466669,-0.0688515,0.12728372,-0.12324185,-0.030789485,0.09845199
-0.15478422,0.045377273,0.12100003,-0.0739696,0.04710843,0.009235995,-0.0115123335,0.12764728,0.08295522
0.0920419,0.033092577,0.12738429,-0.0021189428,-0.03398231,0.16613129,-0.07901791,-0.02263718,0.01626152
-0.08435127,0.02294097,0.07308439,0.15476339,0.123994306,-0.07170905,0.021733183,-0.15902142,-0.05564443
-0.09579882,-0.025824796,-0.14072035,0.04055884,0.07658817,-0.06997327,0.15622671,0.12234472,0.15578337
0.07647981,0.071642056,-0.07170952,0.0040996964,0.13474387,0.027097007,0.11868421,0.00929916,0.11097798
-0.06863911,0.0013317259,-0.14099471,0.12292458,0.04028794,0.026936408,-0.03968087,0.16639222,0.10878342
-0.18856657,-0.06869472,0.02897545,-0.027820526,0.005113475,0.10184295,0.04971187,0.17015529,0.16532652
-0.00039669825,0.05769169,0.17322093,-0.032220595,0.05388125,0.20145158,-0.20690873,-0.23586905,-0.12082409
0.0372622,-0.019638509,-0.13309005,-0.06860988,-0.08698604,-0.09376976,0.07917378,0.15140475,0.1522372
0.036213316,0.1208785,-0.044124555,0.14152896,0.07658885,0.04965535,0.1387774,0.1062892,0.09934701
-0.056077227,-0.15696864,-0.03525629,0.12781516,-0.017080424,0.11259648,0.061737847,0.1747668,-0.008291578
-0.11343939,-0.25145856,-0.079087,0.08493375,0.027664319,-0.036704313,0.110458024,0.17259674,0.03460686
0.067465685,0.0647963,0.09497963,-0.034648128,0.073892996,0.044074092,0.10712255,0.06566825,0.09784063
0.0139709795,0.14274377,0.019565096,-0.1167013,-0.04729531,-0.036034543,-0.077451356,0.11044494,0.12312631
0.03126901,-0.06775904,-0.09872478,-0.035223152,-0.08900311,0.06086031,0.022116782,0.1634538,0.07536609
-0.005962421,-0.11312168,-0.019054905,0.09764551,-0.04300882,0.09860851,0.05395686,0.029830044,0.16323812
-0.19430085,-0.0053828475,0.069404386,-0.21153265,0.13224262,0.109648764,-0.12535366,0.16581687,0.09467304
0.024201319,0.1573967,0.084335186,0.10460875,0.006170604,0.08497823,-0.114311844,-0.16344856,-0.19653167
0.08781954,-0.03487611,-0.116753675,0.038011886,0.068197906,-0.11423328,0.17196707,0.016187873,-0.17135112
0.115476094,-0.017423924,-0.059340138,0.047792833,0.008294351,0.056589462,0.009964952,0.11874416,-0.021397546
-0.033644218,0.12157079,-0.05736906,0.053177897,0.14872819,0.06547232,-0.12146405,-0.009890275,0.15669745
0.016798416,0.05957014,0.13244805,0.14960358,0.09690062,-0.0027417708,-0.0019436108,0.024891464,-0.007769615
0.08391181,0.15647486,0.13638975,-0.05437118,-0.03690919,0.08929737,-0.05741835,0.058040358,0.067009345
0.09536024,0.06480757,0.1378695,-0.06644049,0.036221743,0.075029135,-0.21145642,-0.082360215,-0.025560627
0.106223114,0.05915031,0.037352048,0.063272186,0.07595511,0.053136636,0.11743741,0.014090852,0.06893374
-0.08184793,-0.08561967,0.045055736,0.13333829,0.15503491,0.03745475,0.11659801,0.029959958,-0.017274223
-0.03191966,-0.1843942,-0.1299267,0.08720953,-0.05027341,-0.08343208,0.13333122,0.22222957,0.006818289
0.07162611,-0.01866985,-0.00836167,-0.0055860425,0.07888762,0.09221428,0.07703695,0.034964327,0.13251567
0.013152076,0.1690907,0.099383414,-0.016817044,0.08323653,-0.014065118,-0.2035965,-0.17359751,-0.17162886
-0.05339492,-0.14066957,-0.048164707,-0.05116985,-0.060397856,-0.041854728,0.10243396,0.19525959,0.04057713
0.16364574,0.11366697,0.031262346,0.019006057,-0.07765986,-0.031287897,-0.14935535,-0.06554017,-0.034289476
0.048882455,0.0020943768,0.13481288,0.13505676,0.07871324,-0.06465645,0.134961,0.15387516,-0.0455661
0.08057255,0.07584544,0.12813507,0.046584677,0.028965365,0.13809574,-0.17420864,-0.13695328,-0.0022005981
-0.053175934,-0.028158328,-0.006118349,0.04547012,-0.012086271,0.14237252,0.0019772176,-0.031364366,0.1489512
-0.08732315,-0.037666216,-0.01677486,0.013367524,-0.013011732,0.097833216,-0.062190462,0.13020194,0.12931697
0.10792195,0.07679345,0.1443806,0.030504566,0.026702726,-0.017374411,-0.16909674,-0.09966297,-0.13066502
0.055478517,0.06302278,0.08688094,-0.07910061,0.107310094,0.092667975,0.025206717,0.11376662,0.13856329
-0.1426415,0.004001499,0.06169609,-0.12419745,-0.052076623,0.106699124,-0.09332296,0.112878546,0.14780766
0.01584478,0.040052675,0.10071315,0.054810233,0.15794797,0.07080198,0.09650424,-0.0520813,-0.048953593
0.10186248,0.15078735,-0.09271294,0.1497221,0.007953716,-0.0974499,0.08673541,-0.061417244,-0.024733884
0.11874801,0.13505688,0.07199312,-0.02328823,0.02248719,0.07295325,-0.19926137,-0.060116194,0.015860265
0.02775347,-0.03807771,0.1051045,-0.10907724,0.05821916,0.099460535,-0.08191912,0.10532086,0.12691702
-0.07632202,-0.040820524,0.11650991,-0.12090309,0.10194248,-0.045250807,0.0046956837,-0.02223024,0.04465308
0.07452879,0.09182091,0.03775044,0.020590676,0.09110434,0.1518099,-0.029332498,-0.064725,0.10667313
-0.110597104,-0.14635926,-0.14417157,0.08907376,0.0047597014,0.09487008,0.15305677,0.12001388,0.05531771
0.06462169,0.016210197,0.008443173,0.14012286,0.123251736,0.042499535,0.1541739,0.056016486,0.11244646
-0.07567369,0.12627576,-0.003406952,0.041337445,0.14513631,0.10074015,0.050344832,0.054388773,0.053359695
0.114503145,0.17658858,0.15078826,-0.09318761,-0.083492085,0.043842945,-0.21455131,-0.010136612,-0.013952367
0.07916716,0.10730973,0.11155632,0.018807407,-0.034897074,-0.045234244,-0.11856924,-0.07996353,-0.048091196
-0.015434082,0.11694797,0.07017885,0.14905289,0.05249276,-0.085119724,0.11850928,-0.022883832,-0.058604084
0.04951735,0.1192992,0.09947955,-0.029519955,0.13535069,0.09139949,-0.01232937,0.0248918,-0.030981964
-0.06423663,0.13572212,0.13698517,-0.05034852,-0.0020805714,0.11024671,0.122759566,0.08551717,0.0032098698
-0.069942884,-0.13769005,-0.12401529,0.061140865,0.07975025,0.09587146,0.028691262,0.03312403,0.1544985
-0.016738854,0.0714407,0.09578,0.13806984,0.09266794,-0.06796233,-0.15925583,-0.16816722,-0.05035049
-0.027423905,-0.006322057,-0.12017001,0.13160363,-0.013378746,0.0631382,0.014230184,0.07586558,0.09554323
0.071686916,-0.029964859,0.11482877,0.06097773,0.07571795,0.1298887,-0.017748494,0.13241652,0.06446991
0.013646469,0.04322051,0.08533083,0.083043486,0.10380533,0.028680027,0.15532441,-0.0032326856,0.061860796
0.13886449,0.018771254,-0.07487039,0.14793386,0.013565437,-0.15614074,-0.02400326,-0.16223912,-0.18107793
-0.03662733,0.05341401,0.034605656,-0.12882973,0.12017349,0.1107498,-0.050811674,0.12848502,0.07864082
-0.043969497,0.060398687,0.14527726,0.025743524,0.11691993,0.109244436,0.06417861,-0.070076935,-0.025057131
0.04981376,-0.009282356,0.085449025,0.07164893,0.08766874,0.1084446,0.051821146,0.09943948,-0.10174931
0.10505124,0.111238874,-0.016816437,0.108661234,0.14315113,0.08853874,-0.06044122,0.02903607,0.13336658
0.066924304,0.17972572,0.1168881,-0.045175858,-0.0011283825,-0.015658118,-0.18126799,-0.15856902,-0.112165
0.1009065,0.11629038,0.05881895,0.11059123,0.05788639,0.014076647,0.062000077,-0.050938006,-0.04907621
0.11382634,0.099879764,0.1137026,-0.017157203,0.11469135,0.15485482,-0.020892505,0.045400895,0.08325718
-0.05679623,0.0066317576,0.12201028,0.08277746,0.014207967,0.121119134,0.053976204,0.1473702,-0.021941144
0.13477707,-0.044295784,0.09235568,0.12421133,-0.017408362,-0.05876176,0.12607382,-0.03928737,0.094703145
0.062258124,0.016945885,0.027578363,0.13792102,-0.031039266,0.11477889,-0.07821034,0.09063257,0.030035544
0.08103958,0.13329895,0.069317356,-0.0715478,-0.0356235,-0.017642815,-0.20235306,-0.041688725,0.10509135
0.15117338,0.13305701,0.092725724,-0.0019427399,0.06250716,0.0034960501,-0.0465541,-0.0036886656,0.052874982
-0.1686805,0.0030772474,0.019751808,-0.045514446,-0.10211444,0.129536,-0.07853159,0.00071914354,0.11146642
-0.13825566,-0.052523747,0.13866276,-0.093305595,-0.012982249,0.099649705,-0.07829018,0.09800977,0.07325948
0.0385079,0.0893185,0.03637191,0.12510724,0.06567937,0.11258926,-0.08379132,-0.031000497,0.11523845
0.08195792,0.11275588,0.1123036,0.03239602,-0.021319859,0.06320645,0.061804876,0.078743204,-0.16931033
0.099285394,0.05159936,0.0052931607,0.12725218,-0.023952508,0.12123049,0.14322047,0.11149826,-0.032454308
-0.07368642,0.10063246,0.12263027,0.06606003,0.11268715,-0.032116853,0.099855326,-0.038740054,0.12199371
-0.10339164,-0.14806868,-0.13805133,0.09575661,0.13272211,0.1161916,0.005468908,0.14089759,0.07565513
-0.21812479,-0.08198869,0.057368666,-0.13090056,0.003803229,0.1183437,0.011562252,0.19425352,0.06504465
0.03044362,-0.062369052,-0.037794005,-0.032584026,-0.035050426,-0.0565415,-0.059302874,-0.049177688,-0.04468631
0.10256253,0.037237447,-0.122354195,-0.004071308,0.09381591,0.049968295,-0.080062605,0.11088768,0.10579203
0.08230019,-0.14396155,-0.17876764,0.055072673,-0.005796952,-0.044009663,0.0781611,0.14830448,0.109448
-0.11862803,0.10417946,0.015795175,-0.029776428,0.019862827,0.119592056,0.0052111167,0.07984108,0.07521404
0.015841478,0.10499222,0.077810496,-0.078279234,-0.123250164,0.11090058,0.056543,-0.13216698,-0.048903935
-0.1096099,0.076986276,0.042666335,-0.11331249,0.011487232,0.100803785,-0.07116769,0.06604104,0.11415671
-0.07252812,-0.021919837,-0.03051826,-0.092296205,0.014133249,-0.044903275,-0.058396567,-0.08548005,-0.09654046
-0.0399885,0.053729244,0.055329464,-0.08635727,0.16778211,0.14076151,0.019593133,0.055398334,0.05219257
0.09569179,-0.021197341,-0.06254202,0.10414094,-0.030117674,-0.15211791,0.117669255,0.09781938,-0.12856504
-0.047887117,-0.067906894,0.07183014,-0.031417187,0.041572656,0.05112429,-0.11829258,-0.0046181055,0.12624483
0.09526536,-0.075858936,-0.122452155,0.06315859,0.027728895,0.105734944,0.016295766,0.048805848,0.13784689
-0.012708256,0.14508934,0.16370782,0.07993297,0.049869552,0.15136258,0.092895135,-0.04570489,-0.014726196
-0.17850122,-0.045118134,0.08439594,-0.15372896,-0.03203716,0.103235915,-0.07225969,0.0438006,0.118606396
-4.5073295e-05,0.08314578,-0.02219143,-0.023420012,0.12424996,0.13495916,-0.1057295,-0.14686109,-0.062620744
0.08620535,0.12473555,0.059725035,0.07000625,0.14221461,0.11704012,-0.027238123,0.16011603,0.026429746
0.0008085695,0.18583877,0.18260394,-0.20425415,-0.10449813,-0.010127118,0.041154146,-0.13477732,-0.122602805
0.110387295,0.17345531,0.10885299,0.03137243,-0.060741767,-0.042213243,0.039601468,-0.12443984,-0.14856534
-0.09228526,-0.024686651,-0.078035995,0.08234897,0.06092879,0.041700725,0.15410784,0.11018035,0.06962871
0.12489206,0.10022953,-0.025909957,0.04160641,0.029795486,0.041220855,0.12571858,0.0036656207,0.011405288
0.05187274,0.09533672,-0.08785106,0.14083053,0.11098425,0.12939227,0.03741913,0.013102275,0.06008412
-0.07213622,-0.07804537,-0.07435255,0.062481824,-0.012344458,0.15927026,-0.038949788,0.14250015,0.1561509
0.06199549,-0.06269834,0.039985858,-0.030816827,0.042715676,0.10818502,-0.030532973,-0.08121019,0.09232337
0.12319916,0.20632449,0.15224147,-0.051859684,-0.10342209,-0.13326456,-0.2035956,-0.059457824,-0.08893564
-0.048811328,0.032414794,-0.026458412,-0.09727063,0.11729611,0.066202626,-0.069698356,0.0627843,0.15795736
-0.05843989,-0.020507745,-0.044491466,0.08400252,-0.024170822,0.03526871,0.13721189,0.15113485,0.13259381
0.026731182,0.12943959,0.013423655,0.045807723,0.035799228,0.08984001,0.102858834,0.103644684,0.06816666
-0.15268014,-0.13216415,-0.123224415,-0.012035383,-0.018601656,-0.09355536,0.10941897,0.09382904,-0.019160766
0.14768438,0.08453544,0.005960524,0.1333025,0.06911932,0.062205788,-0.09587779,0.07779884,0.09534835
-0.05916953,-0.07093068,-0.20963532,0.14567164,0.059751745,0.017725833,0.11981694,0.11205562,0.013329475
0.062342104,0.13218035,-0.012763801,0.054975,0.10514713,-0.16732955,0.15270549,-0.07049169,-0.13015957
0.09106334,0.050649073,-0.16366273,0.17006671,0.12439283,-0.052994553,0.00015662171,0.12949836,0.006407513
0.09573286,0.12804645,0.12503052,0.023609105,0.09550206,0.14359127,-0.021698039,0.10063702,0.13174646
0.16076499,-0.046634596,-0.20841235,0.07223659,-0.016606793,-0.14471178,0.21470961,0.008916398,0.0054148035
-0.09746235,-0.19224076,-0.06915757,0.05960183,0.022081837,-0.014510125,0.091642454,0.13415346,0.05271627
-1.5029978e-05,-0.02439496,-0.198555,0.06702079,0.11395758,-0.064881794,0.020588808,0.11059771,0.10771851
0.111040965,0.09046272,0.01544532,0.08163386,0.10822192,0.053728838,-0.11763567,0.060649607,0.0477159
0.18018116,0.039412525,0.05396032,-0.06703183,0.11039753,0.08314809,-0.13129836,-0.14872321,-0.0045629432
-0.22193336,-0.10527985,0.0013180764,-0.17856516,0.046303604,0.13033509,0.0059133745,0.14499854,0.13113075
0.034726206,0.07805055,0.012257816,-0.0059379516,0.12693411,0.1108286,-0.07729047,0.032518208,0.1307901
0.1293502,-0.021663304,0.123432904,0.028807458,-0.014423317,0.07618184,0.14406608,0.09207276,0.016061295
-0.055126753,0.039942082,0.12282148,-0.040761203,0.15097927,0.023092683,0.03686643,0.021844829,0.013276467
0.11494421,0.11697551,-0.077361025,0.09407015,-0.1462574,-0.15458903,-0.10380344,-0.12639326,0.07079212
0.1466048,0.031508267,0.05271236,0.016873427,0.062277984,0.09554714,0.11617109,0.05377782,-0.06775149
-0.094366014,-0.17925826,-0.15678295,0.049994677,0.10767523,-0.038052406,0.13012907,-0.02033712,0.1624501
-0.1518308,-0.089268304,-0.0172259,0.05554688,0.042760316,0.092745386,0.090332925,0.124340355,0.13843994
0.13074104,0.15239681,0.072010085,-0.021692943,0.09294298,0.14107566,0.09820345,0.10553195,0.11154505
-0.03193074,-0.010278725,0.02229556,-0.023179684,0.16611952,-0.017399628,0.13335057,0.08034296,0.17147078
0.051614244,-0.11108359,-0.10938295,-0.12626015,-0.02400854,0.11768592,0.022003222,0.11678491,0.07271457
0.003488659,-0.10419931,-0.01812482,-0.12576866,-0.108996876,0.10093451,-0.0504304,-0.09312869,0.13792309
-0.08410613,-0.03460979,-0.044306323,0.029169844,0.13114889,0.13219152,0.09689703,0.008830113,0.08426536
0.04961862,-0.0061355834,0.109663405,-0.0880527,0.11862262,0.05808502,0.10020898,-0.00075477525,0.087043114
0.1647985,0.12674297,0.12497967,-0.042495843,0.015596721,0.038958017,-0.16319692,-0.12612016,-0.17233738
0.0012734483,0.076930866,0.04190944,0.15129916,0.11604176,0.064779505,0.09644346,-0.045346916,-0.109326586
0.11089939,-0.04757432,0.08527121,0.005020888,0.097678006,0.0757753,-0.034823276,0.025875578,-0.03718317
0.034265358,0.1932801,0.17538007,-0.024842175,-0.063037574,0.05530505,-0.20959018,-0.09247884,-0.17836714
0.057605945,0.11952324,0.1139415,0.11481549,-0.02308642,0.11950507,0.11464028,-0.059285015,0.111905694
-0.007715795,0.093792185,0.09293032,0.06338823,0.010970562,0.15218842,-0.17188355,-0.11328957,-0.13757709
-0.09044552,-0.18768306,-0.15700793,0.05131575,0.08554895,-0.033996314,0.11521367,0.12163254,0.16608648
0.014651839,-0.050427116,0.022600261,0.033004947,0.07557552,0.08773537,0.0007865131,0.1239186,0.107146166
0.112132676,0.010740756,-0.044538025,0.10857733,0.06790382,-0.06325634,0.06974028,0.06898491,-0.013323706
0.094760165,-0.0018076231,0.116049014,-0.024930522,0.07075522,0.08882559,0.05872505,0.11640303,-0.104683705
-0.025030319,-0.052194275,0.05605712,-0.117865495,-0.08454989,-0.030962946,0.15253869,0.08844282,0.12151525
0.03061302,-0.18492801,-0.0126769105,0.043003775,-0.08230161,-0.077813774,0.19746478,0.09877752,0.0063300794
0.13006331,0.031218773,0.13385615,0.01613995,0.024629625,-0.029251568,0.052651107,0.011475945,0.08321987
-0.13982074,0.1198828,0.061299257,0.01652211,0.065487705,0.14644141,0.09868337,-0.023812035,0.09185783
0.065989636,0.08209433,0.035486646,0.13985807,0.099552125,0.06220309,0.016836341,0.079556175,0.12293496
0.021303639,0.08228038,0.13526846,-0.12591808,-0.19007167,-0.09725294,0.0896164,0.06020903,-0.020365557
0.05000122,-0.012925539,0.14318167,-0.12004121,-0.008508211,0.059755474,-0.10272829,0.01682601,0.14203665
0.029617628,0.03234059,0.14570667,0.059004355,0.14300828,0.15104604,0.059110798,-0.016576309,-0.029732648
0.17177187,-0.011289651,-0.061317537,0.044773158,-0.12602508,-0.05565752,-0.15858811,-0.1025571,-0.037777513
-0.020246482,-0.02646388,0.11118363,0.09049061,-0.027905347,0.08180014,-0.0015686341,-0.048367124,-0.15179361
0.018990807,0.09073943,0.14909638,0.053770583,-0.10032427,-0.01245445,-0.13326342,-0.010415473,-0.123732686
-0.06222838,-0.02284066,0.07605515,0.14788075,0.13442573,-0.09219723,0.14225562,0.033276513,-0.02805045
-0.19127442,-0.055431347,-0.14636628,0.01663235,-0.015481606,-0.01132545,0.13878363,0.06019135,0.13497397
-0.04922422,-0.06523162,-0.24273108,0.19882673,-0.101551615,-0.056773193,0.18768016,0.05512997,-0.08346275
-0.023155084,0.07054044,0.16546474,0.034961138,-0.057047103,0.035727434,-0.016778463,-0.09514352,-0.1321405
0.0044228313,-0.13264656,-0.08220514,-0.11680562,-0.07111267,0.017591842,0.029853415,0.09810477,0.14458571
0.010312747,0.076071255,0.1507228,-0.09584709,0.067099586,0.017712878,-0.14978407,-0.1693805,-0.01786854
0.12123971,-0.068642154,-0.10077161,0.11698303,0.020915927,0.12482578,-0.011740887,0.13065569,0.13826197
0.117805906,0.05429228,-0.095810756,0.090720154,0.046218093,-0.15838212,0.060237907,-0.10950152,-0.17460395
0.06176578,0.009904543,-0.16500525,0.096890315,0.06440435,-0.18751965,0.12753285,0.030126011,0.059062116
-0.117355146,-0.13813652,-0.049201198,0.083180316,0.08382048,0.018536689,0.065480314,0.042179853,0.09689558
-0.10632397,-0.13822922,-0.1643515,0.12208587,0.089109,0.027304193,0.088719554,0.04317338,0.13185778
0.13205835,0.062278476,-0.14322805,0.045221057,0.1333197,0.008278208,-0.01740525,0.062022522,0.085485734
0.11739942,0.07741526,0.12715869,0.09252681,0.0818414,-0.0248724,0.00502135,0.050911546,0.12022525
0.027094323,-0.007994282,-0.12696758,0.049481023,-0.018693483,-0.20453672,0.16168341,0.18622456,-0.0966145
0.042403907,0.1848776,0.11370011,-0.09169576,-0.0955332,-0.045137882,-0.12716724,-0.02867234,-0.19879901
-0.018678028,0.06622894,-0.13884124,0.12630753,0.08396932,-0.020501418,0.1430253,0.070612475,0.025134739
0.058913235,0.10381726,-0.19009301,0.068008326,-0.08518705,-0.06674405,0.09975006,-0.011790177,0.099714614
0.0912553,0.07178591,-0.043328192,0.11221796,0.07997075,-0.020068755,0.0777662,0.11863153,-0.06409321
-0.07235415,-0.09559563,-0.185383,0.16372178,-0.006631239,-0.15170977,0.096073136,0.1684225,-0.01215032
-0.024437739,0.14850599,0.034374747,0.037077326,0.062225692,0.029899638,0.063975334,-0.048770517,-0.19371
0.008283344,0.028783884,-0.16743796,-0.01978892,-0.010569213,-0.17380045,0.13701695,0.16793995,0.07098471
0.046819262,0.06732785,0.10536102,-0.050046932,-0.0023623558,0.051560733,-0.12068154,-0.08281357,0.057978988
-0.011826321,-0.14561683,-0.09559232,0.021374818,0.042996094,-0.030129135,0.091873385,0.101364635,0.053429347
-0.052784983,-0.18729575,-0.12796353,0.0934204,-0.05685535,0.03269302,0.16525067,0.11262268,0.024108097
-0.07158107,0.0036475486,0.10915194,0.0483168,0.10492785,0.05236027,-0.041405085,0.00037485134,0.122654736
0.15692033,0.10299062,-0.07008155,0.05008502,-0.06406811,-0.12159745,0.13260435,-0.070069864,-0.0879791
-0.034989275,-0.18456613,-0.10302343,0.06503841,-0.08725016,0.020320645,0.16878834,0.17604584,0.005528492
0.10172759,0.05695097,0.018472213,0.058958307,0.07870672,0.09141627,-0.06328685,0.053661346,0.14586043
-0.07946655,-0.115392715,-0.11959418,-0.07428562,0.018017009,0.0853024,0.112932,0.058642864,0.14210479
0.07587237,0.035483383,0.11901149,0.026743101,-0.052225746,0.051169552,-0.033020567,-0.07107386,0.034112785
0.006035098,-0.12327274,-0.18836364,-0.066344894,-0.07639126,0.05709079,0.16305918,0.069603726,0.13319881
0.06511712,0.14145762,0.109284125,0.15529074,0.025664316,-0.05654796,-0.0011681351,-0.10245633,-0.17624302
0.11941495,0.14847241,-0.032287527,-0.07117643,0.12870133,0.12514988,-0.12802477,0.010664795,0.10765971
-0.05478737,-0.03518711,0.106643215,0.06415248,0.104964845,-0.040759116,-0.11226516,0.009623184,0.07898437
0.07779051,0.09002706,0.104081064,0.07265235,0.15482174,-0.0054537556,-0.033851944,-0.029173022,0.04917009
-0.12796098,-0.2466838,-0.14236398,-0.20763066,-0.022716898,0.13810119,-0.08950969,0.13597675,0.09149743
-0.035361826,0.07250529,0.019953934,0.15476552,0.10599566,0.013913565,0.028654696,0.15073113,-0.044798173
0.12943944,-0.03547,0.08397098,0.0058652065,0.12760039,0.11117558,-0.13865568,-0.10773447,-0.065238945
0.11954357,0.14230381,0.1018985,0.054869164,0.00470109,0.05675649,0.0083746165,-0.11773498,-0.16496089
0.1555784,0.058605548,-0.08599619,0.12432337,-0.035832554,-0.090274185,0.045774914,-0.07179536,-0.14297237
0.11263254,0.038493786,-0.09725784,-0.013437416,-0.2355716,-0.14747855,-0.195878,-0.05924003,0.16039957
-0.04366126,0.06293138,-0.09738697,0.03446537,0.0043794885,0.006676804,-0.009420269,0.13812254,0.1016284
-0.022760589,0.14273065,-0.0028868353,0.1361909,-0.0458376,0.02711682,0.023199415,0.14141436,0.015742732
-0.020874927,0.12874351,0.13520591,-0.056783043,-0.08669033,0.06356897,-0.12414381,-0.064629436,-0.15556218
0.0043333066,-0.10228094,0.08940474,0.047939427,-0.0018959572,0.08294459,0.13887122,0.0002014547,0.12599728
0.04106866,0.17682657,-0.025705444,0.033971824,-0.0036534867,-0.050561495,-0.07044585,-0.15817325,-0.18480289
-0.041954335,0.07797026,-0.06432838,0.14062698,0.064672045,0.10763926,0.08438019,-0.01662051,-0.0058020176
0.03367523,0.037789647,0.17823789,-0.041153267,-0.03992102,0.09075977,-0.15929182,-0.071326435,-0.12860559
0.037878625,0.083268926,-0.04612461,0.085192755,0.055009075,0.09539261,0.1213052,-0.056171168,0.010404572
0.0415,0.075628564,-0.1916366,0.1935848,-0.07468755,-0.08313538,0.14561065,-0.029409904,-0.11206081
-0.08691877,-0.040810402,0.1020602,0.020315915,-0.15192874,-0.12644795,0.014099381,0.12653375,-0.0039972244
-0.013768969,0.055759627,0.12679909,-0.0007230305,0.011778162,0.08999664,0.016561823,0.06753938,0.13176697
0.072961085,-0.111745566,-0.09989314,0.124438584,-0.16182709,-0.028714003,0.00952028,-0.19443546,0.09614769
0.10612694,0.08272872,0.118727505,0.1205601,0.09377725,-0.05529785,0.046526633,-0.07052859,-0.13767697
-0.09087862,0.02112633,0.12535901,-0.027022365,-0.14690982,-0.15352708,0.12746508,0.036541335,0.010488277
-0.05481494,-0.032818206,0.0447313,-0.088756025,0.007864739,0.103023104,0.09860054,0.10234513,0.079560034
0.12261126,0.01542077,0.14195876,0.008061806,0.03319522,0.103785515,0.0061744023,-0.06987063,0.0057021095
0.08605371,0.103434205,0.09200072,-0.04468596,-0.07138617,-0.049419384,-0.11321287,-0.007953191,0.1167155
0.099992566,0.04335224,-0.10157648,0.09849636,0.043003563,0.09068764,0.015549741,0.06443153,0.119118236
0.12974009,0.015594749,0.031956345,0.09567397,-0.04289552,0.06026907,0.11904046,0.084239975,0.051156346
0.074586496,0.108302094,0.03195724,0.014044435,0.06701798,-0.06414425,0.07115256,-0.036435068,0.13019675
-0.086187996,-0.008501581,0.012166525,0.14301828,0.084474586,0.06556271,0.06573558,0.07032107,0.14008473
0.0414725,0.049605135,-0.08682814,0.12053136,0.07300998,-0.008092169,0.15777726,0.03924921,0.06013059
