-0.090886496,-0.41920972,-0.30115634,0.10128542,-0.11328741,0.039231177,-0.060791906,0.24102111,0.116200574
-0.37649688,-0.19401254,0.004148689,-0.28919268,0.18914114,0.3621704,0.05689805,0.36575928,0.04411684
-0.02965367,0.020471292,-0.17875819,-0.06627198,-0.06941281,0.07157936,-0.07788471,-0.1326231,-0.04720201
0.20753326,0.26673076,-0.06251195,0.29110965,0.033436045,-0.4170251,0.0006150751,-0.34524935,-0.2125984
0.09494292,0.27165908,0.007515198,0.24579619,-0.04452952,-0.51313025,0.08899707,-0.26117882,0.13525237
-0.09034968,-0.5213404,-0.10378278,0.28566557,0.33680215,0.09615117,-0.17932402,0.18682465,0.036241047
-0.3628059,-0.09857984,0.25156003,-0.5474723,0.0005424413,0.3925344,-0.6141546,0.04397595,0.32274002
-0.5506325,-0.7848811,0.08120325,0.2501416,-0.20832334,-0.5060816,0.4257212,0.1352567,-0.013151151
0.11740893,0.0754696,0.083538495,-0.033051208,0.06941528,-0.132618,-0.14637528,0.18962385,-0.20142277
-0.20298593,-0.01855723,0.12543581,0.013290154,0.2445528,0.22392477,0.12899871,0.054863393,-0.25710958
0.023228379,0.0031455169,-0.23352124,-0.056189496,0.04306336,-0.16059823,-0.1885783,0.16046682,0.065811075
-0.09855617,-0.17299862,0.19118455,0.272508,0.33086,0.00022445162,-0.0739705,-0.0047306926,-0.22234733
0.139597,-0.1453476,-0.075822026,0.30700225,-0.36414808,-0.11306649,0.1961312,-0.15096346,0.008004197
0.0071418323,0.018142363,-0.01865015,-0.037389122,-0.0785757,-0.13622056,0.05585128,0.13083428,0.057130992
0.23592822,0.19071013,-0.013706018,0.4960534,-0.32423553,-0.22641528,-0.20904955,-0.63537246,0.26863506
-0.19676466,0.06858056,0.14193796,0.12537296,0.09459581,-0.062194966,0.0014023784,-0.23310488,-0.44152188
-0.5410084,-0.71277237,-0.5078626,-0.34731367,0.18703078,0.10671382,-0.03505102,0.25095916,0.2697468
0.17817108,0.15129878,-0.106460825,0.25855994,0.07659504,-0.41073138,0.12303085,-0.09976302,-0.17763202
-0.002338446,-0.46015024,-0.28387365,0.07273324,-0.06776087,-0.025136294,0.15773083,0.3195063,0.22670096
0.10899007,0.1853347,-0.08604638,-0.061553814,0.07228572,-0.0058475155,0.021191701,0.15116493,0.17679012
-0.14775622,-0.4296763,-0.21621506,0.0135441795,0.049643785,0.026480593,0.26787865,0.25633663,0.16486861
0.010114135,-0.048921388,-0.4979755,0.20820837,0.14090121,-0.3561583,0.22515869,0.34534097,0.07358221
0.0842425,-0.10852371,-0.061069943,0.19979945,0.09473745,-0.4722004,0.20435515,0.06078238,-0.2294716
-0.21699545,0.068091094,0.05281792,0.13311054,0.24075101,-0.020202108,-0.022631431,-0.33662635,-0.44692034
-0.034002356,0.23420876,-0.06091483,-0.02723233,0.15782245,0.033237383,-0.027555982,0.133918,0.12897034
0.11269319,0.07004132,0.09644946,-0.011626644,0.18707888,0.17683858,-0.2785913,-0.23658489,0.02747852
0.11878353,0.16233295,-0.12975857,-0.0076118587,-0.08500354,-0.43265897,0.023565238,0.3458749,-0.022411313
0.5309549,0.40054113,-0.094979994,-0.18895613,-0.86417973,-0.5216832,-0.64710325,-0.020007476,0.23410371
0.068972185,-0.18364719,-0.14679599,0.020039102,0.124377996,0.32571644,-0.0039682984,-0.024240151,-0.16450574
-0.035882093,0.23973843,-0.23460418,-0.01583022,0.18843402,-0.29105332,-0.030865826,0.27688435,0.07299145
-0.0015381353,-0.5511001,0.13889286,-0.6651645,-0.23165528,0.37945136,-0.5209874,-0.047002997,0.36559778
0.2245064,-0.010639614,-0.38226718,0.33766976,-0.11509682,-0.431607,0.27701613,-0.18224064,-0.50122607
0.2663914,0.09869683,-0.3800707,-0.3586321,-0.46258834,-0.06450585,0.2342499,0.3870928,0.38973156
0.14865553,0.09486496,-0.15448426,-0.060633134,-0.18242759,-0.13794754,0.124168344,0.22493252,0.23386878
0.07090337,0.14602223,-0.07695121,0.00928475,0.11140856,0.014792526,0.08637966,0.116260126,0.0644461
-0.0942526,-0.3648991,-0.042621203,-0.07851987,0.20662047,0.3176337,-0.088790275,0.24428104,-0.05723894
0.14650439,0.06542408,-0.13223964,-0.001013518,0.18838653,-0.30700365,0.15879463,0.30503055,-0.34427568
-0.2953131,0.17381606,-0.093120225,0.009868937,0.24839447,-0.16869345,-0.12565348,-0.04445124,0.106422655
0.30628762,0.112558596,0.24993029,0.0038522938,0.17872143,0.05909036,-0.35624713,-0.4816815,-0.12357659
0.22487451,0.1305592,-0.47392327,0.013263898,0.06957556,0.061078932,-0.2717971,0.12152896,0.15832947
-0.33140692,-0.11037868,-0.062374674,0.2039505,0.2232793,0.1398606,-0.19671418,-0.24563669,0.11765564
0.06923093,-0.3119559,0.13343185,0.18864082,-0.5252102,-0.6976112,0.48297232,0.26920158,-0.18110067
-0.27915537,-0.3929573,-0.3607592,0.12898614,0.06767823,-0.25206983,0.28963834,0.14767385,-0.05906082
0.52938265,-0.15670417,-0.34055403,0.13292146,-0.7342061,0.16152023,-0.38682833,-0.13244915,0.329403
0.058421455,-0.1975061,-0.53862834,0.2573628,-0.037452277,0.0064597405,0.07083561,0.27572054,0.28057525
-0.22593307,-0.15387154,0.030590288,0.018438617,0.11787468,0.12450692,0.109397136,-0.0015116413,-0.15946871
0.07963058,-0.23428844,-0.1129209,-0.061294597,-0.10230673,-0.12276361,-0.08958792,0.15897821,-0.15715326
0.02173545,-0.044778913,0.18208198,0.21111253,0.12635098,0.0064643263,0.18379381,-0.117236696,-0.33353388
0.07556139,0.16262856,0.30587187,0.25904626,0.23903137,0.06823356,-0.26579034,-0.5504616,-0.3939626
-0.06457078,0.06187518,0.36037812,-0.08033937,-0.47068527,0.3302556,0.17325428,-0.5146608,-0.07484867
-0.014060138,0.011658919,0.05886887,0.030412976,0.03524242,-0.04678617,0.02707931,-0.02488031,0.046259772
0.1457185,0.054076247,-0.04539735,-0.3233617,0.023568027,0.18743351,-0.51205933,0.22362968,0.32509923
0.042385537,0.11383659,0.3530728,0.28478697,0.17798764,0.15889756,-0.31083477,-0.5351201,-0.30720735
-0.014170263,0.07579382,-0.055238955,-0.12356674,0.20097119,0.06946362,-0.17228648,0.10167626,0.15122199
-0.1147153,-0.22891897,-0.06772561,0.15280795,-0.009265772,0.09403882,-0.06931853,-0.06573639,0.046032537
-0.047061242,0.008931296,0.0087966975,-0.0516017,-0.023770817,0.041762855,0.05789354,-0.037935544,-0.023354998
0.25382215,0.24231169,0.34863448,-0.13417058,0.040050358,0.09393426,-0.51184416,-0.44449484,-0.27133822
0.01317912,-0.3832143,-0.29814616,0.3072073,0.15243545,0.11232815,0.13008858,0.013183528,-0.04407948
0.05058079,0.049854957,0.05320819,0.09035772,0.20798086,0.32505208,-0.12902513,-0.4298712,-0.2884388
-0.094113365,0.09323756,0.07537161,-0.045490887,0.19885945,-0.22614692,-0.03218725,0.19556877,0.05614019
-0.12646693,0.15124026,-0.26584002,0.0072632562,0.131652,-0.08737828,-0.26209757,0.16976464,0.05407415
0.050097547,0.39581642,0.10749782,-0.41016194,0.21707271,0.17721018,-0.43423784,-0.22633803,0.26827556
0.06888398,-0.094152614,0.027177332,-0.09311859,0.040729914,-0.029005367,0.03951443,0.025852406,-0.2268019
0.012611593,0.09368018,-0.12901555,-0.10936444,0.06695017,-0.11010634,0.011045412,0.046995446,0.0108776735
-0.46876833,-0.1105704,0.27163264,-0.38360187,0.05926432,0.3160588,-0.1613544,0.22803995,0.08791117
0.06515229,-0.123940185,-0.24051121,-0.058602,0.03573364,-0.010819646,-0.013265824,-0.11711614,0.05383159
0.095153674,-0.2082609,-0.4154335,-0.0091778375,-0.044695742,0.0051015997,0.12871248,0.2271892,0.16403265
0.07964606,0.17210186,0.13177495,0.076178655,0.080382116,0.119772114,-0.29415914,-0.2855066,-0.06626557
0.023953015,0.102563,-0.14791211,-0.37898803,-0.029639654,-0.06486092,-0.25150344,0.033987515,0.066756494
-0.5132734,-0.33544004,0.20727937,-0.4182033,0.019215511,0.38071087,-0.08580654,0.052898146,0.3344393
0.15556806,0.2489284,-0.27823868,-0.10133053,0.3574713,-0.10750565,-0.32148156,0.15475509,0.22338124
0.14623922,0.09864466,-0.10827285,-0.13524987,0.10923179,0.17660831,-0.19878717,-0.09667114,0.1843915
-0.0079744505,0.017590212,-0.14319725,-0.038781997,-0.045346014,0.081348255,-0.032619923,-0.16141327,-0.009526477
-0.5184581,-0.22355224,0.23930915,-0.52113485,-0.081106104,0.41461784,-0.4744293,-0.050697897,0.33684337
-0.00999563,0.019049495,-0.09874128,-0.045478478,-0.020267366,0.086330056,0.022214975,-0.022706078,-0.11752868
0.07429399,0.120348886,0.2219301,-0.34919575,-0.11854482,0.30230415,-0.3859434,-0.21041365,0.2877948
-0.3357973,-0.572147,-0.3004443,-0.23781177,0.17259985,0.17450887,0.13308571,0.20669883,0.1231323
-0.032958597,0.14389747,0.047974497,0.13863249,0.18806545,-0.5087003,0.18907875,-0.21777824,-0.3170982
0.2794199,0.33813325,0.05511888,0.26863992,-0.090824775,-0.3516889,-0.27311328,-0.48391414,-0.12578145
0.051019836,-0.24266349,-0.15539013,0.18318184,-0.22163537,-0.41415286,0.051155668,0.3578932,0.10422337
0.10031538,0.017495116,-0.1465009,-0.08356085,-0.3476804,-0.12849398,0.12425175,0.24382095,0.2079191
-0.0023746658,0.017052494,0.0073592067,0.022933224,0.0011863724,0.04947534,-0.06340224,-0.08828128,0.09246881
0.11181684,0.21431403,0.1146343,0.06152355,0.13763157,0.20633285,-0.31842223,-0.42305183,-0.15812816
-0.02004029,-0.015285095,-0.4427254,0.07149775,0.41411635,-0.0745742,-0.30629915,0.18763536,0.021612866
0.026255906,0.019636158,-0.119777486,-0.055793952,0.017804304,0.0015095611,0.005710156,0.044059377,-0.00744376
0.24334243,0.017953195,-0.17710638,0.26590273,0.025187118,-0.6402514,0.29397878,0.10518629,-0.30593646
-0.23797989,0.15835707,0.1370242,0.120170414,0.427261,-0.2057627,0.13772492,-0.061244834,-0.4538814
0.11471592,0.110548556,0.066458635,-0.09257733,0.102510564,-0.0060182475,-0.019838981,0.090612024,0.03158246
0.31388125,0.21579076,0.27468395,0.051120825,0.09347885,-0.04681652,-0.36273122,-0.4024931,-0.1569861
0.039609864,0.07109355,-0.01338322,-0.07926196,-0.07375755,-0.060654905,-0.018967867,0.020951806,0.03782403
-0.1192542,-0.010753983,0.23918775,0.25293392,0.30851704,-0.02536325,0.04546253,-0.22319634,-0.28240228
0.044953316,0.22572635,0.4215136,-0.14917985,0.102996856,0.18960577,-0.4620396,-0.72643363,-0.4456348
-0.46328998,-0.00058284105,0.021710977,0.24672373,0.34592047,0.14655198,0.04624879,-0.14389463,-0.3619596
0.08360342,0.05441664,0.048746485,-0.17839059,-0.0824026,0.07195139,-0.12050052,0.0058502425,0.069081806
0.025525488,-0.18231411,0.11771753,-0.16783114,-0.14781848,0.27878615,0.1585005,-0.1371761,0.052536022
0.16085,0.19827494,-0.09288021,-0.0034664727,0.2654255,0.22015372,-0.31791103,-0.11982716,0.18935864
0.050807334,-0.059454747,-0.037100703,-0.08813566,0.024512485,-0.10341447,-0.20386016,0.049010016,-0.09832812
-0.26621705,-0.08890548,0.18056217,0.019662997,0.19187771,0.20023543,0.1465302,0.023022259,-0.06577519
-0.1360229,-0.23765695,-0.1413779,0.27514434,0.3261705,0.025713557,-0.32397565,-0.076868,-0.002241418
0.07336132,-0.17672464,0.059516907,0.09154772,-0.26316962,0.025112696,0.04083553,0.00445218,-0.0037665113
-0.048416674,0.080173284,-0.0705771,0.04585673,0.03546117,0.026087211,-0.073973045,-0.15586184,0.09063488
-0.07988306,0.011092485,-0.2356777,0.08730456,0.06468362,-0.17517759,-0.2553867,-0.11864601,0.08648408
0.16176848,-0.07395316,-0.5126376,0.17054906,-0.43127573,-0.37911975,-0.07014204,-0.58923805,-0.23824318
-0.123348586,-0.5027874,-0.2968565,0.0145250475,-0.023267025,0.039713614,0.24621072,0.46053404,0.1392288
0.34682938,0.14717631,-0.31814092,0.38838238,0.0208265,-0.46943438,0.20504199,-0.41692075,-0.4655505
-0.08784569,0.031604573,0.17173958,0.042116992,0.2806322,-0.09584493,0.0047961925,0.1603494,-0.24942015
0.005622169,0.18233588,0.057121225,0.07024355,-0.19225872,-0.17896064,-0.3689814,-0.07309067,0.21744062
-0.33559757,-0.20421109,0.124626115,0.15378259,0.30168265,0.21158078,0.056513105,0.050990026,-0.3101606
0.06894532,0.08914891,-0.37556288,-0.12321367,0.17614357,0.32465678,0.03730108,-0.12907146,-0.07197603
-0.09431822,-0.36561778,-0.39693916,0.080591045,-0.026278261,-0.048684362,0.24854322,0.23636831,0.32076383
-0.28619117,0.32233185,0.6344419,-0.926447,-0.03685977,0.34920427,-0.4258511,-1.1507819,-0.56796914
0.3771782,0.32708782,0.03539659,0.045725144,0.025679128,-0.50748134,-0.50614464,-0.93991274,-0.27825183
0.0898762,-0.33636427,0.4304949,0.23669253,-0.87811774,0.11683289,0.33304754,-0.14251418,0.01092789
-0.1192543,-0.24415341,-0.00629709,-0.21088971,0.018267918,0.14925054,0.09843183,0.16999134,-0.06149528
-0.30328426,-0.49460799,-0.20130518,0.056586023,0.044217445,0.07588121,0.34434462,0.2036425,0.06248088
-0.53999066,0.1635476,0.16990006,-0.026756458,0.4274592,-0.010163504,0.1435741,0.13359046,-0.38618436
-0.18395552,-0.11797399,0.05800582,0.07504015,0.27643657,0.19516869,0.06961272,0.058938146,-0.41490194
0.08685198,0.19012535,-0.1564982,-0.14405493,0.19066034,0.06437792,-0.18269911,-0.0127896825,0.11408125
0.096640274,-0.18837392,-0.5978028,0.37917718,0.21695258,-0.4903002,0.15287596,0.46571648,0.025300948
0.22894822,0.11571285,0.3470431,-0.036736194,0.124361545,0.024702156,-0.5225666,-0.4606375,-0.39601406
-0.0074813534,0.19082864,-0.23472942,-0.176628,0.20980337,-0.06841589,-0.14302236,0.03625889,-0.11757169
0.08009779,-0.005717702,-0.050314665,-0.025059015,-0.05936862,0.027585937,-0.10839246,0.018876163,0.050319757
-0.007470657,0.073923595,-0.015356872,0.062921055,0.3644695,0.35504073,-0.33539814,-0.37479207,-0.13231121
0.09510694,0.14378656,0.12698822,-0.010425131,0.05054048,0.006778295,0.025078759,0.15025564,0.101154886
0.016032321,0.20896675,-0.3409836,0.054554924,0.093513064,-0.39790463,-0.048328858,0.23790981,0.32200316
0.33128604,0.23577948,0.17206533,0.2729992,0.19825561,-0.42343903,0.033207033,-0.40735427,-0.44056904
-0.24151093,0.016919361,0.013593372,-0.24540746,0.114219956,-0.07897132,-0.11850904,0.055674072,-0.021011377
0.22619766,0.30099535,0.33003277,-0.26716286,-0.04143075,0.0552682,-0.52755874,-0.06531798,0.046955816
0.18192868,0.21277186,-0.27262753,-0.31012818,-0.30760324,-0.18362457,0.09170528,0.23861271,0.2534955
-0.0117491055,-0.06773628,-0.045922533,0.08580749,0.28627336,-0.1104319,-0.33854583,0.2248587,0.05136766
-0.04024948,0.1339414,-0.003970129,-0.14934035,0.24226488,0.28360546,-0.3545422,-0.24545692,0.14142594
-0.6979344,-0.693545,-0.27424207,0.25357425,-0.0281734,-0.56869525,0.3836499,0.26221097,-0.010069634
-0.0623593,0.114592746,0.124916494,0.2469377,-0.02238022,-0.37306243,0.25235528,-0.054875717,-0.13874218
-0.16036682,0.23447654,0.27190423,0.32040957,0.21499155,-0.15571147,-0.14383776,-0.34667164,-0.36374962
-0.31094033,-0.065914534,0.12752873,0.089827284,0.2947671,0.023848817,-0.04296606,0.04124352,-0.1131785
0.05814738,0.12198972,0.0006208754,-0.010953846,0.22573021,0.24896237,-0.38715187,-0.30066326,-0.0015695225
-0.15180042,-0.2368177,-0.25445288,0.24740131,0.021116827,-0.16657895,0.20128903,0.28429294,0.10830853
-0.22278608,-0.13466729,-0.009646603,0.16815645,0.29346463,0.12366943,-0.08651564,0.012026653,-0.16789973
0.07208724,-0.32583535,-0.06045588,0.33346376,-0.046965677,0.00091574626,0.04991756,-0.1032741,0.11711343
0.2952331,0.2506529,0.19548136,-0.0027319915,0.039944123,0.06657903,-0.42066193,-0.46195096,-0.24607907
0.0645328,0.13171908,0.19802834,-0.3193968,-0.034443215,0.26327556,-0.39479795,0.031843264,0.17514363
0.16950469,0.23640333,0.30721915,0.2337725,0.25069863,-0.101367086,-0.37395817,-0.5037988,-0.3227875
-0.4002341,-0.43587005,-0.023226714,-0.39321473,-0.06747569,0.25389424,-0.3854557,-0.0045927963,0.36401376
0.04257883,0.2043106,-0.21604957,-0.023345927,0.2104582,-0.062477034,-0.20804973,0.1077779,0.0644552
0.13616638,0.17694099,0.32341826,-0.2174244,0.070117645,0.3148148,-0.6541028,-0.2072407,0.20823339
0.0046832464,0.28308594,0.30202994,-0.32567155,0.19776107,0.13162911,-0.50244015,-0.7424838,-0.6096309
0.33881515,0.08814958,-0.19258796,0.20516174,0.11148018,-0.2978177,0.06672364,-0.060387228,-0.5657324
0.08093439,-0.16495974,-0.40979505,0.27643278,0.18874459,-0.338835,0.12362243,0.32735017,-0.037459426
-0.20627224,0.24253845,0.43326136,-0.8342452,-0.43668807,0.011271568,0.23431069,-0.6106304,-0.3795034
-0.01119272,0.17447834,-0.3542986,-0.07977046,0.17161937,0.03506489,-0.26814452,-0.1278426,0.10287465
0.07231228,-0.39571357,-0.37888944,0.08733245,0.018253649,0.14045604,0.03227388,0.22022177,0.27772346
0.03608166,-0.31707123,-0.20406403,0.26991504,0.25980806,0.08129836,-0.20706198,0.07860457,-0.0081083765
0.16662885,0.26102623,-0.28106886,0.19189338,-0.020664511,-0.23477885,0.25133824,0.03827404,-0.5313574
-0.07809479,-0.016784562,-0.08006167,0.007628253,0.18662447,-0.19253738,-0.045990072,0.2681579,0.06893967
-0.38320342,-0.36134607,-0.038285933,-0.35477743,0.049213648,0.31661317,-0.058838114,0.14846532,0.28110698
-0.28995395,-0.22673315,-0.2598894,-0.13365483,-0.062434968,-0.043167673,0.3543004,0.22482511,0.31946304
-0.1413762,-0.08952302,-0.052824017,-0.009581082,-0.054610193,0.03835463,-0.067073464,0.03946911,-0.13600838
0.018705403,-0.03227473,0.012212766,-0.019063449,-0.026556725,-0.06245678,-0.063893236,-0.04995293,0.04646535
-0.2389227,-0.15186328,-0.025888545,0.061975993,0.19562303,0.14562234,0.090239584,-0.16213265,-0.30374396
-0.10380962,0.21313056,-0.020457309,-0.050789792,0.30519763,-0.34952852,0.16268227,-0.12577431,-0.35812664
-0.27307877,-0.17098758,0.2630965,-0.41956303,-0.15881513,0.30023143,-0.32483903,-0.07722559,0.17544553
0.02639637,0.06410383,0.017725797,-0.073335394,0.16074567,0.16800126,-0.27741703,-0.2142183,0.1989211
-0.017703358,0.1400533,-0.10974175,-0.15227628,0.19782002,-0.1710709,-0.05572663,0.26482671,-0.06105578
0.055698004,-0.13508743,-0.34434927,0.30131903,-0.19620377,-0.4414486,0.308154,0.3279044,0.009975226
-0.17354985,-0.063621834,0.058581054,0.06941787,0.034246303,-0.12641719,-0.042732503,-0.28998443,-0.30195928
0.14753963,0.17689966,0.025918884,-0.21392427,0.19243522,0.16448604,-0.4256862,-0.2217007,0.09761376
-0.445583,0.05731296,0.08252486,-0.5593319,0.08640232,0.33357218,-0.065562814,0.17640224,0.17717032
0.037674785,0.010361717,0.101656966,-0.063549325,0.23233345,-0.24848875,0.19838461,0.072670974,-0.37121627
0.21374992,0.20121714,-0.034816552,-0.11939552,0.12243132,0.05138761,-0.08358183,0.09804366,0.11652804
0.23573709,0.24660078,0.28474432,0.08219593,-0.0337843,0.13168809,-0.44280693,-0.39490977,-0.28170946
0.32212183,0.16435564,-0.20813577,0.28454152,0.09460066,-0.55532163,0.096285075,-0.59228945,-0.34400234
0.03775978,-0.4677142,-0.35638526,0.066693194,0.012097193,0.08355115,0.07212338,0.38401952,0.20777857
0.06873468,0.19713941,-0.005047637,-0.28932244,0.04713375,-0.0020012094,0.07101723,0.16551168,-0.014444177
0.019311413,-0.33784968,-0.24776095,-0.06703135,-0.1115774,0.081479706,0.12054422,0.44391426,0.14483795
-0.1548729,-0.33509794,0.0016804952,-0.47756657,-0.077509075,0.22904238,0.20018499,0.26805034,0.28736833
-0.15298976,0.122811675,0.1217153,-0.29618862,0.073273554,0.13522239,-0.35752,-0.18780574,0.27065042
-0.1753992,-0.35793045,-0.2562925,-0.19929901,-0.12840351,-0.029155595,0.24852982,0.26275656,0.29935217
-0.057345726,-0.048304565,-0.05112179,0.045792464,-0.22342743,-0.14960527,0.048034128,-0.05514409,-0.017774032
-0.10772474,0.03724851,-0.08159703,0.121079326,-0.0040701185,0.054766916,-0.10634366,0.07807103,-0.124349736
-0.5380025,-0.025908064,0.12950338,0.098439455,0.3099069,0.24800311,0.14073575,0.0038693894,-0.5234997
0.14375073,-0.28329894,-0.36636373,0.21672612,0.25479034,0.11973091,-0.007140734,0.15793544,0.06658272
0.028112164,-0.017351435,0.014018385,-0.05317389,-0.051081736,0.043031637,0.041022155,-0.025973802,0.0062261815
0.32684162,0.32243934,0.11155796,0.13767438,0.044029627,-0.3331957,-0.50196034,-0.7757662,-0.33300605
0.074048296,0.032398764,-0.25986403,0.21562867,0.10131085,-0.40564874,0.22293688,0.10569416,-0.00063002016
0.08926394,0.2863753,0.42623886,-0.33749282,-0.072108306,0.15044738,-0.25556168,-0.58009714,-0.38653925
0.023378724,0.20797075,-0.27478105,0.085220635,0.22038686,-0.011202441,-0.3148023,0.14655907,0.086372636
0.08276149,-0.19064872,-0.006628547,0.026629336,0.0348539,-0.078368805,-0.04559516,0.02212642,-0.012027405
-0.13979919,-0.049028013,-0.07383661,-0.022529544,0.21042185,-0.018358251,0.0033370762,0.09578667,-0.2322233
-0.22211964,0.051347256,0.114791125,-0.09765091,-0.045097783,0.047481183,-0.08491426,-0.11054312,0.02023499
0.08456741,-0.1063424,-0.08692168,0.022919653,0.0029045502,-0.048832893,-0.052409053,0.05506983,0.052637637
0.12346143,0.053640135,-0.09273105,-0.18187688,0.014832179,-0.06540282,-0.16960582,0.073268756,-0.032491587
-0.41248924,0.005480972,0.20608698,0.2172568,0.4612436,0.11978952,0.11265656,-0.20026161,-0.38287607
-0.15736939,-0.4094745,0.12957779,-0.5531781,-0.062292766,0.4820233,-0.39091682,0.12888175,0.34974146
-0.12883829,-0.4552279,-0.07082027,-0.19737267,0.070235856,0.38809666,0.29258052,0.30355838,-0.10610849
-0.008301385,-0.0035814322,-0.24735959,0.070314504,0.37350455,0.08415785,-0.29916757,0.2261386,-0.12789074
-0.02774687,0.020969858,0.03951285,0.036302213,-0.14569218,0.016909493,-0.18933363,-0.11981206,-0.04232392
0.30920786,0.38651153,-0.26750642,-0.28361055,-1.0284344,-0.36754888,-0.44870442,0.13101047,0.2089757
0.024497604,0.0028099685,0.059465352,-0.028158834,-0.086281225,-0.021710815,0.026183372,-0.03443263,0.06190697
-0.26645735,-0.12842625,0.12841134,-0.3700456,0.097885475,0.2856321,-0.11186688,0.15452446,0.2208315
-0.015555555,0.25006557,-0.21642427,0.2035984,0.14925936,-0.45417356,0.2744891,0.14236894,-0.32846242
0.107118644,0.021465706,-0.28477618,0.14810853,0.1994236,-0.5119684,0.21415487,0.20130005,-0.08889691
0.020329876,-0.05764231,0.032063216,0.19529346,-0.16790387,-0.2865636,0.1626517,0.14080827,0.12961847
0.09310019,0.17041293,0.03231007,0.08550329,0.06262541,0.25821003,-0.22891988,-0.26983687,-0.27571788
-0.24601758,-0.20003866,0.08790975,-0.44467452,0.14869437,0.28074732,0.19214694,0.3831117,-0.084962554
0.12878455,-0.06918413,0.08901209,0.2090972,0.2801684,0.08876062,-0.116193466,0.20208867,0.025796497
0.007292421,0.23833342,-0.24506848,-0.14740163,0.22761014,0.082609825,-0.19201711,0.0687533,0.0025048007
0.13704783,0.073963374,-0.14561819,0.24437697,-0.2682465,-0.08590713,-0.015464592,-0.13715877,0.23500718
0.17990576,0.06256416,-0.4524653,0.30878446,0.08891278,-0.38816702,0.12535866,0.11283235,0.00212219
0.04215653,-0.099504225,-0.15355031,-0.32905096,-0.22087944,-0.048807584,0.34142795,0.26333418,0.14979686
0.03436758,0.14579771,-0.42639217,-0.02267517,0.32360622,-0.17894638,-0.021994555,0.2047427,0.056226872
-0.057970334,-0.27848843,-0.42813903,0.2006058,0.34174708,0.025077064,-0.050440162,0.11613731,0.15407842
-0.111287,0.27898622,0.42160016,0.16567962,0.3130379,-0.13249004,-0.01760711,-0.44406173,-0.49460283
-0.06638386,-0.29741347,-0.34395087,0.15254797,-0.034880556,-0.030025411,0.19466676,0.23842718,0.23703131
-0.07007594,-0.26281497,0.30874488,-0.45024046,-0.09031298,0.37590122,-0.24302092,0.08521097,0.18864186
-0.043342013,0.03553498,0.006336062,-0.39571372,-0.22688179,-0.19226032,0.3437349,0.29646862,0.1842959
0.05273421,0.26140666,0.33117908,-0.16759314,0.04055211,0.12529078,-0.3047612,-0.43339708,-0.29641786
-0.2737043,-0.0012421402,0.11367739,0.15578467,0.27620926,0.012961962,0.1202784,0.09029143,-0.43936276
0.09237072,-0.20594147,-0.18106906,-0.03125724,0.081603356,0.2722375,0.084609516,-0.106562085,-0.134252
-0.42676985,-0.25013673,0.46046722,-0.42040506,-0.26407963,0.3663061,-0.13722904,-0.39846513,0.066398166
0.16181746,0.2937151,0.31258094,-0.25176305,0.0369556,0.16914366,-0.223255,-0.52625346,-0.40456784
-0.2281073,0.0073008877,0.16033298,0.15016982,0.20390862,0.27614275,0.07769551,-0.12895182,-0.07586501
0.32476395,0.27568224,0.29166374,0.043035712,-0.0053134942,-0.011166259,-0.48374426,-0.45463794,-0.3219397
0.20417191,0.075218774,0.23571621,-0.15830453,0.18490617,0.1920324,-0.3800889,-0.36243996,0.06464317
0.17249136,-0.23975036,0.07088698,0.1238351,-0.23356494,0.14516738,0.12340206,-0.0674731,0.13138674
0.04008212,0.14289877,0.2264915,0.31324616,0.24671999,0.03538449,-0.30983177,-0.44728282,-0.25409576
-0.08410091,0.21186326,0.19117019,0.15521707,0.31309065,-0.16314934,0.09754167,-0.09939985,-0.3056411
-0.16500781,-0.0040794737,0.07824395,0.07644629,0.05605674,-0.07726149,-0.022251932,-0.023430357,-0.057933528
0.17614372,0.29288188,0.26182872,0.037466682,0.10527058,0.01284196,-0.37315968,-0.43058062,-0.096018404
-0.50615656,-0.49432215,-0.50771093,-0.36513317,-0.019884015,0.084916115,0.20334633,0.28579336,0.35159978
-0.0056609833,0.0119445175,0.088393986,0.07228433,-0.12765278,-0.037417985,-0.06918388,-0.115525946,-0.12902494
0.2815236,0.37374708,0.005648928,0.28311187,0.1734169,-0.4277284,0.004331836,-0.12404881,-0.5918579
-0.07254925,0.08360149,-0.0076337894,0.059482846,-0.009438513,-0.20464753,-0.043983076,0.021801628,-0.17200367
-0.04339885,-0.6033884,-0.1429162,0.08942161,0.10501729,0.26234886,0.04991036,0.35795954,-0.05025976
0.035144195,-0.01708693,0.054753065,0.1098719,-0.12823169,-0.050583683,-0.021272402,0.014663269,-0.17335682
-0.1961277,0.07384184,-0.055180732,-0.0037918645,0.15329793,-0.081868954,-0.026537495,-0.021686053,0.07796055
-0.5631633,-0.09283942,0.28243807,0.2591875,0.2807018,0.06096431,0.16003296,-0.2520012,-0.21351232
-0.5397421,-0.4959423,-0.02082478,-0.3826632,0.2517842,0.4039383,0.0070236567,0.26572067,0.25326404
0.48960584,0.3395083,-0.29010183,0.18746243,-0.044561297,-0.85604185,-0.17164366,-0.50969666,-0.06998824
0.073349655,-0.11690254,0.013215902,0.017888015,0.069454595,-0.033470947,-0.060103275,0.06634773,-0.1726614
0.09775365,0.114955485,-0.23505455,0.12961498,-0.07505888,-0.16032068,0.017163875,0.31392664,0.120497316
-0.22494458,-0.024387991,0.07617272,-0.014997835,0.2852594,0.12244234,0.07068344,0.10355497,-0.20860568
0.06333766,0.16771245,0.041186087,-0.08643198,0.05205887,0.11768293,-0.06171088,0.018488036,0.14056566
0.3493187,0.06910758,-0.36862954,0.30072835,0.026248077,-0.43262532,0.18146583,-0.06481852,-0.53726876
-0.19288602,-0.2096756,0.051580884,0.027270352,-0.34193316,-0.3285677,0.3475158,0.29293275,0.05668966
-0.042184684,-0.17880885,-0.33334494,0.058756657,0.2855386,0.21295615,-0.10960371,-0.046003852,0.13337982
-0.45350096,0.34676123,0.3889613,-0.5659001,0.28462023,0.465294,-0.8606884,-0.5282338,-0.06128938
0.016884252,0.12836093,0.07362161,0.08228369,0.023201585,0.016082559,0.08247464,0.09618441,0.07090302
0.057263494,0.2872244,-0.08099633,-0.21725568,0.40557432,0.36179727,-0.5071724,-0.2773366,0.21558397
0.07285434,0.1294258,-0.017936777,-0.081403546,0.12524225,-0.123839475,-0.03249023,0.25691313,-0.22242258
0.05288037,-0.009564333,0.020884017,-0.02361169,-0.118423596,0.06397336,0.015821556,-0.045545317,0.057370905
0.1809531,0.018512283,-0.5136407,0.34320092,0.038823906,-0.33755544,0.1882178,0.08625254,0.05411277
0.121354155,0.08713637,0.028888514,-0.068153545,0.24156992,-0.010432657,-0.28137296,0.018354716,0.05332726
-0.035866458,-0.36970162,-0.2988279,0.29486918,0.066768184,-0.2741631,0.19080633,0.3559382,0.06516767
-0.033778492,0.08740903,-0.12506476,0.008200406,-0.064287625,-0.06500436,-0.110553585,0.026493192,-0.09443697
-0.20070948,-0.3590023,-0.13126932,0.17091657,-0.001627597,0.12936406,0.116232604,0.29619995,0.051180653
0.14452045,0.05456679,0.08400755,0.116167925,-0.013228362,-0.02081485,-0.05896645,0.24600044,-0.111647785
0.10340559,0.17409523,-0.20197111,-0.022299107,0.12784764,-0.15315504,0.07881828,0.10852644,-0.12944052
-0.10710788,0.030534001,0.012044212,0.012299672,0.13576436,-0.0019959917,-0.12740186,-0.1006,0.07352382
0.1395625,-0.28398478,-0.43925986,0.3389406,0.09449938,-0.39981177,0.20446968,0.314603,0.13608733
-0.5785598,-0.12563936,0.1789172,0.22398975,0.41209903,0.1290163,0.21282107,-0.04408666,-0.45686257
-0.2936451,0.15622018,0.038976703,-0.11069635,0.26508752,-0.3170416,0.10840556,0.46950158,-0.64001065
0.0007391427,0.036516,-0.060258813,0.09155845,0.30278063,-0.0849568,-0.2545781,0.27106076,-0.16275717
0.11915622,-0.48980093,0.13318987,0.06514712,-0.50187224,0.25205052,-0.16135241,0.05403381,0.13496082
-0.21807846,0.07802055,0.16412792,-0.34263736,-0.08896431,0.14181662,-0.28844777,0.01757877,0.18731609
-0.42850617,0.2076296,0.61832243,-0.87176776,-1.0325408,-0.27509078,0.45003054,-0.010216357,-0.41128367
-0.2573022,-0.10074406,-0.062775835,0.06681214,0.26846078,0.20501144,-0.015738526,-0.19244143,-0.09898048
0.022614714,0.015712835,-0.27576438,0.07194469,0.17724445,0.40808347,-0.1557403,-0.2001987,-0.017428596
-0.043436192,0.033867236,0.021473391,-0.034869496,0.0077120196,-0.02296036,0.056605246,-0.06549253,0.06552873
-0.14018546,0.051833373,0.1352685,0.14981401,0.32475254,-0.02643306,0.20782775,-0.060146257,-0.34246665
-0.0013897772,0.1747597,-0.19053999,-0.11712048,0.20158589,-0.10151148,-0.06733613,0.17179608,0.0007417634
0.094361946,0.23798393,0.122290716,-0.25288227,0.13539886,0.17278385,-0.2518158,0.025069403,0.20281987
0.24525596,0.14396219,-0.1922188,0.1140696,-0.45927915,-0.43380502,0.011487435,0.27821,0.4152649
0.18417504,0.45111167,0.21920165,-0.56080556,-0.59515417,-0.7308976,-0.13604383,-0.37302658,-0.07074518
0.35676494,0.14704071,-0.3158425,0.28865784,-0.020371167,-0.612831,0.34815904,-0.17387988,-0.38613117
0.0012799706,-0.46201226,-0.14327139,0.046936575,0.134842,0.30015925,-0.08163678,0.12441013,-0.06353071
-0.027639264,0.31101027,-0.39102954,-0.16028637,0.41643015,-0.10870224,-0.3359361,0.1451429,0.12059552
-0.20365801,0.08522973,0.022087488,0.07871039,0.0511259,-0.26413563,-0.11895289,-0.117937006,-0.14907378
0.17792647,-0.11282572,-0.30808064,0.15715215,0.07475536,-0.008805585,0.08288018,0.026753645,0.15625603
0.04425273,0.022794144,0.027759014,-0.1449785,-0.009200698,0.020600427,-0.022428222,-0.01093124,0.03296782
-0.0823635,-0.3181206,-0.009015203,-0.34237513,0.22079806,0.29900983,0.08649415,0.2545073,-0.09887043
0.075841516,0.026326282,-0.27182,0.112657666,0.22847435,-0.32331732,-0.189978,0.28486913,0.2006357
-0.024578383,0.17205879,0.37036875,-0.40897062,-0.083811246,0.3639302,-0.32330093,-0.2152044,0.11567749
-0.53106016,-0.17239808,0.16942997,-0.5743305,0.20152123,0.4522351,-0.21747804,0.24633813,0.1535964
-0.13241126,0.19321601,0.006836941,-0.24504772,0.18807597,0.09820643,-0.26984388,0.011029455,0.0010998404
-0.09626831,-0.65991265,-0.19634447,0.06655437,-0.09051376,-0.025552312,0.20257689,0.28238967,0.28805748
0.0412425,-0.015909942,0.016316004,-0.052908767,0.28966057,0.40012473,0.043217793,-0.33034402,-0.38618124
-0.26025835,-0.21717277,0.097897075,-0.59910595,-0.1872655,0.33762404,0.033838898,0.21765912,0.2737381
-0.014055501,0.07895728,-0.15062597,-0.01330547,-0.078729406,-0.299305,0.02421929,0.29655698,0.25130412
0.060650446,0.0410422,0.0028946141,-0.02801912,-0.0189971,-0.087494105,0.029457701,0.076960936,0.009057192
0.08183124,0.12583001,0.09670577,0.011457742,-0.0015921193,-0.0018680334,0.10330921,0.119637854,0.11963896
-0.09636922,-0.11784327,0.008096537,0.044898614,0.17570986,0.17474471,-0.01599735,-0.0444458,-0.26932353
0.05188411,-0.0375435,0.053781245,0.02339954,-0.017478252,0.024105968,0.04818447,0.029449532,-0.011245084
0.15832213,0.24497257,0.31536248,-0.03881707,0.030510359,0.109329075,-0.32122946,-0.45210508,-0.20420074
-0.15832561,-0.14484882,-0.08203572,-0.29799268,-0.06041482,0.1991419,-0.05088014,-0.042523213,-0.28579092
0.47096455,0.29816878,-0.26467133,0.45007554,0.056423813,-0.6832119,0.025670864,-0.59653044,-0.5241329
0.123817034,-0.027898697,-0.356798,0.16255115,-0.18470253,-0.538514,0.4983039,0.21973705,0.23026937
0.14945714,-0.25079176,-0.4389129,0.38300028,0.33796078,0.019229287,-0.12912846,0.097403124,0.17399177
0.1320568,0.108294904,0.100194685,0.20347425,0.101509936,0.052389983,-0.29517063,-0.32624322,-0.19289261
0.05295075,0.13882244,-0.12496075,-0.086416066,-0.010854518,0.016633201,-0.01588685,0.081121854,0.014664688
0.16774952,-0.43151855,-0.19323908,-0.10456804,-0.10494841,0.15749452,0.24669477,0.29441196,0.1115873
-0.38314033,-0.3174097,-0.039994787,-0.15772665,0.075249225,-0.048003174,0.017121408,-0.04724835,0.37423244
-0.021049727,0.3922092,0.50567317,-0.3990537,0.11869342,0.37669298,-0.65389687,-0.46201524,-0.15639694
0.07376811,0.10948462,-0.15828253,-0.26954138,-0.070101604,0.018404625,-0.017533185,-0.01145224,0.07905979
-0.3131914,-0.24291351,-0.10452463,-0.09557455,0.08080917,0.30965602,0.22404027,0.29386234,0.018729268
-0.18123497,0.13689579,-0.28115326,0.082495145,0.35915658,0.07805892,-0.17181084,-0.07538135,0.09669762
0.27456987,0.18842712,0.32024077,-0.0800958,0.19012187,0.027477568,-0.22317639,-0.5616175,-0.27723527
0.026882948,-0.27945003,-0.59575266,0.0907795,0.31778833,-0.04800225,0.07625201,0.23648389,0.14903054
-0.535795,-0.18847357,0.2282705,-0.053603772,0.30169263,0.27457476,0.16763541,-0.0942983,-0.017478937
0.25612026,0.21553214,0.15980576,0.008582069,0.21575986,0.19057667,-0.4224223,-0.46802327,-0.13556947
-0.03630635,0.20078836,-0.2098154,-0.25443193,0.27994692,-0.060855176,-0.3225757,0.14964372,0.08661859
-0.33589214,0.032043044,0.072943784,0.06443583,0.25435108,-0.0439996,0.017648773,0.02817318,-0.30255458
-0.040693298,-0.30396253,-0.36214444,0.34470406,-0.09118112,-0.25092593,0.37545177,0.24129091,0.02762835
-0.026222326,0.10122223,-0.13922165,0.04293577,-0.075119674,-0.16186401,-0.017349187,0.09468071,0.0045620385
0.06969537,-0.004401584,0.049880687,0.0025236502,0.013613631,-0.070641726,0.05852308,0.040589526,-0.06271975
-0.062446173,-0.015970983,0.12780385,0.08702466,0.23527502,0.021887017,0.14348146,-0.041995086,-0.32422718
0.15130812,0.37291446,0.05419882,0.16607012,0.28931543,-0.3772717,0.23224801,-0.21638162,-0.63890666
0.08079917,-0.03801787,-0.30233938,-0.10784784,0.21967366,0.32185102,0.016890146,0.16495112,-0.2761076
0.034335174,-0.00032394216,0.018964179,0.029170351,-0.019681592,0.015401648,0.045692325,0.0004630981,-0.041248143
0.22865826,0.20161834,0.29616198,0.030060034,0.07391445,-0.11276008,-0.41223723,-0.36930755,-0.39341658
-0.028947437,-0.014603608,-0.4573413,0.21460913,0.262015,-0.4570297,0.07370286,0.3983479,-0.013807129
0.0643052,0.34096536,0.1196772,0.3446233,0.17925762,-0.3234043,-0.11042306,-0.5716143,-0.2792798
0.11557191,0.35795927,0.4595574,-0.4046333,-0.24924596,0.033713896,-0.21836469,-0.16363606,0.08911708
-0.25337577,-0.7037329,0.0735546,0.3796106,-0.3152562,-0.3435986,0.41725102,0.17224212,-0.054573603
-0.06127625,0.1616174,-0.05287131,-0.042772107,0.017649774,-0.11310959,-0.14813693,0.21378809,-0.28700763
-0.14821978,-0.062772684,-0.104886584,0.07246793,0.031863846,0.05336517,-0.08697123,-0.13483916,0.034495004
-0.2528994,0.19570385,0.03247276,-0.062985495,0.27946255,-0.14927253,-0.106324844,0.1973789,-0.16341801
0.3015103,0.28124058,0.1804896,0.02383088,-0.1817934,-0.3678777,-0.38140243,-0.299852,-0.017317008
-0.07416584,-0.0007566455,-0.040188227,-0.02021636,-0.0050759385,-0.022802452,0.05168093,-0.040773265,-0.1747529
-0.428493,-0.45283213,-0.09805692,-0.26526412,0.2514199,0.18603149,0.16980731,0.436493,0.14843509
0.04151815,-0.14845464,0.26648566,-0.119004175,-0.13738787,0.30105704,-0.27915928,-0.27687874,0.16017826
-0.17990197,0.12575668,-0.03692503,-0.027137564,0.12799694,0.07427371,-0.17823404,0.15376121,-0.040366113
0.008127909,-0.02423932,-0.15331689,0.05439779,-0.12188523,0.006242167,-0.04566076,-0.060618248,0.07451657
-0.52676964,-0.19508684,0.021691116,-0.2310164,0.4317624,0.17271508,0.1468793,0.3286937,-0.17864811
-0.40698949,-0.1376792,0.02343585,-0.16048998,-0.03604847,0.023357347,0.35722813,0.18261677,-0.2041119
-0.0790357,-0.42772594,-0.20539911,0.17498426,0.007010673,0.26070595,0.10409531,0.04648608,-0.123646826
0.30018705,-0.01681885,-0.39529225,0.37757856,0.016332923,-0.6947564,0.40719393,0.12321185,-0.39469698
-0.0051935655,-0.0092508765,-0.40248284,-0.05691793,0.17777576,0.03592149,-0.1398967,-0.029962966,-0.012652913
0.048726074,0.054128133,-0.23574157,0.013409405,-0.34716025,-0.08902847,-0.04649396,-0.076735266,0.05511265
0.0132567035,0.085007355,-0.03781007,-0.1460731,0.009154418,0.07464749,-0.2723393,-0.104188375,0.0018936625
-0.039239336,0.072062396,-0.26730296,-0.068439275,0.3187942,-0.054596554,-0.38543785,0.24366982,0.0706897
0.0076655396,0.080972955,-0.04372681,0.03729892,-0.014618052,-0.07181377,0.028461272,0.037985407,-0.1734914
0.5128404,0.41261208,-0.4379183,0.39137822,-0.13033524,-0.92523503,-0.004628899,-0.68500966,-0.032643817
-0.05204979,0.07725659,-0.0728801,-0.13091354,0.17533998,-0.15125677,-0.09389124,0.2579564,0.0005011145
-0.004160718,-0.38733283,-0.3638391,-0.049695764,-0.10711473,-0.04120241,0.16779655,0.30888724,0.278032
0.073654525,0.2265275,0.3068932,0.07805242,0.19450794,0.11852636,-0.22211185,-0.5249431,-0.26448834
0.022879213,0.039643176,-0.21887131,-0.04101488,0.065330006,0.01672905,-0.073866345,-0.004505956,0.02677729
0.032127805,0.12606408,0.076589,-0.022072889,0.08201641,0.11012714,0.06289952,0.11089333,0.100395575
-0.2888596,-0.71203506,-0.042890765,-0.75507706,0.032437854,0.40571454,-0.49325305,0.09538728,0.3739154
0.13875067,0.23421718,0.13170707,0.22974667,0.26794526,-0.39838755,0.21384646,-0.3094217,-0.4346405
0.06488866,0.023021206,-0.25159982,0.027616635,0.35688552,0.23274922,-0.2721935,-0.10724693,-0.0027329393
-0.0032591447,0.07246461,-0.100015216,-0.14027472,0.05762649,0.02664239,-0.092668116,0.013302256,0.010934059
0.11147274,-0.06668743,-0.039636996,-0.15597402,-0.23109566,-0.011999724,-0.15307808,-0.03559584,0.034964424
0.09413379,0.08511677,-0.046519876,0.09268326,0.37146166,0.29063702,-0.44215178,-0.3350873,-0.076007344
-0.16323464,0.0709494,0.058659602,0.13168286,0.031627085,-0.09544205,-0.14733297,-0.15425272,-0.28000322
0.019647019,-0.29333338,-0.34216422,0.15624288,-0.021744726,-0.25568432,0.2813099,0.3065813,0.10157298
0.08999029,-0.11397126,-0.41029865,0.07595382,0.026935287,0.039022703,-0.0057485234,-0.20139952,0.13892946
0.07582973,-0.008151189,-0.039401505,-0.06275484,0.00822081,0.006418921,-0.08525785,0.0773287,-0.007432508
-0.027037185,0.29461005,0.17966996,0.27500847,0.2875009,-0.20630206,-0.081118315,-0.4497298,-0.3478396
-0.0725307,-0.062641084,0.05061942,0.28796643,0.24397162,0.044835925,0.048775446,0.29093796,0.09182969
0.077377886,0.37680677,0.28940153,-0.3165321,0.09362607,-0.20826952,-0.63355386,-0.9017515,-0.6227495
-0.103386246,0.24439077,0.5035682,-0.7148036,-0.5373125,0.38397774,0.31731194,-0.58577216,-0.3662615
-0.15856814,0.050817646,-0.06535685,-0.13131523,-0.034391824,-0.015741885,-0.13789222,0.018568482,-0.003957998
0.044867106,0.15401553,0.07180022,-0.2059798,0.21429138,0.038348205,-0.3331428,-0.029741624,0.2075442
0.096933,-0.2973478,-0.34100863,-0.14987095,-0.16621573,0.023715649,0.24314608,0.2622265,0.2280559
-0.29311022,0.033809356,0.014750977,0.00042855507,0.12472883,-0.10514003,-0.060377527,-0.013020898,-0.16401824
0.06847387,0.054717064,0.095335454,-0.08095203,-0.41244823,-0.3363432,0.12961192,0.24209549,0.23850738
0.05858366,-0.06876765,0.016169474,-0.041481577,-0.07630914,-0.022240806,0.015848434,-0.008610534,-0.040028285
0.07168615,-0.07500732,0.06425878,-0.09058836,-0.14620988,0.0066991956,0.041893408,0.112926036,-0.20787619
-0.04348675,0.18078096,0.085646145,-0.12619117,0.08089727,0.07798312,-0.5597707,-0.2562229,-0.0025269825
0.09445072,-0.40330574,-0.31213933,-0.21956527,-0.014479035,0.2226462,0.20900197,0.280092,0.16099742
-0.088360734,-0.015784621,-0.07600657,-0.043274883,-0.08308995,-0.0114701465,-0.06308011,-0.06712353,-0.06316537
0.07670195,-0.21223333,-0.383609,0.23153675,0.265837,-0.19760622,-0.12239281,0.26160318,0.20223978
-0.2955281,-0.7292836,-0.52808785,-0.68038476,-0.012605336,0.30009532,-0.09971219,0.37283707,0.17827842
-0.0699068,-0.008873648,-0.074673474,-0.055779196,-0.1111396,0.044427197,-0.18874656,0.118885,-0.085845076
-0.43499103,-0.29077378,0.15853794,-0.6654191,0.056457933,0.5346157,-0.63599414,-0.0370261,0.33734724
-0.1458594,0.07882299,0.03372033,0.12020792,0.07689621,-0.09863078,0.15372679,-0.2171963,-0.22008076
-0.088306,-0.3958075,-0.12788801,0.2249839,-0.16269992,0.11229079,0.22918569,0.26666453,-0.046530776
0.09877172,-0.42944896,-0.13194656,-0.15725335,-0.013304129,0.18593805,0.1908152,0.2583517,0.041923
0.016954096,-0.048475396,-0.020517606,0.00644397,-0.039801907,-0.0014372678,-0.03402583,-0.032287214,0.004200937
0.1796271,0.20429358,0.4839431,-0.14243585,0.005702169,0.28869024,-0.50521606,-0.5284598,-0.012541057
0.027096618,0.09331175,0.36756927,0.23856498,0.29187298,0.101517186,-0.18877718,-0.4761483,-0.4598138
-0.40921518,-0.10439086,0.27410704,-0.41115522,0.1276129,0.3752724,-0.19471838,-0.029143563,0.2422414
-0.07230069,0.20809248,-0.29732314,-0.1695039,0.31392345,-0.17331997,-0.03192877,0.18358669,0.14410132
0.12916058,0.06094455,-0.39663225,0.21806334,-0.041186616,-0.47550696,0.28393325,0.28308037,-0.058894344
-0.24868433,0.33121476,-0.053699043,-0.0013817238,0.35703903,-0.2989784,0.08530475,0.13668738,-0.19021639
0.07195278,0.17418966,0.040317874,0.058741327,0.11199268,0.19106008,-0.28071713,-0.17936003,0.14093761
0.027484851,-0.33736047,-0.5348499,0.36187893,0.18009323,-0.244184,0.16337936,0.385771,0.11163272
-0.5083393,-0.3170394,0.07722398,-0.39956492,-0.054853644,0.39016932,-0.07698148,0.26397485,0.32209742
0.2972345,0.1324452,-0.22486137,0.31235826,0.056541003,-0.51098067,0.3410911,-0.06274431,-0.44786957
0.17672801,0.062042326,0.03322808,-0.1774776,0.20251481,0.22424027,-0.40097833,-0.07539871,0.2524742
0.00059500895,-0.050729387,-0.26428849,-0.12541515,-0.12849821,0.127381,0.13911721,0.21967332,-0.06708914
0.1714674,0.18420449,0.1905257,0.11309136,0.27395824,-0.07364617,0.03532514,-0.28687933,-0.4673671
-0.28906906,-0.020358408,0.10475874,0.090095066,0.2839466,0.1340168,0.02590176,0.19240329,-0.09205939
-0.09615106,0.09215241,0.16585828,-0.27633795,0.13078728,0.10429105,-0.25168982,-0.094651766,0.13855927
-0.28576615,-0.112141885,0.068607196,0.18662873,0.30818406,0.3367751,0.07205352,-0.17548878,-0.37535504
0.08591103,0.018817458,0.24040298,0.1645136,0.0808244,-0.04019028,0.16500084,0.0409349,-0.23815309
0.448908,-0.010581322,-0.18949035,0.47387883,-0.86761266,0.051032413,0.035633456,-0.3211834,0.300558
-0.23478045,0.03858268,0.042677682,0.18189105,0.34088546,0.048851237,0.172919,-0.10159835,-0.2098781
-0.0076332353,0.22110726,0.2722787,0.20941079,-0.017725015,0.03367613,-0.164124,-0.35701305,-0.15299669
0.30539,-0.021355579,-0.6131865,0.17701796,-0.8977649,0.046724923,-0.4613874,-0.29051632,0.2666415
-0.21415456,0.2629581,-0.25301003,-0.05283151,0.3145191,-0.031705648,-0.026606824,-0.09618764,0.028514436
0.049691003,0.099932656,-0.31555983,0.12104304,-0.09145494,-0.26896748,0.2316563,0.15368979,-0.032102264
0.46512863,0.4072363,-0.049243245,0.13021314,-0.0684261,-0.45508945,-0.4885709,-0.76026076,-0.31789628
-0.0980895,0.20881222,0.2898629,0.3043185,0.31050307,-0.2016401,-0.14638174,-0.26224566,-0.40632758
-0.4960618,-0.30855927,-0.06752105,-0.111149736,0.09288587,0.15931334,0.379272,0.3928972,-0.010172037
0.08289087,-0.23144755,-0.51878154,0.3351296,0.3595656,-0.2701911,-0.013567391,0.22732945,0.2642419
0.0059136846,-0.43206403,-0.41584218,0.15461189,-0.074650265,0.0014463392,0.2810106,0.29849032,0.30412558
0.14605175,0.119053416,-0.2160547,0.010777434,0.18644874,0.012044067,-0.085944526,0.26575,-0.008379074
-0.44771194,0.038405232,0.007733871,0.04357331,0.49611905,-0.05812169,-0.010406702,0.17081217,-0.1181726
0.061477665,0.053563725,0.15290909,0.064684905,0.0066347066,-0.049812734,0.09729749,0.0019118167,-0.12146843
-0.25303108,-0.1169592,0.112334035,-0.50249016,0.27435052,0.34049565,-0.124782056,0.31954515,0.081243515
0.18913248,0.21116497,0.07989954,-0.084705114,0.063217565,0.12976356,-0.2250081,-0.08741652,0.12042699
0.2408637,0.20684849,0.34231848,-0.040820852,0.12399308,0.07238955,-0.28583694,-0.46158513,-0.37071472
0.07105071,0.2515481,-0.18937892,-0.09833512,0.19257458,0.09280737,-0.17885835,0.15055642,0.11522247
0.19071272,0.15089068,0.2952322,0.16145195,0.15865104,-0.03652648,-0.31794673,-0.38536695,-0.2490137
0.17102632,0.19238214,0.28644514,-0.03400644,0.059393726,0.19856803,-0.40182033,-0.36713412,-0.2579792
0.23363914,0.20651935,0.20589171,-0.15145971,0.04069334,0.20131262,-0.39791816,-0.23318107,0.13482898
0.0045237266,0.078105435,0.017086152,-0.033356998,-0.020567616,0.0014853752,0.011062479,0.078162946,-0.0032038186
0.27460304,0.18923013,0.24498005,0.06840453,0.058745872,-0.0124306055,-0.41867378,-0.40979612,-0.14420708
-0.06418465,0.28869578,0.264271,-0.32088616,-0.6406864,-0.28597578,0.41906705,0.17607568,-0.051181264
-0.29399353,-0.45295486,-0.33553827,0.18689251,-0.053206313,0.030642569,0.22061357,0.27556717,0.28148043
-0.3559,-0.0005047475,0.08180657,-0.0072410614,0.15493624,0.21901268,0.14977658,0.13358615,-0.14318784
0.017909763,-0.19339456,0.118599564,-0.108302526,-0.061397128,0.14844766,-0.024509033,-0.30261174,0.18274473
0.07595797,0.15918337,-0.017508192,0.008822076,0.02561731,0.06898405,0.024020929,0.1132566,0.13357651
-0.09840743,0.042536914,0.0033337437,-0.20909339,0.18566445,-0.1950769,0.12139626,0.2797408,-0.21318425
0.30475152,0.33142522,0.1405086,-0.21598184,-0.64403284,-0.48058796,-0.1032907,0.23317707,0.3224347
0.05573,-0.04301289,0.027905663,0.033218786,0.0214297,0.04485918,-0.090320855,0.06745144,0.021708647
0.17475283,0.09482996,-0.04759929,-0.07582612,0.31914094,0.3602013,-0.3000993,-0.34004098,-0.047071036
0.16029266,0.113284595,-0.21870127,-0.025188804,0.18486518,0.16005984,-0.06103837,0.23034784,0.11367799
-0.4278832,0.08549746,0.064793706,0.17243367,0.35814318,0.011919945,0.0018529578,0.16926888,-0.27072787
-0.52063763,-0.06027685,0.23242377,-0.5276764,-0.12483192,0.2650749,-0.3136242,0.051113345,0.35113522
-0.49145922,-0.1891496,0.16949831,-0.3404612,-0.07458666,0.34287143,-0.21754156,0.21090226,0.3586847
-0.022315243,-0.007583938,0.03047064,0.031927392,0.019045426,-0.12058594,-0.101090126,0.108196616,-0.010998049
-0.09807234,0.1693554,-0.017703205,-0.13299672,0.18319872,-0.039049562,-0.022373296,0.268535,-0.0463006
0.06548724,0.26765347,0.43488163,-0.33857128,-0.078805536,0.31017137,-0.47974756,-0.3135298,-0.15620498
-0.040412843,-0.005698802,0.050502855,0.06845462,-0.0346547,-0.0041097323,-0.026369847,0.04280531,0.00616159
-0.0064035533,0.22188865,-0.25808585,-0.1179644,0.29233646,-0.006537223,-0.14488752,0.18705733,-0.1355282
0.04401285,0.03629903,-0.057226524,-0.037508715,0.087480776,-0.011946538,-0.04191351,-0.0077465978,0.04760054
-0.22050068,-0.016095223,-0.0303511,0.011289029,0.06697083,0.083378606,0.039029595,-0.106292695,-0.03759129
0.04341482,-0.010733868,0.05690677,-0.099662066,-0.0795013,0.0045203036,-0.1481007,-0.110442035,0.047576766
0.022705205,-0.009074891,0.03086222,-0.06315312,0.09733201,-0.05095667,0.02625665,0.0017406375,0.04257854
-0.04012727,0.33057895,0.2245859,0.19600876,0.17277703,-0.30835384,0.10344352,-0.31961825,-0.16269587
0.16245103,0.18322447,0.0034510402,-0.056577142,0.1864441,0.025152812,-0.14460985,0.18268865,0.08743498
0.064475164,0.13192955,0.111088194,0.030293962,0.023351675,0.03859315,0.0923043,0.010402392,-0.007908898
0.20271707,0.30813944,0.25801086,-0.2658876,-0.03356667,0.15362088,-0.22623742,-0.38427836,-0.25334412
0.092283346,0.31724003,0.3797926,-0.5114324,-0.53304833,0.2601514,0.36447284,-0.3581064,-0.31608605
-0.0067574834,0.0061328043,-0.25426024,-0.014673582,0.10121205,0.12976459,-0.16530132,-0.10741473,0.01646025
-0.05213414,-0.5235905,-0.27981338,-0.0023517278,-0.025354251,0.025665656,0.283418,0.39268166,0.21857952
0.003796289,0.035943884,0.017214019,-0.073928475,-0.029268326,0.006965516,0.08490515,-0.0754921,0.03485117
0.48544955,0.3900064,0.044923395,0.11382512,0.10362943,-0.47392604,-0.6389239,-0.6462956,-0.40413654
0.16604798,-0.05944111,-0.3775409,0.27159458,-0.012828037,-0.43691686,0.28210977,0.1606566,-0.017816331
0.09450774,0.006379215,-0.29662627,0.004553291,-0.04715027,0.049075585,0.056254733,0.12772916,0.1995006
0.24623585,0.34344456,0.26026708,-0.25364614,0.06605757,0.15582545,-0.4728599,-0.231191,0.08877547
0.015112269,-0.5749002,-0.30679685,0.05025182,0.15159659,-0.05867148,0.105463564,0.35375673,0.3163468
-0.14432162,0.12951694,0.1021401,-0.016882995,0.24717842,0.049821287,0.018742586,0.11598625,-0.0282353
-0.01750308,-0.0057801376,0.09435099,-0.021715114,0.019249527,-0.09039233,-0.056561414,0.05423475,-0.1934604
0.023853341,0.12356938,0.22916369,0.18122827,0.14228003,0.08926677,-0.13520384,-0.23006165,-0.34291324
0.044709142,0.027923413,-0.038540166,-0.07769795,0.0113612395,0.010098069,0.033695456,-0.04885859,0.063585185
-0.4101501,-0.1904718,0.16189314,-0.4623433,-0.077725634,0.3427248,-0.3790758,-0.004076927,0.23531437
0.26781335,0.21271527,0.2708947,-0.015838534,0.09335457,0.12447331,-0.3428937,-0.41413024,-0.276048
0.1840577,-0.04011001,-0.1392913,0.0200343,-0.15845142,0.019980783,-0.24084441,0.08873143,0.0657275
0.13501471,0.024006004,0.034829162,0.09847764,0.09784373,-0.215899,-0.093800135,0.21993396,-0.075515516
-0.1081762,0.22101657,-0.008268523,-0.10307672,0.24752304,0.11051639,0.23878141,0.35802025,0.23520531
-0.122788936,0.16961007,-0.2666675,-0.037302285,0.32930633,0.02478359,-0.2780229,0.064161256,0.08146653
-0.12951915,0.08205756,-0.3056368,0.104364395,0.43951055,0.07547843,-0.2928316,-0.08219882,0.06475819
0.0857879,-0.010874875,0.03947435,-0.005004532,-0.06628846,-0.037774906,0.041439094,0.07756258,-0.025652472
0.12566751,0.1255677,0.045548066,-0.008909404,0.035777114,-0.0012867443,-0.04419834,0.14017859,0.07942587
0.060392745,0.29026553,0.20467684,-0.07806149,0.018972633,0.1346013,-0.2916368,-0.0097037265,0.07923648
-0.010477391,-0.055911474,0.052304044,-0.62728137,-0.09274929,0.22550368,-0.06699235,0.34443748,0.26327515
-0.19742532,-0.19630523,0.14804845,-0.3714988,0.17881656,0.24674122,0.027932823,0.307735,0.02474872
-0.20147683,-0.59591174,-0.05483913,-0.114080414,0.08372585,0.3268337,0.07747386,0.3312427,0.20620844
0.00529707,-0.38829434,-0.38070565,0.20522156,-0.062860586,0.0062834225,0.23333809,0.27429682,0.25319374
-0.5952487,0.059509046,0.2831411,-0.0105401585,0.26289877,0.23124823,0.11685107,0.08674271,-0.35233662
0.1299077,0.29194984,0.117191374,0.132423,0.077837326,0.29349184,-0.33403665,-0.4328389,-0.2641169
-0.020739954,0.22747412,-0.107623436,-0.060777154,0.3719326,0.2333672,-0.39626217,-0.10311461,0.19323748
-0.35558707,-0.01487735,0.071084805,0.06492091,0.30569756,0.1761491,0.049625542,-0.015713792,-0.10795532
0.1623943,0.22798014,0.22866498,-0.042369097,0.20941089,0.29508966,-0.3523387,-0.5211818,-0.3006809
-0.07207909,0.06827351,0.15044992,0.18247424,0.07817882,0.19189286,-0.2239421,-0.27150962,-0.22853795
0.068455786,0.10832002,0.11252025,0.11266742,0.02004679,0.12609275,0.0578647,0.16409607,-0.09873778
-0.2906267,0.011633371,-0.055385847,-0.19698738,-0.16857742,0.19146429,-0.06243046,-0.042547017,0.11890131
-0.15174417,0.09701425,-0.27977395,-0.06994618,0.1660128,-0.15597263,-0.19746052,0.31026545,0.12906243
-0.19277543,-0.46358338,-0.05885998,-0.41592428,0.06798903,0.2113892,0.2727991,0.43392122,0.15670961
0.0698771,0.10756124,-0.3698334,-0.14799166,0.22895153,0.2037751,-0.09653317,-0.24797042,0.21405545
0.32482937,0.11428202,-0.22313018,0.25784144,0.102051176,-0.4358651,0.3039802,-0.15910807,-0.3397745
0.07932068,0.2608483,0.26520067,0.26628464,0.17963885,0.047112867,-0.3632623,-0.50022054,-0.26746187
-0.39868963,-0.058573935,0.16971268,-0.30350107,0.01679978,0.17993703,-0.0635786,-0.0023693978,0.240248
0.033596434,-0.25188774,-0.4327259,0.36882377,-0.1021171,-0.56542355,0.4738464,0.45700526,0.073893055
-0.34200785,0.025726771,0.18700379,0.13779008,0.29174253,-0.09096398,0.21832424,0.017046055,-0.42124185
0.048074756,0.024788802,0.12868457,-0.111649826,-0.08078077,0.12130245,-0.05624479,-0.1398533,0.13126127
0.32125556,-0.058810476,-0.08054755,0.23722522,-0.24218474,-0.2565053,-0.030139081,0.14543676,-0.017392833
-0.13089176,-0.30043533,-0.14631294,-0.1507841,-0.086465955,-0.20657209,0.31647095,0.2578378,0.3343253
-0.021404175,-0.39276788,-0.55779624,0.4067739,0.037231002,-0.31753778,0.39668283,0.43467245,0.08865367
-0.14640184,0.079848506,-0.05417004,-0.043698065,0.26837966,0.14837155,0.12088895,-0.15139413,-0.06610309
0.18567544,0.089852035,0.08928262,0.04101448,0.19629958,-0.28679633,0.09938493,0.19655381,-0.482749
-0.3157639,0.11369632,0.2726126,-0.47033176,0.26547313,0.14966314,-0.5406503,0.13129136,0.12796184
-0.2482867,-0.4295369,-0.25481293,-0.09171467,0.21754712,0.28433195,0.29305843,0.20513073,0.015489226
-0.3139209,0.18460938,0.31717125,0.22381534,0.3780216,-0.045062914,0.1344803,-0.22868484,-0.422553
0.22557001,-0.07397999,-0.045175597,0.05052867,-0.050705586,-0.23334436,-0.0019541942,0.30591476,0.25372452
0.022605067,-0.06989369,-0.06635796,-0.001903583,0.029170929,0.025223149,-0.07449241,0.09280392,-0.21242343
0.04679836,0.28189787,-0.08773439,0.20106351,0.15318343,-0.47144693,0.22576626,-0.14017646,-0.17631756
-0.30577046,-0.12866454,0.19553047,-0.42269486,0.17898545,0.31267828,-0.044299114,0.023811974,0.20762372
0.0116839,-0.061591554,-0.14220816,0.017887214,0.054316662,-0.014142486,-0.13639982,0.14862044,-0.09195654
-0.0072076833,-0.028441414,-0.19278526,-0.0058784955,-0.04518971,-0.09415758,-0.21227378,0.13029373,-0.01664975
0.33943084,0.08235621,-0.21314013,0.35503823,-0.14100465,-0.28279412,0.2757358,-0.2672849,-0.19134821
0.0017947642,0.03035972,-0.0065646437,0.025978765,-0.05284078,-0.06571997,0.059769105,0.0017710053,-0.12110003
-0.19788711,-0.18641381,0.37243986,-0.5425977,-0.092623204,0.35861772,-0.43481645,-0.03993807,0.19189344
0.0020970686,0.19402137,-0.45759532,0.0153066935,0.38309512,-0.07876391,-0.18127772,0.2647244,0.03266081
0.086418696,0.2641354,0.30752403,-0.21415603,0.17859292,0.30090922,-0.5565293,-0.32117122,0.057102498
0.11752215,0.30779573,0.12629469,0.6387736,0.28755906,-0.3309161,-0.07816159,-0.6942631,-0.3685498
0.14057526,0.10309849,0.008551729,0.026707985,0.0776782,0.031586878,-0.049297825,0.13655984,0.026393967
0.08354955,0.36643463,0.55059755,-0.41246805,-0.25012037,0.08332715,-0.30871734,-0.5860834,-0.5377037
-0.07200814,0.16782266,-0.37396702,0.101508684,0.32710227,0.1996024,-0.14895473,-0.03368331,-0.020577036
-0.094224855,0.14972953,0.41423023,-0.38914788,-0.13392423,0.34185982,-0.34669736,-0.21145423,0.28852955
0.08813542,-0.44631615,-0.20096561,0.2815467,-0.054021247,-0.25240135,0.3555441,0.2325971,0.065310344
0.11091506,0.19698812,0.4832882,-0.38950026,-0.3391958,0.19078736,-0.13257863,-0.37521747,-0.10358582
-0.06349071,-0.035938494,0.010891705,-0.010803731,-0.15028659,0.27384543,-0.14396386,-0.18097207,-0.13540187
0.2595553,0.36617413,-0.35275736,0.3336848,0.083278075,-0.42082167,0.06311965,-0.12525918,-0.58970886
0.33005577,0.12557024,-0.21346645,-0.21383223,-0.27828893,-0.09337491,-0.12953058,0.09093089,0.15414314
-0.088955306,-0.4224574,0.12206256,0.16146673,-0.08759583,0.06974332,-0.09775624,0.076020084,0.21227263
-0.30495232,0.11872115,-0.021160757,0.15320204,0.31703922,0.1327784,0.0676638,-0.10006561,-0.25411952
-0.3519974,-0.27669665,0.3478296,0.043587293,-0.73896754,-0.43882057,0.40517482,0.27728048,-0.2979983
-0.5535938,-0.16481167,0.21458884,-0.42230096,0.09159489,0.46952853,-0.11680093,0.12297476,0.3107438
0.011760041,0.21733843,0.31395024,0.30340976,0.37305668,-0.11871873,-0.12512644,-0.51451683,-0.42419764
-0.09505465,0.036525667,0.09749685,-0.36524883,0.031314254,0.21049151,0.17221875,0.18344417,0.04715258
0.5239405,0.38508964,-0.09908325,0.15860644,-0.3349505,-0.70149857,-0.5622212,-0.642046,-0.06848814
-0.117322825,0.12999186,0.11948066,0.06886824,0.23262022,-0.109437376,0.13286224,0.10426898,-0.10605584
-0.14707568,0.1906197,-0.22050622,0.06177731,0.22088331,-0.18191521,-0.26130134,0.2581634,-0.036328617
0.16524011,0.3106732,0.3330857,-0.08135049,0.0494989,0.12969118,-0.37258387,-0.410914,-0.14157462
-0.19322911,0.12157953,0.1362261,0.028991692,0.20628318,-0.051886626,0.16915525,0.0751395,-0.10116298
-0.17552479,0.17433836,-0.034241714,0.20458715,0.3156166,0.020963682,-0.15302373,0.16042164,-0.122910835
0.17330451,0.010993593,-0.57978296,0.37459207,-0.02903275,-0.30011943,0.20645753,0.2714916,-0.020662023
0.20361859,0.32634562,0.275109,0.08257456,0.1499488,0.07926197,-0.5567496,-0.47637957,-0.10765485
-0.044618715,0.066475734,-0.016669603,0.024254039,-0.011979501,0.08124316,-0.014551182,0.06190658,-0.04162398
-0.31144068,0.08553042,-0.06404835,-0.22729905,0.05018847,0.13979925,0.09819346,0.3165997,-0.032996416
0.046528056,0.046784595,0.21469921,0.33711064,0.33785927,-0.113406844,-0.053512502,-0.35200736,-0.41271043
-0.0998871,0.20181127,-0.06571476,-0.05078995,0.26510504,-0.15943974,-0.011496749,0.15478712,-0.19291896
-0.09333585,-0.0069590774,0.09481771,0.04137556,-0.04697944,-0.010781502,-0.08264712,-0.02998534,-0.13071519
0.010240336,-0.048878968,0.019648053,0.04491249,-0.048302382,0.074046984,0.0040347143,0.03607043,-0.14598724
-0.0011488053,0.2398714,-0.17287968,0.2964978,0.04028391,-0.44660154,0.39723048,-0.10158496,-0.15261286
-0.010517647,0.04510541,-0.6024562,0.20729226,0.41737875,-0.13181104,-0.040098783,-0.0009222799,0.2033019
0.15016103,0.26392016,-0.123193115,0.22167704,0.24245751,-0.44878608,0.27781072,-0.065020986,-0.4941489
0.22106802,-0.07681656,-0.29496557,0.30969805,-0.15239424,-0.22517753,0.23261808,-0.038285237,-0.07735927
0.16056497,0.21667325,-0.3638165,-0.2076506,0.38589883,0.09161199,-0.2237546,0.12747113,0.09717696
0.075045876,-0.4407711,-0.12745439,-0.038067814,0.08299628,0.26285943,0.12169019,0.23787493,-0.12940817
0.24067576,0.23915435,0.25041288,0.25288668,0.10742134,-0.025797889,-0.5162321,-0.3790744,-0.33301014
-0.34197155,-0.10440729,0.14614318,0.06401506,0.44648522,0.18629669,0.062161732,0.0061205714,-0.39367113
0.2046427,0.4205846,0.40680355,-0.37745574,-0.012959417,0.24200521,-0.39695978,-0.5065454,-0.22914967
-0.10351483,-0.6123011,-0.104194276,-0.9142654,-0.11085687,0.3639634,-0.44720006,0.2229541,0.44411293
-0.0049702255,-0.4172869,-0.176162,0.1853983,-0.012140333,-0.17600958,0.19020917,0.33788142,0.17006437
0.1731578,-0.1680579,-0.35362113,0.13678254,0.00069987425,-0.12637976,0.06586772,0.1632184,0.28819728
-0.09998383,0.036519486,0.37689072,-0.38303274,-0.1101301,0.32938415,-0.30897072,-0.1993418,0.16366594
-0.3395877,-0.3685578,-0.11215806,-0.07906817,0.077652894,0.091568016,0.34720266,0.37965164,0.04076604
-0.03946082,-0.41999143,-0.21594507,0.20637871,-0.11312906,0.01757488,0.2519472,0.1586949,0.20102108
-0.52670413,-0.57040864,-0.31805965,0.0039334865,-0.06827582,-0.3240298,0.42074588,0.44054043,0.13333887
-0.3311666,0.11248463,0.3872856,-0.12907118,-0.46073976,-0.54696083,0.47929063,0.2299914,0.041979432
0.18606108,0.124336645,0.1102544,0.04630532,0.24151066,0.16747889,-0.44278324,-0.34389067,-0.010969133
-0.37498617,-0.022979734,-0.05137612,-0.06987014,0.32868567,0.2884886,0.002498976,-0.039404634,-0.16900042
-0.4757013,-0.17464136,0.06341445,-0.41117865,0.03108209,0.2561124,-0.0063741836,0.29128888,0.3795968
0.16040337,0.03845208,-0.06677423,-0.053668514,0.17223848,0.13328624,-0.1497456,-0.040667396,0.039752968
0.08959532,0.026364192,-0.12896337,-0.26315665,0.001919662,0.0078882,0.075502664,-0.026928855,-0.07682763
0.07066603,-0.15308622,-0.47322452,-0.051252253,0.15328093,0.05629407,0.12008363,0.1348298,0.2623851
0.089105725,0.07670363,-0.12835951,0.15500087,-0.00609827,-0.16000672,0.037518945,0.25579637,-0.01594238
-0.20881772,-0.08792462,0.02813415,-0.48381174,0.095615655,0.113213815,0.041096162,0.37645245,0.16119601
-0.11542188,0.12184849,-0.19981685,0.054025892,0.30312043,-0.0013089326,-0.1140003,0.08934344,-0.008077109
0.05651771,0.10528195,-0.04404005,-0.09543622,-0.023042122,0.046692688,-0.022949433,0.049391054,0.0016591975
-0.19718571,0.02854389,-0.04367972,-0.015945686,0.040241394,0.07336865,0.034646206,-0.11777826,-0.048373878
-0.29695064,0.052116763,0.1242235,-0.4660783,-0.095551915,0.32792827,-0.40579638,-0.052558262,0.2771971
0.10597513,-0.13195817,-0.30883637,0.09217395,0.013651779,-0.021164646,-0.03589553,0.047392573,0.011654972
-0.22457102,-0.012929986,-0.04539463,-0.22393192,-0.06877369,0.09158553,0.048100803,-0.03597542,0.0059343614
-0.06330305,0.19209096,0.029750373,0.061665583,0.16760837,-0.051807355,0.13655734,0.10005434,-0.11756799
0.01733536,0.027720895,0.062806465,-0.069721185,0.002237476,-0.11550582,0.018636089,-0.024740951,-0.2706533
0.19316079,0.28918737,0.16219991,0.15982999,0.03950621,-0.2374945,-0.22346868,-0.35146046,-0.23822254
-0.18875408,-0.44565842,-0.1869035,0.19209129,0.3755911,0.25997728,-0.026480857,0.06743235,-0.014598765
-0.037724473,-0.06543073,-0.1535641,0.021572664,-0.0164079,0.15146594,-0.0008928543,-0.1353133,-0.07555767
0.0632425,0.052330635,0.024323847,-0.034114357,-0.004687209,-0.015466352,-0.10700302,-0.019421984,0.0067935907
-0.27130654,-0.14470115,-0.07099677,-0.08853389,0.36334848,0.2917746,0.17639555,-0.012867939,-0.18948905
-0.09264141,-0.25677347,0.03485884,-0.37209213,-0.037822884,0.31553528,-0.16149291,-0.28576466,0.2355203
0.0382162,-0.33546016,0.16488223,-0.28369683,-0.36083418,0.37459546,-0.3207637,-0.17808737,0.29106638
-0.00941353,-0.075129256,0.10829543,0.0058984375,-0.10821498,-0.05752369,0.095991634,-0.1408065,-0.14873278
-0.55088747,-0.14155243,0.09820546,-0.48299193,0.0883417,0.23437749,-0.2190067,0.14251222,0.192441
-0.045181803,-0.006785212,0.060505036,0.036028553,0.055877715,-0.09419859,0.0062451703,-0.112551644,-0.26992062
-0.41228202,-0.30343127,0.11826814,0.12080999,0.067830965,0.20539908,0.017721454,-0.14403415,-0.19237736
-0.281849,-0.15268993,0.13299462,0.24503402,0.34387648,0.009759279,-0.018724931,-0.034531873,-0.19732754
-0.080900855,0.050587993,-0.020015255,-0.07481328,-0.024718717,-0.016526077,-0.08159925,0.09989775,-0.09805079
-0.035132546,0.009418058,0.08966661,-0.0489188,0.07824207,-0.0967087,0.053049095,-0.059001777,-0.05453175
-0.19313857,-0.067818604,-0.06834091,-0.16424935,-0.046817303,0.15679184,0.117280155,0.04749876,0.037554074
0.001703897,-0.10476857,-0.1250324,-0.0014872217,-0.16011444,0.03256705,0.08857724,-0.055119872,0.04113246
0.039990757,-0.1848703,-0.3873095,0.22724935,0.058741346,0.11821335,0.14010845,-0.016007116,0.17536502
-0.048462465,0.021135796,0.13482994,0.1689167,0.22731063,0.17102788,-0.14800411,-0.37527788,-0.45813274
0.5102699,-0.03689854,-0.32650506,-0.06251689,-0.92021275,-0.0987692,-0.38166273,0.09046558,0.5355388
0.12619843,0.21847512,-0.31939954,-0.12973836,0.19005944,0.110845454,-0.16167472,0.2691937,-0.027533187
0.07035706,0.05103963,-0.015279752,-0.039616473,-0.06378987,0.04036133,-0.0050436147,-0.033788297,0.046186905
-0.4730863,-0.38070726,-0.3879949,-0.10144006,-0.05399593,0.008955754,0.22167349,0.1227536,0.21077953
0.089486465,0.25306994,-0.10699043,-0.23935562,0.2562535,-0.058491163,-0.39309484,0.14738174,0.19036293
0.14374265,-0.2462914,-0.5563791,0.3266248,0.1475562,-0.49220276,0.18708187,0.38195646,0.065746665
-0.23441061,-0.13008383,-0.098982334,-0.12367161,-0.03772909,0.036478907,-0.021403298,-0.15780076,0.0904595
0.013724372,-0.21094924,-0.32274842,0.36288905,-0.102735534,-0.5302253,0.23167321,0.33378404,0.01723701
0.07659654,-0.22804521,-0.42347848,-0.1646189,-0.034412507,0.10567123,0.26120004,0.23723859,0.25136414
-0.20060544,-0.42989498,-0.202543,0.058113962,0.16661388,0.18493758,0.1908158,0.1995378,0.015030286
0.060152277,0.044863056,-0.09327746,-0.25235984,0.044363074,-0.04275246,-0.056486543,0.28433937,-0.07312933
0.28080174,-0.27437612,-0.50248367,0.19472429,0.07241671,-0.019868959,0.1501647,-0.021659803,0.12422954
-0.12477233,-0.021686092,0.03019738,-0.049949918,0.076368555,-0.08724634,-0.006937283,0.01985297,-0.12602302
-0.10490595,0.045177463,0.16592234,-0.08066229,0.21267271,-0.14347808,-0.020108502,0.1571659,-0.14616928
0.51496565,0.45538208,-0.28057677,0.21763627,-0.052774817,-0.6272184,-0.53888136,-0.84966993,-0.32109722
-0.096187614,0.10313333,0.12415075,-0.40299115,-0.033784963,0.29205343,-0.34472665,-0.0394195,0.19355337
-0.1425292,0.14398535,0.20667373,0.2107889,0.110352784,-0.21103513,0.06187749,-0.10261302,-0.41894013
-0.20384042,-0.043144263,0.041643385,0.03455105,0.07159515,0.08910115,0.054518264,-0.13919629,-0.23331657
-0.060842123,0.06815821,0.20032133,0.18160655,0.042006727,-0.19766371,-0.11024794,-0.16944036,-0.42161477
0.062185902,-0.07622058,-0.12759885,-0.01561939,0.24791631,-0.25876117,-0.29552346,0.36646542,0.084592216
0.085752375,0.12923698,0.3011362,0.07844951,0.07792708,0.10416795,-0.47475922,-0.45817113,-0.28965592
0.26170316,0.24112427,0.28492436,-0.033992022,0.10885166,0.15919189,-0.45977354,-0.41932806,-0.17107463
-0.13246919,-0.25940886,-0.2616282,0.23139748,0.33541325,0.26455876,-0.17639586,-0.27040818,0.085549235
-0.18692125,-0.45489475,-0.41014716,-0.25225914,0.025555039,0.020611025,0.102805175,0.26927897,0.32863036
0.031241339,0.060145,-0.1825096,-0.13191816,0.06664494,0.031414006,-0.05873251,-0.031470947,0.011487187
-0.016556296,-0.029003602,-0.14475304,-0.12173279,-0.05148595,-0.072609924,-0.086084925,0.11804263,-0.02601356
-0.009104427,0.010785921,0.059439145,-0.032014463,0.06011809,-0.031216478,-0.008119573,-0.10321739,-0.20223823
0.1393511,0.36193305,0.36558217,-0.19894579,-0.089687884,0.13446262,-0.4584548,-0.31633708,0.04083533
0.044671,-0.16124958,-0.35549146,0.021300936,0.024552895,-0.33710667,-0.039903857,0.10917743,0.047453795
0.039679214,0.03977575,-0.058183163,-0.16084497,0.08426929,-0.09736639,-0.1701424,0.005769516,0.011064226
-0.057212975,-0.43069476,-0.17236963,0.11670942,-0.19451044,-0.3407864,0.30300552,0.33255315,0.09588005
0.008099921,-0.28302824,-0.30598524,0.12694912,-0.07602851,-0.24548216,0.20287086,0.40097392,0.19920932
-0.47715008,-0.18211661,-0.15126275,0.19988416,0.23086561,0.16707629,0.17954755,-0.060350653,-0.20567223
-0.022161266,0.036545865,0.03831207,0.0010971298,-0.01439606,-0.14653306,-0.1238262,0.069155976,-0.037153065
0.23754378,-0.37010098,0.013399863,0.25784454,-0.29709753,0.21176803,0.052659232,-0.04928565,0.09055289
-0.47153977,-0.079064995,0.1000524,-0.38820067,0.07107393,0.43270674,-0.03817722,0.31099817,0.12335678
0.22573255,0.24842887,-0.026529498,0.47663707,-0.17915206,-0.43818954,-0.006529902,-0.72702974,0.31650564
0.4276153,0.26904976,-0.04820638,-0.47963542,-0.51737374,-0.23411267,0.007166543,0.2504472,0.12815331
0.1383962,0.29095247,0.37559786,-0.098362766,0.01941487,0.17011279,-0.60876316,-0.46639034,-0.24896918
-0.45338774,0.030752432,-0.00692262,-0.39536878,0.11949773,0.21341135,-0.033413112,0.2592485,0.18915297
0.23968185,0.18520352,0.26460826,0.034439664,0.040429406,0.17450447,-0.4548835,-0.38594997,-0.29133597
-0.0023646713,0.14298947,-0.16639206,-0.10112906,0.15246247,-0.1263347,-0.11914111,0.1817304,0.014879213
0.12612404,0.13744633,0.063148804,-0.088052906,0.1379095,-0.004624697,-0.14253536,0.068273135,0.16701469
-0.41450915,0.08989891,0.18919034,0.025900494,0.4031638,-0.017293774,0.17713633,0.15990713,-0.31286854
0.0244419,0.008969323,-0.10731581,-0.019246317,0.06463576,0.056834005,-0.00037499162,-0.124044016,0.041833967
-0.2574734,-0.030717313,0.0024955024,-0.21973336,0.1618433,0.019624734,0.11866789,0.21124652,-0.013265609
0.070079975,0.07098741,0.055537827,-0.03593133,-0.022778248,-0.05341715,0.03309759,0.020141875,0.053107712
0.22497244,0.16556996,-0.081863284,0.27344608,0.17479002,-0.36034387,0.26205802,-0.072955355,-0.57633823
0.04064812,0.40106085,0.50187355,-0.54959285,-0.53749233,0.09858679,0.018526768,-0.39235833,-0.47009417
-0.39907324,-0.20806225,0.059100382,0.27923417,0.1249342,0.06337919,-0.03963769,-0.28924358,-0.12444854
0.17573829,0.15401772,-0.45673028,0.13359252,0.047076225,-0.53813183,0.21430555,-0.11801171,-0.19555457
