0.17342353,-0.19027913,-0.4306606,0.24353932,0.18712161,-0.24472518,0.10605741,0.13234714,0.039969187
-0.044483494,0.052607268,0.13744545,-0.109490104,-0.057323992,0.19307657,-0.14859352,-0.17036502,0.041380703
0.04291342,0.07164294,0.011498253,0.029861623,0.14310879,0.019331349,-0.001832801,0.13500775,-0.030025765
0.001635747,0.079477,0.08865455,0.05420269,0.16500095,-0.14123642,0.12695438,0.13055484,0.022476904
-0.0928449,0.14060554,0.070500575,-0.05814164,0.081005484,0.013681561,-0.14027472,0.2133863,0.04834287
0.0868609,0.13877168,0.10681938,0.027257629,0.1856899,-0.16274397,0.10776056,-0.067924485,-0.21797366
0.07639527,0.21318574,0.33808875,-0.28521872,-0.3270426,0.058582447,0.047047798,-0.12442276,-0.20857976
-0.27711168,-0.06000705,0.22060105,0.0068624634,0.029574808,0.0417164,0.25166082,-0.008130702,-0.30453336
-0.05674192,0.10792129,-0.034463845,-0.10357314,0.09397697,0.052970808,0.113280766,0.07743319,-0.0064912555
-0.15607339,-0.07665206,-0.08948722,-0.3305844,-0.14563803,0.07919294,-0.045441788,0.35262826,0.35751876
0.102990605,-0.028712811,-0.22669674,-0.054501906,0.12469792,-0.07099885,0.05382386,0.1623104,0.16680647
-0.08748158,-0.19586185,0.055117324,0.017618034,-0.21831529,-0.16763674,0.29100266,0.11391707,0.044512715
0.21715581,0.18987286,0.14033137,-0.011850179,0.1154781,0.094932854,-0.33533517,-0.3929795,-0.26074085
-0.18364511,0.08727005,-0.080676556,0.09859511,0.1886623,0.15124804,-0.0062112627,0.04392146,-0.030786222
0.04311707,-0.17166288,-0.24763276,0.08433062,-0.04720561,-0.13244976,0.22842114,0.16229767,0.22791891
0.10892827,0.017932318,0.010407537,0.027487187,0.08304976,-0.024020728,-0.04531681,0.077845424,0.12300289
0.003077981,0.11286487,0.09556276,0.07477173,0.12324716,-0.11934563,0.14451961,-0.07677829,-0.036172673
-0.011073284,-0.11890547,-0.070826866,0.097750574,0.07534289,0.14884564,-0.09168658,0.047343712,0.082564324
0.04440532,0.059947547,0.109992355,0.06201227,0.07236229,0.09082744,-0.06979437,0.011954118,0.008634606
-0.10157242,0.05214411,0.016185358,0.1036033,0.12730496,0.10514261,0.072488874,0.061130352,0.028337134
0.13109899,-0.061839227,-0.08097455,-0.22050573,-0.13820992,-0.16537409,0.14190075,0.16208544,0.18327719
-0.05334291,0.13206388,0.056706864,0.24651557,0.0472234,-0.018918812,0.14427829,-0.06188054,-0.24236378
-0.023940785,-0.087319545,-0.027162222,-0.019516652,-0.105360016,-0.09737133,0.17864873,0.09736713,0.16731738
-0.12874486,-0.31688803,-0.24201633,0.17548327,0.028315598,0.015635477,0.17960449,0.20015673,0.22598068
0.15709473,0.16284133,0.16272306,-0.021714352,0.18003117,0.22266361,-0.3444566,-0.3863944,-0.18520707
0.097313456,0.08013445,0.048902728,0.08745643,0.15373072,0.09612566,-0.06646546,-0.07543365,0.108735956
0.0015331245,-0.2518244,-0.27626047,0.25743443,0.014306974,-0.18764353,0.12562414,0.26756155,-0.015961114
-0.027181737,-0.3243138,-0.2516469,-0.099356525,0.020213079,-0.05779437,0.16677043,0.24306552,0.2781507
0.16161898,0.08433146,0.030981774,0.0006684605,0.110948145,0.14840864,-0.16361612,0.03820218,0.0968887
0.26827183,0.20099251,-0.012205835,0.33499986,0.043962162,-0.18865716,-0.00065687014,-0.26834542,-0.3947875
-0.33915204,-0.12288909,0.05743102,-0.19020815,0.023320558,0.27009857,-0.064307004,0.09501401,0.1868758
-0.14332524,-0.031246586,0.13266397,-0.06957799,0.048874944,0.0031684048,0.14582442,0.094177105,0.048563164
0.025190558,0.10361184,0.05652455,0.03743795,0.12962496,0.044173557,0.0012983272,0.09483034,0.02660455
0.065819755,0.0769908,0.08232048,-0.012943786,-0.050726432,0.11072915,0.027052961,0.037840027,0.121170245
-0.13513778,-0.07492795,0.0033741281,-0.029237734,0.124362506,0.08369846,0.08524565,0.23442161,-0.081109196
-0.013028193,0.112460725,0.1531614,-0.030646069,0.11913412,0.026204323,-0.29417467,-0.067959525,0.06304991
-0.038352378,0.14021708,0.19272551,-0.24652658,-0.043752663,0.25084606,-0.36325628,-0.17731589,0.24498287
-0.030929247,0.0182706,-0.15259352,0.102537826,0.18329267,0.05239174,-0.13791288,0.058375936,0.0068646525
0.07347671,0.12073669,0.073963046,0.029209908,-0.03725485,0.016441993,-0.030187035,0.13348848,0.088448666
-0.096195266,0.0628667,0.09758098,0.069719315,0.039702337,0.06303058,0.07618643,-0.0097640995,0.0651397
0.031364467,-0.26452026,-0.24123478,0.03506178,-0.012408778,-0.015462739,0.23382941,0.20907505,0.0748254
0.17662618,0.13415983,0.21665189,0.044133257,0.03098697,0.06117794,-0.28848547,-0.29659873,-0.18310724
0.06529216,-0.09761114,0.05690358,0.16245143,-0.008649003,0.118668966,-0.03461506,-0.08131395,0.05519991
0.07171063,0.17331588,0.06855495,-0.03798932,0.01818774,0.14109933,-0.13345608,0.037065692,0.12154845
0.07639287,-0.3065789,-0.05206169,-0.38798532,0.055293206,0.26929292,-0.012699017,0.14730552,0.16243148
0.06978936,0.042382583,0.0865815,-0.05163584,-0.075734645,0.11692201,0.075521834,0.088349916,0.12582302
0.05883601,0.2026786,-0.33079225,0.18515342,0.10324746,-0.35826984,0.16593148,-0.049790945,-0.00080366863
0.1509626,0.21028869,0.14416058,0.15986025,-0.018539026,-0.10506368,-0.27254015,-0.27825755,-0.025887107
0.1354044,-0.008448919,-0.33414012,0.001175309,0.10296187,0.05330354,-0.09225504,0.124963045,-0.08621424
-0.04328727,-0.07290675,0.0754519,0.011172986,0.06657642,0.08198847,0.13669951,-0.037009373,-0.036285635
-0.31127244,-0.019716227,0.10073096,-0.05653173,0.29835156,0.071623206,0.12871267,0.15016326,-0.2029776
0.054891087,-0.023826657,-0.1110128,0.05092368,0.1276142,-0.16411972,0.15911172,0.13904527,0.033462405
0.16306259,0.1398646,0.20203847,-0.09272854,-0.011094537,0.052027028,-0.34186906,-0.10910977,-0.052860636
0.023324115,0.14514509,0.028359033,0.113638364,0.15994486,0.053828895,0.046470996,0.12136907,0.03541253
-0.03866603,-0.031251695,-0.06645289,-0.012744717,-0.0027045433,-0.040824827,-0.054711822,-0.08620719,-0.089645445
0.28825217,0.18852876,-0.017467737,0.1989762,0.15195327,-0.3501073,-0.16131535,-0.47788468,-0.37210828
0.23260593,0.011865585,-0.32423145,0.19826669,-0.032709923,-0.29106423,0.24693246,0.001278782,-0.21070392
-0.2229793,-0.13847631,0.22117603,-0.43169028,-0.11044783,0.29982832,-0.34455946,-0.038062714,0.20576537
-0.3027096,-0.09076974,0.15474468,-0.31309468,0.08253272,0.22968628,-0.09540286,0.15317772,0.23127265
0.048425023,-0.24054314,-0.3985258,0.2766902,0.07449377,-0.28084573,0.20637332,0.26338935,0.043879915
0.05741641,0.06080039,0.047750734,0.00652233,0.13544434,-0.16488425,0.065261126,0.0982666,0.05794854
0.29172862,0.2779124,0.08268962,0.08464406,-0.01534328,-0.23623702,-0.49126777,-0.2985251,-0.2004499
-0.027793907,0.18539442,0.14546321,0.024640856,-0.005880018,0.09170072,0.024344647,-0.2636595,-0.25260574
0.17366669,-0.07445601,-0.2907957,0.23918897,-0.04351492,-0.2729911,0.2683894,0.015507807,-0.06641988
0.012213481,0.10904578,-0.0035310166,-0.072952636,0.080098644,-0.014796771,0.13853866,0.08050011,-0.10525609
0.18980215,0.2183811,0.054156397,-0.09131634,0.060403638,0.097614795,-0.26273537,-0.24867943,-0.06758362
0.048766833,-0.15833843,-0.15898675,0.08856142,0.067710355,0.088954166,0.076748654,0.07083377,0.08279506
0.15506904,0.12990926,0.24871168,-0.065386504,-0.033507545,0.028257085,-0.26829374,-0.23492286,-0.26689327
-0.19723879,0.012782412,0.12421111,-0.16048807,0.03262662,0.15856147,-0.12592967,-0.11489499,0.1689289
-0.22524516,0.120622456,0.08374522,-0.07062938,0.27309453,-0.04046197,0.09992871,0.060990922,-0.16347805
0.017289389,0.11537436,0.1375638,-0.06433561,-0.014507637,-0.005525772,-0.04836025,-0.07251703,-0.14176013
-0.031562183,-0.115381114,-0.30875787,0.06817335,-0.096829444,0.0032552148,0.15958957,0.21063122,0.20445995
0.27180022,0.22918113,-0.23282959,0.30742383,-0.09546254,-0.46524253,0.02139207,-0.34019384,-0.10575846
0.12097554,0.011675992,-0.26117513,0.152255,0.085521184,-0.41347164,0.25023907,0.110710055,-0.13184628
-0.16029955,0.04766532,0.006496757,-0.026557848,0.07995293,0.09784178,-0.10250367,-0.017117124,0.12066046
0.079229005,0.23298109,-0.1645403,0.15384404,0.05115001,-0.22804487,0.19590883,-0.06975718,-0.29799047
0.07643191,0.17303647,0.21253106,0.0061129653,0.114515364,-0.07276127,-0.081877016,-0.33434066,-0.12908873
0.122292615,0.0957408,0.0072385664,0.039469082,-0.039267164,-0.003801021,0.13734041,0.103750356,-0.042310502
0.024014356,-0.03645117,0.17674452,-0.14770697,-0.05569436,-0.20563215,0.11030752,0.12247639,-0.03574101
0.04603832,0.10241178,0.072086595,0.1029173,0.12183946,-0.08097001,0.094380595,0.12672988,-0.03249286
-0.050319728,-0.25236592,-0.14857171,-0.004165048,-0.11228385,-0.043325726,0.25221613,0.14605142,0.1663796
-0.20463473,0.06674386,0.08522382,-0.032016695,0.21324962,-0.033799406,0.11418317,0.11186471,-0.15673283
0.045665145,0.07373524,0.042877454,-0.026405897,-0.04273415,0.051961277,0.0019688627,0.08014106,0.020368239
-0.08415733,0.16255316,0.026639957,-0.011702501,0.17929187,-0.09765402,0.085575216,0.03950215,-0.035442237
-0.015148681,0.077436924,0.05409565,-0.08066432,0.16047893,0.09347221,0.09792418,0.0347458,-0.02562874
0.06738236,-0.035265416,-0.03042392,0.11184527,0.14702578,0.0974609,0.09838977,0.022957457,-0.10053657
0.030056588,0.054150272,0.12578288,0.05153545,0.145152,0.0027769697,0.089883864,-0.0008514313,0.062411904
0.08523508,0.07281272,0.09919185,-0.009395246,0.1214489,0.04433163,0.037232,0.14199775,-0.031044483
0.11171029,0.080085866,-0.048814904,0.07172757,-0.07964187,0.06849669,0.074527256,0.04411829,0.0050495504
-0.08764588,0.12125154,0.05348887,-0.06886999,0.064043045,-0.049999285,-0.024892224,0.17428471,-0.0071194423
0.109713346,0.038465444,-0.16128626,0.19682366,-0.054199606,-0.3554297,0.2245654,0.11695486,-0.07349545
-0.025500111,0.24327965,0.13038203,0.28139856,0.24042848,-0.15332448,0.01453997,-0.1712912,-0.4506998
0.08437175,0.07264884,-0.103691034,-0.021630928,0.092360474,0.040251706,0.052166738,0.042666838,0.111458115
0.094748534,0.16700001,0.16915338,-0.09669435,0.15629506,0.21609898,-0.4168981,-0.29773504,-0.01570316
0.08059781,0.14640184,-0.0021632486,-0.026487865,0.13717602,0.018855141,-0.1056849,0.1465207,0.051498655
-0.2050625,-0.049098227,0.04701903,0.0050216606,0.19163549,0.1850364,0.13342325,-0.010386681,0.02948413
0.27327576,0.19703063,0.08964309,0.23707657,0.06391781,-0.28578758,-0.11264886,-0.26522645,-0.26353225
0.06701518,0.028444033,0.141832,0.0104286885,0.11596284,0.005693782,0.05294778,0.1501898,0.04796713
0.07686437,0.05674248,0.12820494,0.12425372,0.10812983,0.0489603,-0.21238896,-0.21479967,-0.122372955
0.16343312,0.27569038,0.106423914,0.17645416,0.16480242,-0.10779582,-0.15192832,-0.32288304,-0.33714855
-0.1966655,-0.2769218,-0.23614831,0.114462614,-0.011729915,0.12430687,0.10137288,0.22048788,0.106191814
-0.01681002,0.25292212,0.32212824,-0.35727078,-0.23245454,0.07035778,-0.0994235,-0.29099524,-0.043699916
-0.12368485,-0.24651678,-0.010377921,-0.13615046,0.0835814,0.30107835,0.15893024,0.13202727,0.026501244
-0.0041854316,0.06832809,0.07107541,0.049220793,-0.10126015,0.039392844,-0.009006545,-0.09489386,0.13275258
-0.04090619,0.1403666,0.02675025,0.021189434,0.13203824,0.012855316,0.09860246,0.1745016,-0.09639208
0.0866556,-0.17434794,-0.12954806,0.08710817,-0.16501307,0.0850867,0.15891485,0.052155845,0.06783507
0.107680716,0.14642362,-0.013278917,-0.1399925,0.10589382,0.1275298,-0.22860555,0.1589784,0.0014351441
0.06980811,0.16545261,0.29874358,-0.11440693,-0.039573207,0.19935772,-0.35706884,-0.24371275,-0.029898992
0.37023464,0.21776235,0.031165386,0.27113453,-0.17893183,-0.2967324,-0.13525827,-0.4633503,0.16861045
0.097408034,-0.051194664,-0.16250983,0.1563462,0.032246813,-0.16970795,-0.022458956,0.20245062,-0.037981085
-0.007196029,-0.1887948,-0.27135614,0.08473162,0.0417711,0.026920293,0.13030297,0.14340597,0.060139548
-0.3243651,0.04964246,0.3129595,-0.4965878,-0.01042722,0.39843488,-0.35881948,-0.12984763,0.22149655
0.04426144,0.16837917,0.1074967,-0.20608376,-0.36546344,-0.13169177,0.18732849,0.12278595,0.0011973226
0.08364456,0.14774618,0.056695104,-0.18428944,0.10696203,-0.022544634,-0.2695522,0.14760219,0.08631918
0.14382264,-0.10303359,-0.32951835,0.23198499,0.035337467,-0.29504374,0.10102659,0.255988,-0.007831802
0.12396495,0.10053393,0.21094625,0.15535688,0.08496895,0.10637416,-0.27843395,-0.32254997,-0.21459591
0.050605606,-0.16442586,-0.19913141,0.16513646,0.19288109,0.14113684,-0.072331645,0.030446783,0.0017941832
-0.34867954,-0.4942333,-0.25349241,-0.15390542,0.085599594,0.18623206,0.17787144,0.33669785,0.30092406
0.18119462,-0.08602421,-0.15157634,-0.012227262,0.11085212,0.04865328,0.10964031,0.11195345,0.093040355
-0.10269727,0.022741543,0.13908452,0.0070510036,-0.019235667,0.03419851,0.03388529,0.0005819565,0.046345707
0.025599008,-0.1048125,-0.17952007,0.06703599,0.055037174,0.13845588,0.06432877,0.08158457,-0.012883713
0.12899524,0.006252434,0.12914763,0.109854445,-0.019952705,0.030821962,0.08122547,0.089540444,-0.064689465
0.033184875,0.020281216,0.052267965,-0.040351328,0.099054456,0.03198214,0.08874814,0.027932988,0.004400826
0.35486576,0.25918597,-0.21580043,0.16585365,-0.1726314,-0.5555275,-0.44876266,-0.55209297,-0.03733234
-0.18960688,0.06742382,-0.047124293,-0.10405704,0.018205522,0.1344933,-0.047648627,0.21247233,-0.053271413
0.091484375,-0.11399586,-0.2801843,0.09257779,0.07086906,-0.19907574,0.18932818,0.12967147,0.14569724
0.24240032,0.24373057,0.07933835,-0.035941675,0.014614371,0.10515164,-0.28469703,-0.30730265,-0.14830953
0.008626712,0.06496955,-0.26509625,0.05563487,0.21952532,-0.42922118,0.11134476,0.28165123,-0.09007325
0.11230001,0.10931918,0.104651354,-0.05013123,0.06803717,0.09093475,-0.123809494,-0.047749978,-0.05987592
0.033804357,0.19950366,-0.18745124,-0.1815046,0.11798313,0.053041603,-0.21446636,0.09514186,0.11024456
-0.11702144,-0.049916107,0.060967904,-0.024575235,-0.037501488,0.1401215,0.13517912,0.1392935,0.062314883
0.099899076,0.16687343,0.1504576,-0.08937853,-0.0854265,-0.13388538,-0.08635002,-0.04232078,-0.093545616
0.027220575,0.058504555,0.14856416,0.05961435,0.13849665,-0.026773265,-0.05307712,-0.09544737,-0.12266345
-0.09565379,0.009504287,-0.046723742,0.116910644,0.1581298,0.1525312,-0.07105654,-0.1746233,-0.10312155
0.031019663,0.08976013,0.05042682,0.16631736,0.09935785,-0.12160804,0.008259517,0.0026808174,-0.2164022
0.11598121,0.16773717,-0.01074435,-0.13851407,0.17172743,0.1258395,-0.30974907,-0.19306965,0.08354048
0.09301707,0.07818089,0.045099806,-0.058814578,0.025910718,0.1278727,0.023427108,-0.0040004714,0.06851636
-0.025546217,-0.05168054,0.009713286,0.07300356,-0.06684788,-0.098515876,0.09210191,0.16701998,0.08176515
0.18250304,0.14075938,0.013025408,0.112902686,0.14291878,0.086679235,-0.3068632,-0.30984423,-0.06212403
-0.043544464,0.15199068,-0.12783231,0.13314646,0.07216595,-0.24134023,0.04586043,0.21361446,-0.23137997
0.0346084,0.21516961,0.27402312,-0.2423383,-0.02288325,0.082382426,-0.23092793,-0.31255105,-0.02482437
-0.23429249,-0.017733458,-0.01417407,-0.17319103,-0.094028145,0.0720234,0.04510616,0.1315262,0.22669157
-0.061446097,-0.04533264,-0.037308257,-0.081746496,0.008661941,-0.03522191,0.008904347,-0.061412163,-0.10430055
0.048979323,0.005253915,0.035474595,0.051470477,0.005697846,0.03868642,0.14558727,0.039612535,-0.03151406
0.0021341953,0.199039,0.2034776,-0.0017879575,-0.013531628,0.12095476,-0.33464265,-0.23314515,-0.0037645483
-0.024968209,-0.30569825,-0.29937991,0.2395853,0.024213472,-0.2411485,0.19409253,0.314429,0.17847227
-0.36043411,-0.043178376,0.14531931,-0.21318802,-0.05818954,0.28145218,-0.21121523,0.12763202,0.12097836
-0.081825346,-0.049110785,0.034085687,0.07983374,0.092924595,0.094713025,0.1129303,-0.06285141,0.027712632
0.18542278,-0.35492882,-0.30051,-0.44438827,-0.31467414,0.0966018,-0.24606721,0.1518795,0.3061963
-0.15482317,0.13106656,0.04696815,0.06786709,0.15063082,-0.0018836928,-0.0026872812,0.049180068,-0.11673286
0.12086796,0.08370422,0.075020075,0.050789658,-0.053671807,0.05428265,0.07823325,0.07811404,-0.13367526
-0.1542547,-0.042292304,0.051681925,-0.105234705,0.011444579,0.13852623,0.16259427,0.115341224,0.09468415
0.032269593,0.12415849,0.033975672,-0.019635214,0.018550143,0.057514798,-0.098421045,-0.04737789,0.09875395
-0.15199474,-0.36851445,-0.19938034,0.13916825,0.0086597055,-0.051774044,0.13785017,0.27949288,0.18857822
0.24314412,0.18210435,0.13037482,-0.011514338,0.10571557,0.11200925,-0.24965136,-0.32647365,-0.23085506
0.018200405,0.2634701,0.18645121,-0.24917942,-0.042347737,0.16965659,-0.18441115,-0.2873835,-0.145459
-0.2507199,-0.14420144,0.015487574,-0.12939602,-0.10292672,0.035174146,0.14895165,0.16609582,0.25800577
0.15639283,0.087878056,-0.3613725,0.20963886,0.028225832,-0.3291072,0.08267926,0.1982939,-0.08419489
-0.11439326,0.04646421,0.10760832,0.0655257,0.072633795,-0.025611354,0.08166162,0.14270389,-0.090460785
0.1519735,-0.022099797,-0.098739065,0.027726483,0.1319436,0.106687576,0.086328246,0.052069042,0.1291253
0.21809627,0.20255378,0.16719717,0.06302769,0.0045455093,0.13240942,-0.3071128,-0.29553676,-0.22598843
0.089791216,0.23369548,0.11562985,-0.13565555,0.027724078,0.21638058,-0.32868415,-0.35634986,-0.2740601
-0.018651824,0.05715985,0.15888867,0.046520658,0.13139588,0.1711604,-0.25723642,-0.3098125,0.008114028
0.28885862,0.1213864,-0.1839823,0.019922916,-0.43351236,-0.10521185,-0.009379875,-0.012133799,0.3077556
-0.032695837,-0.10266138,0.09202411,-0.008292713,0.1640448,0.14509381,0.015439522,-0.037818734,-0.20553166
-0.24691986,-0.070855886,0.10882629,-0.0016620549,0.16216974,0.104764745,0.1424886,-0.03283453,0.024294626
-0.114203595,0.02542753,-0.0047626793,0.013164341,0.17644791,0.10322525,0.08916822,0.065501146,-0.13454983
-0.4295061,-0.0062462646,0.18304744,-0.18336885,0.22427538,0.15294443,0.10719331,0.16869983,-0.10754729
-0.05845243,-0.29247072,-0.273945,0.19652508,0.016224293,-0.013779822,0.10611286,0.2760701,0.1514668
-0.31410408,0.062912256,0.15576077,-0.04513529,0.27744645,0.06448224,0.07040259,0.17656845,-0.28992718
0.098725155,0.13686731,0.02334096,-0.06394545,0.020508898,0.0057413485,-0.027793255,0.09884134,0.09678154
0.07108847,0.07693855,0.0063079707,-0.047670655,0.15673563,0.0040233713,-0.15443063,0.06490927,0.022357678
0.14041159,0.06686058,-0.41767263,0.22830716,0.07823736,-0.31156686,0.14871012,0.15253335,-0.116220586
0.09662234,0.12404011,0.15292087,0.16815537,-0.0023203553,-0.09640429,-0.26538756,-0.1874591,0.0070587965
0.13768134,0.07689335,-0.12570705,-0.025481908,0.003598393,0.057060856,-0.06877632,0.15843047,0.045212936
-0.11557572,0.13493514,-0.08974398,0.15426247,-0.03477784,0.03593553,0.06762942,-0.1737907,-0.030147146
0.050583694,0.094771355,-0.13906364,-0.048762824,0.08355174,-0.017964074,0.08206017,0.17147738,0.02320452
-0.11073078,-0.12762383,0.060694296,0.107139386,0.0031676006,0.10417664,0.17475194,0.13785475,0.033488154
0.10461358,-0.015218914,0.037234493,0.101630196,0.083057374,-0.041819036,0.11889656,-0.025378099,-0.1799187
0.18021809,0.2278534,0.18300833,0.15018913,0.17030981,-0.23309961,0.0767281,-0.19055109,-0.42072862
0.09192831,0.01658494,-0.2763278,0.20262665,-0.05594549,-0.27115425,0.14131656,0.051916517,0.068393484
0.023211349,0.09838157,0.0795618,0.060823407,0.054024804,0.05277534,0.08080882,0.022902096,-0.070993125
-0.092043094,-0.20884795,-0.07104686,-0.35664636,-0.23782688,0.17321861,-0.14115362,0.17383355,0.32243708
-0.029272962,-0.26826197,-0.39232713,0.16994298,0.0066242227,-0.09269181,0.26212078,0.17408891,0.1817656
-0.048602816,0.17979683,0.145625,0.028817074,0.09873361,0.04601046,-0.043373086,0.054262422,-0.03410837
0.01588606,0.096474215,0.118608914,-0.13280816,-0.0030711587,0.12212011,-0.27866253,-0.16218539,0.17391449
0.059768733,-0.00906895,0.07273515,-0.0876718,0.10496029,-0.044352815,-0.13045928,0.15692787,0.057886887
-0.18662448,-0.052818876,0.14169706,-0.010954938,0.18096018,0.182448,0.15369196,-0.008746972,-0.20694815
0.22414972,0.25589666,0.076756366,0.031795684,0.15210691,-0.19569457,-0.38409513,-0.5617448,-0.30935335
-0.18968028,-0.06335595,0.0057637566,-0.4039258,-0.08794371,0.26828688,-0.107594565,0.20178795,0.26206312
0.067068405,0.19244735,0.008385692,-0.088925004,0.16928372,0.22434741,-0.34454152,-0.23543556,-0.010606688
-0.3841189,-0.24327554,-0.0029206206,0.07734075,-0.13033319,-0.14143087,0.28501192,0.2202902,0.04076674
0.097528934,-0.12149101,-0.27585724,0.2505935,-0.0038637167,-0.36370215,0.18940382,0.2589716,-0.060884368
0.01570412,0.11723381,-0.034908023,0.069456,-0.014140425,0.09102337,0.10245775,-0.058030486,-0.10187096
-0.07321189,-0.06811899,0.032068033,-0.09945435,0.09335227,0.123225,0.008052479,0.060545288,0.0022097412
0.026325716,0.14735562,0.31795233,-0.14363904,-0.07180743,0.06871634,-0.2252674,-0.33893016,-0.31211945
-0.06884368,0.10060858,0.02570039,-0.0071729315,0.1722178,-0.12760101,-0.08079538,0.10296028,-0.0010095729
0.014363544,-0.2536879,-0.21790047,-0.063896544,-0.05324604,-0.08503519,0.20852675,0.24707294,0.18499516
-0.23883432,0.05446202,0.022471124,-0.1332903,0.15577362,0.041521866,0.13544779,0.14993444,-0.149531
-0.119266555,0.050912883,0.06037532,0.04906839,0.22363691,0.077771045,0.1490809,-0.053689044,-0.24410622
-0.10737422,0.0425822,-0.02478955,-0.018236676,0.15895665,0.12837073,0.054419458,0.040290117,-0.15657774
0.0250978,0.06424269,0.018278835,0.06499448,-0.0059624473,0.1255221,-0.009138957,-0.04975834,0.06367458
-0.21129566,0.003182317,0.07467526,-0.11893632,0.05856044,0.07573191,-0.071463384,0.1356886,0.17270102
0.2502681,0.01849129,-0.29228014,-0.04411139,-0.65266126,-0.1092429,-0.43025994,0.017172618,0.32203916
0.06909529,0.070053644,-0.09822595,0.07440418,0.032720476,-0.04277986,0.04159211,0.05516935,0.16019759
0.08985348,0.10686192,-0.17254247,0.053709395,-0.10555653,-0.086052895,0.12154901,0.08567318,0.15012474
0.13115424,0.10301042,-0.1767661,0.2168878,-0.011570017,-0.27304962,0.16698234,0.08277254,-0.25560844
0.051990047,0.07520401,-0.3323773,0.09945221,0.07598461,-0.12766838,-0.01848826,0.2186025,0.15782794
0.3674343,0.18187091,-0.20947567,0.16173974,-0.036954317,-0.50618625,-0.17417254,-0.46558794,-0.244292
0.27160588,-0.034031674,-0.23946664,0.07742134,-0.49816754,0.10923443,-0.1851718,-0.028748484,0.2869953
-0.07991805,-0.13490875,-0.12474013,0.17386049,0.12639302,0.10357766,-0.025819903,0.16003928,-0.022474663
-0.12010669,-0.026789237,0.10711595,-0.011061324,0.13146909,0.030082854,0.13004142,0.12829053,0.023676833
-0.31340563,-0.29314795,0.022896642,-0.34738222,0.024821164,0.33205473,0.12012491,0.24875823,0.23222223
0.07682909,0.020028617,-0.19814262,0.13539559,-0.010232704,-0.033958837,0.06364904,0.13665721,0.1548189
0.15149969,0.059580296,-0.03612218,-0.03367791,0.08882428,-0.020150058,-0.07354066,0.15087137,0.08237204
-0.10517364,-0.037733253,0.062581934,0.098372474,0.2560037,0.1586417,0.10885475,-0.13600223,-0.26513425
0.1714112,-0.07398329,-0.22704028,0.07077334,0.16382076,0.025657337,-0.05490936,-0.009981049,0.09637325
0.08446137,0.122619264,0.037349228,0.13015564,0.049117796,-0.14959598,0.11820275,0.075225405,-0.19661681
0.06593931,-0.09010424,-0.31153694,0.020997941,0.18072496,-0.040256985,-0.04611605,0.07585057,0.19602379
0.117784984,0.24374919,0.25827333,-0.12532227,-0.04569928,0.057089344,-0.3478826,-0.22466004,0.034821887
0.048501197,0.07339635,0.14129576,0.028299613,-0.00074788847,0.09535415,-0.04734743,0.12213807,0.09053276
-0.18459189,-0.2603308,0.023285022,0.12446356,-0.1022647,-0.13305458,0.24334632,0.18251567,0.062876515
-0.0354244,-0.19637077,-0.23040253,0.07717798,-0.110634886,-0.23193844,0.3096815,0.23743965,0.09499969
0.20736074,0.22274585,0.10995248,0.024398755,0.09046691,0.01998087,-0.32847705,-0.38981286,-0.20722759
0.019626705,0.15297394,0.07282874,-0.25214064,-0.007813057,0.15714322,-0.18834552,-0.061226226,0.18184513
0.11267693,0.11961784,0.014242676,0.1795324,-0.0023788225,-0.052691575,-0.3058956,-0.18941025,0.05102345
-0.29855525,-0.123888716,0.18465905,-0.0848363,0.042314373,0.19144894,0.022257682,0.0049896296,0.12724525
0.05455385,0.19902885,0.2339712,-0.16135047,-0.01758309,0.21319734,-0.27457952,-0.42275918,-0.32368165
0.107964434,0.07087281,-0.14607197,-0.019871594,0.20229666,-0.098785415,-0.15736279,0.15117343,0.10764907
0.021214394,-0.019704647,0.040802125,-0.10978793,0.11722806,0.1456145,-0.1275457,-0.072587,0.06578256
0.0048682843,-0.015316569,-0.13053899,0.030307535,-0.08768917,0.07064423,0.158678,-0.04903057,0.11643007
0.10436607,0.20372736,-0.061940033,-0.10955706,0.14830877,0.011028816,-0.17099474,0.031899575,0.12089498
0.12728253,-0.089687586,-0.12759113,0.15779738,-0.016110523,-0.10558322,0.08071148,0.09295175,0.11590264
-0.28520498,-0.016619211,0.1145394,-0.06717304,0.10621639,0.01650834,0.17206049,0.13692209,-0.18297096
0.107020594,0.22740497,0.18678385,0.10639429,-0.03888661,0.08348025,-0.27671397,-0.22025453,-0.3064504
0.19073863,0.08540073,0.22132389,-0.012867091,0.1526107,0.055759296,-0.21498717,-0.33960155,-0.20428951
0.09262148,0.089097574,0.039543383,0.15279442,0.08471972,-0.25358105,0.20704122,-0.09147373,-0.34391487
-0.21029793,-0.34628323,-0.0268072,-0.42916298,-0.050596766,0.2895466,0.1730248,0.23382431,0.27179682
0.07711296,-0.056338392,-0.07239873,0.042541824,0.05876941,0.08513876,0.07758677,0.14947665,0.15830196
-0.014756169,0.051573195,0.20583268,0.16192096,0.19412754,-0.0717939,0.112669006,-0.18500893,-0.1684011
0.024174524,-0.03224131,0.111852005,-0.0071722018,0.14949545,0.116828375,0.08315594,0.1402242,0.08603925
0.08655719,0.112174444,-0.083494924,-0.061459623,0.109775014,0.08499967,-0.03400689,0.0580421,-0.023117414
0.06781986,0.21393064,0.04418008,0.12651701,0.012814985,-0.2802495,0.15510376,-0.18400674,-0.07086988
0.10593486,0.037155196,-0.27688977,0.20829326,0.0013468411,-0.38499686,0.1583018,-0.01096387,-0.2835929
0.0916776,0.029899161,-0.015414436,0.11834448,0.059660137,0.07859312,0.18342017,0.12492014,-0.11273177
-0.08988122,0.1240641,0.02436803,-0.073173024,0.04855247,0.013292917,0.045267534,0.099385895,0.15258293
0.08343925,0.05002766,0.11378709,0.14932114,0.03650416,-0.17992358,0.14728175,-0.01886782,-0.021489542
-0.110903844,-0.083228245,0.10120876,0.04177452,0.09171119,0.09357915,0.09228621,0.1068302,-0.050798774
0.01115023,0.030689139,0.016641427,0.063255765,-0.013866584,0.088462226,0.10781488,0.14863855,-0.047573134
-0.03266899,0.013521903,-0.043596014,0.078529984,0.16466868,0.20426549,-0.14394155,-0.18949404,-0.08900412
0.25569856,0.20550469,0.1667018,-0.007011511,-0.025364129,0.08647777,-0.34077317,-0.2812063,-0.20694712
-0.27343285,-0.022870973,0.13626097,-0.1345365,0.063807406,0.18086217,-0.050809916,0.075955264,0.11141876
0.008251007,0.21580698,0.0064311363,0.19168277,0.01574458,-0.17132492,0.08372391,-0.15951443,-0.23214789
0.17276348,-0.16629417,-0.1684104,0.23332155,-0.14340448,-0.20038433,0.20562692,0.058120735,0.010667389
-0.037144292,-0.1799126,-0.33566758,0.051775407,-0.048897583,-0.08614431,0.19340329,0.18905737,0.2033105
-0.34258753,-0.007931004,0.14513482,-0.060456097,-0.04564495,0.15048634,0.028369987,0.099023245,0.060194638
0.16360898,-0.050753973,-0.29102293,0.15482162,0.13440019,-0.25102118,0.021159837,0.24809416,0.06792801
-0.026865961,0.06569773,-0.088808835,-6.823698e-05,0.1571198,0.03822944,-0.08218113,0.1000629,0.04943655
-0.06774291,-0.026183963,-0.18117866,0.12590238,-0.030716838,0.1018104,0.1676757,0.0011558405,-0.030849688
0.21779487,0.07568677,-0.16499592,0.13190295,0.10763672,-0.24275263,0.2371998,-0.014202781,-0.3621001
0.0730257,0.078845605,0.031364713,-0.158684,0.076798715,0.18016891,-0.1765212,-0.15637887,0.17164369
0.06659917,-0.07738994,0.03096779,0.06193373,0.07717557,0.14457442,-0.03530807,-0.055872757,0.09989924
-0.007548331,0.21728279,0.15971023,0.020631943,0.068800405,-0.23621713,0.075992204,-0.15821825,-0.16658692
-0.02555909,-0.16665404,-0.06302444,0.046229586,-0.21745536,-0.051939387,0.32670587,0.11868258,-0.0028893196
0.08210302,0.119776435,-0.14756043,0.05080862,0.107030295,0.06359299,-0.114043504,0.05530971,0.1528669
-0.3515168,-0.35881191,-0.081704065,-0.28376716,0.118824884,0.11671467,0.049409337,0.22465354,0.2694667
-0.19847323,0.16227472,0.08836162,0.14391275,0.18009636,0.015808197,-0.00040440285,-0.14078219,-0.27873915
-0.0062476257,-0.10250807,0.093456596,0.12417616,0.08078698,0.1384706,-0.11516155,-0.053938817,-0.15645117
0.055894203,0.18842688,0.37513947,-0.21285473,-0.00027866775,0.2915423,-0.39455572,-0.353782,-0.2116195
0.126775,0.056027707,-0.26552933,0.118393146,0.0008142417,-0.10132937,0.009011725,-0.10220753,0.18333144
0.09608688,0.12158913,-0.14915992,0.1621592,0.09911462,-0.31420946,0.24493043,0.033817127,-0.2937306
-0.16804609,-0.31660658,-0.21586329,0.075056165,0.043868843,0.202777,0.12070294,0.21252869,0.09234515
0.118557945,0.008518003,0.16915406,0.14336583,0.079844125,-0.022676155,-0.17733122,-0.03520537,-0.30603522
0.060330268,0.040693376,-0.34432527,0.010714012,0.18750294,-0.228235,0.11449435,0.20533592,0.09794003
-0.023086239,0.07310162,0.06007256,-0.007558654,0.13047865,0.08330184,-0.08103158,0.103090316,0.015788466
-0.17389992,-0.33853883,-0.15505873,0.055326,-0.032392897,0.18237813,0.20896335,0.25955752,0.00045709222
-0.35984373,-0.19759119,0.11359141,-0.3990894,0.08446579,0.315177,-0.12505323,0.089732714,0.26878437
-0.2979625,-0.11177821,0.07063647,-0.1319849,0.117786594,0.18668285,0.12671566,0.17139465,-0.116512746
-0.09523942,-0.15015736,0.05272318,0.07823495,0.008961803,0.08907999,0.09235416,0.07750131,0.006719195
0.0006279691,0.13296105,-0.054175824,-0.03895503,0.13688481,0.17509927,-0.2812684,-0.05070435,0.08457752
0.0828858,-0.15945509,-0.26288494,-0.12085783,-0.15188898,-0.04496175,0.14500833,0.24900171,0.25008756
-0.0041782986,-0.25387025,-0.2277042,0.22441225,0.0381804,-0.03815544,0.05166799,0.18623325,0.0029212649
-0.26631618,-0.21958998,-0.08303738,-0.045297213,-0.036130425,-0.077360325,0.2435849,0.22118418,0.022677336
0.12649617,-0.024532562,-0.20117936,0.09387817,0.17538045,0.07146645,-0.13232772,0.124849774,-0.058414787
0.08155359,0.13823879,-0.07777063,-0.0041816067,0.028665937,-0.079555504,0.08072452,0.13609974,0.124116525
0.10930925,0.07581893,0.1633514,-0.21272862,0.1544733,0.15811007,-0.37096158,-0.22872232,0.13948655
0.102576666,0.063233264,0.05976265,0.068033494,0.0709665,-0.012231366,-0.03518678,0.04242162,-0.23978388
0.034557655,-0.11031201,-0.17882648,-0.17565057,-0.16294406,0.06892053,0.14298531,0.19922462,0.18069291
0.037788916,0.20677303,0.17629674,0.24765518,0.16832255,-0.07202273,-0.18659317,-0.36322027,-0.2873011
-0.5481933,-0.16024524,0.16760996,-0.30178258,0.01068442,0.30947286,-0.18545271,0.16948879,0.19053009
-0.0283331,0.18526131,-0.0045920024,-0.008094181,0.11574665,0.01200266,-0.06711291,0.07612059,0.1554053
-0.0046793628,0.14742714,0.22064301,-0.19635361,-0.32491532,0.011202781,0.19290555,-0.043641187,-0.09906321
0.15955308,0.16071133,0.22156534,0.03729206,0.10864474,0.043609727,-0.21458787,-0.31018466,-0.21662489
0.025462192,0.076750346,0.03128333,0.090882935,0.02381189,-0.00572225,0.06552485,-0.022814086,0.14235744
0.032308944,0.0007932992,0.06674066,0.13598822,-0.025421385,0.027851492,0.21113959,0.16724092,-0.17570533
0.010752954,0.056950383,0.05481278,0.09541238,0.11801732,0.11400422,-0.061591525,0.047577143,0.06516752
-0.070946425,-0.33501604,-0.21284398,0.034452856,0.050254,-0.020725086,0.18558487,0.23595987,0.10833277
0.18545151,0.15773933,0.23695028,0.011386901,0.0726755,0.1486824,-0.2512854,-0.34086424,-0.23536983
0.057355262,0.17945246,0.024794845,-0.064255536,0.03360458,-0.0009794746,0.029087162,0.11532564,0.13810258
0.06222955,-0.033060957,0.029440697,0.012359152,0.038256984,0.067324914,0.058414035,0.119780555,-0.06019215
-0.07105195,0.09189297,0.070484065,0.083367616,0.126123,0.042714883,-0.12617567,-0.047268327,-0.1700632
0.052395012,0.08793337,-0.21915193,0.01674804,-0.12434052,0.016850738,0.14908603,0.00887441,0.10922794
0.06948029,0.03307296,-0.11826736,-0.02467771,0.06480077,-0.033257503,-0.011928629,0.10246064,0.155938
0.17425899,0.24779534,0.21947698,-0.007716577,-0.009901461,0.0888119,-0.19832562,-0.31798175,-0.21326475
0.051657066,-0.15523557,-0.30470416,0.054274846,0.04472592,0.01328709,0.16077429,0.18295327,0.14550225
0.11756561,-0.035973605,0.08003408,0.0296857,0.119438596,-0.06674474,0.15660647,0.087681055,0.029879283
0.081734434,0.21217957,0.19108151,-0.18484806,0.19976807,0.21660644,-0.40215743,-0.313516,0.021077417
0.15313292,0.0065885554,0.11956273,0.06998975,0.07809315,-0.103829436,0.117472075,0.10432468,-0.124949254
-0.23028784,-0.39595684,-0.33234707,-0.07197927,0.09228449,0.007501512,-0.017095208,0.11333939,0.31297976
0.041057542,-0.005863337,0.086598985,0.13474824,0.045249425,-0.07784973,0.17345192,0.090036474,-0.18541522
0.29637673,0.10921217,0.015294721,0.15847518,-0.05179175,-0.19860609,0.04643052,-0.2022842,-0.26696798
0.21352689,0.066131204,-0.17330074,0.099230744,0.08319729,-0.4321869,-0.050677154,-0.42150953,-0.2502216
0.036195457,0.10299025,-0.05122762,0.032617543,-0.013016186,-0.09834253,0.062039863,0.053300988,0.07752596
0.055924322,0.12290423,0.11292152,-0.033131983,0.16976728,0.096217595,0.076576024,0.20584427,-0.025053212
0.012405021,0.043874048,0.01802602,0.095555246,0.17461522,0.06845751,0.019003803,-0.0035138098,-0.14949363
0.3564167,0.13144885,-0.27638382,0.19506541,-0.100747794,-0.4819088,0.07583227,-0.22298464,-0.20770016
0.03600721,0.14503463,0.088762425,0.05273043,-4.7499896e-05,0.041173775,0.025216904,0.1486552,-0.041181844
0.2512782,0.26318192,0.078674085,0.18641861,-0.03131785,-0.26632047,-0.13470085,-0.19907774,-0.2322253
-0.309471,-0.09870977,0.109091476,-0.051325023,0.2533726,0.198034,0.08014559,0.059592042,-0.10539059
0.08928245,0.033567358,0.04361095,-0.04999456,-0.007019614,0.06453698,0.011289991,0.052070245,0.07486624
0.14035904,0.0575367,-0.20136584,0.036494605,0.1800793,-0.038244307,0.020475393,0.17376694,0.070964366
0.11461882,0.014866731,0.046241667,0.05767563,0.08322357,-0.036674235,-0.0065945173,0.16131751,-0.14834605
0.049517624,0.13153462,0.20007828,0.074369274,-0.022704422,0.0050222357,-0.22827768,-0.19595829,-0.020808896
0.16644038,0.11268432,0.089498155,0.08993376,0.044435516,0.14110792,-0.15538116,0.029856369,0.038829997
-0.06604582,0.0847225,0.11959298,0.11532127,0.058697235,0.17111391,-0.028273217,-0.07963147,-0.1377419
-0.4770754,-0.42837054,-0.12360462,-0.35793436,0.03447632,0.2800201,0.021386467,0.323329,0.24228461
-0.25413963,0.062193256,0.011495645,-0.25378278,0.11983574,0.19165088,-0.017352844,0.12917793,0.17528287
0.03866573,0.10626475,0.0756343,-0.03723139,0.03777889,0.104822256,-0.103313275,-0.07603322,0.10812536
-0.018136075,0.08464922,-0.25493202,0.07334624,0.118576676,0.034777295,-0.15504666,0.094327256,0.13857493
0.020099573,0.1733122,0.006922176,0.12633334,0.1599285,-0.349872,0.14718644,0.038944565,-0.2676251
-0.2226917,-0.019364476,0.2791788,-0.15775749,-0.07839048,0.21718746,-0.24428031,-0.13791977,0.16218439
-0.056424886,0.06332897,0.17468706,0.110215805,-0.015834793,0.0761127,-0.005345539,-0.060071353,-0.16693582
-0.055727247,0.012982663,0.07814484,0.024363602,-0.009880098,-0.017476259,0.030764433,0.03639019,0.08233776
0.08257832,0.1765605,0.21747859,-0.019722972,0.10097966,0.15287781,-0.34036124,-0.30829886,-0.10599231
0.016904736,-0.014117826,-0.093460396,-0.06908594,0.15519986,0.19113189,-0.04403512,-0.078183375,0.10244908
0.06420486,-0.20605971,-0.23751214,0.015344476,0.11109481,0.06559619,0.16066961,0.024890466,0.033366382
-0.168537,-0.03075909,0.16183317,-0.016964762,0.09765522,0.07586702,0.14501344,0.12318472,-0.20729288
0.1637395,0.11488249,0.052856624,0.010986901,0.1403539,0.09258267,-0.07996199,0.08823962,0.04730788
-0.31874996,-0.10238124,0.13346817,-0.22672215,0.019454561,0.19650869,-0.117333375,0.1232539,0.13474622
0.090672515,0.08339448,0.091401055,0.060359802,0.12583397,-0.030694613,-0.083527096,0.092205234,0.06607979
-0.040231597,-0.14338185,-0.2568088,0.16559558,0.07047132,-0.21396984,0.19090307,0.19069529,0.08535788
-0.05081627,0.066979945,0.11604455,0.21000893,0.20958841,-0.20967145,0.21934626,-0.10033701,-0.43682224
-0.15234546,-0.19622755,-0.19361934,-0.094167374,-0.09741931,-0.00045621998,0.25467038,0.21852568,0.16035423
-0.20598112,-0.09401084,0.053019486,-0.17491102,-0.046349984,0.16932122,0.13195129,0.15745753,0.030665083
0.27354208,0.16464658,0.16493581,0.12310762,0.07836427,-0.08979642,-0.3149952,-0.40816545,-0.21242052
0.22261174,0.18758681,0.16144554,0.026155662,0.033016294,0.012786742,-0.30784878,-0.29956427,-0.10657707
-0.07058406,0.035777524,-0.1831808,-0.042184953,0.17975388,0.18379475,-0.043823067,-0.04076283,0.018687367
0.019195883,0.16606776,0.16135652,-0.10233236,0.1639684,0.06467128,-0.16132092,-0.10165353,0.0796415
0.24163993,0.2379351,0.040482726,0.04391815,0.08334127,-0.25692952,-0.3642238,-0.42085785,-0.3287643
0.08597615,0.097582504,0.04919527,0.019071363,-0.010561252,-0.10207063,0.07771251,0.015245151,0.090241104
0.09841337,0.15703478,0.022291834,-0.07944572,0.15063606,0.19885245,-0.21611638,-0.08956677,0.12731776
0.08847132,0.13643824,-0.26442394,0.21413003,0.04457801,-0.31254545,0.12922113,0.097831264,-0.07041154
0.12201172,0.19150594,0.22914203,0.021492576,-0.03288059,0.040895194,-0.14719555,-0.24938214,-0.22857481
-0.18342456,-0.13683993,0.0776697,-0.27927217,-0.13701238,0.24950609,-0.32469967,-0.03316858,0.22619955
0.04308693,0.046510514,-0.16885354,0.2995846,-0.069234654,-0.36752197,0.2722032,0.013984846,-0.07755071
0.21116072,0.11818318,-0.23733672,0.20975134,0.10243824,-0.3355548,0.14491971,-0.124320045,-0.34875172
0.1364643,0.06500989,0.033946905,0.1127987,0.09939078,-0.011803736,-0.16454014,-0.10998822,0.07548778
-0.066038854,-0.09967877,-0.0061237556,0.13568912,0.086697966,0.18035151,0.035013862,-0.06435478,0.12441987
0.13983138,0.12703086,0.04978621,-0.12358068,0.2393785,0.10077696,-0.26844814,-0.12901108,0.091160245
0.17130306,0.13583332,0.09997952,-0.10065473,0.039626766,0.1835817,-0.14268693,-0.26581824,-0.1809909
0.28580645,0.13853897,-0.16762412,-0.2890355,-0.4113238,-0.15928674,0.08798436,0.17067084,0.3205214
-0.023671642,-0.2593265,-0.31067416,0.15827024,-0.04541969,-0.15217301,0.30838835,0.19979012,0.15436807
0.16089316,0.14363189,-0.01697855,-0.03417197,-0.019927066,0.08651676,-0.11487345,0.057667673,0.089271605
-0.09195333,0.041402243,0.07867899,-0.0070461365,0.17897283,0.14669152,0.08963922,0.105132096,-0.105734915
-0.22928314,-0.07593467,0.13108559,0.13919854,0.1261238,0.09337007,-0.0034488614,-0.04107156,-0.1002695
-0.07841268,0.12703434,0.05201743,-0.10293814,0.049218237,0.17970227,-0.024546292,0.09663638,0.068231046
-0.13208096,0.124014094,0.13822725,-0.26715463,0.0041320226,0.2170703,-0.14740829,-0.12967862,0.17313631
-0.008499199,0.048405685,-0.00083474757,-0.0031382954,0.16176522,-0.062879644,-0.10357136,0.06325097,0.020586627
0.15657835,0.13464887,0.08897882,0.01198895,-0.063614264,0.029277142,-0.21869108,-0.059028763,-0.019279046
-0.0077533526,-0.1298966,0.010418759,0.119992875,-0.22606844,0.090317324,0.17220242,-0.12626629,0.041678585
0.04670144,-0.27304533,-0.19102423,-0.16458048,-0.13240242,-0.07592164,0.14963643,0.27638403,0.24600005
0.20389655,0.12612918,0.14918792,0.01772752,0.035320204,0.12475796,-0.37867737,-0.29614413,-0.24528994
0.26137394,0.12100054,0.0003056047,0.20814772,-0.037841413,-0.27931678,-0.01603696,-0.16518801,-0.15390277
0.062243413,0.0607176,0.06556954,0.14274116,0.10348188,-0.057076216,0.11555789,0.093969546,-0.057002068
-0.311249,-0.22313754,-0.13966067,0.05404057,-0.042269774,0.08237811,0.23681313,0.23407416,0.048441593
0.02108134,-0.09753488,-0.17533761,0.10254137,0.1449192,0.032202635,-0.07308982,0.06765764,0.13005045
0.04905417,-0.0150879705,-0.03455449,-0.13571183,0.0034373482,0.041893743,-0.040949766,0.15459284,0.13228954
-0.10242145,-0.013595304,0.09584128,-0.04038104,0.18671682,0.022165626,0.17476432,0.15263054,-0.06346458
-0.18309568,-0.00188082,0.23475474,-0.2889512,0.032389548,0.22784641,-0.3038906,-0.03136344,0.21955343
0.13538821,-0.04914297,-0.31893727,0.20698287,0.007260362,-0.31510192,0.14585237,0.25630742,0.0026437226
-0.11159406,0.06311827,0.09320406,-0.06490898,0.05558479,0.089605674,0.083439015,0.06355127,0.09495213
0.1424608,0.022646016,-0.039091013,0.15617909,0.11945212,-0.016447349,-0.15210147,0.109078795,0.0076211784
0.19225007,0.19155663,0.18063259,0.17268719,0.0626165,-0.27370417,-0.054205954,-0.24549125,-0.30617103
-0.3283767,-0.10726928,-0.022896646,-0.15770556,0.12451503,0.13686627,0.08898411,0.25690535,0.12340843
0.084986895,0.3011167,0.2747166,-0.19207169,0.08353168,0.0958802,-0.3577049,-0.51928484,-0.4213711
0.1318844,-0.07681138,-0.10740178,0.037579365,0.09824802,0.14456967,0.0013247066,-0.0024318604,0.05279896
-0.011067461,-0.2431892,-0.22851038,0.19717847,0.11794279,0.0154003445,0.08506847,0.088146195,0.13402405
0.15243222,0.23970507,0.12896132,-0.01688269,-0.03383266,0.16040726,-0.37203705,-0.18192336,-0.13972746
0.01515673,0.04640126,0.08013158,0.039558675,0.12717088,-0.020042328,-0.076289676,-0.08669322,-0.005265744
0.036404107,0.09363988,0.040484957,0.03484363,0.010556961,0.023452861,0.05943418,0.12072453,0.09689411
-0.14224377,-0.059116557,0.09369092,0.027450616,0.23610061,0.14894667,0.15155482,0.058206577,-0.17946495
0.2692918,0.053542756,-0.28104728,0.30366638,-0.052675314,-0.34948415,0.14428337,-0.032176774,-0.105779685
-0.12803906,-0.32990775,-0.2545175,0.01697929,-0.012238574,-0.021075087,0.18587767,0.29995763,0.21174414
0.05277501,0.10279544,0.10800678,0.12850201,0.1604407,-0.11720034,0.13049407,0.008462222,-0.272693
-0.087604135,0.11624491,-0.049932312,0.17174262,0.09389877,0.071649306,0.0087872725,-0.19622877,-0.14248316
0.12708059,0.044292595,0.019648539,0.071356624,0.17819783,-0.05289824,-0.06706434,0.08526527,-0.17589779
0.06667958,0.11062259,0.15705326,0.060351513,0.17311834,0.14931914,-0.13294235,-0.36723348,-0.22470595
0.24865475,-0.0021042777,-0.2791303,0.026356326,-0.6453679,-0.0049618687,-0.36834377,-0.006930908,0.3030296
0.26461932,0.08831728,-0.3078077,0.19843034,0.021000188,-0.25623035,0.16766714,-0.023389589,-0.23506027
-0.0796676,0.039361887,0.12724765,-0.14375614,0.16689706,0.10663714,0.008805171,0.04337362,0.13060182
0.10759708,-0.014475618,0.057394262,0.059886064,0.11298748,0.051569685,-0.20669474,-0.07865111,0.010940081
0.008409932,-0.06481773,-0.37370983,0.26165032,-0.025110023,-0.19751675,0.15666276,0.17323169,-0.04340093
0.012872362,0.07212807,0.0053440337,0.09682692,0.031245464,-0.100891,-0.060038965,0.12598276,0.10856987
-0.30495375,-0.11641546,0.12686433,-0.26651505,-0.061622594,0.2532879,-0.28732455,-0.015288798,0.17199798
0.08120511,-0.4964811,-0.094035715,-0.5061024,-0.05715069,0.19774534,-0.21599545,0.10337267,0.36104712
-0.20888403,-0.015018788,0.14216718,0.013074089,0.0989043,0.043805376,0.0149924075,-0.027908348,0.022271458
0.17305225,-0.16780546,-0.078173704,-0.113869265,-0.117804565,0.15255214,-0.0005723161,0.16302752,-0.059849106
0.118705004,0.14128806,-0.21548481,0.151506,-0.0055453572,-0.30929667,0.08099429,0.17123646,-0.049025133
0.020592432,-0.0018540592,-0.07376389,0.06204328,0.020740021,0.08837183,0.051584087,0.029935773,0.13274291
-0.27285996,-0.09813916,0.22790587,-0.23879817,-0.11002404,0.2741792,-0.058897067,0.038976412,0.08726302
0.09871625,-0.050469056,-0.0035528168,0.038434867,0.08703123,-0.060651653,0.09148712,0.13794768,0.00022244341
0.04255764,0.06832984,-0.003999998,0.06922987,-0.06274646,0.04323029,0.07379058,0.0008519201,0.11864744
0.17458479,0.12657823,-0.23431748,0.13624063,0.0859726,-0.31077746,0.23314781,-0.020573856,-0.27017057
-0.19130485,-0.2153536,-0.05792105,-0.061685458,0.16999435,0.08128896,0.14070855,0.055089217,0.014658759
0.22763307,0.15663214,-0.2541028,0.18893123,-0.029181274,-0.5100932,-0.054028656,-0.4259179,-0.04365483
0.33144903,0.29507557,0.07028091,0.21310161,-0.06169812,-0.32075796,-0.13904399,-0.3414395,-0.21754779
-0.02848356,-0.12860546,0.10864058,0.06645761,0.17455779,0.07472809,0.067441486,-0.0732198,-0.15325277
0.06912994,0.18722042,0.19092529,0.18322824,0.11747187,-0.094036296,-0.18844594,-0.3176094,-0.2317179
0.008982482,-0.15854393,-0.18992308,0.25835523,-0.097654715,-0.3508441,0.25830477,0.16333568,-0.006030989
0.0772047,-0.2979859,-0.2337266,-0.22836639,-0.07702141,0.12659664,0.12962805,0.3071474,0.17911944
0.058273397,0.06370266,0.08720065,0.060648702,-0.04864154,0.1249094,0.09113552,-0.040940665,0.12367738
0.024488306,-0.2589653,-0.29832727,-0.099012,-0.04027692,0.0045526284,0.121397234,0.25219247,0.15338033
0.05540904,-0.048062585,-0.14729759,-0.017689737,0.048103005,0.06530601,0.12086854,0.0069510825,0.1576955
0.2699021,0.271928,0.123604365,0.04302782,-0.0071575325,0.02456169,-0.26996398,-0.36700717,-0.266015
0.17079689,-0.19942343,-0.26000902,0.18952928,0.009132156,-0.06731017,0.0071672522,0.15705395,0.13387379
0.02996946,0.09594876,-0.074724436,0.09029365,-0.064704195,-0.0050537926,0.078523554,0.13285558,0.08742987
-0.25207883,-0.22888798,-0.18867333,0.022964526,0.08700435,0.030781772,0.17208539,0.16105032,0.10558528
-0.12871951,0.005463249,0.09834779,-0.0700881,0.13479322,0.0851364,0.13180502,-0.01726363,0.12961823
0.09790158,0.15809034,-0.054826844,-0.094591245,0.07054,0.004420894,-0.06208162,0.115008965,0.018843941
0.13250676,0.1710574,-0.011824843,0.018364163,0.044011235,0.11252765,-0.026709275,0.055604402,0.09350447
0.047433168,0.058537457,0.04225805,0.124499835,0.08553689,0.007231217,0.09809435,0.09506563,-0.07496814
-0.025996802,-0.28236946,-0.055580176,-0.2649491,0.08605767,0.2779457,0.106951855,0.10345421,0.046187073
-0.012062156,0.07640532,0.07078935,0.08508803,0.017245773,0.028576843,0.069408506,-0.0033869178,-0.16725144
-0.12862372,-0.084610224,0.047233406,0.062469777,0.02035658,0.10392915,0.09288713,0.13666649,-0.056933552
-0.23090409,-0.17152788,-0.02265599,-0.038844515,-0.014793335,-0.03203442,0.12461103,0.17942928,0.14502433
0.07704964,0.057173345,0.20540784,-0.24091677,-0.11079587,0.19565806,-0.41328394,0.04574448,0.17738879
-0.178341,0.10862016,0.35064435,-0.40363997,-0.14961554,0.3021097,-0.32528085,-0.25618517,-0.03274037
0.06514362,-0.13563187,-0.2511745,0.24886958,-0.03832433,-0.33110648,0.15158533,0.22982994,-0.026956566
-0.20675306,0.08196359,0.23998867,-0.25088,0.09388382,0.12981701,-0.1912294,-0.05729441,0.16973485
0.025002366,-0.21427245,-0.3324547,0.20004788,-0.0035743692,-0.3283921,0.25538018,0.22439902,0.092890434
0.0859907,0.14355926,-0.1678066,-0.056797836,0.18033579,0.15396062,-0.19465968,-0.047205098,0.051386297
-0.08430538,-0.027612159,0.18142559,-0.1771917,-0.047764666,0.15168747,-0.25626826,0.0143434405,0.17074245
0.005746672,-0.17279603,-0.33644706,0.03625457,-0.016600564,-0.026889885,0.063749835,0.2303669,0.21200429
0.08587339,0.17675924,0.27002114,-0.081881516,0.094487,0.16752884,-0.3470704,-0.3524627,-0.1937811
-0.06536268,-0.09813328,0.019759582,0.083696954,0.10279042,0.11307964,0.0005542296,0.19752692,-0.115225255
0.12134528,0.09295472,-0.2369093,0.036117647,0.12496925,0.10295677,-0.1343301,0.033580966,0.044481643
0.08093575,-0.0045245993,0.044306584,0.010476461,0.13174766,0.11746339,-0.214432,-0.14957727,0.15749164
-0.039023094,0.112932414,-0.08775952,0.057563618,0.122153446,-0.08501179,0.0069475234,0.18312213,0.21718737
0.009227816,-0.22091323,-0.359895,0.24219644,-0.0049033766,-0.15744933,0.068675056,0.27721694,0.15368293
0.076878175,0.07220153,0.0070224656,0.08263847,0.026458066,0.15081653,-0.108907245,-0.11534006,-0.014828841
-0.21798469,0.10342863,-0.013209683,-0.11041151,0.17723614,0.06226278,0.12477945,0.036532976,-0.005270204
0.09609826,0.057548724,0.09277882,-0.02856794,0.11365711,0.06722501,-0.17257136,-0.10724391,0.11478529
-0.0068163485,0.05483638,0.05963291,0.09062439,0.07693052,-0.08494942,-0.012013202,0.04318848,0.10763355
-0.13786057,0.15845029,0.114864655,0.085198484,0.19481681,-0.10696778,0.0008237439,-0.059443817,-0.15252306
-0.05386577,0.08748412,0.05580555,0.08769347,0.014350105,0.09460489,0.10764757,0.004913065,0.1313577
-0.11288377,0.21759452,0.13318619,-0.28118375,0.007931979,0.18749385,-0.2612863,-0.16125622,0.05521587
0.0041391067,0.19961697,0.07163255,-0.07521378,0.13589108,-0.0074577113,-0.056464802,0.17222287,0.18752488
-0.09401123,0.086725496,0.056426585,0.09894333,0.019661032,0.11084278,0.03790093,-0.108781934,-0.180276
0.06322021,-0.07108194,-0.11864656,0.1221212,0.016709609,0.06461544,0.0847448,0.114118844,0.060008314
-0.056986492,0.22574584,0.18065837,0.262915,0.2400316,-0.15027168,-0.020267202,-0.22892962,-0.36710152
0.22738664,0.24295004,-0.09731176,0.1715885,0.013339793,-0.3625473,0.11539457,-0.06773751,-0.27888447
0.059133533,0.1641736,-0.13797347,-0.0681858,0.08768195,0.09078187,-0.09457383,0.04306292,0.094986774
0.031535864,0.12517752,-0.07835464,-0.03941743,0.13139418,0.012863029,-0.09957861,-0.0147220455,0.13679662
-0.05574706,0.0950587,0.07390439,-0.068646856,0.12859246,0.026273819,-0.06390241,0.13099629,0.036581475
-0.039350346,0.027502667,0.0782905,0.053905495,0.066009745,0.07156684,0.054283142,0.086131394,-0.06585887
0.020066062,-0.057196625,0.14224868,0.15614173,0.10715878,0.061450377,-0.036748752,-0.1511869,-0.17264166
0.42968962,0.19436885,-0.29187778,0.13203031,-0.29914403,-0.48148778,-0.3977016,-0.5280731,-0.047163002
-0.1398198,-0.288751,-0.22709726,-0.0831277,0.00057948474,0.09917368,0.25064617,0.24598391,0.1001628
-0.27337313,-0.011005159,0.10995612,-0.019063493,0.25072387,0.10021015,0.18215196,0.099802375,-0.18268746
0.10228465,0.10653296,0.06914761,0.02742042,-0.036767125,0.09787816,-0.12770173,0.009358555,-0.04460609
-0.14833784,-0.30400568,-0.27839875,-0.012103621,0.05760807,-0.0036182196,0.2358596,0.1662126,0.2376531
0.046494897,0.05164516,0.049459923,-0.01613869,0.11210463,0.09813944,-0.24267612,0.0036193866,0.025004614
0.18897974,-0.28112924,0.033990864,-0.049143985,-0.15559691,0.22495076,-0.022814386,0.027337689,-0.034443922
0.04180211,0.17170778,-0.30144197,0.055950932,0.19359167,-0.18724473,-0.10425365,0.23782593,0.09682466
0.0040729246,-0.03625985,-0.08366548,-0.04214656,-0.24123913,-0.09663738,0.14501683,0.10804431,0.20249972
-0.20785704,0.079572245,0.109858535,-0.0186608,0.17704815,0.12752791,0.08820938,0.04706356,-0.048619907
-0.122007184,0.06565794,0.065582536,-0.18454337,0.026349468,0.15151633,-0.03561964,0.08957105,0.04659534
-0.020652823,0.024529612,-0.06734341,-0.09177579,-0.064649776,-0.11355274,-0.07803087,-0.021739872,-0.05616117
-0.126502,0.23950754,0.09615129,-0.36774805,0.14500265,0.207309,-0.3210907,-0.12033237,0.20498218
-0.02689534,0.1620321,-0.079485156,0.08799384,0.13842066,-0.06512169,0.13053606,0.03938698,0.15037885
0.035551347,-0.18242377,-0.2678118,0.11469567,0.021068646,-0.18214577,0.12463051,0.20099238,0.12589273
-0.02039088,-0.07621915,0.0310963,0.037144314,0.059135336,0.13263266,0.11962874,0.0919708,0.068462715
0.040552408,0.09775327,-0.056003045,-0.11793853,0.011925735,0.052507162,0.08702414,0.09108038,0.059383817
0.04857488,0.28148913,0.29497933,-0.116060145,-0.0052859075,0.16491714,-0.41238153,-0.38970697,-0.35086873
0.024455797,-0.096269734,-0.13872659,0.1472142,0.052152984,0.12274904,-0.092002295,0.110203624,-0.102161095
-0.18711835,-0.14480564,0.08070021,-0.08387294,-0.076253004,0.19156033,-0.1368315,-0.0147558525,0.14589407
-0.2103412,-0.092924945,0.050630573,-0.17778848,0.0030600554,0.079246365,0.19692801,0.19332512,-0.056579594
0.037679587,0.047211442,-0.027317047,0.019821819,0.061720166,0.15270078,-0.15296012,-0.12421173,0.18112859
0.006616143,-0.26367354,-0.13496405,-0.4322958,-0.19485684,0.25580958,-0.08377167,0.26640117,0.29467395
0.14432642,0.023038974,7.1086106e-08,0.101562515,-0.053375084,-0.10683667,0.063230954,0.1618918,0.07210036
0.056062803,-0.089174196,-0.40562543,0.2705995,0.0028322842,-0.5072671,0.40508202,0.2469132,-0.06966018
-0.094208024,-0.12236993,-0.026179204,0.07146361,0.09189647,0.03518669,0.10992388,0.11699849,0.06422069
-0.34996673,-0.025450503,0.12945245,-0.19654985,0.106395505,0.065466054,-0.01837486,0.010560942,0.21142398
0.124118194,-0.020336008,0.10470547,0.10505078,0.012875935,0.10325364,-0.019336073,0.09508281,-0.017750174
-0.1256517,-0.038578466,0.008191751,0.07997539,0.042479545,0.057384387,0.13733819,-0.032347046,0.12015996
0.09388508,-0.017269116,0.07706287,-0.056529522,0.12418039,0.0514318,0.020521972,0.17792797,-0.06305439
-0.03102509,0.12582204,0.2022546,-0.29580763,-0.10524941,0.23021038,-0.15373887,-0.1279511,0.16587372
0.16534495,0.24892202,0.17231303,0.26035777,0.24129349,-0.19839877,-0.23987749,-0.5427453,-0.30381578
0.012487372,0.117656745,0.20976502,0.02520061,-0.112578295,0.1036135,-0.20129816,-0.22957869,0.068572395
0.22487926,0.16203244,0.24279661,-0.031788625,0.10510523,-0.007914109,-0.3230213,-0.3295443,-0.06277247
-0.31675655,0.08592074,0.13806444,-0.15676358,0.022459097,0.123979345,-0.09743617,-0.048124783,0.08151624
0.06178384,-0.12970825,-0.15537304,0.10750952,0.030722488,0.12981772,-0.030126056,-0.042469773,0.04983424
-0.39187083,-0.12367996,0.06464887,-0.36677563,0.051669564,0.25956625,-0.077668056,0.25772372,0.16121417
0.07388072,0.18960758,0.03803538,0.035955172,0.11973666,0.18022197,-0.39816368,-0.21056525,-0.038733643
0.0693547,0.09409674,0.10304068,0.11066639,-0.043180313,0.0061815414,-0.033935852,0.048583146,-0.15914147
-0.043388657,-0.0038793315,0.07326795,0.081336066,0.052669752,0.1504452,-0.045897774,0.017810117,-0.030218
0.25536302,0.09853068,-0.12150945,0.2503056,0.013458572,-0.35463354,0.09625011,-0.18468365,-0.45039567
-0.31597903,-0.42519218,-0.22988194,0.031555183,0.14325368,-0.10176183,0.18836924,0.116463274,0.15149504
-0.24684715,-0.1454343,0.057632018,-0.30471304,-0.040106423,0.26888075,-0.015988432,0.078573294,0.22766668
0.013922757,0.22684395,0.31050846,0.13472499,0.025506373,-0.01653776,-0.16253239,-0.4123954,-0.13621151
0.061748076,-0.13510378,-0.31370696,0.198011,0.20368771,-0.11608401,-0.061083633,0.1345656,0.120286755
0.14107984,0.17395805,-0.08825564,0.3185788,0.042163566,-0.33134073,0.14256985,-0.21983534,-0.29412848
0.040793907,-0.077423,-0.056635033,0.08343644,0.05169081,0.091234416,0.0026291553,0.036553018,-0.06902846
0.30388364,0.33396536,0.09031631,0.09883126,-0.008957212,-0.1992304,-0.16709608,-0.44316912,-0.26476628
0.072006114,0.038550228,-0.23999724,0.02007138,0.11132846,-0.055670574,0.09652572,0.14637564,0.10969655
0.08406241,0.029352358,0.12523939,0.071212925,0.114043675,0.18168582,-0.11766199,-0.1810387,-0.1414179
-0.13213812,0.12403964,0.28637874,-0.29977188,-0.12239429,0.2067852,-0.22545065,-0.11051591,0.1240509
0.13508697,-0.026373463,-0.22965035,0.168527,0.01695978,-0.18929867,0.111540414,0.15469489,-0.08055841
0.10728694,0.11434539,-0.06793718,0.066511914,0.020404313,-0.25391394,0.047060724,0.0826572,-0.1487863
-0.17475578,0.056126606,0.13090345,0.13960707,0.12008168,0.19036986,-0.0077230562,-0.082581915,-0.2303557
0.07290954,0.018197943,0.069765165,-0.008354336,0.02344296,0.09258968,0.067527354,0.022193123,0.058572236
0.070486635,0.06517571,-0.03579965,0.029060112,0.13342269,0.1187815,0.0045141308,0.14566392,-0.02775208
0.04423702,0.08700064,0.045377318,0.058826,-0.01815334,-0.09193256,0.050841667,0.12721804,-0.0031688572
-0.38241768,-0.36534858,-0.019348478,-0.42174435,0.012407481,0.38202816,-0.037502486,0.30778372,0.33748838
-0.015421769,0.056435633,-0.14311165,0.11571798,-0.007773838,-0.054210134,0.116169415,-0.04011212,0.09161791
-0.29532197,-0.21175338,-0.06783881,-0.12494228,-0.030883603,0.16254923,0.29269427,0.2351178,0.058750957
0.23677868,0.007755693,-0.24493901,0.19208097,0.005559855,-0.29937798,0.2460395,-0.011206762,-0.23541848
0.026478877,-0.13889797,-0.084759995,0.11142422,0.13450758,0.148154,-0.0007462038,0.034760177,-0.022219121
0.03215614,-0.18684061,-0.25219512,-0.006405594,-0.053251393,0.02984051,0.13653368,0.20834008,0.14342028
0.051333282,0.02937703,0.04864817,-0.00933651,-0.027736314,0.04775874,0.101063676,0.012986964,0.049424652
0.08375716,0.06330403,0.09366492,-0.04539684,0.12038001,0.079854265,0.0011491302,-0.041550312,0.049536105
-0.12814024,-0.16392021,-0.25329477,0.17516783,0.010912826,0.03703146,0.09658356,0.12658265,0.15967175
-0.33144498,-0.05074471,0.14635532,-0.27731237,0.16497974,0.16655646,-0.21407242,0.1327184,0.0403249
-0.11577128,0.025216704,0.10903312,-0.0077231093,-0.03830482,0.18340947,-0.022358019,0.13414314,0.099880375
0.008384397,-0.05828656,-0.31009433,0.09447125,-0.014301641,-0.21614985,0.1622501,0.21544407,0.15757012
-0.23462617,-0.18066406,-0.099914275,0.015522093,-0.11579586,-0.047962517,0.29550424,0.22462533,0.092805535
-0.053508624,0.017517978,0.025558297,0.013343423,0.12888125,0.11980469,-0.058874924,0.028590232,-0.11396975
0.20445387,-0.07812651,-0.3426149,0.23767337,-0.0478544,-0.22283275,0.12104088,0.1218197,-0.061406896
0.14579351,0.14880036,-0.2524379,0.27602842,-0.07098453,-0.2115772,0.17164628,0.016643096,-0.31436917
0.07177148,-0.04117493,0.10198148,0.08381717,0.14419107,0.045854997,0.13869256,0.07192207,0.07759194
-0.096464224,-0.0620141,-0.00787621,0.045990996,0.21454534,0.16497697,0.04008546,0.10294972,-0.19703765
0.034786105,-0.12993129,-0.1623425,0.021185666,0.044860363,-0.06821622,0.1541133,0.10206795,0.009542771
-0.14978564,0.25041077,0.19449848,0.16291042,0.25224543,-0.05187301,0.14911482,-0.04764966,-0.40710324
0.015147484,0.07226816,-0.19976747,0.045845725,0.11405814,-0.06623141,0.007635805,0.15549108,0.09385226
-0.03203883,-0.0267633,0.17530331,0.12224049,0.18153036,-0.052827656,-0.13516872,-0.07464373,0.057553325
0.037705366,0.042152252,-0.124150395,-0.05952759,0.10458841,0.15889716,0.14332761,-0.04044856,-0.114460595
0.147014,-0.01284268,-0.14930058,-0.03252419,0.21553706,0.07051307,0.058083147,-0.020919245,0.08330771
-0.3494601,-0.23634861,-0.007084472,-0.19813028,0.15361726,0.18375258,-0.3796421,0.06239079,0.12351859
0.08882365,0.16119434,0.119882,-0.015456152,0.09164083,0.20394383,-0.23023856,-0.30684277,-0.10457001
0.13947494,0.10294991,0.17773323,0.13060446,0.12929708,0.078952745,-0.15578282,-0.3295411,-0.28154808
-0.25342244,-0.32055432,-0.18093386,0.08270129,0.022448257,0.1405793,0.111408554,0.16952813,0.1489047
0.07409745,0.121946424,-0.0025415476,0.11123744,-0.063509166,-0.04089556,0.13969155,0.08838902,-0.06923292
0.011109121,-0.18571535,-0.3541707,0.13034004,0.15929413,-0.09614174,0.10302688,0.21462089,0.048560794
-0.026927842,-0.2226721,-0.004912835,0.18290739,-0.06156323,0.1575151,0.03956268,0.053810667,0.019100422
0.119977586,0.12523383,0.054067954,-0.036038592,0.042517,-0.07323271,-0.038871292,0.14754435,0.09568634
0.0661488,0.15214454,0.07553832,-0.16087145,0.14271615,0.1358877,-0.33210275,0.006626238,0.15800871
-0.07688013,0.110039145,0.008886595,0.15137023,0.022255084,-0.15020862,0.16065444,0.08605487,-0.17062107
0.009788952,-0.29022726,-0.18834813,0.35516542,-0.12582408,-0.32631338,0.31998256,0.24482551,0.035378788
-0.015811965,-0.2771394,-0.25397405,0.15973184,-0.0010507067,0.10397176,0.017141586,0.192324,0.15353122
-0.25721356,-0.0825781,0.20764449,-0.18631287,-0.06548527,0.14021163,-0.21968445,0.015815925,0.22508933
0.05656196,0.1319448,0.12184979,0.10477143,0.116938725,0.005277818,-0.11333833,0.0056748474,-0.03545939
-0.34429678,0.05081933,0.16651584,-0.29109615,0.13987803,0.13839944,-0.06820633,0.026630066,0.09595447
-0.028548973,0.2871612,0.16732778,-0.23941934,-0.031903192,0.29363897,-0.3413174,-0.20517106,0.09846167
-0.003091546,0.020257385,-0.16817237,0.109895356,0.14129555,-0.40536305,0.07270663,0.27711388,-0.016224956
0.08978197,-0.11971911,-0.078343675,0.14505994,-0.042336307,0.061296105,0.12312462,0.12869836,0.09590469
0.014370778,0.11585874,0.13030267,0.09455402,0.1518324,-0.05290988,0.15288015,0.15622276,0.08792727
0.044148628,0.07981023,0.16632915,0.098982364,0.08540625,-0.030677369,-0.058471996,-0.20049314,-0.043656975
0.0002085201,0.11879679,-0.13995756,0.05161157,-0.0013934365,0.076326,-0.10892943,0.12198607,0.08261358
0.08222466,0.30185056,0.3220812,-0.18566254,0.0149994185,0.12566766,-0.41126442,-0.26118243,0.04900374
-0.18577455,0.040532626,0.15618537,-0.16036806,0.026727397,0.12695973,-0.0669259,0.13787308,0.106899425
0.17285883,0.1437864,0.019978382,0.1766414,0.06998963,-0.26468673,0.1029919,-0.106248274,-0.32662266
0.07517347,0.08498818,-0.0053937277,0.053908076,0.15047911,0.10126962,-0.07319834,-0.03158247,0.029740503
0.16060984,0.21449764,0.1590709,0.15202454,0.06854892,0.042825222,-0.3263239,-0.38676992,-0.1346312
0.14289124,0.26148558,0.1738964,-0.34350643,-0.41996008,-0.3517401,0.09013268,0.074539445,0.10694236
0.110436335,0.14389253,0.08549722,0.09035305,0.067678005,0.08853963,-0.097946696,-0.1787577,-0.082409605
0.14202037,0.14995113,0.005745515,-0.026772875,0.19475465,0.1279895,-0.3182315,-0.20572601,0.052650206
0.038119007,0.07342376,0.10372159,-0.07682919,0.03066517,0.028502228,0.031010611,0.015454878,0.10939635
0.055222373,-0.17704764,-0.005189473,0.051720023,0.04695929,0.046062574,0.06254512,0.06589423,0.0406615
-0.012440896,0.016740134,0.01892982,-0.0093292035,0.09898667,0.13959719,0.17351381,-0.09067612,-0.17104582
-0.21844986,-0.41882506,-0.15261216,-0.44911888,-0.0815055,0.30036306,-0.17846707,0.14286295,0.31231636
0.1258671,0.10560565,0.099452846,0.025877172,0.17339742,0.053795107,-0.33903307,-0.15145347,0.020337414
-0.06136912,0.09392279,0.21153276,-0.16873202,-0.17210764,0.13522205,-0.07535127,-0.21469052,-0.0143399695
0.20556146,0.1923409,0.25309116,0.06502969,0.09352831,-0.02991725,-0.33018675,-0.35603872,-0.19684458
-0.20181586,-0.065875545,0.0015475334,0.016311068,-0.056318995,0.12161438,0.10792826,0.054629438,0.11419806
0.06812437,0.2687027,0.2842468,-0.28792053,-0.03564846,0.2894342,-0.3208891,-0.274144,0.063572355
-0.0016408381,0.09429568,0.06678382,-0.1299308,0.10240348,0.100826964,-0.09864882,0.05492671,0.12772115
0.13016677,0.24564172,0.1618701,0.16098736,0.13508786,-0.11741228,-0.028885905,-0.14610572,-0.42094174
0.10530842,-0.12191714,-0.3743696,0.15714946,0.15914795,-0.23193732,0.027409319,0.23685025,0.060372606
0.3341976,0.17734303,-0.078821555,0.20332955,-0.00889781,-0.20733093,-0.0027417105,-0.24202383,-0.46390015
-0.22081947,-0.36568284,-0.20415054,0.19208756,0.020037878,0.18153185,0.16497803,0.21473092,0.02390005
-0.2658434,-0.036801893,0.04292447,-0.041324344,0.119300544,0.22597034,0.11576643,0.021556167,-0.0171612
0.12970734,-0.058334548,-0.27213728,-0.050543167,0.02426392,-0.0036478522,0.087448604,0.16880038,0.16216268
0.10031373,0.08711183,0.20839778,-0.06975491,0.11391418,0.15197226,-0.39510563,-0.17752643,-0.05809672
-0.14352323,-0.14712751,0.13772881,-0.30655867,-0.009961753,0.19072957,-0.034184027,0.18673998,0.1699562
0.14418483,0.03126843,-0.03341445,0.086052194,0.037834145,0.08868182,0.0975931,0.08449513,0.04442278
-0.04791596,-0.03157884,0.06512111,-0.035252225,0.15011157,0.030737652,-0.017968234,0.15902227,-0.1360399
0.21492642,0.2089333,-0.12597792,0.20128745,0.16519313,-0.3626173,0.17909788,-0.11656071,-0.48396
-0.065459125,-0.105895765,-0.18728074,-0.16998428,-0.14701529,0.096378334,0.26071507,0.23206298,0.09510493
-0.100691065,-0.050391145,0.08266199,0.1933612,-7.971369e-05,0.0458985,0.042510744,-0.070186295,-0.016946733
0.06351279,0.20328745,0.036519203,0.2422136,0.19828928,-0.19388984,0.15988095,-0.15070325,-0.40476426
0.26671702,0.119226046,0.18633279,0.03775647,0.112456925,0.030466987,-0.28208888,-0.31416696,-0.22322787
0.05558482,-0.020458652,0.11551925,0.021101868,0.13361906,-0.028660603,0.10184389,0.078104004,-0.039019804
-0.26816398,0.008907446,0.074046046,-0.07930724,0.077039026,0.1870497,0.03920093,-0.050478578,0.0330514
0.04846369,0.23202719,0.2347882,0.07637725,0.08708608,0.03765698,-0.36357155,-0.33133677,-0.023865616
0.014570804,-0.091276124,0.06930856,0.0589461,0.16733903,-0.07032605,-0.05367066,0.074334525,-0.05797501
-0.18191569,-0.0071557416,0.09601251,0.13962534,0.096498296,0.116579,-0.070055276,-0.045881312,0.005639087
-0.08918286,0.07782117,0.13138787,0.06815254,0.15826073,0.034942683,0.05223732,0.016281687,-0.21695423
-0.15032502,0.022241011,0.102728926,-0.07248127,0.047692504,0.059400685,0.053798858,0.18362191,0.15476099
-0.13378906,0.11261917,0.19942248,0.26029283,0.24382435,0.016765622,-0.052983798,-0.18087834,-0.29659075
0.22336087,-0.09280512,-0.41426417,0.26024377,-0.032004718,-0.3703584,0.2713888,0.20050393,-0.08861945
-0.00429862,-0.10154904,0.09865513,0.07792029,0.075185195,0.108196296,0.17884493,0.13489486,-0.1613949
-0.1798807,0.038453043,0.10886873,0.15135622,0.20837642,-0.07481298,0.08574016,-0.06834455,-0.12767202
0.27325222,0.3027678,0.07748743,0.14803292,0.1775715,-0.31584847,-0.4343324,-0.71703166,-0.32531792
0.08421551,-0.014667066,0.07783621,0.05293465,0.06857215,-0.041206796,0.016870398,0.12767048,-0.020221174
0.080255814,0.021031784,-0.09002066,0.09441442,0.0017279957,0.09839705,0.025247993,-0.04952448,0.1517213
-0.11809006,0.08936889,-0.042867158,0.0016330716,0.13580926,0.007816903,0.09578206,0.12507792,-0.0154450415
0.046069756,-0.018363025,-0.19395435,-0.0702445,0.1842603,0.0930401,-0.003180324,0.071154825,0.110453315
0.07997883,-0.02682666,0.081933886,0.077855915,0.10537466,0.092469156,0.09857277,0.092115454,0.11135869
-0.0329362,0.054203205,0.20446752,-0.08112578,-0.067245744,0.34026808,-0.3438806,-0.25506052,0.06643491
0.13974272,0.10522424,0.013573448,0.017837392,0.09642789,-0.070797674,0.06706157,0.1139123,0.024678297
-0.29662687,-0.013071144,0.16745494,-0.121189624,0.1577042,0.14069939,0.047421902,0.15362263,-0.051139813
-0.13524657,0.09342036,0.017932978,0.09403909,0.09592464,0.09199702,0.08775728,0.11404449,-0.06328073
0.00050805666,-0.2616592,-0.1054021,0.0015261342,-0.13503201,-0.08297572,0.1830958,0.25994343,0.14082721
0.13994174,0.11670407,-0.02981118,0.15473582,-0.14506821,0.057498753,-0.09739407,-0.28955397,0.07785838
-0.1342689,-0.21666135,-0.22850859,0.064157635,-0.10116641,0.08761611,0.17221336,0.22254762,0.13311611
-0.24411203,-0.20007367,0.12321038,-0.3101238,0.055229515,0.3192696,0.032405615,0.23048872,0.09277696
-0.062242396,-0.15844333,-0.24932024,0.18409728,0.01312919,-0.07893542,0.13472708,0.16073827,0.12450561
0.09775363,0.002349734,0.05796797,0.021856772,0.0651979,0.09051642,0.015864342,0.1705811,0.11758099
-0.015377021,-0.28225294,-0.48023143,0.23620732,0.15245591,-0.1612189,0.15648022,0.17781486,0.20921034
0.09862228,0.20175055,-0.21643968,0.01345841,0.088219404,-0.029188894,-0.1038314,0.13943636,0.013888602
0.16889648,0.20775332,0.18461038,-0.053764522,-0.03289248,0.12297309,-0.29709417,-0.22740677,-0.08882563
-0.08398834,0.12106129,-0.024629558,-0.1559489,0.16416375,0.12415182,-0.31149867,0.055309728,0.118506536
0.12843259,0.03446429,0.09922385,0.12267434,0.10669327,0.013438081,0.011499785,0.058966354,-0.0762054
-0.077101044,-0.27432138,-0.29733518,0.17660049,0.067155704,-0.27183503,0.20947915,0.2335825,0.12997063
0.11561538,-0.14364713,-0.036131445,0.085987836,-0.02225497,-0.082079984,-0.024471758,0.09715848,0.18282248
-0.051815733,0.061613623,0.13917132,0.02918466,0.09398163,0.11224866,0.06956599,0.085374385,0.075403504
0.020182015,0.21549578,-0.20675246,-0.14326762,0.27524722,0.17498344,-0.12615141,0.0729549,0.052333746
0.060788922,0.13669354,-0.16980703,-0.0004975919,0.11825576,-0.07081737,0.08918109,0.14890216,-0.13140531
0.11435635,0.18061964,0.26225013,-0.2755617,-0.049195334,0.12909673,-0.2848065,-0.45717907,-0.38035458
-0.035679914,0.20922527,-0.17333323,0.0019242368,0.20739408,-0.04702882,-0.14015889,0.09045746,0.108228855
