-0.33608788,-0.08711426,0.078913495,-0.027499605,0.44151068,0.19793524,0.058635447,-0.26928043,-0.23955625
-0.26373416,0.015808647,-0.0084632775,-0.042555165,0.06573759,-0.0683907,-0.071676165,-0.23562594,0.038873784
0.2465022,0.5024481,0.39967072,0.2678482,0.35238388,-0.28421757,-0.2863978,-0.8056579,-0.5783672
-0.4610384,0.07118263,0.18986858,-0.17707793,0.6532657,0.007892129,0.029692892,0.14713679,-0.60394424
-0.5180472,-0.74275017,-0.26913524,-0.04843965,0.19952814,0.3665709,0.47040126,0.4202112,-0.098042615
-0.74286366,-0.1419728,0.26426974,-0.52172446,0.33985168,0.34476927,-0.34106818,0.18771477,0.29778916
-0.029075233,-0.054469723,-0.14551911,0.10353049,-0.07854564,0.1047946,0.01214536,-0.082955875,0.007904472
-0.05015325,0.052204613,-0.2499285,-0.23133709,0.09956731,-0.27629155,-0.37317398,0.30691054,-0.08518893
-0.5577352,-0.7460885,-0.21703112,0.045026936,0.34286004,0.21746044,0.4532566,0.3097796,-0.072003596
-0.13760072,-0.1409263,-0.00071278674,-0.10423705,0.028728016,0.095230155,0.083143435,-0.10241597,-0.14082704
-0.48226357,0.16387314,0.02166769,-0.073347054,0.6562022,0.19306715,-0.036850438,0.28957805,-0.64335054
0.03465415,0.14837536,-0.6419596,0.043632776,0.58669764,0.0670765,-0.46747977,0.057013694,0.054674014
0.27976537,-0.14369932,-0.7229554,0.09884264,0.23756194,-0.17760228,0.0453055,0.40252736,0.26373684
0.052286934,-0.1019429,-0.3653197,-0.13512544,0.47669032,0.26316947,-0.20616923,-0.3304839,0.09454619
0.1605906,0.22068226,-0.51772696,0.048808962,0.22243682,-0.23903032,-0.31669337,0.39029482,0.19827202
-0.058772203,0.4065687,-0.21515533,0.34248275,0.4417792,-0.6083331,0.61340153,0.40580112,-1.1544645
-0.6866864,-0.5217575,-0.296786,-0.17723069,-0.05263914,-0.16833961,0.4002539,0.30659112,0.29553092
-0.043151822,-0.0107365,0.084756255,0.04216357,-0.047997363,-0.06388557,0.072540194,-0.012270902,-0.06727052
0.17844519,-0.061870903,-0.12694024,-0.0873503,0.09435656,-0.22471827,-0.2327636,0.17263836,0.061438877
-0.35490313,0.24611638,0.31495467,-0.01383961,0.56682456,0.030093571,0.32874668,0.14744173,-0.36639214
0.04128181,-0.08547625,-0.5282087,0.1392901,0.0057976465,-0.5080603,0.0993355,0.20747155,-0.6309769
-0.14714323,0.011984547,-0.1962812,0.008719269,0.2324114,0.3056202,-0.21109141,-0.36917314,-0.31308618
0.23482977,0.30793315,0.1145314,0.21726575,0.18173233,-0.45146295,-0.09142712,-0.28236312,-0.58388406
-0.025676608,0.367807,0.6623244,-0.18912002,0.05718265,0.5508797,-0.6971317,-0.88927585,-0.39501506
0.16748202,-0.46633092,-0.061525114,-0.0012795089,-0.0039254664,0.5131144,-0.61422336,-0.37521046,0.45799488
-0.026162086,-0.47098187,-0.19525796,-0.6724033,-0.19555998,0.058962617,0.14520676,0.70268404,0.3595107
-0.3130252,0.05163302,0.021933418,-0.0053074528,0.1807285,-0.25859496,0.086037554,-0.30878145,-0.26730645
0.51558834,-0.35330722,-0.43883535,0.39956596,-0.56599784,-0.041185673,0.115339756,-0.23157223,0.023662435
-0.10181819,0.02954911,-0.009046836,-0.013095288,-0.053431585,-0.07085599,0.048342034,-0.040588997,0.051382024
-0.6849735,-0.27799088,-0.048478443,-0.46874297,0.380665,0.36531046,0.37160838,0.48687452,-0.081721075
0.029208444,-0.07288323,-0.3071631,-0.03439613,-0.109548345,-0.08986997,0.018483385,0.13861069,0.093391836
0.04446348,0.11799102,-0.6348548,-0.060967676,0.69877666,0.31380606,-0.6617527,0.34848762,-0.11188419
-0.009989691,-0.5170013,-0.587647,-0.037368726,0.0065776464,0.38769117,0.11026262,0.43532845,0.2131526
0.23700333,-0.36429247,-0.58369,0.54706234,-0.20453967,-0.9631653,0.63000774,0.71401924,0.009049739
0.26723665,0.6130157,0.7701267,0.16309468,0.21112962,-0.26546118,-0.43437523,-0.95823586,-0.69087493
-0.020514252,-0.29745734,-0.5832224,0.00820202,-0.46068835,-0.30012265,0.43381032,0.6697647,0.41644955
0.5276198,0.22931656,-0.13915947,0.50711745,0.16982105,-0.73420244,0.20429833,-0.43069795,-0.88609785
0.35083562,-0.4762741,-0.6597271,0.46756375,0.279685,-0.2825397,0.0415012,0.34496117,0.096486695
0.09818085,0.15665935,0.09555746,-0.6873511,0.3575855,0.50699127,-0.87342733,0.22964208,0.25354296
0.6604035,0.7479327,0.10424372,-0.06010193,-0.5716579,-0.800345,-0.6775607,-0.4988307,-0.044880927
0.67093354,0.34178245,-0.059643146,0.896687,0.11233188,-0.75242805,0.39758664,-0.8116284,-0.94490236
-0.3349265,-0.4392587,0.25879624,0.073467806,-0.5854465,-0.951887,0.59577507,0.6493607,0.072610974
-0.13324307,0.050622378,-0.015174593,0.4203755,0.56407815,0.24563624,-0.7527132,-0.25584033,0.16822658
-0.20480931,-0.13082083,0.06035401,0.028545408,0.065243006,0.14751542,0.081814565,-0.14416856,-0.11823133
-0.02217756,0.15517546,-0.14956255,-0.17835438,0.15862882,-0.0013142969,-0.14925265,-0.11982894,0.22175409
0.2841491,0.2434812,0.14650236,-0.51690143,-0.032962117,0.3723048,-0.44106627,-0.41503534,0.0456174
0.3435254,0.3064646,-0.7697709,0.11952001,0.73753685,-0.1918008,-0.4117755,0.4565388,0.19434662
-0.10220373,0.04239127,0.040149175,-0.07717544,0.12451023,-0.2005868,-0.039161615,0.094667934,-0.069619566
0.17864344,-0.3004582,-0.36992058,0.20779176,0.46049035,-0.25385073,-0.28191325,0.120533116,0.019592863
-0.01359045,-0.29659668,-0.7650203,0.16741887,-0.15659882,-0.20279917,0.16948399,0.53964204,0.6078833
0.22823003,0.4892322,0.51889235,-0.42277208,0.11767667,0.2991895,-0.8593657,-0.47029674,0.09533069
-0.2625298,-0.097111106,-0.17100468,0.23406811,0.30054364,0.13179545,-0.13844295,-0.27134764,-0.015956305
0.05063394,-0.1355847,0.011594636,0.05587349,-0.07777243,0.036905635,-0.06363683,-0.042856134,0.037562404
-0.4752051,-0.5344587,0.089592256,-1.0125896,-0.08626519,0.53002065,-0.68155307,0.36557555,0.5247036
0.060259636,-0.045322165,-0.13719194,-0.038719572,-0.23115356,-0.04382201,0.038879383,0.07946588,0.05497285
-1.0239815,-0.55792946,-0.029080529,-0.33963355,0.2661267,0.55362684,0.109173514,0.12958235,0.25255707
0.48631817,0.4487353,0.6237634,-0.13138114,0.1533086,0.2818197,-0.81433475,-0.9730567,-0.6997194
0.07560785,-0.15857255,-0.34527108,-0.448653,-0.15967499,0.06566244,-0.44154498,0.53900295,0.2240899
0.24033998,-0.2814218,-0.6843422,0.2214597,0.43191049,-0.08921065,-0.09664978,0.20955333,0.1941757
0.015308739,0.0015817279,0.081143945,-0.09601124,0.05833614,-0.067549,-0.02110076,0.07226362,-0.22049344
-0.90548676,0.061825193,0.75115037,-1.1258557,-0.021124916,0.5873433,-0.72003555,-0.3019195,0.49528036
-0.46307606,-0.07889469,0.18148236,-0.514731,0.19971876,0.326506,-0.1336755,0.4328697,0.061470307
-0.06156556,0.20739086,0.22244702,0.1619644,0.23289831,-0.24104312,-0.016744034,-0.26566365,-0.22007212
0.27302653,0.43925786,0.21027306,0.19261758,-0.15063655,-0.5158333,-0.6299521,-0.71691847,-0.22929795
-0.12134257,-0.35039917,0.26333317,-0.007197848,-0.8282626,-0.565503,0.6635215,0.44322506,0.08674134
0.3771798,0.27856007,0.4118953,0.12825958,0.077281736,-0.26668596,-0.47801143,-0.6563718,-0.13603444
0.6557359,0.2474159,-0.8496404,-0.6341766,-1.9352773,-0.3040041,-0.85289186,0.18078251,0.813522
-0.12834485,0.47327545,0.63232,-1.06979,-0.8688231,-0.0113188205,0.51645327,-0.014729124,-0.6578814
-0.43230665,-0.5484602,-0.11662359,0.13843459,-0.029028112,0.13053803,0.16370812,0.4082582,0.2200537
0.13614023,-0.38124272,-0.7975833,-0.119429894,-0.22908549,-0.068135135,0.44604626,0.60221165,0.4768559
-0.52780885,-0.21694739,0.06579266,-0.4136499,0.11293058,0.17819661,0.24820435,0.3604485,0.054902017
0.010421426,0.07927639,-0.83873874,0.16285081,0.29408312,0.70248,-0.15169679,-0.4759996,0.10884816
0.3177802,-0.009895192,-0.4784427,0.30802956,-0.038848635,-0.48916587,0.28384784,-0.017575523,-0.08450145
0.050735325,-0.059059847,-0.24204174,0.0028139069,0.053812325,-0.008755907,-0.02889784,-0.14298746,0.12406161
-0.17416257,-0.69098437,-0.38021797,0.06966664,-0.07101977,-0.08806053,0.42925408,0.5059852,0.27391872
-0.8833997,-0.26643178,0.3136868,-0.7604861,-0.034563635,0.52177095,-0.6000425,-0.1656584,0.38246083
0.3647157,0.39597806,-0.60292417,-0.43627355,0.83744514,0.17363282,-0.52733696,0.09931286,0.060799677
0.0037861895,-0.52672887,-0.7341137,0.26254869,-0.0070302463,-0.16829856,0.33924505,0.5147099,0.29972827
0.041131932,0.05445536,-0.5084686,0.2292328,0.020211006,-0.43342012,-0.025093846,0.3704279,-0.15510729
0.57157034,-0.31996247,-0.35630196,0.54982406,-0.61134744,-0.62075454,0.071397744,-0.42353654,0.043449305
-0.13659906,0.030508274,-0.03504242,-0.28076604,-0.0021631985,0.008542075,-0.031403117,0.17597567,-0.039706763
-0.5556723,-0.38156134,0.042174473,0.096585326,0.5063543,0.16338605,0.0008909469,-0.4133129,-0.013609412
-0.054269154,0.41042235,-0.55486816,-0.29131916,0.27893087,0.06973245,-0.25534046,-0.031333055,-0.016754873
0.3208732,-0.1781828,-0.8347516,0.54125696,-0.16497515,-0.36866462,0.39651972,0.27526337,0.2134787
0.33644745,0.5138474,0.27962556,-0.2798512,0.24823052,0.15660185,-0.6732998,-0.35241768,0.1633479
0.08105038,-0.0008118052,0.0050401837,-0.19777253,-0.30891767,-0.042455435,-0.025887908,-0.2808202,0.15234503
-0.052982993,-0.039537776,-0.092926614,0.0056429803,-0.039128833,-0.065584004,-0.0531482,0.0037067507,-0.064834714
-0.2492156,-0.60267323,-0.37190896,-1.0272901,-0.25580397,-0.11237174,0.110086195,0.5923179,0.28748426
-0.58661175,-0.059301276,0.13006298,0.034213696,0.6981814,0.4708963,0.20905489,-0.21192767,-0.54632354
0.5404655,0.48724043,-0.33752152,0.6184829,-0.032713544,-1.1483986,-0.2046484,-0.7985342,-0.50970405
0.2261884,-0.4453467,-0.6564618,0.54828584,0.091657594,-0.34291697,0.26876643,0.3901255,0.054892775
0.024460785,-0.34430307,-0.6109157,0.34326276,0.25362685,-0.14729452,-0.11709237,0.24943544,0.3746169
0.15090641,0.05699559,-0.06183548,-0.27012292,-0.32060894,-0.45672458,0.06685954,0.34641865,0.26469606
-0.00041858014,0.0060296613,0.00052019156,0.044384733,0.034059703,0.07306074,-0.008359142,-0.00077174616,0.025626913
-0.15789977,-0.034443367,-0.037169572,-0.065645,-0.059542947,0.0973235,0.023497831,-0.072885096,-0.00072606455
-0.17143296,0.025749972,0.007206972,0.057757393,-0.06813387,-0.034725197,-0.21928944,-0.025776908,-0.096627705
-0.22770475,0.04307015,0.027919592,0.13585138,-0.073788,0.0038233446,-0.09325089,-0.073184736,-0.14115106
-0.15212204,-0.13568425,0.18977885,-0.2992225,-0.17476185,0.34819633,0.026293209,-0.5810303,0.07694014
0.056395326,-0.21223329,-0.0029149498,-0.0975453,0.044816647,-0.086842366,-0.171735,-0.14021645,0.04372628
0.14716019,0.40110433,0.74050295,-0.3535285,-0.37529922,0.12950063,-0.5168836,-0.15779078,0.30654594
-0.38615993,-0.37802163,0.12737565,-1.074504,0.10400128,0.6528868,0.1629297,0.596119,0.6430564
-0.0933708,0.001892395,-0.134498,-0.06941907,0.038845316,-0.08793595,-0.06106751,0.076667294,0.0009333499
0.044801503,-0.053927004,-0.22319238,-0.019045718,0.0826001,-0.035408262,-0.29993135,0.04698335,-0.027392335
0.14308098,0.36066678,-0.34576628,-0.35420278,0.42963898,0.3220578,-0.41016954,-0.23334825,0.19594046
-0.51753604,-0.20795475,0.33817932,-0.64619315,0.08705009,0.5655229,-0.36739996,0.16984281,0.35730946
0.019337684,-0.01997692,0.028958473,0.022837983,-0.085608326,-0.02145658,-0.11983838,0.10425864,-0.11260279
-0.17337014,0.32777748,0.5085887,-0.61983484,-1.0847385,-0.057520527,0.5839072,-0.004657855,-0.58995557
-0.040080234,0.074722975,0.045697197,-0.25882423,-0.13217087,-0.06581006,-0.42168173,-0.24456108,0.03655934
0.18912709,-0.15064968,-0.72941095,0.39382157,0.2517179,-0.46549016,0.10390727,0.3999742,0.13305756
-0.7388372,-0.24523357,0.25082642,0.10212627,0.51701194,0.35825378,0.28410763,0.033438463,-0.5307242
0.66167665,0.53391266,0.19753824,0.27115235,-0.022687966,-0.66836584,-0.77858704,-1.0372022,-0.47415888
-0.2460006,0.4905275,0.37015417,-0.48074272,0.1380876,0.5582337,-0.7733531,-0.8589495,-0.46550208
0.40206048,-0.07971395,-0.52979773,0.2914727,-0.09441199,-0.45643952,0.18725495,-0.34652182,-0.5249186
-0.89328295,0.28825057,0.001189412,0.1661263,0.7525476,0.033677205,0.09250813,0.028658478,-0.48462906
-0.22437173,-0.1476085,-0.23359859,-0.27030265,0.2442367,0.3952024,0.104357615,-0.29749766,-0.022700123
-0.024248403,-0.046736397,-0.01938481,-0.0049488945,0.02353741,0.09160596,-0.022240495,-0.004813575,-0.19721141
0.005438571,0.3304996,0.46420166,0.34936535,0.34324104,-0.09546284,0.36083305,-0.36813357,-0.5639523
0.063903935,-0.07739008,0.0057751047,-0.017026188,-0.048340883,-0.1641027,-0.116231605,-0.043895468,0.032068036
0.28470498,0.28772599,0.27885628,0.13789515,0.11287765,0.025643433,-0.38079897,-0.5253292,-0.45441195
0.27070346,0.3180969,0.5418944,-0.1761431,0.2923085,-1.463962e-06,-0.8437964,-0.89857334,-0.8435579
0.4869268,0.113284335,-0.48927176,0.2579775,-0.08409254,-0.5148519,0.12882231,-0.27019516,-0.4465607
0.3187894,0.30394635,0.44101343,-0.19986655,0.14589837,-0.036954507,-0.6202392,-0.5861929,-0.4020527
0.31921953,0.23437041,-0.14377306,0.38333365,0.12818392,-0.69961226,0.26914617,-0.0089824395,-0.44464993
0.12444159,0.66496825,0.07884398,0.44948724,0.17682374,-0.8697223,0.02084828,-0.62435627,-0.030618256
0.2478974,0.24177994,0.40673605,0.18885992,0.038981695,-0.045706518,-0.56089103,-0.49308196,-0.07108124
-0.028112693,-0.25315264,-0.19070247,-0.13957319,-0.18933026,0.18615706,0.12258607,-0.03383717,-0.060271952
-0.16420151,0.3195344,-0.24065928,-0.42710608,0.45829788,-0.042865176,-0.033847336,0.22566594,-0.08669092
-0.84184915,-0.5706762,-0.04322224,-0.6472228,-0.094019406,0.48292878,-0.5210326,0.15502243,0.42258874
-0.26687852,0.1796095,0.37740526,0.31772023,0.5543061,-0.15782943,0.054923177,-0.5627239,-0.5755417
0.070201196,0.042204943,-0.103807986,-0.12304578,0.30521202,0.15889245,-0.23188275,-0.31967887,0.30836767
-0.07506233,-0.18899144,-0.016250908,0.08199983,-0.054701116,0.09206481,0.02553929,-0.17460862,-0.1911206
-0.25759465,-0.08978424,-0.006897354,0.0961205,0.11682492,0.054493524,-0.071652524,-0.124827646,-0.065435596
-0.54991186,-0.51110363,-0.55828744,0.1602249,0.037816685,-0.12795794,0.24001834,0.38622767,0.23860686
0.014323066,0.031721443,-0.060474284,0.036160458,0.027708093,-0.21234518,-0.03807765,0.020947076,-0.088247985
-0.048826437,-0.7439409,-0.5023512,-0.012894972,-0.037939735,-0.03270433,0.41058728,0.4987017,0.2827736
0.09773201,0.13852207,-0.26120797,-0.06755171,0.21441403,-0.31938267,-0.5114322,0.26915184,0.13318303
-0.67377305,-0.5016613,0.038260788,-0.5181378,0.3375738,0.20449081,0.4094115,0.6315644,0.06286528
-0.17441446,0.26267654,-0.47787744,-0.09801465,0.29931042,-0.24648905,-0.4623525,0.25953948,-0.020999145
0.8154975,0.2666579,-0.5219767,0.7344432,-0.21279849,-0.90353763,0.1534659,-0.6316316,-1.0155213
-0.102793664,0.12092678,-0.10313402,-0.27938017,0.096289255,-0.084043175,-0.24560073,0.008649701,0.039605066
-0.32331666,-0.15352772,0.17599636,0.28618604,0.24024983,0.1619252,0.057382625,-0.09866667,-0.17273173
0.19385998,-0.07869359,0.17012906,0.089047015,0.027124746,0.118318886,0.15270096,0.122800514,-0.24397632
-0.42504865,-0.27806652,0.4429937,-0.8742236,0.024826411,0.49671876,-0.6066761,0.021247305,0.27982476
0.074506946,0.09476404,0.0036589499,0.012627053,0.010370269,-0.04805808,-0.14035943,0.031364776,0.22113939
0.048362143,-0.024013042,-0.002208055,0.036394622,0.00645156,0.05044592,-0.15186071,0.14396499,-0.116704375
-0.43967044,-0.10913644,0.11394468,0.08052963,0.04991653,-0.011571573,0.0046114204,-0.02359501,-0.02928268
-0.4697428,-0.17025812,0.04585067,-0.018795673,0.30286506,0.4081739,-0.1905773,-0.2704463,-0.39762637
-0.66336995,0.33534843,0.09579328,0.26310366,0.35893708,-0.24843562,0.10291436,-0.25947013,-0.34938395
-0.02004155,-0.660767,-0.2677141,0.45882905,-0.6273804,-0.61608595,0.34282246,-0.5408573,-0.46880987
-0.38147733,-0.7249393,0.061014075,-0.8197472,0.01776531,0.48487902,-0.2799136,0.34993124,0.6939308
-0.08829331,-0.03996688,-0.60383564,-0.29018804,-0.075829215,0.16143882,-0.080950625,0.04593788,-0.38992557
0.24950756,0.39491066,0.21813849,0.23383947,0.19177088,-0.4865867,-0.09357642,-0.46516183,-0.3389327
0.0006453119,0.037913274,0.11414688,0.055530813,0.15909134,0.42370996,-0.32992017,-0.65223527,-0.055683143
0.42419982,0.39167488,-0.22717236,0.23168765,-0.8190871,-0.59850734,0.072638415,-0.28395587,0.71220636
0.059886035,-0.20775959,0.014101583,-0.05154845,-0.08312389,0.10483137,0.005477736,-0.07895646,-0.11656171
-0.6463982,-0.078253835,0.067366675,0.04234794,0.49192417,0.1449619,0.068301395,0.11472236,-0.3291996
-0.083730705,-0.6332311,-0.6599796,0.17189884,0.109737396,0.009517863,0.10780024,0.45740408,0.34831035
-0.60514975,-0.17289498,0.3388363,-0.6432103,-0.11535173,0.4423773,-0.63951904,-0.61831295,0.029180994
0.17648348,0.46192342,0.27714333,0.8705839,0.47942817,-0.43205184,-0.28607944,-1.0067731,-0.7180331
0.02411476,0.033028208,-0.0767153,-0.011427683,-0.028614024,0.08151773,0.034883868,0.03149579,0.023997407
0.06556012,-0.0603278,-0.33687007,0.08040102,0.27103165,0.095658034,-0.34605128,-0.2430773,0.18297212
0.17456168,-0.42061245,0.55853856,0.237728,-0.75176555,0.2462518,0.07651471,-0.10411934,-0.1044954
-0.28386065,-0.05029689,-0.11253968,0.033047996,0.5359016,0.2905146,-0.18752882,0.0473686,-0.3097853
-0.12187151,-0.7339579,-0.36428347,-0.040337075,0.1610335,0.022642821,0.19218601,0.51505697,0.16618717
0.26695308,0.6774922,0.4517825,-0.9384681,-0.91681343,-0.8105616,0.15620813,-0.35069537,-0.44172215
-0.23143525,0.03684873,-0.10137232,0.08301503,-0.10461065,-0.2294809,0.03735385,-0.12112013,-0.23080535
0.07803033,0.2306567,-0.17162994,0.06886034,0.20023957,-0.48474303,0.21278317,0.44075,-0.53279155
0.016987154,-0.4167026,0.2309988,-0.68781245,-0.13518411,0.2238676,-0.3487296,0.06718291,0.35700664
0.26772428,-0.53058463,-0.05983977,0.13024062,-0.36192703,0.043552354,0.24162543,0.07121991,0.19000788
-0.64093256,-0.2529583,0.36865968,0.31144357,0.2818115,-0.12596844,0.13765234,0.18717012,-0.7204677
0.13209759,-0.30065897,-0.6096979,0.5371218,0.31112516,0.042110123,-0.3285741,0.020441772,0.06289551
-0.34607843,-0.12230949,0.12704007,0.2906185,0.20211835,0.24662948,-0.40272048,-0.2877441,-0.19335556
-0.08321601,-0.010695909,-0.018081265,-0.1054306,0.019096188,-0.049441054,-0.019623203,-0.013470675,-0.09099335
0.40877607,0.24033752,-0.5469314,0.48366335,0.0037197445,-0.8186669,0.4472109,-0.059877563,-0.2935247
0.104071,-0.18842126,0.047655456,-0.024682343,-0.18888003,-0.04058807,-0.005332028,0.05431521,-0.006782309
0.80142474,-0.49669707,-0.44194573,-0.007958621,-1.4582818,0.24213627,-0.49864882,-0.40273187,0.7358553
0.197632,0.39635447,0.5295075,-0.24594788,-0.11122264,0.26945734,-0.46978465,-0.55505246,0.004866209
0.2448397,0.35321888,0.7683916,-0.44190308,0.033381205,0.59081423,-0.7755083,-0.71597755,0.08287994
0.36967647,-1.0297054,-0.69061166,-1.5163151,-0.63837457,0.5691057,-0.32539314,0.73496574,0.541888
0.60540426,0.5457507,0.1729674,0.21869606,0.1780105,-0.57892257,-0.9457903,-1.187716,-0.6169971
-0.5933625,-0.30194303,0.13250908,-0.61482507,0.35184792,0.27871755,0.1256871,0.5875769,0.0902986
-0.055241216,0.39985046,-0.025773637,-0.2575061,0.35420346,0.31431538,-0.829974,-0.13351367,0.42625692
-0.18568306,-0.7845039,-0.08630965,0.054456834,-0.32999113,-0.19094515,0.18160044,0.17743622,0.2938867
0.25648496,0.29853097,0.6661425,-0.16100852,-0.32380337,0.05925315,-0.54624814,-0.40258622,0.06501523
0.05111024,-0.57679397,-0.7424531,0.024853604,-0.37235123,-0.21104705,0.611257,0.74466413,0.5269574
-0.05880094,-0.6329185,-0.5930231,0.6481051,0.011039647,-0.87449545,0.47514093,0.72030634,0.040779788
0.24565442,0.20532902,0.34455466,-0.3185258,0.22454959,0.5516101,-0.22605783,-0.9012835,-0.26010713
-0.043516196,0.5040128,-0.59973854,-0.30642977,0.7180353,0.16823795,-0.1940015,0.07408378,-0.025016135
0.34924006,-0.35471362,-0.06354757,0.4298695,-0.78020716,0.39112377,0.4139095,-0.7766596,0.16391717
0.3554207,0.44441324,0.68632424,0.21726471,0.16145976,0.121026926,-0.7589508,-0.9073845,-0.50779414
0.05750265,-0.17618194,-0.45499897,0.07175075,-0.056811765,-0.28430477,-0.15310973,0.061550055,0.12194588
0.0119439885,0.029580476,-0.039330535,0.012935346,0.02640841,0.054996584,-0.10788983,0.08737497,-0.03421466
0.12623467,0.3365819,0.3880526,-0.89481044,-0.9923262,-0.5126134,0.680684,0.29118356,-0.03623983
-0.11281346,-0.16681825,-0.16328996,0.0308076,-0.08879601,-0.17992331,-0.045735188,0.010675563,0.058139995
0.076828696,0.415647,-0.44161427,0.27668735,-0.09081628,-0.8349312,0.41150755,-0.17195822,-0.0476513
-0.47692233,-0.22159968,0.13949852,0.47478598,0.49505,0.50444496,-0.17800081,-0.4286927,-0.41186714
0.4358155,0.31555378,0.40863824,-0.012311727,0.016800297,0.09470701,-0.5969964,-0.6119471,-0.37186933
-1.0824742,0.06176622,0.26636684,0.015455359,0.9210205,0.18669142,0.30056494,0.08259597,-0.8469144
-0.12691565,-0.17104761,0.14878863,-0.071980864,0.17757943,-0.19605877,-0.32118922,-0.104225844,-0.5214913
-0.07382675,0.12792426,0.015203146,-0.1420236,0.3569286,0.28649884,-0.7358745,-0.42837116,-0.048279863
0.06684817,-0.013997458,0.08967178,0.017180424,-0.0126910135,-0.14953542,-0.057803713,0.13312745,-0.23129731
-0.7533212,-0.31189317,-0.09509804,-0.45716053,-0.17471273,0.06518492,0.110717244,0.21298085,-0.05850469
0.23175898,-0.46859232,0.037490614,0.32235265,-0.42477247,0.34420878,0.17381585,-0.13918363,0.06343563
-0.04780793,0.05120635,-0.22186601,-0.03324991,0.07712162,-0.18940642,-0.13934796,-0.04466492,0.1498202
0.22725727,0.33705762,0.393334,-0.055927623,-0.048631206,0.133005,-0.68780357,-0.6422894,-0.5565905
0.13778006,0.19313355,-0.07184833,-0.028072482,-0.08424765,-0.23279274,-0.32063994,0.30927813,0.22901596
0.7747678,0.46159232,-0.58505726,0.20703496,-1.2369634,-0.80599517,-0.78341246,-0.9559577,0.73376656
-0.07473903,0.004165738,0.044645235,0.020188,-0.01723974,-0.0366899,-0.19007948,-0.01974979,-0.14099011
0.0024119255,0.24901143,-0.028380515,0.03087083,0.36488146,0.22157659,-0.4795653,-0.21690275,0.08533478
-0.10269897,0.022577127,0.09149025,0.0025944908,-0.038957532,-0.017187918,0.008456308,-0.032612205,-0.11756151
0.1967975,0.4390125,0.5304355,-0.17236386,0.020411562,0.08914701,-0.86631167,-0.8019776,-0.79286087
-0.06111615,0.64619064,0.9102126,-0.85277945,-0.4043352,0.35132134,-0.5613682,-1.0833951,-0.71684027
-0.154156,0.050026875,-0.23098545,-0.21795881,0.122689925,-0.1871462,-0.33346024,-0.021855248,-0.09464017
0.028356303,-0.65952253,-0.27402383,0.42625824,0.3291728,-0.17505471,-0.29262188,0.016259953,0.15181535
0.0021468115,-0.19425127,-0.23626772,-0.0605172,-0.2605246,-0.11884295,-0.089945264,0.10545521,-0.059538286
0.033827636,0.018033877,-0.033351302,-0.041292787,0.009863081,-0.04152209,0.00039658346,0.009827084,-0.0038334073
-0.53182644,-0.18239947,-0.011175643,-0.26996937,0.4889516,0.11491628,0.42242685,0.107129626,-0.40407792
-0.14398317,0.27972007,0.050659224,-0.48991594,0.2881935,0.3076197,-0.5618131,0.17775439,0.23716927
-0.0683187,-0.6288938,-0.21654537,0.343064,0.22787793,0.12951568,0.22225648,-0.012085282,0.07155669
-0.7132,0.111738555,0.4316831,-0.7779368,0.12039818,0.5940884,-0.8084846,-0.030723695,0.4651139
0.28579837,-0.29732594,-0.73899645,0.36598507,0.368369,-0.6187065,-0.093835354,0.4348273,0.13131435
0.06581545,0.066376634,0.09808195,0.1430647,-0.13731997,-0.5282569,-0.026893372,0.062094323,-0.52004105
-0.07905716,-0.86254865,-0.14246124,0.46365315,-0.31770596,-0.3370581,0.531438,0.43068376,0.026154496
-0.2032267,-0.0060454686,-0.2968288,-0.007121803,0.24730586,-0.6224815,-0.32320186,0.5066838,0.08736863
-0.06641084,0.050369576,-0.22882603,-0.13831525,0.021761796,0.0707074,0.017129857,-0.24099328,0.011588866
-0.13397774,0.22638667,0.32014477,-0.31560314,0.3799782,0.5675643,-0.7849985,-0.4542154,0.22080061
-0.15954602,0.30387563,0.54099524,0.12229072,0.24562922,-0.032091655,-0.0045472817,-0.6928823,-0.67197055
0.034206152,0.11370116,-0.21803339,-0.27243862,-0.06612237,-0.026530325,-0.18327555,0.07172596,-0.080194816
0.13713662,0.09958769,0.30019948,0.2349776,0.1790367,-0.018107241,-0.4897777,-0.40427276,-0.4319527
0.02932788,-0.99702346,-0.7347117,-0.08750306,-0.12364203,0.1478811,0.6249115,0.7708582,0.20867422
0.6221159,-0.26297164,-0.7316999,0.6383658,-0.20155653,-0.36099643,0.18951951,0.16299558,-0.040250666
-0.06318149,-0.04137939,-0.22362924,-0.17657985,-0.010197411,-0.005474786,-0.13510424,0.0580131,0.022596225
0.27324188,0.35923588,-0.14356181,-0.3308913,0.2066341,0.0033433484,-0.36493573,0.17480026,0.17059901
-0.015913956,0.11967628,-0.73898953,0.19512989,0.30651662,-0.2865263,-0.4764936,0.116576076,0.11250565
-0.019674774,-0.038668156,0.01945315,-0.0053382837,-0.101102084,-0.04179918,0.0002622124,-0.0127976965,0.011775195
0.17110641,-0.3855341,-0.66954046,0.62612164,0.0061596315,-0.7312019,0.306571,0.57002985,-0.15772931
0.0064768204,-0.19142756,0.027051952,0.008555211,-0.15876783,0.021567164,-0.008015152,0.042949673,-0.037153624
-0.16763872,-0.39435443,-0.22855659,0.19685003,0.50305593,0.3474601,-0.6906025,0.01168485,-0.16823111
-0.06783416,-0.30282512,-0.5346422,-0.4953443,-0.025466293,0.2587478,-0.2601941,0.11426566,0.10040402
0.34562773,0.3714471,0.21718127,0.17500325,0.08985393,-0.34688285,-0.6506441,-0.57363456,-0.56550556
0.27714282,0.013593696,-0.60359424,0.356625,0.02479113,-0.7740873,0.12022228,0.23727693,-0.52428234
0.12200469,0.11746734,0.22090633,0.114089526,0.10752459,-0.18232289,0.15804163,0.10500095,-0.37119395
-0.3586837,-0.22184959,-0.082884304,-0.78535223,-0.078505166,0.33856592,-0.11604335,0.234834,0.20536447
0.044120587,0.0037869879,-0.056071013,-0.11834249,-0.01624194,-0.046884026,-0.013392349,-0.00803387,0.061147086
0.06068775,-0.14757487,-0.5897429,0.36612493,-0.37815574,-0.753544,0.5574829,0.121638514,-0.24741682
0.3358159,0.4663609,0.39940393,0.44920987,0.2684844,-0.28489915,-0.25995985,-0.8312823,-0.57814705
-0.86190915,-0.21238899,0.12695982,-0.16438894,0.48156464,0.5046957,-0.038175005,0.040773947,-0.12861824
0.6379481,0.5091984,-0.49864435,0.65591705,0.2202828,-1.04945,0.2756907,-0.45362967,-1.1553602
0.08680777,-0.17757022,-0.48877385,0.07252541,0.22607255,0.0578375,-0.40061352,0.29435828,0.033690076
-0.7025596,-0.80884767,-0.32538083,-0.66821355,0.19779056,0.57874036,0.21192054,0.81844836,0.5441053
0.001518288,-0.02219026,0.08300413,0.07346163,-0.020946158,-0.19096188,-0.21245578,-0.093836896,0.020881047
0.26358747,0.27184904,-0.5801787,-0.3747242,0.45294088,0.13413061,-0.34347802,-0.038222797,0.0018159223
0.053502895,-0.33739835,-0.70608217,-0.49597213,-0.5405847,-0.022815216,0.53214407,0.7552911,0.66690874
-1.1164081,-1.1133915,-0.15468898,0.15238595,-0.27595094,-0.6691527,0.49920198,0.47530597,-0.073897466
-0.62361795,-0.05030143,0.41372874,-0.87387115,0.063709125,0.4243525,-0.8174383,-0.35428265,0.3656655
-0.47164643,-0.19464324,0.10721362,-0.17662036,-0.33021906,0.07169502,-0.2409216,-0.50402915,-0.2305177
0.39474317,-0.12677312,-0.22110529,0.5686036,-0.62642455,-0.22321108,0.15723485,-0.3544649,0.37411058
-0.33254263,0.11144479,-0.21111023,-0.103508264,0.19672261,-0.06979395,-0.35038894,0.08792144,-0.08347952
0.9012244,0.6115439,-0.36808437,0.3184829,-0.78737986,-1.1371655,-0.87912625,-1.0295503,0.19656035
-0.13495833,-0.2514015,-0.37541923,0.050146583,-0.11275411,-0.4549277,-0.07965161,0.19092353,0.069365814
-0.7086555,-0.9815047,-0.9845161,-0.6751961,-0.12485354,0.25726515,-0.06908829,0.4927853,0.81531876
-0.24620433,-0.9192298,-0.23674658,-0.2563788,0.029001445,0.22881551,0.52773196,0.83316857,0.059465203
0.37667817,0.6271756,0.6376177,0.040374883,0.18063241,0.17752808,-0.79212475,-0.92123485,-0.52990025
0.20335844,-0.03964144,-0.67387486,0.103894226,0.8073978,0.4778146,-0.77549106,-0.18906729,0.24025694
-0.18529093,-0.8457105,-0.21070664,0.21261485,-0.3004974,-0.4646029,0.77894056,0.60390645,0.32253018
-0.74630135,-0.449317,0.31561348,-0.604976,-0.1293224,0.69863605,-0.6556614,-0.26656303,0.39027414
0.70557445,0.18497592,-0.857392,0.7482782,0.12907548,-0.85836136,0.41537213,0.14710324,-0.48054764
-0.34724087,-0.759234,-0.21637109,0.25063276,0.14626819,-0.1599075,0.093215585,0.2119368,0.15612657
0.1667305,-0.030687395,-0.50906444,0.5545164,0.28572673,-1.0731034,0.74127734,0.19807297,-0.29611948
-0.001289993,0.060389537,0.03435634,-0.01834931,-0.029117305,0.001288925,-0.049642988,-0.035701282,0.0014867199
0.0037809664,-0.09158675,0.2532496,0.05180459,0.11748473,0.080576055,-0.16587482,-0.0701599,-0.343124
-0.21951587,-0.38018408,-0.1880232,-0.33950117,-0.0054876567,0.21635051,-0.65884215,-0.20787373,0.17564435
0.117291376,-0.36590344,-1.1030085,0.5025819,0.6778215,-0.37738314,0.1752436,0.79210335,0.09327747
-0.069458835,-0.41053617,-0.72553134,0.08811429,0.0067180353,-0.36586744,0.34294957,0.7256117,0.5879926
0.02267903,0.04998182,-0.071638845,0.035819422,0.014746192,-0.31928793,-0.39553684,-0.30004022,-0.41618872
-0.26024696,0.10165473,-0.0137013495,0.36332598,0.038880486,-0.39992288,-0.2149333,-0.32145253,-0.11254997
0.23553135,-0.14529409,-0.1179405,0.48940444,0.35024285,0.04175376,-0.042896245,0.4902516,-0.19512971
0.05175762,-0.46735185,-0.099942945,0.22932895,-0.64578235,0.08021849,0.49948063,-0.050232228,0.3686929
-0.3165306,-0.061143667,-0.0391314,0.078713015,0.1264406,0.059226397,-0.041331455,-0.070928715,-0.16205786
0.32215202,0.5182865,0.4750057,0.12717405,0.3054158,0.21681575,-0.9418536,-0.73531383,-0.23069833
0.17665146,-0.28263733,-0.26572022,-0.50290537,0.07774167,0.35026217,-0.08291607,0.22587062,-0.049256355
-0.5148087,-0.3117179,0.22668439,-0.53415865,0.46870515,0.5502402,-0.05412159,0.37323177,-0.107812636
0.04615616,0.01180846,-0.24156436,-0.049101368,0.09555196,-0.14486696,-0.15058164,0.0026614792,-0.008841244
-0.019862361,-0.4420019,-0.11298421,0.1942086,0.17288792,0.0377552,0.06806267,0.1095189,-0.12745237
-0.04069766,0.18899895,0.12660232,0.48313603,0.18005258,-0.3671121,0.39362535,-0.20987627,-0.6710845
0.100348465,0.6204332,0.80434537,-0.84110636,-0.6786711,0.03241352,-0.05296624,-0.365137,-0.57021064
-0.00917136,0.2179009,-0.30762684,-0.14152247,0.17971647,-0.10908444,-0.2915571,0.17874384,-0.048073303
-0.30777857,0.41901606,0.38043678,0.13055271,0.5289817,-0.24096183,-0.12726437,-0.37957427,-0.75263345
0.028577566,-0.06670544,-0.24082662,-0.11244,0.07819854,-0.022038747,-0.01408587,-0.081502736,-0.09589022
-0.09291359,-0.13204452,-0.6079204,0.4028892,0.35242763,-0.4994168,-0.11138999,0.20978819,0.02799638
0.104534484,0.52712816,0.35920134,0.48945814,0.4090784,-0.18974078,-0.48621222,-0.77709496,-0.71140623
0.12005214,0.023354935,-0.0324934,-0.07290925,0.09291664,-0.015293408,-0.10154052,0.12762423,0.031913757
-0.1656219,-0.23531635,-0.24453957,0.39915586,0.62338173,0.27163064,-0.3348493,-0.17637487,0.12492994
-0.6571511,0.23709284,0.12046493,0.09441565,0.57000756,-0.25111806,0.039963316,-0.04106269,-0.45086774
-0.19030726,0.036193706,-0.22251995,0.13990591,0.0921463,-0.6482828,0.07074197,0.4466003,-0.04665591
-0.62934566,-0.039361037,0.12809071,-0.63199717,0.28742793,0.33899292,-0.7002913,-0.11016537,0.49493933
0.30939564,-0.3046971,-0.07693146,-0.17199309,-0.36101988,0.17868535,-0.097854376,0.30170456,0.2580483
0.06341976,0.07826327,-0.029850127,-0.16234025,0.27903566,-0.19601518,-0.041922804,0.34942448,-0.3637856
0.035743285,-0.09706889,-0.029264865,-0.00019091574,-0.08143781,0.013277646,-0.056870457,0.012508101,-0.08320026
0.079773515,0.1239439,0.06024286,-0.00033791628,0.13245618,0.037968714,0.10211797,0.009720459,-0.03655252
-0.030388528,0.025348123,0.050198186,-0.010325547,-0.008646929,-0.0962594,0.0010367115,-0.052436385,-0.04739104
-0.05769212,-0.14673644,-0.045281164,0.07253836,-0.12454184,-0.18010233,0.025360284,-0.026508423,-0.26407802
-0.07575078,-0.59719855,-0.15259945,-0.014517128,0.18738766,0.23179248,0.07503579,0.36342153,-0.0034212933
0.06697652,-0.103906505,0.035974346,-0.021380818,-0.090558976,-0.0032754603,-0.19211501,0.09686417,-0.086802006
0.09118343,0.04718147,-0.16588804,0.21717142,-0.27406967,-0.4114923,0.09487552,0.2653267,0.34279227
0.058504198,0.08068274,0.0041867546,-0.15803564,0.2708077,-0.12002471,-0.38205135,0.2775784,-0.094456196
-0.040279612,0.09760986,-0.2230317,-0.106581725,-0.027755009,-0.054007165,0.003540202,-0.11298307,0.030096082
0.0062331366,0.027440157,0.009928689,0.013813678,0.17841677,0.070901744,-0.01402918,0.046743557,-0.26623166
-0.0162014,-0.101154074,0.017638305,0.022059325,-0.14115171,-0.09471102,-0.084421344,0.08945242,-0.07906999
-0.019228993,-0.42087367,-0.5189302,0.18677385,0.32629934,0.1988877,0.115933314,-0.19252999,0.1329069
-0.57510465,-0.040005445,0.37149343,-0.64798063,-0.19529885,0.7530506,-0.6428706,-0.39100757,0.5886931
-0.58017623,0.1921549,0.3266319,-0.47511852,0.37668934,0.3549234,-0.528668,-0.011286267,0.17018169
-0.097987674,0.4578264,0.5860499,-0.3593269,-0.27878562,0.7309684,-0.3906725,-0.85202694,-0.014749542
0.13286977,0.4100167,0.2557066,0.1492288,0.39083526,0.45754948,-0.8706638,-0.72147554,-0.115695484
0.18211846,-0.5854293,-0.40215662,-0.9839266,-0.36058375,0.33097395,0.11642988,0.6722315,0.64798826
-0.0064962823,0.51701826,0.75763,-0.7020573,-0.76679116,-0.16408874,0.15915215,-0.31644496,-0.5827498
0.08293359,0.5858019,0.020813495,0.0002740378,0.38680977,-0.7396402,-0.048759863,-0.05038149,-0.4128668
-0.41989166,-0.6311286,-0.03160041,-0.6028302,0.17665447,0.46356258,0.032616943,0.5982676,0.24139076
0.5895996,0.7836798,0.043767978,0.6089036,0.3119878,-0.8883666,-0.016409103,-0.45580485,-0.89584726
0.033874355,-0.02523517,0.046811286,-0.050705876,-0.055209327,-0.06319953,0.06816769,-0.04499528,0.0073949834
0.016874513,-0.7489445,-0.8053715,0.7469005,0.07453621,-0.7722774,0.5420684,0.7184064,0.04446945
0.06205928,0.29132044,-0.65384126,0.46385577,-0.21850516,-0.49145603,0.28141493,-0.14540324,0.10631867
-0.22610347,0.1896671,0.20327339,0.17060754,0.31511337,-0.37028942,0.12495246,-0.035824668,-0.37139717
-0.23101926,0.30418837,-0.23171325,-0.4865223,-0.40008372,-0.5361345,-0.38469326,0.271695,0.38261718
0.15505536,-0.21068779,-0.4475573,0.07091633,-0.5951284,-0.5066573,0.3974506,0.55274326,0.45488623
0.017160138,0.021957422,-0.06278541,-0.11855449,-0.06783644,-0.0200243,0.089536026,-0.0055890596,0.05259554
-0.23182352,0.05604519,-0.036042552,0.14634451,-0.037213728,-0.17658035,-0.14813599,-0.17662933,-0.27799422
0.284064,0.34319705,0.6819054,-0.40557757,0.20259449,-0.10892967,-0.58868307,-0.9232612,-0.7438202
0.17698832,-0.071537554,-0.4076939,0.41546205,-0.13242713,-0.48116955,0.0818612,0.32341623,0.13049865
-0.035210554,-0.49219343,-0.56776595,0.25437966,0.67442024,0.25836018,-0.27683064,0.21808803,0.060134917
-0.12665819,0.14737229,-0.25552246,-0.18526147,0.4017214,-0.2646354,-0.17742664,0.30180654,-0.18598753
-0.16254215,-0.5296088,-0.31245708,-0.4004259,-0.1663163,-0.069441244,0.5364002,0.4081273,0.1896553
0.57729226,0.4495846,0.31301337,0.2077309,0.09956743,-0.15134278,-0.6966319,-0.8171429,-0.33486784
-0.35113323,0.4354702,-0.3563857,-0.20265152,0.12285714,-0.6220226,-0.039346393,0.24979444,-0.14028919
-0.10367288,-0.06500733,-0.21623588,-0.014170948,0.21117266,-0.03148136,-0.40223843,-0.258403,-0.018386573
-0.2260156,0.23535284,-0.30399278,-0.27389812,0.19072002,-0.38563022,-0.14141953,0.075713895,-0.026369423
-0.111980975,0.019566346,0.03323353,-0.043141335,-0.0582771,-0.02222677,0.063064545,0.021830203,-0.08432319
0.020763252,-0.4999309,-0.06711076,0.034133215,0.060824227,0.09805052,-0.34769717,-0.08873907,-0.3669382
0.17725375,0.18666098,0.008486873,-0.13149129,0.2932465,0.34576288,-0.44345,-0.3632433,0.10765254
0.034559067,0.021706948,-0.057208117,-0.13710031,0.06259296,-0.103059374,-0.07338105,0.06269291,-0.07981353
-0.5149437,0.037251092,0.05256282,0.003600468,0.30491263,0.0015791253,0.08016311,0.03609253,-0.61549544
0.08113996,-0.13324864,-0.70106804,0.34019092,0.22346711,-0.6410583,0.18917224,0.37286,-0.075784184
0.67640877,0.32376444,-0.835095,0.51827884,0.035989307,-0.95006025,0.2501169,-0.16799276,-0.8016917
0.1802721,0.40605634,0.38168764,-0.07940415,0.025790274,0.13399704,-0.76226735,-0.6229477,-0.32775283
0.46693087,-0.38156146,-0.10442546,0.4789925,-0.39904228,-0.26549935,0.47079858,-0.46129504,-0.35633856
-0.38878694,-0.35565823,-0.34459957,-0.12921026,-0.015261459,-0.19416,0.3776178,0.37017885,0.29802454
-0.74686074,-0.32203093,0.22953485,-0.40775156,0.757864,0.5558866,0.15354414,0.38586965,-0.35265163
0.07870523,0.48051012,0.7408165,-0.5299353,-0.29761672,0.5302704,-0.30002928,-1.1522505,-0.70479614
-0.15642804,0.18009976,0.2587459,0.30347452,0.30038282,-0.3789519,0.083432354,-0.28175402,-0.48031193
-0.5675094,-0.07608323,0.08638009,-0.12604952,0.18143713,0.5332757,-0.039708678,-0.55307907,-0.45965055
-0.25876054,0.45923087,-0.14578713,0.10280753,0.3754768,-0.040269535,-0.2283465,0.16251436,0.12586968
0.05631288,-0.04025353,0.0837644,-0.026075775,-0.012562095,-0.045601476,0.025650196,0.009753906,-0.08334889
-0.02031035,0.038854614,-0.22974873,0.04322743,-0.14316387,-0.19468631,-0.014888269,0.10726698,-0.1244795
-0.0950419,0.0005765096,0.0066572316,0.051634792,0.110287935,-0.029571816,-0.4096603,-0.059623934,-0.083564155
-0.62212,-0.3855487,-0.33374524,-0.08686379,-0.046943404,-0.05097921,0.39195395,0.44619387,0.329193
0.07497615,0.3290782,0.2037861,-0.53986514,-0.06458497,0.49312866,-0.6499246,-0.28220648,0.43251222
0.31525445,0.33843678,-0.28271225,-0.11002923,0.280168,0.041767113,-0.26434863,0.07219784,0.41165084
0.17491624,0.22483751,0.03460992,-0.12235883,0.29064363,0.3828947,-0.50819606,-0.3900645,0.17549178
-0.09248772,-0.18029256,-0.15956794,0.10477875,-0.005933802,0.09615395,-0.37603813,-0.21619229,-0.1990298
-0.15333219,0.051347576,0.13169758,0.032013964,0.100818045,-0.27948225,-0.06687912,-0.2591915,-0.35792005
-1.2043722,-0.38695556,0.1952819,-0.2546011,0.9018289,0.47731626,0.38588232,0.4971721,-0.6407371
-0.15334085,-0.16464613,0.024386983,0.03305386,0.0563286,-0.033727355,-0.16862209,-0.18056978,-0.27518973
-0.04054625,-0.0085195135,0.010894793,-0.03942823,0.09658545,-0.15789226,-0.055667628,-0.0153565025,0.10638522
0.0015139548,0.08248961,-0.07689402,-0.003442045,-0.07501884,-0.14139923,0.0930489,-0.034554604,0.086721905
-0.009134993,0.013514618,-0.051538642,-0.021987958,-0.027423594,-0.03038528,-0.01989842,-0.03178707,-0.05241066
-0.45649862,-0.057369206,0.18661818,0.27620685,0.5710556,0.348426,-0.02906704,-0.23588473,-0.78373045
0.5910397,-0.045402385,-0.9344386,0.34518427,-1.3026563,-0.043583963,-0.802092,-0.82622635,0.45574486
-0.109088965,0.0015147572,-0.032122593,-0.12523316,0.041806236,-0.0927505,-0.17615017,0.18039706,-0.13093303
-0.019231133,-0.46087375,-0.18803284,-0.37336686,0.05291588,0.4775469,0.31586,0.17743938,0.19608544
-0.68168074,-0.59333605,0.28578985,-0.80860054,0.024767542,0.6727679,-0.78559923,0.054346953,0.5208071
-0.23385231,0.3712068,-0.3240977,0.04919086,0.17483813,-0.44825807,0.052740656,0.26855516,-0.21845412
0.3910336,0.33774173,0.22379367,-0.12568603,0.2179044,0.1401886,-0.32275558,-0.6723398,-0.39459103
0.009115897,-0.11943669,0.38802916,-0.4010744,-0.21709643,0.49181765,-0.5302831,-0.32460243,0.28457537
0.084342085,-0.23836397,-0.098800436,-0.12439984,-0.15089293,0.04817138,0.07629712,-0.09007807,-0.0035226005
-0.13453889,0.32101658,-0.6707678,-0.3852583,0.41490394,0.11051874,-0.01721915,0.16739886,-0.34594744
0.089984305,0.42593572,-0.26803553,-0.34252697,0.37357715,-0.086079314,-0.46600583,0.16074595,0.14834134
0.03930694,-0.009921647,0.04528393,0.017357493,-0.04372466,-0.080688424,-0.042908724,0.043715127,0.0313275
0.002290114,0.19137901,0.6119073,-0.4443954,-0.3111151,0.3981367,-0.5208869,-0.43600234,0.18530571
-0.10426477,0.19054502,-0.1740532,-0.22336878,0.24479264,-0.22364639,-0.05821742,0.14964509,-0.051157605
-0.5189424,-0.42633677,0.2911225,0.051349524,-0.7023468,-1.0802363,0.8105381,0.6629635,0.015173913
-0.13894835,0.024809664,-0.08878547,-0.14860545,0.06566839,-0.011447826,0.016463485,0.034074545,-0.13940386
0.031018266,0.012098197,0.007502506,-0.120018005,0.041518364,-0.06284826,-0.008032836,0.06616537,-0.017269574
-0.28815264,-0.15458311,-0.099754415,0.28152332,0.444178,0.10515951,-0.5513287,0.01021664,-0.19296163
0.53577846,0.4704815,0.27387798,-0.07091172,-0.008625041,-0.45229638,-0.84509987,-0.93159175,-0.5401014
0.29282948,0.12252875,0.042127308,-0.20742646,0.08436246,-0.029607007,-0.18265288,0.18301474,0.19068299
-0.115079455,-0.10736389,-0.0190551,-0.0431921,0.035411816,0.09838715,0.003830603,0.060615566,-0.16257513
0.064801805,-0.35307124,-0.23733701,-0.62842613,-0.023543736,0.32151845,0.24589074,0.3536178,0.082496874
0.26531395,0.23702836,-0.3745559,-0.3228833,0.110541604,0.22023673,-0.81927055,-0.18741329,0.5125313
0.26776192,0.3951507,0.32335678,-0.10304287,0.086025335,0.33342367,-0.6714185,-0.53768545,-0.0028907766
0.2767477,0.037915062,-0.9413962,0.64910054,0.043184683,-0.6971612,0.42316678,0.24815722,-0.22933401
0.7102868,0.4433064,-0.56833136,0.31838143,-1.4163055,-0.4313556,-1.0238973,-0.57551306,0.5580632
0.06611167,0.19779195,-0.47316554,-0.039717987,0.40177506,-0.5059764,-0.083145194,0.51386607,0.0932671
0.030525416,0.17784837,-0.5180236,-0.15748502,0.4580496,-0.20615323,-0.53297806,0.2087634,-0.0050638667
0.05144965,0.02556787,-0.030658623,-0.07263377,0.0106570395,0.027532956,-0.014574694,-0.0539959,0.04119515
0.33991092,0.3240331,-0.74429315,-0.46825507,0.40676695,0.19659065,-0.3988518,0.13301983,0.105652414
0.041410286,-0.027276464,-0.06487175,-0.04394622,0.008512018,0.0544635,-0.021112777,0.070920534,-0.052583277
-0.30615202,0.2028325,-0.07139212,-0.52843446,0.46107396,-0.33348703,-0.14258121,0.31647852,-0.024075802
-0.34832844,-0.47645074,0.26707557,-0.7926237,-0.06944748,0.631536,-0.5721949,0.2445011,0.71128184
-0.16610822,-0.2168438,0.32788825,-0.5324099,0.027360464,0.46686557,-0.66367733,0.1713777,0.20407617
-0.112184644,-0.71685416,-0.77209467,0.46590337,-0.15382408,-0.37501317,0.6962548,0.6967035,0.19230267
-0.020482043,-0.50212854,-0.4167608,0.45502806,0.52079266,0.08909276,-0.1326657,0.04654544,0.22745018
0.1602351,-0.41322914,-0.09017671,0.43722036,-0.4100522,0.1411452,0.3555005,-0.18531835,0.120992005
0.33103025,0.49018937,0.395243,-0.55288,-0.06844085,-0.09951556,-0.62932956,-0.43921328,-0.12063791
-0.03907887,-0.055374917,-0.067251936,0.08353859,0.04936741,0.04886241,-0.15483046,-0.041713513,0.03128534
-0.04550242,-0.093238376,-0.025898505,0.021914717,0.018846659,-0.0074933087,0.10166933,-0.09414975,-0.03107749
0.5347616,0.44969565,-0.5318827,0.6298002,0.21956806,-0.9748369,0.41934964,-0.36462215,-0.90797794
-0.4339414,-0.41757822,-0.0011238423,-0.43841717,0.019211432,0.32541984,-0.07312475,-0.16651224,-0.008423177
0.096559286,-0.3894047,-0.3061465,0.27083635,0.34536934,0.10049298,-0.52974653,0.077084206,0.09377254
-0.010465705,0.3029136,0.12861757,-0.51001924,0.15708116,0.707569,-0.88137376,-0.44218767,0.61174756
0.038629245,0.118490025,-0.18633232,-0.19511029,-0.0057766098,-0.0023227802,-0.068549156,0.0061017484,0.014816483
-0.2796162,0.10962607,-0.05631494,-0.33549565,0.36327,-0.11636525,0.039719943,0.14851429,-0.35918945
-0.14649351,-0.017971339,0.07845909,0.029305493,-0.0028899997,0.0056706215,-0.061389603,-0.07306729,0.094190046
-0.5012724,0.076587655,0.24744217,0.03039751,0.6219532,0.059088513,0.26819682,0.10748854,-0.54233116
0.2573613,0.610546,0.33439133,0.4608617,0.22220585,-0.5377447,-0.24151851,-0.794501,-0.5345628
0.37109336,-0.050738547,-0.76338744,0.5950743,-0.2357516,-0.78492326,0.47718057,-0.13640557,-0.45928195
-0.23020793,0.30907002,-0.30981514,-0.26757467,0.45674595,-0.38503122,-0.39032003,0.32504767,-0.20967676
-0.58192736,0.018835483,0.52709216,-0.65799284,0.023577282,0.41801018,-0.6403097,-0.14953429,0.3172083
0.03338873,0.0069886916,-0.07408104,-0.09510508,0.13786729,0.048597373,-0.24668121,-0.13656816,0.03877563
-0.23418352,0.28373104,0.2648973,0.11513623,0.49494734,-0.25102064,0.29816216,-0.29301292,-0.6453271
0.028966244,-0.054921415,-0.09338795,0.036252774,-0.01777358,0.04507055,0.005477312,0.0038760647,0.01609819
0.03736434,-0.0032391548,0.018543225,-0.033076625,0.045716327,0.014424596,-0.03850818,0.0013208372,0.02193514
0.12517536,0.03752597,0.11009619,0.14005224,0.4203738,0.41422978,-0.5940126,-0.62810487,-0.53316766
-0.33187845,-0.6430891,-0.69405013,-0.1365334,-0.083308466,0.012941036,0.3236453,0.5731826,0.44753215
0.074591234,-0.5343656,-0.6382976,-0.20733233,-0.33169553,0.01587513,0.42817998,0.65452373,0.5897553
0.01639331,0.0018620858,-0.6311065,-0.00818348,-0.4220949,-0.83439475,0.4719072,0.7915195,0.36475855
-0.12959926,-0.5666623,-0.20216419,-0.7204628,0.1433852,0.5263566,0.2707097,0.5913006,0.064024925
-0.10709508,-0.14668939,0.023912556,0.051286444,0.054509684,0.003923975,0.017147113,-0.022473866,-0.09219554
-0.0555951,0.23268484,-0.21272331,-0.09922462,0.437932,-0.4468812,-0.2222818,0.49590507,-0.24744715
0.008349173,-0.4346627,-0.4257985,-0.362154,-0.067529075,0.48204786,0.23951659,0.160187,-0.2808965
0.32242724,0.2328297,-0.2906815,-0.08371746,0.25040483,0.021834567,-0.18586923,0.21801198,0.19256127
0.07632221,0.025842082,0.057453524,-0.035093725,0.019954631,-0.023850873,0.048589054,0.0038052364,0.06248692
-0.5158546,0.03196968,0.2604797,0.5713099,0.55481833,0.016034119,0.11261088,-0.51577437,-0.44178757
-0.32162392,-0.11768663,-0.54783964,0.3274834,0.5394377,0.2744109,-0.24077798,-0.6137441,0.24478944
0.3648028,-0.3924512,-0.23178735,0.017631944,0.013522844,0.18177022,-0.1714083,0.21646664,0.043959364
-0.7030239,-0.077959396,0.2779482,0.3714145,0.31782994,0.26723135,0.12698345,-0.24975035,-0.5650433
0.19300939,0.4843599,0.6470388,0.057427008,0.087665886,0.049428243,-0.944695,-1.031687,-0.9344636
0.68279654,-0.12748122,-0.8846444,-0.27716908,-1.5485822,-0.015122888,-0.96284676,0.029083265,0.7875125
-0.058401033,0.0037186574,-0.08000877,0.008452598,-0.027872942,-0.29068708,-0.08191295,0.14284001,0.031458944
-0.25393936,-0.3588789,-0.045458563,-0.3102613,0.05336186,0.2938706,0.10710474,0.285651,0.06368288
-0.44690523,0.5329339,0.6589739,-1.1542745,-1.2606298,-0.1330227,0.4827336,-0.13462575,-0.43053582
0.36780292,0.3570927,0.697761,-0.011892407,0.09880704,0.044589944,-0.48211932,-0.8294517,-0.45690912
0.15484944,0.100250125,-0.43762305,-0.023840273,0.43739176,0.4218633,-0.44766197,-0.30916056,0.1443045
0.18951756,-0.20272256,-0.51051635,0.35530192,0.30912593,-0.12936561,-0.15567964,0.24184485,0.21733111
0.10821547,-0.40192473,-0.42906532,0.64219725,-0.064812906,-0.57121104,0.20936994,0.42944115,0.30347046
-0.0071862363,0.03727735,-0.06491255,-0.088248394,0.03258168,0.018183114,-0.16287497,-0.01661695,0.037286513
0.06235695,0.050608188,-0.2562534,-0.12742458,0.0575876,-0.40447327,-0.42302597,0.4221621,0.009635956
0.3478264,-0.2948062,-0.01451342,-0.5453926,-0.02053573,0.14736828,-0.07920701,0.056512713,0.25907916
-0.40083417,-0.2573391,0.03682472,0.20391484,0.14953955,0.26750502,-0.080528624,-0.17733239,-0.15543364
0.23921077,0.2102903,-0.42223796,0.35381195,-0.08484114,-0.77673787,0.22768302,-0.1003151,-0.33726493
0.17900963,0.13486731,-0.1084857,-1.07337,-0.69403046,-0.087130174,0.7534115,0.52664375,0.13924795
-0.085973315,-0.16893335,-0.05364348,-0.07269125,-0.13284516,0.053546857,0.0277995,0.03499905,0.057631504
0.020092163,-0.072976,-0.13878812,0.030777967,0.020669773,0.05152359,0.03487189,-0.047710326,-0.15222573
0.014590146,0.033814177,-0.12025476,-0.0062313774,0.056103904,-0.09315134,0.002007421,0.03239712,-0.07286632
-0.029772514,0.035522975,0.054543037,-0.09542121,0.03763117,-0.1661216,0.020550719,0.048187695,-0.06473646
0.22465894,0.14923842,0.4850776,-0.07821463,0.16975243,0.10831987,-0.26194623,-0.7121874,-0.6127158
-1.0611974,-0.13022082,0.70635194,-0.98595625,0.06981977,0.71325344,-0.8739659,-0.109558485,0.55499387
0.1907904,-0.33673292,-0.56289804,0.3862838,0.7858096,0.35812017,-0.45152667,-0.15915905,-0.05762755
-0.030361535,-0.16306672,0.011031725,0.01715961,0.054419346,0.02153805,0.030225065,-0.090893075,0.057095975
0.06546595,0.21613227,0.11366117,0.19937226,0.45785362,-0.30981672,0.3230744,-0.004725247,-0.9384878
0.087265305,0.40841976,0.17713183,0.17549235,-0.1993562,-0.577642,0.036808603,-0.15509021,0.07266429
0.030189306,-0.031777747,0.06635156,-0.014017589,-0.06336408,-0.011198616,0.034074057,0.028647974,-0.07604076
0.105509594,-0.45337984,-0.23025213,0.1941588,-0.090037026,0.31970328,0.13721107,0.022084547,0.22117329
-0.07815861,-0.09951509,-0.37199083,0.11719774,0.2970951,0.08927562,-0.6237981,-0.3291085,-0.009050401
-0.13802402,-0.6000017,-0.26454943,0.3852611,0.10608412,-0.067437515,0.043857664,-0.1288691,0.18922096
-0.048885822,0.1393538,0.7702438,-0.34364295,-0.630792,-0.036290456,0.30315086,-0.43484312,-0.622939
-0.017097652,-0.4517647,-0.29883605,-0.5195172,-0.1975464,0.08968899,0.33908653,0.50671977,0.42741168
-0.15176027,0.1456728,-0.27985045,-0.17444883,0.11298019,-0.019758599,-0.33883822,-0.0389565,0.030491263
0.20222312,-0.4505482,-0.7874861,0.5151452,0.53358567,-0.59093404,0.19441238,0.54442567,0.12463904
0.0047242884,-0.087842844,0.030262489,0.015996296,-0.010277677,-0.0029458962,0.06006937,-0.023423608,0.008415557
0.2627397,-0.044376496,-0.08849367,0.2943316,0.11318566,-0.4031467,0.4243111,-0.002464813,-0.7401581
-0.56404424,-0.45433825,-0.30807355,-0.12685435,0.12687752,0.281801,0.59403247,0.26358452,-0.024858445
0.29680943,0.401265,-0.7405397,-0.27305663,0.39364254,0.11197348,-0.36519536,0.086561196,0.13520424
0.1295349,0.3243511,0.7601701,-0.44421932,-0.13719532,0.4656256,-0.800442,-0.7241388,-0.03770099
0.42987254,0.37217867,0.5325197,0.14932647,0.2286267,-0.050976574,-0.7056825,-0.91306585,-0.36613268
-0.14441465,-0.02992953,0.07992144,0.009705251,0.08350746,-0.0537274,-0.024878243,-0.019079288,-0.06571522
0.048239384,0.00928999,-0.25611335,-0.123869516,0.06517586,0.017551105,-0.15867265,0.106604144,-0.008358846
0.18860026,-1.0876842,-0.37761873,-1.2174922,-0.6607075,0.5696117,-1.0295982,0.12381645,0.6790236
-0.106888905,-0.4351668,-0.75124115,0.6657423,0.34909496,-0.81091243,0.37333182,0.6528398,-0.09234886
-0.14241041,-0.1601896,0.084309146,-0.08745118,0.14797904,-0.07525673,0.08925806,-0.17370915,-0.1749801
-0.28671402,-0.1569908,0.16390604,0.005933419,0.3822356,0.24345846,0.06096106,-0.20390916,-0.7364962
-0.20625322,-0.11544689,0.07757441,-0.21068157,0.12410582,-0.0512976,0.040901296,0.059822448,-0.23669614
-0.57944745,0.265537,0.07586527,0.098495156,0.84023786,-0.24328086,0.12582526,0.043209076,-0.64251584
-0.3395384,-0.2612173,-0.007174918,0.05348297,-0.02168457,0.11611089,-0.04493748,0.03880083,-0.22142825
-0.6601234,0.12225953,0.4428399,0.52617973,0.94534284,0.26942372,0.28885573,-0.43507588,-1.1136642
-0.31039852,-0.4339713,-0.1484628,-0.1960261,0.20909262,0.35748142,0.38605827,0.38811126,-0.1725647
0.5263138,0.15146698,-0.2973172,0.6650616,0.096872695,-0.77751553,0.33368814,-0.24536337,-0.9874296
-0.044693198,-0.66217506,-0.7234926,0.2946377,-0.18224886,-0.26552877,0.8581349,0.78012425,0.12124666
-0.10550211,-0.21211997,0.06325882,0.020074947,0.0858831,-0.0050904844,0.029104615,-0.13403165,-0.11730318
0.10453392,0.021468429,0.15857917,0.012919069,0.045582253,0.041925322,0.06656097,0.11380744,0.10211282
-0.3310246,0.02120708,0.038709003,-0.12722851,0.14965908,-0.072663754,-0.16235009,0.07088136,-0.03422445
0.5982429,0.2354991,-0.6161717,0.56345654,-0.5044587,-0.83579177,-0.08022387,-1.25248,0.15135649
-0.09815675,-0.06577415,0.039081648,0.045271277,0.04225703,-0.03472735,0.010816989,-0.15970175,-0.09407
-0.23113158,-0.50943327,-0.090452656,0.44427204,0.26535472,0.28388837,0.045325402,-0.18476264,0.10131787
-0.42260268,-0.4467938,0.03176163,-0.87543863,0.19268852,0.692152,0.13793883,0.727169,0.2317578
0.04293228,-0.00044537216,-0.056105457,0.01503741,-0.045944985,0.1583954,-0.19303997,-0.17450671,-0.09320713
-0.55725795,-0.40213782,-0.12382995,-0.27490014,0.122368276,0.085953884,0.6305142,0.28512546,-0.325147
-0.53682005,-0.20456603,0.06110378,-0.020276528,0.5531685,0.19562535,0.028500352,0.013745342,-0.57228774
-0.03036374,0.19984493,-0.44883883,-0.2817247,0.38301355,-0.105137885,-0.30205,0.30878097,0.024790104
-0.37412527,-0.06857345,-0.0060207415,-0.26191074,0.112085804,0.18601581,-0.21182504,0.25928083,-0.19864705
0.021395652,-0.055636056,-0.0028722195,-0.1265256,0.05779553,-0.018448748,-0.06959664,-0.03481983,0.06364141
-0.033828404,0.010999233,0.069477506,0.021226717,0.020844337,-0.07730062,0.0045739417,-0.03877828,-0.11799968
0.028990071,0.025790991,-0.00012578198,-0.14051375,-0.11478368,-0.1559917,0.0815043,-0.086491175,-0.075359404
0.21329355,0.1431354,0.007819328,-0.1764368,0.16618562,0.29130238,-0.46341094,-0.27234223,0.2962516
0.46535215,0.38563424,0.4611238,0.14167899,0.23749825,-0.20811382,-0.8401586,-0.9872606,-0.6100857
-0.6302069,0.28928733,-0.06660701,-0.08343543,0.75043476,-0.47697344,-0.08102799,0.39564684,-0.16641314
-0.009871077,0.2910425,-0.44612402,0.054290365,0.47023627,-0.3310054,-0.5002692,0.4953374,0.17669663
0.02243273,0.021128576,0.044395603,-0.045050453,-0.107728854,-0.17034636,0.009654873,0.08419806,-0.03463069
-0.08682415,-0.073356345,-0.07759524,-0.014976999,0.027972449,0.13863808,0.06794425,-0.093824275,-0.110207066
-0.031916477,0.03578567,-0.22761576,0.08693559,0.046165492,-0.040487915,-0.04393393,-0.0071084467,0.18460673
-0.398077,-0.24209206,0.15608045,-0.6163897,0.27311352,0.60432285,-0.15861054,0.45771924,0.06612517
0.24881244,0.5824265,0.8085141,-0.18589924,-0.019598486,0.40807885,-0.8641825,-0.96785337,-0.347746
0.047597885,0.7883987,-0.4808952,0.11953804,0.43216822,-1.066835,-0.33081716,-1.0600902,-0.39971507
0.016210698,-0.3843232,-0.25435266,0.12223526,0.03403384,-0.15551859,-0.083363146,0.09979562,0.11667734
-0.8959278,0.20174636,0.19089729,-0.49331507,-0.087893,0.372889,-0.2985887,0.18208715,0.28498173
-0.120433144,0.21718985,-0.15845077,-0.44070673,0.47968593,0.49691588,-1.0396693,-0.2209629,0.03603629
-0.97503406,-0.56646633,0.095560804,-0.9345084,0.008812265,0.7394766,-0.31623235,0.5463394,0.9071156
-0.31439757,-0.17199318,0.24629998,-0.42562398,-0.42841727,0.2789347,-0.24478513,-0.5309405,-0.16752148
0.0077825054,0.26574597,-0.2935907,0.11817585,0.21343806,-0.34906068,-0.075092785,0.37957996,0.044446602
0.14944196,0.15950684,-0.28790835,0.20157032,0.15104918,-0.7894385,0.2817558,-0.004761478,-0.48426476
0.63178754,0.25434127,-0.58189374,0.30600417,0.046935897,-0.7964889,-0.41432273,-1.0581192,-0.35656682
0.061040234,0.1228183,0.4432625,-0.18929319,-1.334291,-0.2757947,0.7090829,0.13405064,0.15593527
0.0054952987,0.046318825,-0.04017874,0.042621605,-0.06589176,-0.0053921733,0.009567875,-0.0013203961,0.0331537
0.073681556,0.033902694,-0.06869231,-0.061413184,-0.11447217,-0.013456045,-0.011071677,0.005481697,0.008743877
0.16585034,0.20887937,-0.4298503,-0.16956052,0.2993194,0.064940654,-0.18868119,-0.065046474,0.10365923
0.041197248,0.017056387,-0.07264853,-0.18401712,-0.023765368,0.036979638,-0.21658364,-0.079498924,0.03815611
0.12243478,-0.08727651,0.1055453,-0.087649144,0.27059215,0.37042743,-0.30014977,-0.48197746,-0.36705866
0.06816031,-0.018784942,0.11628428,0.004905528,0.036798086,-0.11215433,-0.16266012,0.14023754,-0.21257071
0.09429364,-0.23502454,-0.43654254,0.15595582,0.3758636,-0.19471468,-0.66982085,0.2658768,0.05539825
-1.114714,-0.474711,-0.3570705,-0.045864947,0.25691494,0.2899323,0.36382368,0.8241509,-0.006549749
0.5805489,-0.16362874,-0.97656775,0.5643708,0.25743404,-0.8678363,0.34734207,0.21179348,-0.7166428
-0.2279017,0.07224457,-0.24436522,0.068281494,0.022731142,-0.16734113,-0.14009245,-0.1431211,-0.15199764
0.56536025,0.67882526,0.14110018,-0.030974887,-0.0028152566,-0.5519035,-0.6871344,-1.0186863,-0.7594486
-0.06366901,0.19598518,0.61999595,0.2817901,0.4354303,-0.015119096,-0.09206233,-0.65997356,-0.7563928
-0.57395,0.08549363,0.339918,0.3624213,0.79428643,0.056819074,0.41035005,-0.062600985,-1.0136317
0.29191265,0.44252017,-0.0393331,0.41390386,0.3133156,-0.51969725,0.0743519,-0.5187195,-0.60753626
-0.2794326,0.39621115,0.8754433,-0.8777382,-0.66876847,0.19321623,0.039092533,-0.89831364,-0.7228365
0.0095697455,0.09329741,-0.0468819,0.26364627,0.07154733,-0.5361973,-0.09042299,-0.46008718,-0.5899723
-0.36203983,-0.36296454,-0.33134407,-0.18995881,-0.017256053,0.18162668,-0.057214476,0.0035412095,-0.34245852
-0.04256727,-0.016160259,-0.55378973,-0.1284452,-0.080700085,0.049225263,0.2693066,-0.10068942,-0.032584056
0.055834174,0.041331597,0.0026270621,0.023883784,0.029524863,-0.06799459,-0.008176723,0.1095438,0.06684185
-0.83569026,-0.49102962,-0.051040754,-0.23937617,0.5422488,0.5137542,0.24245705,0.49058518,-0.12961718
-0.006238574,0.46866778,0.82967615,-0.3253516,-0.20361584,0.5852589,-0.77065694,-0.6732666,0.12989879
0.15368856,0.51308846,0.49951968,-0.30126056,0.05935163,0.15528147,-0.6653194,-0.54701763,-0.32917592
-0.6233439,-0.08231926,0.29888147,0.07786195,0.6759686,0.34783947,0.23633389,0.06576693,-0.6692607
0.06017199,-0.050650474,-0.009314132,-0.0782669,-0.0004966651,-0.055551168,-0.23286845,0.15455994,-0.10683309
-0.14823179,0.024639554,0.03563436,0.03087724,0.05202322,0.0030174132,-0.0357881,0.038154915,-0.027667599
0.12839466,0.56283927,0.6387459,-0.33796707,-0.105248794,0.32043865,-0.6652854,-0.54196596,0.025015796
0.0036078307,0.059396584,-0.61350095,0.17721377,0.6182157,0.076493554,-0.44610363,0.16829509,0.29406753
-0.2218747,-0.02352268,0.08826215,0.06987438,0.045384776,-0.116904505,-0.22057423,-0.42994985,-0.42216018
-0.40270737,-0.9012188,-0.48424584,0.17475732,-0.22358595,-0.24989158,0.7587003,0.5748871,0.31323317
-0.20005167,0.0062911874,0.13036823,0.1216461,0.13273913,-0.12510371,-0.06233926,-0.44965053,-0.43674284
-0.21529342,0.3167778,-0.49472493,-0.17438798,0.18655892,-0.21780235,0.028742975,0.10070585,0.079359286
0.04267707,0.057793412,0.009126462,-0.033231314,-0.052997366,0.01338327,0.027049953,0.03289427,-0.029996319
0.17938538,-0.84431845,-0.59967715,-0.28169867,-0.7011654,0.37929794,-1.2351371,0.021174977,0.60266465
-0.009717895,0.13684784,-0.66591966,0.045760304,-0.074406244,0.20866121,-0.15073764,0.2644243,0.05625437
0.40279368,0.6549371,-0.040012654,-0.2644792,-1.4415547,-0.92362356,-0.2765618,0.2555794,0.6949338
0.3911049,0.35762048,0.38493133,0.116166525,0.13158478,-0.18993537,-0.6034521,-0.6598966,-0.27725905
0.0059626214,-0.28811154,-0.103351496,-0.032862175,0.02696783,-0.029657576,-0.112759374,-0.17337534,-0.20848916
0.0046770107,-0.033777244,-0.08737055,0.0044992995,-0.025354605,-0.07949617,-0.00010674873,0.10148532,-0.04046209
-0.3145894,-0.16127786,0.052056517,0.18224753,-0.21387975,0.31667063,-0.14093803,-0.6016354,0.10808545
-0.13726108,0.38476095,-0.22262086,-0.23312803,0.328708,0.04578519,-0.2643783,0.22114497,0.08907611
0.29006207,0.44890034,0.39750975,-0.10447492,0.07696369,-6.0558254e-05,-0.2816549,-0.6616768,-0.44164082
0.091851234,0.07082746,-0.3849774,-0.25074783,0.30037194,-0.40725878,-0.5012469,0.45019394,-0.20881796
-0.06032199,-0.04205417,0.080000676,0.16611151,-0.27135324,-0.7237507,0.15476887,-0.2106866,-0.13723542
0.3545532,-0.25879326,-0.29385856,0.37940237,-0.40490118,-0.37329936,0.4661503,-0.18387948,0.38188538
-0.30819842,-0.35692912,-0.3820328,0.11802737,0.057879355,0.40955898,-0.00414139,-0.034471482,-0.32355025
-0.056682374,0.063627854,-0.14238037,0.11394709,0.0018618645,0.07501467,-0.10086653,-0.15338236,0.026840014
0.053261798,0.025156775,0.0045796023,-0.008360757,0.04924994,0.042523786,0.0056242417,0.012402576,0.01097413
-0.054809727,0.027642433,-0.083276376,0.018509312,0.086478,0.07878774,-0.0267652,-0.026609141,-0.031985957
-0.57645124,-0.091140576,-0.025310753,0.15443784,0.51205677,-0.010988211,0.037337955,0.16638006,-0.47372428
0.15349866,0.2861835,-0.7032676,-0.0579568,0.28482008,-0.080273345,-0.50562626,0.18590388,0.065777786
0.16511336,-0.029414995,-0.35064563,-0.08455874,0.2795991,0.372253,-0.19952017,-0.32144108,-0.042483717
-0.04993777,0.19713227,-0.6236782,0.41043228,0.24598195,-0.89132845,0.5476429,0.3523851,-0.17865564
-0.14817423,0.45615444,0.32442713,0.23622666,0.3430593,-0.2200005,-0.008896304,-0.48893914,-0.5171742
0.6564109,0.014873224,-0.8221184,0.69904906,0.11747054,-1.0078362,0.383884,-0.22824474,-1.0068005
-0.10196843,-0.89762485,-0.9595721,0.07565133,-0.025679307,-0.15906183,0.7373457,0.7071728,0.5167504
-0.18049374,-0.17722547,0.13568471,-0.14356592,0.1394538,-0.14375779,-0.004007078,0.010475848,-0.30252594
-0.020002978,-0.0019391988,-0.058430716,0.11606996,-0.10530801,-0.12247181,-0.06416852,0.05835658,0.03605693
0.5043734,0.57492757,0.2975662,-0.0053324294,-0.24860094,-0.30858496,-0.5950869,-0.4960799,0.17439865
0.014614383,-0.01591881,0.015031709,-0.05135925,-0.08567013,0.021899067,-0.04512346,-0.10006128,0.007551343
0.031046027,0.07297864,-0.9846744,0.32254428,0.6475365,-0.205778,0.049952794,0.06442844,0.16476151
0.7767192,0.6569189,-0.011230849,0.7184615,-0.021817327,-0.8789308,0.24028146,-0.7634117,-0.7366357
-0.036800306,-0.38175127,-0.44130147,0.102346726,0.40645123,0.25067195,-0.083157994,-0.21669292,0.089056656
-0.060473558,-0.4661657,-1.0877122,0.51491237,0.3658935,-0.3913115,0.28406262,0.76440126,0.3858417
-0.5142598,0.0005964284,0.25173822,0.11430439,0.66603017,0.2392231,0.2740918,0.046335988,-0.6492511
-0.8635143,-0.07684263,0.52606183,-0.81110954,0.025105106,0.50046164,-0.8816021,-0.20285708,0.5345034
-0.64871234,0.131215,-0.054916836,-0.05073995,0.75812984,0.19240288,0.2596596,0.36637536,-0.44039884
0.6529805,0.5595179,-0.14490259,-0.10974445,-1.244049,-0.70494246,-0.37962952,0.05233158,0.83719516
0.6180743,0.6085104,0.26985282,0.016318474,0.027636096,-0.36078188,-0.82601327,-0.8539058,-0.5409587
0.28509095,0.36064333,0.29370052,-0.084755905,0.39747134,0.33457866,-0.82065624,-0.64501023,-0.010687971
0.4974568,0.33591533,-0.024026543,0.066318505,0.10869295,0.13860187,-0.64244187,-0.5228557,-0.26130992
0.060152225,0.77453065,0.80382043,-0.56610024,-0.008275247,0.6929035,-0.8996643,-0.7885918,-0.15749893
0.3568449,0.30368274,0.7051754,-0.22745577,0.2968125,-0.0107252635,-1.0621372,-0.7677018,-0.72515094
-0.05226431,-0.08158126,-0.021993808,-0.09696593,-0.07101833,-0.085569985,-0.008439146,-0.07185109,-0.024439752
0.1338941,0.4622499,-0.09367031,-0.33764544,0.5107459,0.44275895,-0.65087175,-0.20075522,0.43435982
0.017912129,-0.34970835,-0.30818865,0.27545497,0.51586336,0.48723996,-0.15805395,-0.35249,0.257702
-0.017789599,-0.032685198,-0.37059996,0.111095145,0.06662253,-0.05826649,-0.1984947,-0.0635532,-0.05184954
-0.4394055,-0.57182163,-0.25805572,-0.35764274,-0.051606312,0.06696397,0.35488433,0.45799097,0.44031718
-0.12575938,0.100626625,0.015824014,-0.076045826,-0.029795049,-0.009439814,-0.028372368,-0.054065075,0.032791387
0.7691772,0.11509502,-0.8255559,0.07289626,-1.5311521,0.05196203,-0.9053373,0.11023892,0.7450137
-0.2165247,0.16363147,-0.20097929,-0.014547612,0.45765206,-0.058868513,0.046039093,0.026395587,-0.43753785
-0.89609843,-0.16335025,0.4087759,-0.27806208,0.27861646,0.6387931,-0.09027245,0.173082,0.29961354
0.05045532,-0.45013732,-0.25413916,-0.25884244,0.13511524,0.4027538,-0.08006376,0.09512469,-0.19601654
-0.167018,-0.0027324033,0.03498437,-0.023882143,-0.037872106,0.041027747,-0.16314548,0.077036284,-0.10917718
0.13051623,-0.16911207,-0.13377564,0.025520714,0.11696042,0.09182257,-0.1133184,-0.09323117,0.058208235
-0.42363566,-0.22499135,0.113534175,0.24006325,0.14985286,-0.21619605,-0.15518929,-0.008513141,-0.21202181
-0.048183285,0.04192132,-0.041060466,0.04891274,0.011601142,0.02488307,-0.030861383,-0.08404175,0.02181308
-0.38200605,-0.1436512,0.038534366,0.23044662,0.47637755,-0.07959003,-0.06177442,0.29405165,-0.2846023
-0.391423,-0.71057177,-0.039352305,-0.9820796,-0.12807919,0.45102158,-0.42319107,0.62394035,0.76581
0.026944894,-0.053666938,0.02972541,-0.031933617,0.06167547,0.03639059,0.034790754,-0.11058696,-0.034951426
-0.30676,-0.7252194,-0.2484553,0.03389855,0.14310943,0.23070292,0.45904997,0.40362605,-0.0044469126
-0.0884528,-0.0023335011,-0.6943156,0.16314961,0.41914988,-0.43637386,0.092281215,0.3885986,-0.0061158966
-0.44302037,0.071007155,0.19883306,0.18029374,0.29823077,-0.10540893,0.18532716,0.018816281,-0.51838213
0.015612156,0.33295527,0.2841291,0.06524985,0.16068211,0.37621278,-0.5095201,-0.54521906,-0.2026517
0.05016082,0.16726208,0.04791311,-0.0046000914,0.514389,0.32527715,-0.63326174,-0.2599673,0.35396323
-0.20975886,-0.20035885,-0.06859602,0.35544714,0.5793552,0.5872935,-0.23097908,-0.2086637,-0.5130785
0.4876776,0.095889956,-0.41326472,0.6986237,0.16296884,-0.8922148,0.6727465,-0.07100011,-0.77507824
-0.35216874,-0.46987972,0.05002882,-0.83299935,-0.029717084,0.56694144,-0.9618809,0.26412314,0.5880459
0.021340925,0.19071232,-0.3548545,-0.14805852,0.58636355,-0.2223327,-0.34877127,0.35485703,-0.19847314
-0.009168562,0.3903837,0.5786157,0.3974174,0.5122938,-0.105909295,-0.17588134,-0.8446269,-0.71967113
0.032719277,0.0591839,-0.0291889,-0.13176727,-0.03170841,-0.016829459,-0.055412002,0.023818562,-0.056981653
0.21913469,0.17518342,0.023427859,0.050741598,0.10807297,0.09244242,-0.02321568,0.2812996,0.10369912
0.04076972,0.36318246,0.0097579155,-0.028318295,0.16544573,-0.45428902,0.29548198,-0.048275262,-0.5815907
-0.047894347,-0.18367708,0.07565672,-0.11067946,-0.18526784,-0.17178588,0.09117256,-0.033716027,0.06977229
0.17073229,0.21512131,0.15880905,0.09243021,0.14048828,-0.12220026,-0.24913064,-0.65087426,-0.5997297
0.022401992,0.10197099,-0.084841296,-0.04952141,0.04392657,-0.046299376,-0.02815694,0.06597539,0.04536826
0.084747046,0.035339955,0.023726271,0.014988505,0.03538645,0.021978008,0.022410981,0.1483953,-0.102903426
-0.0070606694,-0.05363761,0.08531898,-0.022002365,0.048264325,-0.15301546,0.071760625,0.07704152,-0.2760441
0.27474666,0.19871818,-0.24843097,0.091106765,0.24023697,0.111271836,-0.10705933,0.29254785,0.11959255
-0.0438766,0.5084908,0.7404883,-0.8690027,-0.40867355,0.47426444,-0.053728785,-1.0399382,-0.76979774
-0.04576841,-0.47716096,-0.416567,0.02227497,-1.1149473,0.04680036,-0.0053331573,-0.5772782,-0.17017709
0.069276914,0.2472748,0.13051297,-0.13577132,0.27471215,-0.25131464,-0.023562321,0.2642883,-0.58875936
-0.23530465,-0.9018506,-0.67777663,0.6133462,-0.071769215,-0.70632136,0.700693,0.9161484,0.20830978
0.7172383,0.07848461,-0.8179253,0.94751096,-0.13115974,-0.7741056,0.6479652,0.17768669,-0.3595244
-0.24206288,-0.6993004,-0.42884022,0.18317136,-0.24209121,-0.2827737,0.36086544,0.71707517,0.41944495
0.09791321,0.3610362,0.62922215,0.026445605,0.22686988,0.339355,-0.42124063,-0.87109053,-0.4461926
-0.32727042,-0.73039293,-0.16784191,0.41916093,0.049654353,-0.045710064,0.17940196,0.39314404,-0.11431495
0.013526337,-0.00023813662,0.0014690586,0.0117430575,-0.14663148,-0.110819675,-0.14282563,0.07474259,-0.017443225
0.21292968,-0.46858013,0.08723065,0.004981005,-0.09064568,0.18381862,0.22749329,0.022708187,-0.08144497
-0.024568288,-0.3346516,-0.57320946,0.020228466,-0.19274437,-0.37238657,0.34139293,0.6109066,0.5392573
